{
  "version": 1,
  "createdAt": 1762611113602,
  "backend": "webgl",
  "config": {
    "inputSize": 19,
    "outputSize": 16,
    "hiddenLayers": [
      56
    ],
    "activation": "relu",
    "outputActivation": "tanh",
    "backend": "webgl",
    "seed": 1674404348
  },
  "metadata": {
    "label": "14",
    "notes": "",
    "correlations": [
      {
        "id": "rms-deltaposx",
        "featureKey": "bandBass",
        "targetId": "deltaPosX",
        "targetIndex": 0,
        "axis": "x",
        "group": "deltaPos",
        "featureIndex": 4,
        "strength": 0.65,
        "polarity": "direct"
      },
      {
        "id": "tempoproxy-rotationspeed",
        "featureKey": "tempoProxy",
        "targetId": "rotationSpeed",
        "targetIndex": 9,
        "axis": null,
        "group": "rotationSpeed",
        "featureIndex": 10,
        "strength": 0.65,
        "polarity": "direct"
      },
      {
        "id": "bandbass-wobblestrength",
        "featureKey": "bandBass",
        "targetId": "wobbleStrength",
        "targetIndex": 10,
        "axis": null,
        "group": "wobbleStrength",
        "featureIndex": 4,
        "strength": 0.6,
        "polarity": "direct"
      },
      {
        "id": "bandhigh-wobblefrequency",
        "featureKey": "bandHigh",
        "targetId": "wobbleFrequency",
        "targetIndex": 11,
        "axis": null,
        "group": "wobbleFrequency",
        "featureIndex": 7,
        "strength": 0.6,
        "polarity": "direct"
      },
      {
        "id": "speccentroid-colormix",
        "featureKey": "specCentroid",
        "targetId": "colorMix",
        "targetIndex": 12,
        "axis": null,
        "group": "colorMix",
        "featureIndex": 1,
        "strength": 0.55,
        "polarity": "direct"
      },
      {
        "id": "rms-alphascale",
        "featureKey": "rms",
        "targetId": "alphaScale",
        "targetIndex": 13,
        "axis": null,
        "group": "alphaScale",
        "featureIndex": 0,
        "strength": 0.5,
        "polarity": "direct"
      },
      {
        "id": "peak-pointscale",
        "featureKey": "peak",
        "targetId": "pointScale",
        "targetIndex": 14,
        "axis": null,
        "group": "pointScale",
        "featureIndex": 8,
        "strength": 0.55,
        "polarity": "direct"
      },
      {
        "id": "bandlowmid-camerazoom",
        "featureKey": "bandLowMid",
        "targetId": "cameraZoom",
        "targetIndex": 15,
        "axis": null,
        "group": "cameraZoom",
        "featureIndex": 5,
        "strength": 0.6,
        "polarity": "direct"
      },
      {
        "id": "peak-flickerdepth",
        "featureKey": "bandBass",
        "targetId": "pointScale",
        "targetIndex": 14,
        "axis": null,
        "group": "pointScale",
        "featureIndex": 4,
        "strength": 0.65,
        "polarity": "direct"
      },
      {
        "id": "zerocrossrate-rotationspeed",
        "featureKey": "bandBass",
        "targetId": "alphaScale",
        "targetIndex": 13,
        "axis": null,
        "group": "alphaScale",
        "featureIndex": 4,
        "strength": 0.65,
        "polarity": "direct"
      },
      {
        "id": "tempoproxy-wobblestrength",
        "featureKey": "bandBass",
        "targetId": "sizeDelta",
        "targetIndex": 3,
        "axis": null,
        "group": "size",
        "featureIndex": 4,
        "strength": 0.65,
        "polarity": "direct"
      },
      {
        "id": "rms-wobblefrequency",
        "featureKey": "bandBass",
        "targetId": "colorMix",
        "targetIndex": 12,
        "axis": null,
        "group": "colorMix",
        "featureIndex": 4,
        "strength": 0.65,
        "polarity": "direct"
      }
    ],
    "training": {
      "status": "completed",
      "epoch": 100,
      "epochs": 100,
      "loss": 0.0006258537177927792,
      "best": null,
      "metadata": {
        "status": "completed",
        "epochs": 100,
        "loss": 0.0006258537177927792,
        "sampleCount": 2048,
        "batchSize": 64,
        "learningRate": 0.0015,
        "noise": 0.04,
        "seed": 1762563234828,
        "createdAt": 1762611035547,
        "correlations": [
          {
            "id": "rms-deltaposx",
            "featureKey": "bandBass",
            "targetId": "deltaPosX",
            "strength": 0.65,
            "polarity": "direct",
            "achieved": 0.9991209119033556
          },
          {
            "id": "tempoproxy-rotationspeed",
            "featureKey": "tempoProxy",
            "targetId": "rotationSpeed",
            "strength": 0.65,
            "polarity": "direct",
            "achieved": 0.9991737764164295
          },
          {
            "id": "bandbass-wobblestrength",
            "featureKey": "bandBass",
            "targetId": "wobbleStrength",
            "strength": 0.6,
            "polarity": "direct",
            "achieved": 0.9993736764945869
          },
          {
            "id": "bandhigh-wobblefrequency",
            "featureKey": "bandHigh",
            "targetId": "wobbleFrequency",
            "strength": 0.6,
            "polarity": "direct",
            "achieved": 0.9994118554479373
          },
          {
            "id": "speccentroid-colormix",
            "featureKey": "specCentroid",
            "targetId": "colorMix",
            "strength": 0.55,
            "polarity": "direct",
            "achieved": 0.638188973196599
          },
          {
            "id": "rms-alphascale",
            "featureKey": "rms",
            "targetId": "alphaScale",
            "strength": 0.5,
            "polarity": "direct",
            "achieved": 0.6043496941642166
          },
          {
            "id": "peak-pointscale",
            "featureKey": "peak",
            "targetId": "pointScale",
            "strength": 0.55,
            "polarity": "direct",
            "achieved": 0.6449936219940824
          },
          {
            "id": "bandlowmid-camerazoom",
            "featureKey": "bandLowMid",
            "targetId": "cameraZoom",
            "strength": 0.6,
            "polarity": "direct",
            "achieved": 0.9993807379067277
          },
          {
            "id": "peak-flickerdepth",
            "featureKey": "bandBass",
            "targetId": "pointScale",
            "strength": 0.65,
            "polarity": "direct",
            "achieved": 0.7461701984920572
          },
          {
            "id": "zerocrossrate-rotationspeed",
            "featureKey": "bandBass",
            "targetId": "alphaScale",
            "strength": 0.65,
            "polarity": "direct",
            "achieved": 0.7810001361084766
          },
          {
            "id": "tempoproxy-wobblestrength",
            "featureKey": "bandBass",
            "targetId": "sizeDelta",
            "strength": 0.65,
            "polarity": "direct",
            "achieved": 0.9991360561257349
          },
          {
            "id": "rms-wobblefrequency",
            "featureKey": "bandBass",
            "targetId": "colorMix",
            "strength": 0.65,
            "polarity": "direct",
            "achieved": 0.7473394127317666
          }
        ]
      }
    }
  },
  "weights": [
    {
      "name": "dense_Dense17/kernel",
      "shape": [
        19,
        56
      ],
      "dtype": "float32",
      "values": [
        0.10494153201580048,
        -0.0027503645978868008,
        0.11654897034168243,
        -0.03282373026013374,
        0.006624179892241955,
        0.0456828810274601,
        -0.021523118019104004,
        0.0263054296374321,
        0.11029978096485138,
        -0.05204257369041443,
        0.10265672206878662,
        0.011919698677957058,
        0.007971676997840405,
        -0.0964915081858635,
        0.04682577773928642,
        -0.011287972331047058,
        0.04964127764105797,
        0.025693153962492943,
        0.05000891909003258,
        -0.06978099048137665,
        -0.1066654697060585,
        0.09789130091667175,
        0.021359052509069443,
        0.023759374395012856,
        0.11293134838342667,
        -0.09427130967378616,
        -0.03153630346059799,
        -0.004203461110591888,
        0.0469379723072052,
        -0.0270151998847723,
        -0.040250491350889206,
        -0.017273418605327606,
        0.10411404818296432,
        -0.04036781191825867,
        -0.05313757434487343,
        -0.045528460294008255,
        -0.07637402415275574,
        -0.030482681468129158,
        -0.09611024707555771,
        -0.048549454659223557,
        0.1368691474199295,
        -0.017300037667155266,
        -0.030811937525868416,
        -0.04028832167387009,
        0.05519090220332146,
        -0.034396011382341385,
        0.026910431683063507,
        0.02592317946255207,
        0.14314788579940796,
        -0.06489899009466171,
        -0.04630383104085922,
        0.05627182126045227,
        0.014938528649508953,
        0.10188417881727219,
        0.06653240323066711,
        -0.0720938891172409,
        -0.06712008267641068,
        -0.002592217642813921,
        0.02085036225616932,
        -0.0977904200553894,
        0.03424086421728134,
        0.08365125209093094,
        0.033889397978782654,
        0.12149136513471603,
        0.015074433758854866,
        0.1315849870443344,
        -0.13248105347156525,
        -0.037037696689367294,
        0.25981754064559937,
        0.028270432725548744,
        0.04889677092432976,
        -0.06216208264231682,
        -0.10488654673099518,
        0.02032656967639923,
        -0.0113892937079072,
        0.23934656381607056,
        -0.04133588448166847,
        -0.11455447226762772,
        0.08024246245622635,
        -0.028436673805117607,
        -0.01393966842442751,
        0.12866389751434326,
        0.01802493818104267,
        -0.022246461361646652,
        -0.19274470210075378,
        -0.0300380140542984,
        0.1308722347021103,
        -0.06690527498722076,
        0.21155917644500732,
        -0.03259538114070892,
        -0.09032789617776871,
        0.12126906216144562,
        0.173231303691864,
        0.02433173917233944,
        -0.05370207875967026,
        0.11542259901762009,
        0.0010240322444587946,
        -0.005100740119814873,
        0.029730476438999176,
        -0.12988445162773132,
        0.08610784262418747,
        0.03831290081143379,
        0.004207995254546404,
        -0.032369766384363174,
        -0.15114539861679077,
        -0.11325961351394653,
        0.11186397820711136,
        -0.07287982106208801,
        0.009695555083453655,
        0.026714753359556198,
        -0.02566814236342907,
        0.07355281710624695,
        -0.0549430325627327,
        -0.020205631852149963,
        -0.10284366458654404,
        0.021853569895029068,
        -0.010925482027232647,
        0.0879528820514679,
        0.0974709764122963,
        -0.0611487478017807,
        0.00508761266246438,
        -0.06357508897781372,
        0.061980895698070526,
        -0.01331494189798832,
        -0.1059517189860344,
        -0.06583714485168457,
        0.0344255194067955,
        0.038156576454639435,
        0.07901168614625931,
        0.006985657382756472,
        -0.032259341329336166,
        0.22741124033927917,
        0.07103845477104187,
        -0.051132164895534515,
        0.06121347099542618,
        -0.08219555765390396,
        -0.0663493201136589,
        -0.042143285274505615,
        0.12495478242635727,
        0.09750565141439438,
        0.004627673886716366,
        0.010034357197582722,
        -0.0408799834549427,
        -0.020435510203242302,
        0.07785744220018387,
        0.03808175027370453,
        0.050773922353982925,
        -0.1024114117026329,
        0.020346587523818016,
        0.015430580824613571,
        0.01660235784947872,
        -0.045982860028743744,
        -0.1609243005514145,
        0.039375338703393936,
        -0.02232854627072811,
        0.06168939918279648,
        -0.029365260154008865,
        0.05579709634184837,
        -0.030015870928764343,
        -0.02127915993332863,
        0.03110928274691105,
        -0.051870472729206085,
        -0.10182972997426987,
        0.031845372170209885,
        -0.021433312445878983,
        -0.07254184037446976,
        -0.18897205591201782,
        0.01732700876891613,
        0.18459831178188324,
        0.009342178702354431,
        0.14965106546878815,
        -0.13926509022712708,
        0.0009072987595573068,
        0.13214325904846191,
        0.12715552747249603,
        0.0667460635304451,
        -0.26348963379859924,
        0.10804221034049988,
        0.22636455297470093,
        0.13657720386981964,
        -0.20550782978534698,
        -0.18053719401359558,
        -0.24600030481815338,
        -0.3247252106666565,
        -0.06681400537490845,
        0.06359497457742691,
        0.07492411881685257,
        -0.24870416522026062,
        0.11638002097606659,
        0.11401917040348053,
        0.05515513941645622,
        -0.08780988305807114,
        0.25309231877326965,
        0.2765040397644043,
        0.1229429841041565,
        0.10196273773908615,
        -0.11751746386289597,
        0.019692428410053253,
        0.08275370299816132,
        0.06775158643722534,
        -0.22775569558143616,
        0.12423355132341385,
        0.1934131532907486,
        0.07525835186243057,
        -0.23111888766288757,
        0.09677569568157196,
        0.07164978235960007,
        0.2558327913284302,
        0.09916608780622482,
        0.0907435268163681,
        0.045999180525541306,
        -0.07523766905069351,
        0.04260267689824104,
        0.06792375445365906,
        0.12389784306287766,
        0.11455003917217255,
        -0.19491054117679596,
        0.10075505822896957,
        0.07892990857362747,
        0.0734056755900383,
        0.10124393552541733,
        0.12630829215049744,
        -0.11261006444692612,
        -0.09827548265457153,
        -0.05040036514401436,
        0.07395122200250626,
        0.13372303545475006,
        -0.05176832899451256,
        -0.0835443064570427,
        -0.04964236170053482,
        0.09658965468406677,
        0.050033580511808395,
        -0.24602535367012024,
        -0.011891422793269157,
        -0.05036904290318489,
        0.17342299222946167,
        -0.11164537072181702,
        -0.20912311971187592,
        -0.2555598020553589,
        0.06697572022676468,
        -0.01000208593904972,
        0.12932726740837097,
        -0.006488962098956108,
        -0.182722806930542,
        0.2364187091588974,
        0.2358698695898056,
        0.0039783259853720665,
        -0.06734534353017807,
        -0.0794668197631836,
        0.10127231478691101,
        -0.08122686296701431,
        0.07517370581626892,
        -0.027836067602038383,
        -0.11309890449047089,
        0.18224288523197174,
        0.20260217785835266,
        -0.10787560790777206,
        -0.06331852078437805,
        0.10297646373510361,
        0.019693301990628242,
        -0.05045044422149658,
        0.06063545122742653,
        0.25310948491096497,
        0.11324196308851242,
        0.2505236864089966,
        0.10222948342561722,
        0.30084964632987976,
        -0.009365379810333252,
        0.09512831270694733,
        -0.005862541031092405,
        0.1640358567237854,
        -0.027012698352336884,
        0.1588650643825531,
        0.20312725007534027,
        -0.009320591576397419,
        -0.02008318342268467,
        0.015674307942390442,
        0.1865527629852295,
        -0.02995806746184826,
        -0.04734303802251816,
        0.1571122407913208,
        0.12221027910709381,
        -0.029463091865181923,
        -0.02353729121387005,
        0.003606717800721526,
        0.02362614870071411,
        -0.008454041555523872,
        0.02163558267056942,
        -0.015010581351816654,
        0.09709873050451279,
        -0.04214861989021301,
        -0.10378706455230713,
        0.2911387085914612,
        -0.158391535282135,
        -0.27752286195755005,
        -0.05962250009179115,
        0.1400606781244278,
        -0.072289377450943,
        -0.06797821074724197,
        -0.06441397219896317,
        -0.02881685644388199,
        0.0729532390832901,
        0.00671099778264761,
        -0.0010054698213934898,
        0.08496985584497452,
        0.04253975674510002,
        -0.09438005089759827,
        0.04954100772738457,
        0.061719585210084915,
        -0.07518747448921204,
        0.042961787432432175,
        -0.021324338391423225,
        0.04885859787464142,
        -0.0738934874534607,
        -0.0315016470849514,
        -0.1151510551571846,
        -0.056481972336769104,
        0.007362889125943184,
        -0.07013778388500214,
        0.04732409119606018,
        -0.013343077152967453,
        -0.0005908525199629366,
        -0.09322675317525864,
        0.12003196030855179,
        0.0009947867365553975,
        -0.027314886450767517,
        -0.06743507832288742,
        0.034540824592113495,
        -0.0702175498008728,
        -0.08697520941495895,
        -0.12906238436698914,
        0.06594505161046982,
        -0.00802103616297245,
        0.011272309347987175,
        0.18576021492481232,
        -0.01409112848341465,
        0.05793839320540428,
        0.0030971697997301817,
        -0.04290468618273735,
        0.217811718583107,
        -0.010762081481516361,
        -0.036710429936647415,
        0.0021315112244337797,
        -0.012361294589936733,
        0.14782902598381042,
        -0.06319364905357361,
        -0.07343243807554245,
        0.015198967419564724,
        0.29370224475860596,
        -0.0025587223935872316,
        0.09293321520090103,
        -0.06228736788034439,
        0.11727891862392426,
        0.0737762525677681,
        -0.15555129945278168,
        0.015401632525026798,
        -0.02402261272072792,
        0.09807281941175461,
        -0.05421006307005882,
        0.02017553523182869,
        -0.029099266976118088,
        -0.05212213471531868,
        -0.07104785740375519,
        0.13062694668769836,
        0.1067044660449028,
        -0.12597331404685974,
        -0.07293672114610672,
        -0.17391324043273926,
        -0.04912707954645157,
        -0.114469014108181,
        0.02303694188594818,
        -0.1330629140138626,
        0.15777114033699036,
        0.03821967914700508,
        -0.020600413903594017,
        0.022023383527994156,
        -0.09244374930858612,
        -0.04660899192094803,
        -0.0754813477396965,
        0.09721221029758453,
        0.03114771470427513,
        -0.013252150267362595,
        -0.005265961401164532,
        -0.05380832031369209,
        0.09868991374969482,
        -0.0859236791729927,
        -0.13329856097698212,
        0.0666404590010643,
        -0.049390602856874466,
        -0.03503546491265297,
        0.01857203245162964,
        0.034346695989370346,
        0.22937485575675964,
        0.04477385804057121,
        0.13634364306926727,
        0.11155975610017776,
        0.16006040573120117,
        0.01356145553290844,
        -0.11770496517419815,
        0.19880573451519012,
        -0.1921336054801941,
        0.14819373190402985,
        0.045312438160181046,
        -0.1802891343832016,
        0.043452728539705276,
        0.15453621745109558,
        -0.09430165588855743,
        0.17509275674819946,
        -0.007231114897876978,
        -0.140423983335495,
        0.007088474929332733,
        0.11164671182632446,
        0.09684353321790695,
        -0.13723637163639069,
        0.07603447139263153,
        -0.032281484454870224,
        -0.14721855521202087,
        -0.1567324548959732,
        -0.0024859304539859295,
        0.20532891154289246,
        -0.014516574330627918,
        0.2764493525028229,
        -0.17007958889007568,
        0.08183807879686356,
        -0.029818804934620857,
        -0.0035738633014261723,
        0.20679239928722382,
        0.19865547120571136,
        0.11064345389604568,
        -0.08529500663280487,
        0.1928068995475769,
        -0.012124336324632168,
        0.1472042202949524,
        -0.036474429070949554,
        -0.14230257272720337,
        -0.12377618253231049,
        0.047562483698129654,
        -0.003277554176747799,
        -0.18186140060424805,
        0.12249233573675156,
        0.13007697463035583,
        -0.1804606169462204,
        0.24495695531368256,
        -0.18833115696907043,
        -0.20019099116325378,
        0.1647203117609024,
        0.05030910670757294,
        0.15616147220134735,
        -0.0978153645992279,
        0.29920104146003723,
        0.01691308803856373,
        -0.005252496339380741,
        0.09520687907934189,
        0.09603828191757202,
        -0.08868782222270966,
        -0.018447840586304665,
        0.24366705119609833,
        0.08040729910135269,
        -0.057165585458278656,
        -0.18217453360557556,
        -0.31495460867881775,
        -0.08556759357452393,
        0.2916276454925537,
        0.22798322141170502,
        0.17452576756477356,
        -0.15163961052894592,
        0.005595744121819735,
        -0.01845146343111992,
        -0.05367230623960495,
        -0.14304186403751373,
        -0.08074408769607544,
        0.20599497854709625,
        0.2941918969154358,
        0.17464730143547058,
        0.29591214656829834,
        -0.13974645733833313,
        -0.08476313948631287,
        -0.09712882339954376,
        0.057854171842336655,
        -0.16535048186779022,
        -0.11065669357776642,
        0.4743366837501526,
        0.16385149955749512,
        -0.19463251531124115,
        0.01303904503583908,
        -0.015433300286531448,
        0.5171670317649841,
        0.042212240397930145,
        0.1348792016506195,
        0.1602269411087036,
        -0.027444059029221535,
        -0.06769382208585739,
        0.4810526967048645,
        -0.09651249647140503,
        0.45070213079452515,
        0.14566285908222198,
        0.04856112226843834,
        -0.19153618812561035,
        -0.1647307425737381,
        0.22149616479873657,
        -0.17515335977077484,
        -0.12259642034769058,
        0.008563116192817688,
        -0.07107962667942047,
        0.07077280431985855,
        0.07784219831228256,
        0.18225906789302826,
        -0.04579254612326622,
        0.25021791458129883,
        -0.018940478563308716,
        0.04476073756814003,
        0.26229944825172424,
        0.06586189568042755,
        0.1392604410648346,
        0.03325682878494263,
        0.1872207671403885,
        0.025658033788204193,
        -0.03415081277489662,
        -0.025351786985993385,
        -0.04683563485741615,
        0.40502873063087463,
        -0.27233272790908813,
        0.014142043888568878,
        -0.024036983028054237,
        0.3414682447910309,
        0.24441690742969513,
        -0.09874839335680008,
        0.03968074917793274,
        -0.1711522340774536,
        0.03562687709927559,
        0.31828805804252625,
        -0.06635181605815887,
        -0.20638786256313324,
        0.09368816763162613,
        0.11292441934347153,
        -0.16188739240169525,
        0.11179345101118088,
        -0.30382126569747925,
        -0.04541952162981033,
        -0.29951003193855286,
        0.12337397038936615,
        0.17943185567855835,
        -0.0955810546875,
        0.20841597020626068,
        -0.14973706007003784,
        -0.3560638725757599,
        0.40011727809906006,
        -0.10431579500436783,
        0.13211114704608917,
        0.1287466436624527,
        0.10069216787815094,
        0.13279031217098236,
        -0.1466294825077057,
        0.1542241871356964,
        -0.3303138315677643,
        0.03985409438610077,
        -0.36282169818878174,
        0.20185932517051697,
        -0.12701018154621124,
        -0.11313794553279877,
        -0.07657979428768158,
        -0.0786331370472908,
        0.012031464837491512,
        -0.17134739458560944,
        -0.011375843547284603,
        0.11453066766262054,
        -0.012798122130334377,
        0.24829386174678802,
        -0.12858466804027557,
        0.1935299038887024,
        0.11151081323623657,
        0.07093110680580139,
        -0.20031487941741943,
        -0.1157836839556694,
        -0.19279159605503082,
        -0.15312857925891876,
        0.06803727895021439,
        0.1541357934474945,
        0.055096134543418884,
        0.221734881401062,
        -0.09634621441364288,
        -0.009016930125653744,
        0.064738929271698,
        0.022148167714476585,
        0.12812472879886627,
        0.07282967120409012,
        0.1157166138291359,
        0.1208004429936409,
        -0.2674270272254944,
        0.17160438001155853,
        0.03630778566002846,
        -0.10604888945817947,
        -0.21818526089191437,
        0.018578926101326942,
        0.057407256215810776,
        -0.28163158893585205,
        -0.2627784311771393,
        0.013231894932687283,
        -0.027508560568094254,
        -0.04872280731797218,
        0.012905271723866463,
        0.02450665272772312,
        0.03995799645781517,
        -0.3180428743362427,
        0.08534720540046692,
        0.04617176577448845,
        0.09247343987226486,
        0.15950138866901398,
        -0.20038773119449615,
        0.11524386703968048,
        -0.23086456954479218,
        0.10295851528644562,
        0.10273882001638412,
        -0.04339108243584633,
        -0.04475000128149986,
        0.09466119855642319,
        -0.15537911653518677,
        -0.14837074279785156,
        -0.08233994245529175,
        -0.1255599409341812,
        0.1720147579908371,
        0.058444198220968246,
        -0.16018138825893402,
        0.16422149538993835,
        -0.07559388130903244,
        -0.006074178963899612,
        -0.02788732945919037,
        -0.01374337449669838,
        -0.22764648497104645,
        -0.13185830414295197,
        0.08861839026212692,
        0.10277145355939865,
        0.08380374312400818,
        0.026962175965309143,
        0.10581653565168381,
        -0.06590390205383301,
        0.13158708810806274,
        -0.1647038757801056,
        0.11446001380681992,
        -0.06784412264823914,
        -0.15531136095523834,
        -0.12329193204641342,
        0.009976870380342007,
        0.14462120831012726,
        -0.2409822642803192,
        -0.13137900829315186,
        -0.007823748514056206,
        0.22949159145355225,
        0.25106945633888245,
        -0.1481512486934662,
        0.014550749212503433,
        -0.21870067715644836,
        -0.2952099144458771,
        -0.011168109253048897,
        0.04800226539373398,
        -0.13985700905323029,
        0.09399741142988205,
        0.17433659732341766,
        0.319852739572525,
        -0.11662772297859192,
        0.1802850365638733,
        0.013193640857934952,
        -0.09247144311666489,
        -0.11975608766078949,
        0.10197874903678894,
        0.042602233588695526,
        -0.1720840185880661,
        0.03740250691771507,
        0.08581323176622391,
        0.06988193094730377,
        -0.07038106769323349,
        0.03209827467799187,
        0.1092638373374939,
        -0.05888402834534645,
        -0.013286791741847992,
        0.008262140676379204,
        -0.0521395243704319,
        -0.3499590754508972,
        -0.008906690403819084,
        0.4486721158027649,
        0.17041140794754028,
        -0.12586867809295654,
        0.12136195600032806,
        0.13955172896385193,
        -0.2558075785636902,
        0.06700655817985535,
        0.19739080965518951,
        -0.005217502359300852,
        -0.17681512236595154,
        -0.3602139353752136,
        -0.1922668218612671,
        0.029815763235092163,
        -0.28909656405448914,
        0.3660094738006592,
        -0.10067109018564224,
        0.05566135421395302,
        0.4027765095233917,
        0.13975106179714203,
        0.6066399812698364,
        0.1987992823123932,
        0.1690288484096527,
        -0.19699282944202423,
        0.25146567821502686,
        -0.20145078003406525,
        -0.2513125240802765,
        0.4153343737125397,
        -0.4551842212677002,
        -0.07426555454730988,
        0.1406916230916977,
        -0.506803035736084,
        0.14429987967014313,
        0.08900308609008789,
        -0.36055582761764526,
        0.49079272150993347,
        0.4745042622089386,
        0.1898091435432434,
        0.17340613901615143,
        -0.3211650252342224,
        -0.5323827862739563,
        0.04223639890551567,
        -0.1738690733909607,
        0.30046412348747253,
        -0.007023734971880913,
        -0.03633459657430649,
        -0.39890915155410767,
        0.40089067816734314,
        -0.293186753988266,
        -0.1481260061264038,
        0.49440956115722656,
        -0.049814559519290924,
        -0.12164395302534103,
        0.19693441689014435,
        -0.06350939720869064,
        0.0787414163351059,
        0.08780969679355621,
        0.14090198278427124,
        0.07948710024356842,
        -0.19769522547721863,
        -0.18185995519161224,
        0.3094862401485443,
        0.05745824798941612,
        0.15187284350395203,
        -0.3019992411136627,
        -0.2991403043270111,
        0.07634508609771729,
        0.009175202809274197,
        -0.08567783981561661,
        0.0003481182502582669,
        0.20511677861213684,
        -0.004863134119659662,
        0.14657652378082275,
        -0.07058729976415634,
        -0.12766660749912262,
        -0.10100668668746948,
        0.14114883542060852,
        -0.02534857951104641,
        0.05167299136519432,
        0.10500755906105042,
        0.11310501396656036,
        0.09525888413190842,
        -0.011380008421838284,
        0.10969619452953339,
        -0.18398669362068176,
        -0.2116948962211609,
        -0.13354210555553436,
        0.2527719736099243,
        0.05110251531004906,
        -0.04114054888486862,
        0.1802002638578415,
        0.0672084167599678,
        0.22898998856544495,
        -0.3157503306865692,
        -0.0642595887184143,
        -0.30994555354118347,
        0.23879776895046234,
        0.492987722158432,
        -0.2628719210624695,
        -0.20313423871994019,
        -0.1892380565404892,
        0.17374961078166962,
        0.402614027261734,
        -0.27354952692985535,
        0.07949668914079666,
        0.08299537748098373,
        0.011061078868806362,
        0.2613523304462433,
        0.09212366491556168,
        0.06863895803689957,
        0.07101202756166458,
        0.3143942356109619,
        0.06037498265504837,
        0.2591998279094696,
        -0.18478956818580627,
        0.3040071725845337,
        0.17571543157100677,
        0.07161404192447662,
        -0.10187514126300812,
        0.12881506979465485,
        -0.09874372184276581,
        0.076724573969841,
        0.2002144306898117,
        0.08615092188119888,
        0.13078787922859192,
        0.06060512736439705,
        -0.04690808802843094,
        0.23133152723312378,
        0.05271799862384796,
        -0.0944923684000969,
        -0.07255819439888,
        -0.08713243901729584,
        0.002347262343391776,
        0.008478937670588493,
        0.03467873856425285,
        0.06671862304210663,
        0.26938119530677795,
        0.12408064305782318,
        0.19171839952468872,
        0.12758710980415344,
        0.10847525298595428,
        -0.1519245207309723,
        0.11452459543943405,
        0.011333638802170753,
        0.007899654097855091,
        -0.16374316811561584,
        0.19055521488189697,
        0.19577746093273163,
        0.3148678243160248,
        -0.1369718313217163,
        0.1319093555212021,
        0.11949308961629868,
        0.07850424945354462,
        0.243459090590477,
        0.062061090022325516,
        -0.003334136912599206,
        -0.1776943951845169,
        0.13614043593406677,
        0.09899507462978363,
        0.2396358996629715,
        -0.17089290916919708,
        0.17186014354228973,
        0.2630493640899658,
        0.3349275588989258,
        -0.04675118625164032,
        -0.18761774897575378,
        0.02030213177204132,
        -0.09890072792768478,
        0.12225505709648132,
        -0.13816975057125092,
        0.02247575856745243,
        -0.04945223033428192,
        0.08238262683153152,
        -0.398305743932724,
        0.0856490433216095,
        -0.03348381817340851,
        -0.010436237789690495,
        0.17113207280635834,
        -0.01883360557258129,
        0.26367679238319397,
        0.26267191767692566,
        0.03387218713760376,
        0.17512597143650055,
        0.2022528350353241,
        0.19426006078720093,
        -0.05439447984099388,
        -0.09044911712408066,
        0.014766034670174122,
        -0.053213804960250854,
        0.16830602288246155,
        -0.03720953315496445,
        0.17940883338451385,
        0.024820491671562195,
        -0.046217549592256546,
        -0.08867260068655014,
        0.08381957560777664,
        -0.1771792471408844,
        -0.03602450340986252,
        -0.026969291269779205,
        -0.035797107964754105,
        0.18982377648353577,
        0.09164629876613617,
        -0.11343216896057129,
        -0.2484692633152008,
        0.4108981192111969,
        -0.2469499707221985,
        0.5728151798248291,
        0.40142330527305603,
        -0.2587551474571228,
        0.33276209235191345,
        -0.28258103132247925,
        0.1776089072227478,
        -0.03531932458281517,
        0.011004236526787281,
        0.3242218494415283,
        0.07719768583774567,
        -0.13290494680404663,
        -0.040466420352458954,
        -0.03371584787964821,
        0.31987133622169495,
        0.03179355338215828,
        -0.13314026594161987,
        -0.12004518508911133,
        -0.0456077940762043,
        0.019182750955224037,
        0.46440255641937256,
        -0.043013256043195724,
        -0.0760757103562355,
        0.07284021377563477,
        0.04994943365454674,
        -0.09368418902158737,
        -0.30204737186431885,
        0.06553036719560623,
        0.041337598115205765,
        0.01567692495882511,
        0.21824976801872253,
        0.6074967980384827,
        -0.2707470655441284,
        0.047664664685726166,
        0.2751443386077881,
        -0.011808861047029495,
        -0.04421619325876236,
        0.35389500856399536,
        0.07191576063632965,
        0.4101603329181671,
        0.01345525961369276,
        0.14196723699569702,
        -0.330928772687912,
        0.01631980948150158,
        0.07306209206581116,
        -0.06408843398094177,
        0.16555272042751312,
        -0.1560242623090744,
        -0.10806550085544586,
        -0.07677566260099411,
        0.47887879610061646,
        -0.2053111493587494,
        -0.1804507076740265,
        0.06695712357759476,
        0.3401113450527191,
        0.1271011382341385,
        -0.15264058113098145,
        -0.1110168918967247,
        0.2288319617509842,
        0.28985896706581116,
        0.04110447317361832,
        -0.17989516258239746,
        0.3025403916835785,
        -0.09958554804325104,
        -0.12647533416748047,
        0.2382638156414032,
        0.16690418124198914,
        -0.05313950404524803,
        -0.18458864092826843,
        0.01904275082051754,
        -0.13955004513263702,
        -0.038467638194561005,
        0.15036311745643616,
        0.05596037581562996,
        -0.16464442014694214,
        -0.17611216008663177,
        -0.02130693942308426,
        -0.08558861911296844,
        0.12720119953155518,
        0.041592784225940704,
        0.07556358724832535,
        -0.19826970994472504,
        -0.009324843063950539,
        -0.052478622645139694,
        0.04663404822349548,
        0.15591773390769958,
        0.1688668131828308,
        0.100493885576725,
        -0.14760954678058624,
        0.06963475048542023,
        -0.04749903082847595,
        -0.14123740792274475,
        0.11751995980739594,
        -0.004419623874127865,
        -0.017068807035684586,
        0.07650689780712128,
        -0.06220102310180664,
        -0.1448402851819992,
        0.20571035146713257,
        0.02254394441843033,
        0.0013348618522286415,
        -0.14358100295066833,
        0.14844250679016113,
        -0.062226466834545135,
        -0.17239351570606232,
        0.03288799524307251,
        0.06038717180490494,
        0.0365949422121048,
        -0.06952397525310516,
        -0.03279014676809311,
        0.0708017647266388,
        -8.936127414926887e-05,
        -0.08711879700422287,
        0.007198981009423733,
        -0.02937724068760872,
        0.004645266104489565,
        0.04455730319023132,
        -0.14808668196201324,
        0.04215409979224205,
        -0.15845699608325958,
        0.050138138234615326,
        -0.03250644728541374,
        0.017301375046372414,
        -0.34960508346557617,
        0.018065284937620163,
        0.3046852946281433,
        -0.33886250853538513,
        -0.04391779378056526,
        -0.10284680128097534,
        0.25436726212501526,
        0.021894386038184166,
        -0.02835240215063095,
        0.27319860458374023,
        -0.008213598281145096,
        0.2167602777481079,
        -0.03189506754279137,
        -0.36809006333351135,
        0.19732829928398132,
        0.004099671728909016,
        0.02102946862578392,
        -0.24339158833026886,
        0.11701082438230515,
        -0.014672995544970036,
        -0.0648181289434433,
        -0.09421700984239578,
        -0.24097409844398499,
        0.38918831944465637,
        0.16870854794979095,
        0.021675070747733116,
        -0.31017303466796875,
        -0.23579004406929016,
        0.46802040934562683,
        0.173443004488945,
        -0.3268464207649231,
        -0.01959618553519249,
        0.0951816588640213,
        0.16770650446414948,
        -0.012317732907831669,
        0.14844782650470734,
        0.16546736657619476,
        0.06582006067037582,
        -0.0030070848297327757,
        -0.039506085216999054,
        0.2579357922077179,
        -0.014056435786187649,
        0.35086774826049805,
        -0.1999695599079132,
        -0.2362406849861145,
        0.11545109003782272,
        -0.12266743183135986,
        0.24388347566127777,
        0.2799161672592163,
        0.09010295569896698,
        0.0031329146586358547,
        0.06720782816410065,
        -0.017290061339735985,
        -0.23900206387043,
        0.26393553614616394,
        0.05029996484518051,
        -0.09861274063587189,
        -0.15166699886322021
      ]
    },
    {
      "name": "dense_Dense17/bias",
      "shape": [
        56
      ],
      "dtype": "float32",
      "values": [
        -0.08646498620510101,
        0.3521452844142914,
        0.14128054678440094,
        -0.05496819317340851,
        0.049456484615802765,
        0.3160676956176758,
        0.005451743490993977,
        -0.1091189906001091,
        -0.07197736948728561,
        0.17310307919979095,
        -0.04200385883450508,
        0.37370604276657104,
        -0.002557495841756463,
        -0.011666069738566875,
        -0.017060337588191032,
        -0.0167674720287323,
        0.3291575014591217,
        0.3364555537700653,
        0.03009876236319542,
        -0.044747401028871536,
        0.1780552715063095,
        -0.0838901624083519,
        0.10119140148162842,
        -0.09491948783397675,
        0.10111051052808762,
        -0.02740381844341755,
        -0.3322778344154358,
        0.001022125594317913,
        -0.07117732614278793,
        0.5461987853050232,
        -0.08705546706914902,
        0.3249777555465698,
        -0.05630608648061752,
        -0.16205160319805145,
        0.41552698612213135,
        -0.08723178505897522,
        -0.07799811661243439,
        0.1398780196905136,
        -0.029030052945017815,
        -0.028116712346673012,
        0.4069616496562958,
        0.03191670402884483,
        -0.23635293543338776,
        -0.08132420480251312,
        -0.03796807676553726,
        0.26023346185684204,
        0.059061288833618164,
        -0.4099402129650116,
        -0.0102265365421772,
        -0.057626012712717056,
        -0.10394036024808884,
        0.13863474130630493,
        0.2631949782371521,
        -0.035196512937545776,
        -0.06910095363855362,
        -0.025701483711600304
      ]
    },
    {
      "name": "dense_Dense18/kernel",
      "shape": [
        56,
        16
      ],
      "dtype": "float32",
      "values": [
        0.15941740572452545,
        0.011149590834975243,
        0.06431171298027039,
        0.12821230292320251,
        0.005003725178539753,
        -0.06774915754795074,
        -0.09464198350906372,
        -0.21457287669181824,
        -0.225699782371521,
        0.1633826196193695,
        0.06768867373466492,
        -0.0012382639106363058,
        0.035292740911245346,
        -0.2149898111820221,
        -0.03528602793812752,
        0.3576180338859558,
        0.0036951187066733837,
        0.009685739874839783,
        0.0056236134842038155,
        -0.18744902312755585,
        0.1341567188501358,
        0.027134006842970848,
        -0.0301094651222229,
        0.11308691650629044,
        0.007398977875709534,
        -0.4124242961406708,
        -0.13659651577472687,
        0.005130532663315535,
        -0.15226708352565765,
        -0.10200974345207214,
        0.00547338230535388,
        -0.16191348433494568,
        -0.08829694241285324,
        0.21863842010498047,
        0.1394750475883484,
        -0.16714927554130554,
        -0.030579477548599243,
        0.0671551376581192,
        0.009959392249584198,
        0.1459861546754837,
        -0.2287123203277588,
        -0.10675953328609467,
        0.07196026295423508,
        0.025184154510498047,
        0.2340179830789566,
        -0.02038787119090557,
        -0.3258170187473297,
        -0.13104504346847534,
        -0.13111016154289246,
        -0.0977877750992775,
        0.0020128283649683,
        -0.1789734810590744,
        -0.09128916263580322,
        -0.06704239547252655,
        0.05743209272623062,
        -0.06314058601856232,
        -0.18529672920703888,
        -0.18333479762077332,
        0.019658245146274567,
        0.10857841372489929,
        -0.1447165310382843,
        -0.18295146524906158,
        -0.14800316095352173,
        -0.15258494019508362,
        -0.0944272056221962,
        0.05985366553068161,
        0.08495979011058807,
        -0.1481298804283142,
        0.017696160823106766,
        0.059882160276174545,
        -0.09926950186491013,
        0.07031897455453873,
        0.07888176292181015,
        0.15317384898662567,
        -0.037440720945596695,
        0.004275774583220482,
        0.13097210228443146,
        -0.03287077322602272,
        -0.20251640677452087,
        -0.12224416434764862,
        -0.07026492804288864,
        -0.0461525060236454,
        0.12467347085475922,
        -0.2848425805568695,
        -0.008831013925373554,
        0.09341180324554443,
        0.00969857256859541,
        -0.15008319914340973,
        -0.06452251225709915,
        -0.15581153333187103,
        -0.11217353492975235,
        -0.2658868730068207,
        -0.18038935959339142,
        -0.15407367050647736,
        -0.3510203957557678,
        0.11088123917579651,
        0.018829135224223137,
        0.023726915940642357,
        0.0008131257491186261,
        0.04973762854933739,
        -0.013928044587373734,
        -0.0132569819688797,
        0.010348339565098286,
        -0.022714966908097267,
        0.0738290324807167,
        -0.017756637185811996,
        0.07374092936515808,
        0.10149436444044113,
        -0.041341397911310196,
        -0.11882655322551727,
        0.020638158544898033,
        -0.012020098976790905,
        0.2041599154472351,
        0.01952284947037697,
        -0.05130665376782417,
        0.14427049458026886,
        0.04074719175696373,
        -0.10544174164533615,
        -0.008764112368226051,
        -0.06777369230985641,
        0.031828317791223526,
        0.14644519984722137,
        0.1431933492422104,
        -0.28953900933265686,
        0.3051106333732605,
        0.043040767312049866,
        0.3564840853214264,
        0.028855178505182266,
        -0.26861974596977234,
        0.07569491863250732,
        -0.1359526813030243,
        -0.06797443330287933,
        -0.026527073234319687,
        0.026420030742883682,
        -0.0451589897274971,
        0.2521762549877167,
        -0.16253162920475006,
        -0.05512978509068489,
        -0.019438816234469414,
        0.0741860494017601,
        -0.0809631273150444,
        -0.11798716336488724,
        0.21043787896633148,
        0.06352222710847855,
        -0.21849362552165985,
        0.15181463956832886,
        -0.013024642132222652,
        -0.04467915743589401,
        -0.02947242371737957,
        0.07278277724981308,
        0.21036581695079803,
        0.12411191314458847,
        0.10894331336021423,
        0.06433141231536865,
        -0.06620582193136215,
        -0.017995541915297508,
        -0.0216666366904974,
        -0.138949915766716,
        -0.29086723923683167,
        -0.28222236037254333,
        0.014217990450561047,
        0.15844273567199707,
        -0.08024652302265167,
        -0.1526918262243271,
        0.10000739991664886,
        -0.04318983107805252,
        0.14271163940429688,
        0.06711267679929733,
        0.14899127185344696,
        0.14400504529476166,
        0.151730015873909,
        0.1205088421702385,
        0.21846000850200653,
        0.08504173159599304,
        0.016103269532322884,
        -0.24664828181266785,
        0.011355330236256123,
        -0.18141643702983856,
        0.05649370700120926,
        0.10023859888315201,
        -0.017107071354985237,
        -0.058087728917598724,
        -0.005388534162193537,
        -0.05063996836543083,
        0.13561853766441345,
        -0.435367226600647,
        -0.02793589048087597,
        -0.4666556417942047,
        0.08965425938367844,
        -0.28049537539482117,
        -0.08282729983329773,
        0.20466601848602295,
        0.009343571960926056,
        0.030218979343771935,
        -0.06562287360429764,
        -0.049635522067546844,
        0.02848990075290203,
        0.016787201166152954,
        0.032332394272089005,
        -0.04109291359782219,
        -0.033635810017585754,
        -0.026128176599740982,
        -0.04516052082180977,
        0.002722885925322771,
        -0.13927553594112396,
        -0.17909491062164307,
        -0.1952202320098877,
        -0.048973917961120605,
        -0.18035635352134705,
        -0.03697138652205467,
        0.03749533370137215,
        0.022477291524410248,
        0.10977433621883392,
        -0.08900772780179977,
        0.01633535325527191,
        0.23563458025455475,
        0.3146834373474121,
        -0.21460075676441193,
        0.1876286268234253,
        -0.07298516482114792,
        -0.2766014337539673,
        0.24149729311466217,
        0.11750437319278717,
        -0.2238210141658783,
        0.11064452677965164,
        -0.26107847690582275,
        -0.15216004848480225,
        -0.04220115393400192,
        -0.07876117527484894,
        -0.1856190264225006,
        0.08340885490179062,
        -0.2505781650543213,
        0.0381987988948822,
        -0.07799264788627625,
        0.047824811190366745,
        -0.02614735998213291,
        -0.005295466165989637,
        -0.2135014832019806,
        0.029636094346642494,
        -0.11334066092967987,
        0.3155246376991272,
        0.2310296595096588,
        -0.08323200047016144,
        -0.10717296600341797,
        -0.11846143007278442,
        -0.2534250020980835,
        0.008217445574700832,
        0.24565213918685913,
        -0.21826930344104767,
        -0.28349924087524414,
        0.15181531012058258,
        0.22399096190929413,
        0.05802057683467865,
        -0.03894763067364693,
        0.044029369950294495,
        0.031524017453193665,
        -0.0643419474363327,
        -0.004911331459879875,
        -0.01573098637163639,
        -0.17133711278438568,
        0.08116394281387329,
        -0.0032923156395554543,
        -0.023596396669745445,
        0.013791012577712536,
        -0.03592250496149063,
        0.11342611908912659,
        -0.032959260046482086,
        -0.11638085544109344,
        0.0753205344080925,
        -0.0007937287446111441,
        -0.06317973136901855,
        -0.07968776673078537,
        -0.019404465332627296,
        0.03512538596987724,
        -0.0720185711979866,
        -0.24791260063648224,
        -0.02446828782558441,
        -0.011318382807075977,
        -0.09514646977186203,
        0.056598201394081116,
        0.012931382283568382,
        -0.05678365379571915,
        -0.19833144545555115,
        0.21690349280834198,
        -0.5990192890167236,
        -0.48153528571128845,
        -0.15824554860591888,
        -0.13417457044124603,
        -0.08154655992984772,
        -0.23405201733112335,
        0.17061160504817963,
        -0.14789018034934998,
        -0.09630484879016876,
        -0.054279301315546036,
        0.0752701535820961,
        -0.11088447272777557,
        -0.06673862040042877,
        -0.09964773803949356,
        -0.14072249829769135,
        0.1605467051267624,
        -0.07201799750328064,
        -0.11263593286275864,
        0.2993875741958618,
        -0.05504381284117699,
        -0.006995508912950754,
        -0.007614408154040575,
        0.005463219713419676,
        0.0254047904163599,
        -0.0018755518831312656,
        0.006034850142896175,
        0.0025295563973486423,
        -0.002108995569869876,
        -0.027286024764180183,
        -0.005239475052803755,
        -0.010762611404061317,
        -0.04073721170425415,
        0.013165676034986973,
        0.032636091113090515,
        0.013465536758303642,
        0.01776266098022461,
        -0.28052547574043274,
        0.0713871419429779,
        -0.01640223152935505,
        -0.07478690892457962,
        0.025999994948506355,
        -0.02618877775967121,
        0.013934352435171604,
        0.0458872951567173,
        0.04759878292679787,
        -0.252375990152359,
        -0.1097828596830368,
        0.07549126446247101,
        0.176855206489563,
        -0.20010848343372345,
        -0.1799616664648056,
        0.17029109597206116,
        0.07277634739875793,
        0.11550392210483551,
        0.0180965606123209,
        0.12425142526626587,
        -0.18200600147247314,
        -0.04325415939092636,
        0.22462540864944458,
        0.04215197637677193,
        0.11606321483850479,
        0.17239916324615479,
        0.08748563379049301,
        0.17281565070152283,
        0.21429403126239777,
        0.058448515832424164,
        0.20615531504154205,
        -0.1601620316505432,
        -0.06525659561157227,
        0.0325927808880806,
        0.025696173310279846,
        0.07495196163654327,
        -0.03726177662611008,
        -0.0008300551562570035,
        -0.028991347178816795,
        0.058575667440891266,
        0.012651164084672928,
        0.040385324507951736,
        0.010051622055470943,
        0.0975683405995369,
        -0.06558418273925781,
        -0.10452008247375488,
        -0.07402344048023224,
        0.0036869437899440527,
        0.050537578761577606,
        -0.05419117957353592,
        -0.070412777364254,
        -0.09672143310308456,
        0.030530627816915512,
        -0.019332027062773705,
        0.016723304986953735,
        0.023874394595623016,
        0.010782264173030853,
        0.03438068553805351,
        -0.0846657007932663,
        -0.08751474320888519,
        0.12392093241214752,
        0.29440823197364807,
        -0.05048409849405289,
        -0.09337588399648666,
        -0.11133942008018494,
        0.055627308785915375,
        -0.2070733904838562,
        0.19505493342876434,
        -0.09299665689468384,
        0.023161806166172028,
        -0.09489970654249191,
        -0.04752010852098465,
        0.13949507474899292,
        -0.3866402506828308,
        0.03770576789975166,
        -0.028018876910209656,
        -0.18658700585365295,
        0.2400224655866623,
        0.16840921342372894,
        -0.13658541440963745,
        0.122418113052845,
        0.08274202048778534,
        0.15145471692085266,
        0.08697118610143661,
        0.007473665755242109,
        -0.1387803703546524,
        -0.02099643275141716,
        -0.06687282025814056,
        -0.13445724546909332,
        -0.06262671202421188,
        -0.18391160666942596,
        0.025207730010151863,
        0.09520640969276428,
        0.050796423107385635,
        0.015102922916412354,
        -0.13864882290363312,
        0.2911677658557892,
        -0.006748458836227655,
        -0.033564984798431396,
        0.1156151220202446,
        -0.07410065829753876,
        -0.01684293895959854,
        0.014560848474502563,
        0.11800383776426315,
        0.01183436717838049,
        0.28354835510253906,
        0.04917823523283005,
        -0.09673316031694412,
        0.4972015917301178,
        0.23908822238445282,
        0.29163843393325806,
        0.06609515845775604,
        0.07839985191822052,
        -0.11566182225942612,
        0.12983644008636475,
        0.22032350301742554,
        0.1898956298828125,
        0.11247880011796951,
        -0.037442196160554886,
        -0.0009618423064239323,
        -0.09340040385723114,
        0.11695312708616257,
        0.13189168274402618,
        -0.026576275005936623,
        -0.07055879384279251,
        0.04156526178121567,
        -0.010790936648845673,
        0.03301573544740677,
        0.19601379334926605,
        -0.05553114041686058,
        -0.15066950023174286,
        -0.08330509066581726,
        0.09097234159708023,
        -0.13026361167430878,
        0.02440047077834606,
        -0.14759911596775055,
        -0.05607058107852936,
        -0.17620912194252014,
        0.04550888389348984,
        -0.10170366615056992,
        -0.09643387794494629,
        0.15143656730651855,
        0.20076847076416016,
        -0.12827888131141663,
        -0.023428361862897873,
        0.04849204421043396,
        -0.006595795974135399,
        -0.04376452416181564,
        0.032362084835767746,
        -0.007613177411258221,
        -0.012077417224645615,
        -0.05084875598549843,
        -0.08202102780342102,
        -0.21973668038845062,
        -0.09282305091619492,
        -0.057598479092121124,
        -0.17669625580310822,
        -0.34206295013427734,
        -0.590172290802002,
        -0.08279316872358322,
        0.0998769998550415,
        -0.17120276391506195,
        -0.018696628510951996,
        0.07144829630851746,
        -0.06665143370628357,
        -0.04424742981791496,
        -0.15803317725658417,
        -0.18593552708625793,
        -0.07838021218776703,
        0.1565529853105545,
        0.24743838608264923,
        -0.11745762825012207,
        -0.01680414006114006,
        0.0713411495089531,
        0.1840156614780426,
        0.17446188628673553,
        -0.09605181962251663,
        -0.0001997179933823645,
        -0.10141941159963608,
        -0.10785067081451416,
        -0.03421378508210182,
        -0.013171383179724216,
        0.0039833951741456985,
        0.008388152346014977,
        0.05001946911215782,
        0.04118120297789574,
        -0.25782954692840576,
        -0.1208687275648117,
        -0.19457946717739105,
        -0.28273987770080566,
        -0.26307839155197144,
        -0.07326002418994904,
        0.15079458057880402,
        -0.0324578657746315,
        -0.15649841725826263,
        0.1799314171075821,
        0.16868536174297333,
        0.1328136920928955,
        -0.09763406962156296,
        -0.0007588684093207121,
        -0.19859445095062256,
        -0.03556539863348007,
        -0.18196500837802887,
        -0.11061334609985352,
        -0.1527789980173111,
        -0.058626167476177216,
        0.2591249942779541,
        0.019295815378427505,
        0.11732443422079086,
        -0.011642719618976116,
        0.046238865703344345,
        0.26978182792663574,
        0.15739397704601288,
        0.09818137437105179,
        0.03631313517689705,
        -0.026667505502700806,
        -0.025918833911418915,
        0.0825737789273262,
        0.26529839634895325,
        0.020252492278814316,
        -0.12751449644565582,
        0.41332101821899414,
        0.2646178603172302,
        0.09625282883644104,
        -0.09813271462917328,
        -0.09705539792776108,
        -0.1173727959394455,
        -0.06081802397966385,
        -0.08599060773849487,
        -0.1430995762348175,
        -0.12625746428966522,
        -0.04477597773075104,
        -0.05804196745157242,
        0.03562610596418381,
        -0.17714297771453857,
        -0.22370952367782593,
        -0.31756818294525146,
        -0.1354866772890091,
        -0.33573442697525024,
        -0.19444702565670013,
        -0.017626110464334488,
        0.014426660723984241,
        0.0435459204018116,
        -0.1269778609275818,
        0.06002926453948021,
        -0.09934303164482117,
        -0.1824687123298645,
        0.06755005568265915,
        0.06189506873488426,
        0.20558610558509827,
        -0.04193679615855217,
        -0.036611154675483704,
        -0.036861903965473175,
        -0.010406136512756348,
        -0.0733991339802742,
        0.047403305768966675,
        -0.14016161859035492,
        -0.08511854708194733,
        -0.19502557814121246,
        -0.1349402219057083,
        -0.20437824726104736,
        0.07915312796831131,
        -0.06502558290958405,
        0.06577808409929276,
        -0.04536757245659828,
        0.012660209089517593,
        0.24163872003555298,
        0.12544317543506622,
        0.19584904611110687,
        0.10792948305606842,
        -0.13205279409885406,
        0.05672930181026459,
        -0.30484119057655334,
        0.030389010906219482,
        0.007789629511535168,
        -0.37789082527160645,
        -0.04898419603705406,
        0.08003918081521988,
        0.03614186868071556,
        -0.03968597203493118,
        0.143510103225708,
        -0.054009608924388885,
        -0.12418170273303986,
        -0.04752882570028305,
        -0.17871588468551636,
        -0.11093501001596451,
        0.16669504344463348,
        0.14815618097782135,
        0.03558587282896042,
        0.03240124136209488,
        0.05343753471970558,
        -0.008018354885280132,
        -0.1054343581199646,
        -0.00687086908146739,
        0.00468584755435586,
        -0.06984955072402954,
        0.1014786884188652,
        0.26751288771629333,
        0.026869606226682663,
        0.10199544578790665,
        -0.13071830570697784,
        0.4845322072505951,
        -0.17762012779712677,
        -0.10597910732030869,
        0.09757889807224274,
        -0.1325310319662094,
        -0.0960455983877182,
        -0.2392905056476593,
        0.06406515836715698,
        0.12390194088220596,
        0.1409643441438675,
        0.18706466257572174,
        0.11209312826395035,
        0.08650007843971252,
        0.12812243402004242,
        0.07654904574155807,
        0.12531866133213043,
        -0.024086076766252518,
        -0.060741402208805084,
        0.03920020908117294,
        -0.045421674847602844,
        -0.13691923022270203,
        0.024717675521969795,
        -0.16922827064990997,
        0.030355257913470268,
        -0.025549601763486862,
        0.006277414970099926,
        0.04159777984023094,
        0.15402919054031372,
        0.20743528008460999,
        -0.08033372461795807,
        -0.21525178849697113,
        -0.28593239188194275,
        -0.09249397367238998,
        -0.26063868403434753,
        0.09449353069067001,
        0.24388109147548676,
        0.058499112725257874,
        0.046764589846134186,
        0.08812664449214935,
        -0.05305022746324539,
        -0.027971072122454643,
        0.017186883836984634,
        0.10736358910799026,
        -0.07876958698034286,
        -0.14448973536491394,
        0.2862902581691742,
        -0.2261262685060501,
        -0.23979288339614868,
        0.21998165547847748,
        0.3887347877025604,
        0.010742203332483768,
        0.1350376456975937,
        0.2178753912448883,
        -0.14098572731018066,
        0.2664566934108734,
        0.002983398735523224,
        0.05517575517296791,
        0.06577505171298981,
        0.023401347920298576,
        -0.07441376894712448,
        -0.24502606689929962,
        0.15737420320510864,
        0.298702597618103,
        0.37439388036727905,
        0.1993318796157837,
        0.10633333772420883,
        0.23846399784088135,
        0.03895195573568344,
        0.1084837093949318,
        -0.028740931302309036,
        -0.12295053154230118,
        -0.26173943281173706,
        0.06139105185866356,
        0.08052194118499756,
        -0.10969983786344528,
        0.06610758602619171,
        -0.05686688795685768,
        0.03234077990055084,
        -0.02457212656736374,
        0.1683097630739212,
        -0.06270268559455872,
        0.2567885220050812,
        -0.04039252549409866,
        0.011121994815766811,
        -0.0697009339928627,
        0.002394170965999365,
        -0.03547924757003784,
        -0.024469982832670212,
        -0.0951300710439682,
        0.06466714292764664,
        -0.08467067778110504,
        0.0604921355843544,
        -0.2080800086259842,
        0.04966028407216072,
        0.37475794553756714,
        0.0344456247985363,
        0.40921181440353394,
        -0.1669744849205017,
        -0.10162999480962753,
        -0.24729396402835846,
        -0.09460337460041046,
        -0.06084078177809715,
        0.007810452487319708,
        -0.09967604279518127,
        -0.07982758432626724,
        -0.12014134973287582,
        -0.08161335438489914,
        -0.0032136919908225536,
        0.16577014327049255,
        -0.225645050406456,
        0.22383178770542145,
        -0.10022669285535812,
        -0.3563675582408905,
        0.06312084197998047,
        -0.3838757276535034,
        -0.3220803141593933,
        0.11409354954957962,
        -0.039357710629701614,
        -0.08119124174118042,
        0.16147789359092712,
        0.06332989037036896,
        -0.014910013414919376,
        -0.02840297855436802,
        -0.20826153457164764,
        0.23203012347221375,
        -0.25264161825180054,
        -0.16399767994880676,
        -0.0710093155503273,
        0.14910781383514404,
        0.007799982093274593,
        0.1434425562620163,
        0.0145572479814291,
        -0.21502454578876495,
        -0.036724984645843506,
        0.060996320098638535,
        -0.03924630582332611,
        -0.024905560538172722,
        -0.183090478181839,
        0.14397825300693512,
        0.14250850677490234,
        0.11188490688800812,
        -0.027218006551265717,
        0.3714387118816376,
        0.3405148684978485,
        0.24219997227191925,
        0.09098108857870102,
        0.609656035900116,
        0.2773731052875519,
        -0.12167579680681229,
        0.12332901358604431,
        0.2626815736293793,
        0.03798365592956543,
        -0.2986828684806824,
        -0.28003573417663574,
        0.13178856670856476,
        -0.22628824412822723,
        0.2339066118001938,
        -0.01311799418181181,
        -0.0020119899418205023,
        0.17476460337638855,
        -0.22575823962688446,
        0.237633615732193,
        0.132943257689476,
        0.16143961250782013,
        -0.09799094498157501,
        0.1455368548631668,
        -0.06952330470085144,
        0.08461081981658936,
        0.13177305459976196,
        -0.09380563348531723,
        -0.08143282681703568,
        -0.12104202061891556,
        0.03653790056705475,
        0.22067533433437347,
        0.008164097554981709,
        0.1905411183834076,
        -0.08663705736398697,
        0.29358598589897156,
        -0.1218327209353447,
        0.058607764542102814,
        -0.012048374861478806,
        -0.031917307525873184,
        0.25605618953704834,
        -0.10712578147649765,
        0.09933053702116013,
        0.19184356927871704,
        -0.07401417940855026,
        -0.035214073956012726,
        -0.25599798560142517,
        0.08284793049097061,
        0.1148277297616005,
        -0.02193399704992771,
        -0.001669971039518714,
        0.14271841943264008,
        0.009160754270851612,
        0.019449250772595406,
        -0.06458384543657303,
        0.09917335212230682,
        0.027350692078471184,
        -0.12781766057014465,
        0.07869704067707062,
        0.05587102472782135,
        0.008248104713857174,
        -0.0983879566192627,
        -0.3019194006919861,
        -0.14355213940143585,
        0.05563175305724144,
        0.07175048440694809,
        0.11616870760917664,
        -0.08112596720457077,
        0.08110439777374268,
        -0.18166996538639069,
        0.17169305682182312,
        -0.04156699776649475,
        -0.1414465457201004,
        0.06421919167041779,
        0.0510096549987793,
        0.12355411052703857,
        0.12547433376312256,
        -0.0048982216976583,
        0.14186541736125946,
        -0.07599782198667526,
        0.3420056700706482,
        -0.5398625135421753,
        -0.20062139630317688,
        0.038740966469049454,
        0.2794884443283081,
        0.1267402023077011,
        -0.12615808844566345,
        -0.02368491142988205,
        0.3620767295360565,
        0.15198691189289093,
        0.0639328584074974,
        -0.2045617252588272,
        -0.03572409972548485,
        -0.05756627395749092,
        0.13456881046295166,
        -0.05796699970960617,
        -0.036303624510765076,
        0.10864730179309845,
        0.04147937148809433,
        0.2385638803243637,
        -0.26884394884109497,
        0.05955127999186516,
        -0.31074339151382446,
        0.09168024361133575,
        -0.045967306941747665,
        0.006282353308051825,
        -0.1084907129406929,
        0.09782348573207855,
        -0.14630691707134247,
        -0.11801831424236298,
        -0.14116348326206207,
        -0.16921770572662354,
        -0.1009431853890419,
        -0.029261386021971703,
        -0.09446130692958832,
        0.07435479760169983,
        -0.08393780887126923,
        -0.014028314501047134,
        0.10848374664783478,
        0.02326035499572754,
        0.0833934098482132,
        -0.06814570724964142,
        -0.0452728345990181,
        -0.22300392389297485,
        0.18447943031787872,
        0.09124927967786789,
        -0.04241378605365753,
        -0.09454277157783508,
        0.16907736659049988,
        -0.13112203776836395,
        -0.016683025285601616,
        -0.16946737468242645,
        0.14814238250255585
      ]
    },
    {
      "name": "dense_Dense18/bias",
      "shape": [
        16
      ],
      "dtype": "float32",
      "values": [
        -0.04854143410921097,
        -0.01080003846436739,
        0.004950509872287512,
        0.027068153023719788,
        -0.012486984953284264,
        0.019154617562890053,
        0.012130164541304111,
        0.025227678939700127,
        -0.008470766246318817,
        -0.16026100516319275,
        0.061307743191719055,
        -0.1444842368364334,
        -0.14387467503547668,
        -0.11522810161113739,
        -0.20028112828731537,
        -0.13698546588420868
      ]
    }
  ]
}
