{
  "version": 1,
  "createdAt": 1762644703959,
  "backend": "webgl",
  "config": {
    "inputSize": 19,
    "outputSize": 16,
    "hiddenLayers": [
      28
    ],
    "activation": "relu",
    "outputActivation": "tanh",
    "backend": "webgl",
    "seed": 1762644577377
  },
  "metadata": {
    "label": "06",
    "notes": "",
    "correlations": [
      {
        "id": "zerocrossrate-rotationspeed",
        "featureKey": "particlePosZ",
        "targetId": "colorB",
        "targetIndex": 6,
        "axis": "b",
        "group": "color",
        "featureIndex": null,
        "baseIndex": 2,
        "strength": 0.65,
        "polarity": "direct",
        "source": "particle"
      },
      {
        "id": "tempoproxy-wobblestrength",
        "featureKey": "particlePosX",
        "targetId": "colorR",
        "targetIndex": 4,
        "axis": "r",
        "group": "color",
        "featureIndex": null,
        "baseIndex": 0,
        "strength": 0.65,
        "polarity": "direct",
        "source": "particle"
      },
      {
        "id": "rms-wobblefrequency",
        "featureKey": "particlePosY",
        "targetId": "colorG",
        "targetIndex": 5,
        "axis": "g",
        "group": "color",
        "featureIndex": null,
        "baseIndex": 1,
        "strength": 0.65,
        "polarity": "direct",
        "source": "particle"
      },
      {
        "id": "bandsub-sizedelta",
        "featureKey": "bandSub",
        "targetId": "sizeDelta",
        "targetIndex": 3,
        "axis": null,
        "group": "size",
        "featureIndex": 3,
        "baseIndex": null,
        "strength": 0.65,
        "polarity": "direct",
        "source": "audio"
      },
      {
        "id": "bandbass-colorr",
        "featureKey": "bandBass",
        "targetId": "colorR",
        "targetIndex": 4,
        "axis": "r",
        "group": "color",
        "featureIndex": 4,
        "baseIndex": null,
        "strength": 0.65,
        "polarity": "direct",
        "source": "audio"
      },
      {
        "id": "bandlowmid-colorg",
        "featureKey": "bandLowMid",
        "targetId": "colorG",
        "targetIndex": 5,
        "axis": "g",
        "group": "color",
        "featureIndex": 5,
        "baseIndex": null,
        "strength": 0.65,
        "polarity": "direct",
        "source": "audio"
      },
      {
        "id": "bandmid-colorb",
        "featureKey": "bandMid",
        "targetId": "colorB",
        "targetIndex": 6,
        "axis": "b",
        "group": "color",
        "featureIndex": 6,
        "baseIndex": null,
        "strength": 0.65,
        "polarity": "direct",
        "source": "audio"
      },
      {
        "id": "bandhigh-flickerrate",
        "featureKey": "bandHigh",
        "targetId": "flickerRate",
        "targetIndex": 7,
        "axis": null,
        "group": "flickerRate",
        "featureIndex": 7,
        "baseIndex": null,
        "strength": 0.65,
        "polarity": "direct",
        "source": "audio"
      },
      {
        "id": "peak-flickerdepth",
        "featureKey": "peak",
        "targetId": "flickerDepth",
        "targetIndex": 8,
        "axis": null,
        "group": "flickerDepth",
        "featureIndex": 8,
        "baseIndex": null,
        "strength": 0.65,
        "polarity": "direct",
        "source": "audio"
      }
    ],
    "training": {
      "status": "completed",
      "epoch": 93,
      "epochs": 93,
      "loss": 0.0007061121286824346,
      "best": null,
      "metadata": {
        "status": "completed",
        "epochs": 93,
        "loss": 0.0007061121286824346,
        "sampleCount": 512,
        "batchSize": 8,
        "learningRate": 0.0015,
        "noise": 0.04,
        "seed": 1762644577377,
        "createdAt": 1762644691706,
        "correlations": [
          {
            "id": "zerocrossrate-rotationspeed",
            "featureKey": "particlePosZ",
            "targetId": "colorB",
            "strength": 0.65,
            "polarity": "direct",
            "achieved": 0.6991084498481137
          },
          {
            "id": "tempoproxy-wobblestrength",
            "featureKey": "particlePosX",
            "targetId": "colorR",
            "strength": 0.65,
            "polarity": "direct",
            "achieved": 0.7129400528474557
          },
          {
            "id": "rms-wobblefrequency",
            "featureKey": "particlePosY",
            "targetId": "colorG",
            "strength": 0.65,
            "polarity": "direct",
            "achieved": 0.6999993102783004
          },
          {
            "id": "bandsub-sizedelta",
            "featureKey": "bandSub",
            "targetId": "sizeDelta",
            "strength": 0.65,
            "polarity": "direct",
            "achieved": 0.9991343396410273
          },
          {
            "id": "bandbass-colorr",
            "featureKey": "bandBass",
            "targetId": "colorR",
            "strength": 0.65,
            "polarity": "direct",
            "achieved": 0.6440699496084944
          },
          {
            "id": "bandlowmid-colorg",
            "featureKey": "bandLowMid",
            "targetId": "colorG",
            "strength": 0.65,
            "polarity": "direct",
            "achieved": 0.6912071649388511
          },
          {
            "id": "bandmid-colorb",
            "featureKey": "bandMid",
            "targetId": "colorB",
            "strength": 0.65,
            "polarity": "direct",
            "achieved": 0.7174715447970378
          },
          {
            "id": "bandhigh-flickerrate",
            "featureKey": "bandHigh",
            "targetId": "flickerRate",
            "strength": 0.65,
            "polarity": "direct",
            "achieved": 0.9991354047314068
          },
          {
            "id": "peak-flickerdepth",
            "featureKey": "peak",
            "targetId": "flickerDepth",
            "strength": 0.65,
            "polarity": "direct",
            "achieved": 0.9990868122180536
          }
        ]
      }
    }
  },
  "weights": [
    {
      "name": "dense_Dense53/kernel",
      "shape": [
        19,
        28
      ],
      "dtype": "float32",
      "values": [
        -0.036119937896728516,
        0.04081348702311516,
        0.06299087405204773,
        0.13290748000144958,
        0.09875628352165222,
        -0.10854828357696533,
        0.0263009425252676,
        0.027222957462072372,
        -0.012402193620800972,
        -0.026729708537459373,
        0.02774178981781006,
        -0.19079220294952393,
        -0.05828746780753136,
        -0.019132276996970177,
        0.0014476428041234612,
        0.11622243374586105,
        0.12086683511734009,
        -0.03448156639933586,
        0.0009466551709920168,
        -0.070794016122818,
        0.07222568243741989,
        -0.03885887190699577,
        -0.0020809294655919075,
        0.201577290892601,
        0.12148336321115494,
        0.043186064809560776,
        -0.10251884907484055,
        0.10839177668094635,
        -0.08933635801076889,
        0.07411058992147446,
        0.27395424246788025,
        0.06106395646929741,
        0.04120393097400665,
        0.033189862966537476,
        0.07002723962068558,
        0.00184156047180295,
        0.004210981074720621,
        0.1324445903301239,
        -0.006146387662738562,
        -0.12723684310913086,
        0.14148874580860138,
        -0.04898079112172127,
        0.01830318011343479,
        -0.015642644837498665,
        -0.11549706012010574,
        -0.017993934452533722,
        0.046775199472904205,
        0.14403468370437622,
        0.1287597119808197,
        0.1507546305656433,
        0.05008690059185028,
        -0.11843180656433105,
        0.08467154949903488,
        0.11173607409000397,
        0.13411732017993927,
        -0.03248221054673195,
        0.012326660566031933,
        0.07787766307592392,
        -0.07502543181180954,
        -0.014651432633399963,
        -0.08846765011548996,
        0.0033068659249693155,
        0.029058381915092468,
        -0.04810324311256409,
        0.048628076910972595,
        0.08744872361421585,
        -0.060929007828235626,
        -0.06319110840559006,
        0.2490587681531906,
        -0.0328289233148098,
        -0.03311730921268463,
        -0.0013902531936764717,
        0.07934442907571793,
        -0.030186835676431656,
        -0.05541800335049629,
        0.10023359209299088,
        -0.07682490348815918,
        -0.05645130202174187,
        -0.07168445736169815,
        0.05549459531903267,
        0.019156042486429214,
        0.07123910635709763,
        -0.07925620675086975,
        -0.33381059765815735,
        0.14921225607395172,
        0.1872110366821289,
        -0.20079496502876282,
        0.1995617300271988,
        0.33100205659866333,
        0.06179731711745262,
        -0.25211822986602783,
        -0.03977779671549797,
        0.11506626009941101,
        -0.061133868992328644,
        -0.03148335963487625,
        -0.10746823251247406,
        -0.21365241706371307,
        -0.03562096878886223,
        0.04471740126609802,
        -0.1117950901389122,
        -0.23783549666404724,
        -0.011066419072449207,
        0.10866168141365051,
        -0.13245785236358643,
        0.2885701060295105,
        0.16533908247947693,
        0.06201536953449249,
        -0.33721715211868286,
        -0.20992904901504517,
        0.13239550590515137,
        0.20449616014957428,
        -0.2899155914783478,
        0.22182480990886688,
        0.22076700627803802,
        -0.0381760373711586,
        -0.003435535356402397,
        -0.026211364194750786,
        -0.045002952218055725,
        -0.3316890597343445,
        0.009276852011680603,
        0.09049513936042786,
        -0.14282964169979095,
        0.25061526894569397,
        -0.17248325049877167,
        -0.21054385602474213,
        0.051055800169706345,
        0.05774591490626335,
        -0.06653369963169098,
        0.14508531987667084,
        0.26705029606819153,
        0.22681203484535217,
        -0.06986583769321442,
        -0.04920588806271553,
        0.02046225219964981,
        0.20463348925113678,
        0.03487909957766533,
        -0.40412256121635437,
        0.24321410059928894,
        -0.1502108871936798,
        -0.1263425350189209,
        -0.014418497681617737,
        -0.009801932610571384,
        0.14175522327423096,
        -0.004862633999437094,
        0.011470749974250793,
        0.020093189552426338,
        -0.03690006956458092,
        0.06332463771104813,
        -0.02809714339673519,
        -0.030461711809039116,
        0.06585094332695007,
        -0.08115846663713455,
        -0.12258996814489365,
        0.1516464650630951,
        -0.05464760214090347,
        -0.10837069153785706,
        0.21130719780921936,
        0.17321154475212097,
        0.09740547090768814,
        -0.02824331261217594,
        -0.0015752933686599135,
        0.01003244612365961,
        -0.07234874367713928,
        -0.27674636244773865,
        -0.17231333255767822,
        0.05928231030702591,
        0.018155977129936218,
        0.19294413924217224,
        0.003909019753336906,
        0.0029076458886265755,
        0.1928192526102066,
        -0.0373893566429615,
        -0.027836963534355164,
        0.07279042899608612,
        0.19881296157836914,
        -0.0002967399195767939,
        -0.06242193281650543,
        -0.18015289306640625,
        0.03816403076052666,
        0.0500907264649868,
        -0.13601048290729523,
        0.04104449972510338,
        0.004000077024102211,
        0.13327369093894958,
        0.12893922626972198,
        0.02472744882106781,
        0.06632836163043976,
        0.021124642342329025,
        -0.08765188604593277,
        -0.07587900757789612,
        0.022823385894298553,
        -0.17052707076072693,
        -0.2794545292854309,
        0.07465188205242157,
        -0.08690883219242096,
        0.01093436498194933,
        0.009975669905543327,
        -0.14742572605609894,
        0.1925605833530426,
        0.07660387456417084,
        0.32248401641845703,
        0.03139609470963478,
        -0.11689876019954681,
        0.19697412848472595,
        0.06252580881118774,
        0.09799767285585403,
        -0.027919944375753403,
        0.21587269008159637,
        -0.16512702405452728,
        -0.405914306640625,
        -0.03440767154097557,
        0.38214829564094543,
        -0.008411490358412266,
        0.23301030695438385,
        0.4093087613582611,
        -0.2928144931793213,
        -0.025998685508966446,
        -0.10746493935585022,
        -0.25657933950424194,
        0.03054688684642315,
        0.3080267608165741,
        0.33699876070022583,
        -0.17917481064796448,
        0.12876608967781067,
        -0.003228436689823866,
        -0.0308261476457119,
        -0.05093098804354668,
        -0.05755668133497238,
        -0.08072766661643982,
        -0.2473379522562027,
        0.1691824048757553,
        0.14615538716316223,
        -0.05603715777397156,
        -0.3171091675758362,
        0.17690809071063995,
        -0.2132197767496109,
        -0.19412200152873993,
        -0.2551506757736206,
        -0.0815805122256279,
        -0.27654656767845154,
        0.013962235301733017,
        -0.1352154016494751,
        0.17140942811965942,
        -0.20013734698295593,
        -0.12144409865140915,
        -0.03680960088968277,
        -0.050659503787755966,
        0.023053359240293503,
        -0.03317548334598541,
        0.09242947399616241,
        -0.03607851639389992,
        0.01855842024087906,
        0.12684567272663116,
        0.08455630391836166,
        0.09451804310083389,
        0.1100212037563324,
        -0.032414402812719345,
        -0.3126693665981293,
        0.017688008025288582,
        0.24176281690597534,
        0.21313722431659698,
        0.05742156133055687,
        0.11331114172935486,
        0.1878853291273117,
        0.03472357615828514,
        -0.293781042098999,
        0.04798038303852081,
        -0.2646712064743042,
        -0.12573641538619995,
        -0.17759037017822266,
        -0.04933112487196922,
        -0.09136144071817398,
        0.01757088117301464,
        0.15302206575870514,
        0.19223269820213318,
        0.050024207681417465,
        -0.11614550650119781,
        -0.0873207300901413,
        0.22556260228157043,
        0.08240543305873871,
        0.009662702679634094,
        -0.006419201381504536,
        -0.12145423889160156,
        0.0215180441737175,
        0.05445554107427597,
        0.004225033335387707,
        -0.13385653495788574,
        0.16274850070476532,
        -0.09450004249811172,
        0.09479694813489914,
        0.09902241080999374,
        -0.2357894629240036,
        0.09769506007432938,
        -0.03861340880393982,
        -0.04012196883559227,
        0.15243400633335114,
        -0.15193694829940796,
        0.0678672045469284,
        0.18897166848182678,
        0.18928401172161102,
        -0.0921863242983818,
        -0.06123754009604454,
        0.00881087314337492,
        0.021148445084691048,
        0.03313872218132019,
        0.1423960030078888,
        0.06580422818660736,
        -0.032564956694841385,
        0.05606326833367348,
        0.3273245692253113,
        -0.14957685768604279,
        -0.6848891377449036,
        0.6068905591964722,
        -0.11739188432693481,
        -0.2343403697013855,
        0.09096268564462662,
        -0.4829423725605011,
        0.07916302233934402,
        0.39545702934265137,
        -0.14340880513191223,
        -0.057188425213098526,
        -0.0001673029037192464,
        -0.14537103474140167,
        0.3862033784389496,
        -0.20993846654891968,
        -0.0973823219537735,
        -0.6665076017379761,
        -0.41863927245140076,
        0.16846974194049835,
        0.011459358967840672,
        0.12803423404693604,
        -0.2312774658203125,
        -0.3490183353424072,
        0.041838109493255615,
        0.0694129541516304,
        0.01038298662751913,
        -0.3195270001888275,
        0.10612142086029053,
        0.3230859339237213,
        0.808427631855011,
        0.2521146237850189,
        0.019947364926338196,
        0.26181745529174805,
        0.5430800914764404,
        -0.007743648253381252,
        -0.3106529712677002,
        0.30338460206985474,
        -0.24595659971237183,
        -0.00404950138181448,
        -0.11043210327625275,
        0.02015826664865017,
        -0.0668788030743599,
        -0.17500479519367218,
        0.06772376596927643,
        -0.23497328162193298,
        -0.0906522125005722,
        0.15731081366539001,
        -0.33431535959243774,
        0.14131566882133484,
        0.2764720916748047,
        0.010422507300972939,
        -0.03045511059463024,
        -0.6572863459587097,
        -0.19148729741573334,
        -0.6664389967918396,
        0.31078651547431946,
        -0.10236871987581253,
        -0.015705155208706856,
        -0.547663152217865,
        -0.2936271131038666,
        0.07214252650737762,
        0.05532392859458923,
        -0.05631907656788826,
        -0.011757727712392807,
        0.1220950335264206,
        -0.29066091775894165,
        -0.13344384729862213,
        0.11955447494983673,
        0.2327747792005539,
        -0.14906610548496246,
        -0.3574659526348114,
        -0.1582113653421402,
        0.04377083480358124,
        -0.26104965806007385,
        0.10485593229532242,
        0.6323155760765076,
        0.6299188137054443,
        -0.016667790710926056,
        -0.1331355720758438,
        0.5227685570716858,
        0.3484211266040802,
        0.10319069772958755,
        0.18529684841632843,
        0.6329092383384705,
        -0.0877816379070282,
        0.21506576240062714,
        -0.20630142092704773,
        -0.30229121446609497,
        -0.10019993782043457,
        0.11076845228672028,
        0.38762596249580383,
        0.1261950582265854,
        -0.3696621060371399,
        -0.4153285026550293,
        0.062008656561374664,
        -0.22213472425937653,
        -0.23865151405334473,
        -0.14035755395889282,
        0.07550641149282455,
        -0.15660497546195984,
        -0.1712598204612732,
        0.3567253053188324,
        -0.37627890706062317,
        -0.2302907407283783,
        -0.4096793234348297,
        -0.010388493537902832,
        0.3400231897830963,
        0.6387802362442017,
        0.03399737924337387,
        -0.2612113356590271,
        0.20942921936511993,
        0.4818758964538574,
        -0.34871602058410645,
        -0.19409383833408356,
        0.23655147850513458,
        -0.16294850409030914,
        -0.11998133361339569,
        0.7145797610282898,
        0.03921162709593773,
        -0.5184897184371948,
        -0.007988529279828072,
        -0.30443304777145386,
        -0.022564785555005074,
        0.014147722162306309,
        0.743372917175293,
        0.06827741861343384,
        -0.19595658779144287,
        -0.20893381536006927,
        0.4990819990634918,
        -0.181047722697258,
        0.07193296402692795,
        0.557835578918457,
        -0.12246197462081909,
        -0.14070606231689453,
        0.042825523763895035,
        0.13183027505874634,
        -0.05287979170680046,
        -0.020879041403532028,
        0.23498159646987915,
        -0.6908119320869446,
        -0.06073158234357834,
        0.19920559227466583,
        0.12848874926567078,
        -0.13458244502544403,
        0.23891186714172363,
        -0.13650478422641754,
        0.053222253918647766,
        -0.31845271587371826,
        0.34146013855934143,
        -0.2047610878944397,
        -0.21858704090118408,
        0.2834835648536682,
        0.5142298340797424,
        -0.420747846364975,
        -0.05318891629576683,
        0.04408939927816391,
        -0.2406298816204071,
        -0.25708115100860596,
        -0.23325568437576294,
        0.4486851990222931,
        -0.18981002271175385,
        -0.3493068516254425,
        0.022753896191716194,
        0.6170885562896729,
        0.058030594140291214,
        0.09311432391405106,
        0.0591675229370594,
        0.0423898808658123,
        -0.3160442113876343,
        0.09374978393316269,
        0.03248264268040657,
        -0.30416202545166016,
        -0.28200456500053406,
        0.044937118887901306,
        0.15889716148376465,
        0.07922253012657166,
        -0.057368285953998566,
        0.1668565273284912,
        0.06879937648773193,
        -0.15189126133918762,
        0.05059267207980156,
        -0.27489399909973145,
        0.08316314220428467,
        -0.10879270732402802,
        -0.13954563438892365,
        0.0131028788164258,
        0.106874480843544,
        0.11360929161310196,
        0.08304744958877563,
        -0.03783624619245529,
        0.07620406895875931,
        -0.14034010469913483,
        0.1727166622877121,
        0.11909808218479156,
        0.15789024531841278,
        0.13990718126296997,
        0.057489849627017975,
        0.15219168365001678,
        0.14817729592323303,
        0.03814292326569557,
        -0.02229105494916439,
        0.14946776628494263,
        0.12351316213607788,
        0.07234006375074387,
        0.04471474885940552,
        0.06929074972867966,
        -0.1595158725976944,
        -0.2148120403289795,
        0.0724344551563263,
        -0.41282176971435547,
        -0.06954739987850189,
        -0.44943416118621826,
        0.06301974505186081,
        0.009462801739573479,
        0.06546847522258759,
        0.09714067727327347,
        0.20220805704593658,
        0.028195222839713097,
        -0.07953435182571411,
        0.06428509205579758,
        0.22868117690086365,
        -0.14204055070877075
      ]
    },
    {
      "name": "dense_Dense53/bias",
      "shape": [
        28
      ],
      "dtype": "float32",
      "values": [
        0.28046658635139465,
        -0.14008721709251404,
        -0.10437323898077011,
        0.15558207035064697,
        -0.0359182246029377,
        -0.12230649590492249,
        -0.014666692353785038,
        -0.25279557704925537,
        -0.00972097646445036,
        -0.0875946506857872,
        0.020043376833200455,
        -0.028949737548828125,
        -0.07455895841121674,
        -0.058771681040525436,
        -0.08832444995641708,
        -0.0259327981621027,
        0,
        -0.1119089350104332,
        0.5384993553161621,
        -0.03584156185388565,
        0.01504236739128828,
        -0.2289247363805771,
        0.26577210426330566,
        -0.09924335032701492,
        -0.0852927416563034,
        -0.4092540144920349,
        0.32365527749061584,
        -0.10118076950311661
      ]
    },
    {
      "name": "dense_Dense54/kernel",
      "shape": [
        28,
        16
      ],
      "dtype": "float32",
      "values": [
        -0.07676245272159576,
        -0.031188596040010452,
        0.040540911257267,
        0.049489181488752365,
        -0.4607124626636505,
        -0.8391395807266235,
        0.1215071976184845,
        0.00969490222632885,
        0.13234637677669525,
        0.03418944776058197,
        0.15654192864894867,
        -0.1685858517885208,
        0.05435707047581673,
        -0.002802056260406971,
        -0.10720311105251312,
        0.08464472740888596,
        0.0003749087918549776,
        0.06739366054534912,
        0.03822848200798035,
        0.23088540136814117,
        0.010249498300254345,
        0.17661355435848236,
        0.5256507992744446,
        0.20060329139232635,
        -0.5267195701599121,
        -0.03154468163847923,
        0.15251800417900085,
        0.14213712513446808,
        -0.01810472458600998,
        0.10602859407663345,
        0.07123880833387375,
        0.0034566617105156183,
        0.018960444256663322,
        0.07164148986339569,
        0.14688748121261597,
        -0.1364266276359558,
        0.11775137484073639,
        0.10991280525922775,
        -0.07089965790510178,
        0.15345923602581024,
        -0.06320396810770035,
        -0.028059957548975945,
        -0.09199560433626175,
        -0.3586694300174713,
        -0.20134131610393524,
        -0.08736930787563324,
        -0.028769781813025475,
        -0.14572343230247498,
        -0.033924929797649384,
        0.038364943116903305,
        0.042997416108846664,
        -0.5423182845115662,
        0.5636917948722839,
        -0.05413411557674408,
        0.129743754863739,
        -0.35317280888557434,
        0.20448987185955048,
        -0.005566347390413284,
        0.23341606557369232,
        0.07738843560218811,
        0.04440000653266907,
        0.08769103139638901,
        0.027164172381162643,
        0.05264357477426529,
        0.054481469094753265,
        -0.005475490354001522,
        -0.06998966634273529,
        0.35635846853256226,
        0.15537793934345245,
        -0.35042333602905273,
        -0.16211038827896118,
        0.10065791010856628,
        0.1511002629995346,
        0.005009125452488661,
        -0.10713871568441391,
        0.17699363827705383,
        0.05248313397169113,
        -0.03485838323831558,
        0.1055733934044838,
        -0.045574117451906204,
        0.11430106312036514,
        -0.3227382004261017,
        0.02471100352704525,
        0.23554173111915588,
        0.09923648089170456,
        -0.08108853548765182,
        -0.1370530128479004,
        -0.26251891255378723,
        0.3171488344669342,
        -0.009920855052769184,
        0.1744905263185501,
        0.232696995139122,
        -0.15994933247566223,
        0.05274408310651779,
        -0.15430817008018494,
        0.17618681490421295,
        -0.15323399007320404,
        -0.024344943463802338,
        0.2572419047355652,
        0.2573915421962738,
        0.14337241649627686,
        0.030162721872329712,
        0.19889506697654724,
        0.45129868388175964,
        -0.14479315280914307,
        0.002607865957543254,
        -0.177049458026886,
        0.38131171464920044,
        0.05068935453891754,
        0.07560931891202927,
        0.3517591059207916,
        0.10255858302116394,
        -0.019674601033329964,
        -0.06267496198415756,
        -0.01974053494632244,
        0.18977952003479004,
        0.4564928412437439,
        -0.08538705855607986,
        0.1836005300283432,
        0.5631365776062012,
        -0.15877492725849152,
        0.03346192091703415,
        -0.08898212015628815,
        -0.16435854136943817,
        0.02346830628812313,
        -0.08654853701591492,
        -0.08835748583078384,
        0.0170732494443655,
        0.07999890297651291,
        -0.014920460991561413,
        -0.07743076235055923,
        -0.26434069871902466,
        0.0828169509768486,
        -0.06764578074216843,
        0.24285252392292023,
        -0.03624781593680382,
        0.05704407021403313,
        -0.007341852877289057,
        -0.3470456600189209,
        0.05588454380631447,
        -0.07036000490188599,
        -0.08708704262971878,
        0.05726730450987816,
        -0.11176330596208572,
        -0.12720532715320587,
        0.11016463488340378,
        -0.12469742447137833,
        -0.1507759988307953,
        0.003693514969199896,
        0.03610953688621521,
        -0.161992147564888,
        -0.2613169848918915,
        -0.03792014345526695,
        -0.0167058315128088,
        -0.031667303293943405,
        0.2203681617975235,
        0.024633383378386497,
        0.27356696128845215,
        -0.03248152136802673,
        0.0693550556898117,
        0.02080296166241169,
        0.08616384118795395,
        0.04395798593759537,
        0.2883639633655548,
        0.24332794547080994,
        -0.027751028537750244,
        -0.444600909948349,
        -0.4140511751174927,
        0.2906647026538849,
        -0.05164087191224098,
        0.03824934735894203,
        0.121910959482193,
        -0.10665159672498703,
        0.10778696089982986,
        0.07080983370542526,
        -0.04340905696153641,
        0.005776397418230772,
        -0.13970527052879333,
        -0.02955913543701172,
        -0.05309607461094856,
        0.1329013556241989,
        0.21641160547733307,
        -0.3628619313240051,
        0.19799722731113434,
        0.15032264590263367,
        0.3909918963909149,
        0.04624740406870842,
        0.3950996994972229,
        0.19735415279865265,
        0.01851152628660202,
        -0.17213505506515503,
        0.02683386020362377,
        0.23179218173027039,
        -0.012781523168087006,
        0.06922195106744766,
        0.347425252199173,
        -0.13619810342788696,
        -0.11478415131568909,
        -0.3151271343231201,
        0.028667772188782692,
        -0.11837437003850937,
        0.10919012129306793,
        0.09642414003610611,
        -0.30464908480644226,
        0.2243773192167282,
        0.04944818466901779,
        -0.06304406374692917,
        0.0646427646279335,
        -0.06213532015681267,
        -0.0005889899330213666,
        -0.03043968416750431,
        -0.26092422008514404,
        -0.06629921495914459,
        0.2890063226222992,
        -0.0632466971874237,
        0.02011006884276867,
        0.1207268163561821,
        -0.188451886177063,
        -0.1148197129368782,
        0.30568140745162964,
        -0.003067299257963896,
        -0.23615534603595734,
        0.052686892449855804,
        0.16163524985313416,
        0.039736002683639526,
        0.06563260406255722,
        0.05412860959768295,
        -0.22862358391284943,
        0.05998368561267853,
        0.10498232394456863,
        -0.32796916365623474,
        0.6869891881942749,
        0.40584006905555725,
        -0.07374788820743561,
        -0.02990547940135002,
        0.007956398651003838,
        -0.16656999289989471,
        0.08251451700925827,
        0.010611522011458874,
        -0.05924728885293007,
        -0.15077711641788483,
        -0.20569582283496857,
        0.16225051879882812,
        0.10796317458152771,
        -0.46891331672668457,
        -0.32563599944114685,
        0.009105589240789413,
        0.38377490639686584,
        -0.0027391454204916954,
        -0.22675566375255585,
        -0.20994223654270172,
        -0.32282835245132446,
        0.045841652899980545,
        0.28906741738319397,
        0.06964344531297684,
        0.2714560925960541,
        0.4206783175468445,
        0.2611880898475647,
        0.17871861159801483,
        0.1524301916360855,
        -0.12026121467351913,
        0.1497805416584015,
        0.19364602863788605,
        -0.11137393116950989,
        -0.4149305820465088,
        -0.0024252221919596195,
        -0.06326670199632645,
        0.25412166118621826,
        -0.20736399292945862,
        -0.22336626052856445,
        -0.23524445295333862,
        0.21523545682430267,
        0.233063742518425,
        0.22196510434150696,
        -0.24678926169872284,
        -0.14544661343097687,
        -0.014611240476369858,
        0.14912021160125732,
        0.0016002871561795473,
        -0.09637928754091263,
        -0.18500278890132904,
        -0.1444893330335617,
        0.20982617139816284,
        -0.16788610816001892,
        -0.061418723315000534,
        -0.027981707826256752,
        0.1759849190711975,
        -0.059864453971385956,
        0.015022916719317436,
        0.006018336862325668,
        -0.01300856377929449,
        -0.6467665433883667,
        -0.31422093510627747,
        -0.0706200897693634,
        -0.4970964789390564,
        0.18720169365406036,
        -0.3950127959251404,
        -0.0039271763525903225,
        -0.026744119822978973,
        0.049160439521074295,
        1.6420694009866565e-05,
        0.00018631205603014678,
        0.030143557116389275,
        -0.016526082530617714,
        0.015843180939555168,
        -0.0018504272447898984,
        -0.030457613989710808,
        -0.19037792086601257,
        -0.3545485734939575,
        -0.16617260873317719,
        0.25057488679885864,
        0.08574966341257095,
        -0.4087851345539093,
        0.015438108704984188,
        -0.03948845714330673,
        -0.003375242231413722,
        0.16120915114879608,
        -0.06000852584838867,
        0.01355805341154337,
        0.1172393262386322,
        -0.03179532662034035,
        -0.03913223743438721,
        0.042708102613687515,
        0.10155016928911209,
        0.3414348065853119,
        0.19603414833545685,
        -0.3901107907295227,
        0.04072574898600578,
        -0.31206178665161133,
        -5.280713230604306e-05,
        -0.11680325865745544,
        -0.31954193115234375,
        -0.1131676509976387,
        -0.05553840473294258,
        -0.16974873840808868,
        0.003532818052917719,
        -0.04801052436232567,
        -0.03119649738073349,
        -0.0409216433763504,
        0.056033890694379807,
        -0.24498340487480164,
        0.2693386971950531,
        0.019399691373109818,
        0.30903440713882446,
        0.29855647683143616,
        0.06982367485761642,
        0.17060965299606323,
        0.11666657030582428,
        0.20916242897510529,
        -0.02106194570660591,
        0.049551982432603836,
        0.08240810036659241,
        -0.00417864415794611,
        -0.057073451578617096,
        -0.04630598425865173,
        0.041482046246528625,
        -0.007592166308313608,
        0.36730125546455383,
        -0.45521053671836853,
        -0.2906818091869354,
        -0.2594445049762726,
        0.037153199315071106,
        -0.07159236073493958,
        -0.051889751106500626,
        0.07121352106332779,
        -0.08058608323335648,
        -0.027246510609984398,
        0.009912231005728245,
        -0.0029379103798419237,
        -0.365584135055542,
        0.16020748019218445,
        0.03122767060995102,
        -0.38416236639022827,
        0.05434965342283249,
        -0.03705420345067978,
        0.17521604895591736,
        0.3077491521835327,
        -0.17587123811244965,
        -0.14304296672344208,
        -0.18286512792110443,
        -0.024859284982085228,
        -0.30350860953330994,
        -0.16941887140274048,
        0.04203770309686661,
        -0.22025105357170105,
        0.1029006689786911,
        -0.07862706482410431,
        -0.10509373992681503,
        0.15158964693546295,
        -0.09715407341718674,
        0.4084634780883789,
        0.10489415377378464,
        0.1541677713394165,
        -0.1552392691373825,
        -0.0015003132866695523,
        -0.03934859484434128,
        -0.039420969784259796,
        0.10215705633163452,
        0.06282377243041992,
        -0.13778814673423767,
        -0.001513739232905209,
        -0.05130212754011154,
        -0.016527416184544563,
        0.18915316462516785,
        0.10132483392953873,
        0.47267651557922363,
        0.5854122638702393,
        -0.09745477885007858,
        0.4379963278770447,
        0.015505987219512463,
        -0.1326923370361328,
        -0.15949605405330658,
        -0.020666563883423805,
        -0.07910671085119247,
        -0.08154703676700592,
        -0.0082439836114645,
        0.022452695295214653,
        0.05549124628305435,
        0.04542684182524681,
        -0.003670895006507635,
        -0.6057597994804382,
        0.18080617487430573,
        0.02259296551346779,
        -0.3488307297229767,
        0.025144124403595924,
        -0.053815826773643494,
        0.02817479334771633,
        0.03148826211690903,
        -0.10603614151477814,
        0.07780767232179642,
        0.018736446276307106,
        -0.03223142400383949,
        0.03520134091377258,
        -0.006733628921210766,
        -0.08268377184867859,
        0.045964933931827545,
        -0.2106475979089737,
        0.16719946265220642,
        -0.12961509823799133,
        0.07331909239292145,
        0.241318479180336,
        0.045973941683769226,
        0.15696148574352264,
        -0.16505715250968933,
        -0.005645678844302893,
        0.16634006798267365,
        -0.029521364718675613,
        -0.05424835905432701
      ]
    },
    {
      "name": "dense_Dense54/bias",
      "shape": [
        16
      ],
      "dtype": "float32",
      "values": [
        0.008862612769007683,
        -0.03544066846370697,
        -0.027855971828103065,
        -0.13415662944316864,
        -0.23966650664806366,
        -0.3693489730358124,
        -0.07063209265470505,
        -0.29176759719848633,
        -0.2875009775161743,
        0.017338242381811142,
        -0.07755134999752045,
        -0.036188043653964996,
        0.02705479972064495,
        -0.061175864189863205,
        -0.016397511586546898,
        0.001865207334049046
      ]
    }
  ]
}
