{
  "version": 1,
  "createdAt": 1762596445947,
  "backend": "webgl",
  "config": {
    "inputSize": 19,
    "outputSize": 16,
    "hiddenLayers": [
      32
    ],
    "activation": "relu",
    "outputActivation": "tanh",
    "backend": "webgl",
    "seed": 1762596416433
  },
  "metadata": {
    "label": "07",
    "notes": "",
    "correlations": [
      {
        "id": "rms-deltaposx",
        "featureKey": "rms",
        "targetId": "deltaPosX",
        "targetIndex": 0,
        "axis": "x",
        "group": "deltaPos",
        "featureIndex": 0,
        "strength": 0.65,
        "polarity": "direct"
      },
      {
        "id": "speccentroid-deltaposy",
        "featureKey": "rms",
        "targetId": "deltaPosY",
        "targetIndex": 1,
        "axis": "y",
        "group": "deltaPos",
        "featureIndex": 0,
        "strength": 0.65,
        "polarity": "direct"
      },
      {
        "id": "specrolloff-deltaposz",
        "featureKey": "specRolloff",
        "targetId": "deltaPosZ",
        "targetIndex": 2,
        "axis": "z",
        "group": "deltaPos",
        "featureIndex": 2,
        "strength": 0.65,
        "polarity": "direct"
      },
      {
        "id": "bandbass-sizedelta",
        "featureKey": "bandBass",
        "targetId": "sizeDelta",
        "targetIndex": 3,
        "axis": null,
        "group": "size",
        "featureIndex": 4,
        "strength": 0.65,
        "polarity": "direct"
      },
      {
        "id": "bandmid-colorr",
        "featureKey": "bandMid",
        "targetId": "colorR",
        "targetIndex": 4,
        "axis": "r",
        "group": "color",
        "featureIndex": 6,
        "strength": 0.65,
        "polarity": "direct"
      },
      {
        "id": "bandhigh-colorg",
        "featureKey": "bandHigh",
        "targetId": "colorG",
        "targetIndex": 5,
        "axis": "g",
        "group": "color",
        "featureIndex": 7,
        "strength": 0.65,
        "polarity": "direct"
      },
      {
        "id": "peak-colorb",
        "featureKey": "peak",
        "targetId": "colorB",
        "targetIndex": 6,
        "axis": "b",
        "group": "color",
        "featureIndex": 8,
        "strength": 0.65,
        "polarity": "direct"
      },
      {
        "id": "zerocrossrate-flickerrate",
        "featureKey": "zeroCrossRate",
        "targetId": "flickerRate",
        "targetIndex": 7,
        "axis": null,
        "group": "flickerRate",
        "featureIndex": 9,
        "strength": 0.65,
        "polarity": "direct"
      },
      {
        "id": "tempoproxy-flickerdepth",
        "featureKey": "tempoProxy",
        "targetId": "flickerDepth",
        "targetIndex": 8,
        "axis": null,
        "group": "flickerDepth",
        "featureIndex": 10,
        "strength": 0.65,
        "polarity": "direct"
      },
      {
        "id": "rms-rotationspeed",
        "featureKey": "rms",
        "targetId": "rotationSpeed",
        "targetIndex": 9,
        "axis": null,
        "group": "rotationSpeed",
        "featureIndex": 0,
        "strength": 0.65,
        "polarity": "direct"
      },
      {
        "id": "speccentroid-wobblestrength",
        "featureKey": "specCentroid",
        "targetId": "wobbleStrength",
        "targetIndex": 10,
        "axis": null,
        "group": "wobbleStrength",
        "featureIndex": 1,
        "strength": 0.65,
        "polarity": "direct"
      },
      {
        "id": "specrolloff-wobblefrequency",
        "featureKey": "specRolloff",
        "targetId": "wobbleFrequency",
        "targetIndex": 11,
        "axis": null,
        "group": "wobbleFrequency",
        "featureIndex": 2,
        "strength": 0.65,
        "polarity": "direct"
      },
      {
        "id": "bandbass-colormix",
        "featureKey": "bandBass",
        "targetId": "colorMix",
        "targetIndex": 12,
        "axis": null,
        "group": "colorMix",
        "featureIndex": 4,
        "strength": 0.65,
        "polarity": "direct"
      },
      {
        "id": "bandmid-alphascale",
        "featureKey": "bandMid",
        "targetId": "alphaScale",
        "targetIndex": 13,
        "axis": null,
        "group": "alphaScale",
        "featureIndex": 6,
        "strength": 0.65,
        "polarity": "direct"
      },
      {
        "id": "bandhigh-pointscale",
        "featureKey": "bandHigh",
        "targetId": "pointScale",
        "targetIndex": 14,
        "axis": null,
        "group": "pointScale",
        "featureIndex": 7,
        "strength": 0.65,
        "polarity": "direct"
      },
      {
        "id": "bandlowmid-camerazoom",
        "featureKey": "bandLowMid",
        "targetId": "cameraZoom",
        "targetIndex": 15,
        "axis": null,
        "group": "cameraZoom",
        "featureIndex": 5,
        "strength": 0.65,
        "polarity": "direct"
      }
    ],
    "training": {
      "status": "idle",
      "epoch": 0,
      "epochs": 24,
      "loss": null,
      "best": null,
      "metadata": null
    }
  },
  "weights": [
    {
      "name": "dense_Dense17/kernel",
      "shape": [
        19,
        32
      ],
      "dtype": "float32",
      "values": [
        -0.4335719645023346,
        -0.05243130773305893,
        -0.242396280169487,
        -0.04869288578629494,
        -0.371939092874527,
        0.49884849786758423,
        0.06119229272007942,
        -0.324236124753952,
        -0.057874228805303574,
        0.1849781721830368,
        0.047309208661317825,
        0.006508497521281242,
        -0.4285230040550232,
        -0.21425826847553253,
        0.42800045013427734,
        -0.3972381353378296,
        0.05741087719798088,
        0.43560555577278137,
        0.25253790616989136,
        -0.17017844319343567,
        -0.4306575059890747,
        0.15297183394432068,
        0.12188385426998138,
        -0.05935874208807945,
        -0.15105673670768738,
        0.027762383222579956,
        -0.06110050529241562,
        -0.17269688844680786,
        -0.11440078169107437,
        -0.20001929998397827,
        0.45949071645736694,
        -0.13499514758586884,
        -0.17182038724422455,
        -0.29035577178001404,
        -0.11698208004236221,
        -0.22034238278865814,
        -0.4574313461780548,
        -0.28081563115119934,
        0.28921979665756226,
        -0.2453003227710724,
        0.0760432556271553,
        0.39954981207847595,
        0.2873297333717346,
        0.04415074363350868,
        -0.05176135525107384,
        0.0960979089140892,
        0.41423729062080383,
        -0.06614901125431061,
        0.12896446883678436,
        -0.12349691241979599,
        0.1409023106098175,
        0.12258453667163849,
        0.04044848307967186,
        -0.2249370664358139,
        -0.3946835994720459,
        -0.37840551137924194,
        -0.14530952274799347,
        0.41468071937561035,
        0.28875845670700073,
        -0.05651291459798813,
        0.3863077163696289,
        0.44520363211631775,
        0.3851813077926636,
        0.28236663341522217,
        0.3070926368236542,
        0.22399555146694183,
        0.09288792312145233,
        -0.05018986389040947,
        -0.15810523927211761,
        -0.0038355516735464334,
        -0.07642913609743118,
        -0.07411988824605942,
        0.41069960594177246,
        -0.1639910489320755,
        -0.04336784780025482,
        0.29428693652153015,
        -0.08045869320631027,
        0.11933255195617676,
        0.03481533005833626,
        0.45832645893096924,
        -0.37674564123153687,
        0.10391049832105637,
        -0.48207974433898926,
        0.1363617479801178,
        0.2435528188943863,
        0.22345656156539917,
        -0.43811994791030884,
        -0.43194863200187683,
        0.4544682204723358,
        0.23939110338687897,
        0.40946128964424133,
        0.45715567469596863,
        -0.22023719549179077,
        0.21104922890663147,
        -0.3866155743598938,
        0.27900195121765137,
        -0.19299675524234772,
        -0.20714829862117767,
        0.35304519534111023,
        0.44855308532714844,
        -0.46879616379737854,
        0.10824666172266006,
        0.11459408700466156,
        -0.30908018350601196,
        -0.06362786889076233,
        0.454052597284317,
        -0.16905800998210907,
        0.4724171459674835,
        0.1168477013707161,
        -0.3250153660774231,
        0.13764940202236176,
        0.21166889369487762,
        0.20936347544193268,
        -0.1515710949897766,
        -0.07632345706224442,
        -0.19898349046707153,
        0.001889064209535718,
        -0.1158275455236435,
        0.38579919934272766,
        0.24052076041698456,
        -0.4170910716056824,
        -0.33855894207954407,
        -0.3909268379211426,
        0.027984492480754852,
        -0.06655804067850113,
        0.20700794458389282,
        0.45592108368873596,
        -0.38705864548683167,
        -0.0998474508523941,
        0.2950730621814728,
        0.04763507470488548,
        0.17390556633472443,
        0.3093191385269165,
        0.37943384051322937,
        -0.32707855105400085,
        -0.019264541566371918,
        -0.350187748670578,
        -0.2384098321199417,
        -0.4658861458301544,
        -0.37753134965896606,
        -0.29303261637687683,
        0.3913252353668213,
        -0.274685800075531,
        -0.4383993148803711,
        0.13966214656829834,
        0.4409780204296112,
        -0.11859026551246643,
        -0.22053296864032745,
        -0.17304112017154694,
        -0.03169993683695793,
        -0.3573211431503296,
        0.4465295970439911,
        0.17305152118206024,
        0.1626642495393753,
        -0.28204700350761414,
        0.3175056576728821,
        -0.12311787903308868,
        0.47431713342666626,
        0.20131845772266388,
        -0.15893276035785675,
        0.18463310599327087,
        -0.44780999422073364,
        0.04526937007904053,
        -0.19708223640918732,
        0.13332563638687134,
        0.17950117588043213,
        0.12104681134223938,
        0.11406305432319641,
        -0.3460051715373993,
        0.2239680290222168,
        -0.26340705156326294,
        0.09174472093582153,
        0.2521560490131378,
        -0.462546169757843,
        -0.1630443036556244,
        0.43720391392707825,
        0.4201590418815613,
        0.1806342750787735,
        -0.23569542169570923,
        0.033301547169685364,
        -0.316261351108551,
        0.27539223432540894,
        -0.1816418468952179,
        0.44697725772857666,
        0.11140377074480057,
        -0.17159444093704224,
        0.08547408133745193,
        0.47209805250167847,
        0.36084070801734924,
        -0.0783124789595604,
        -0.2866683900356293,
        0.4986371099948883,
        -0.43378525972366333,
        0.2204096019268036,
        -0.17914047837257385,
        -0.19510966539382935,
        0.3232927918434143,
        -0.22286683320999146,
        0.002566632581874728,
        -0.1602540910243988,
        0.03489545360207558,
        0.46894189715385437,
        0.3047495186328888,
        -0.30718377232551575,
        0.13137462735176086,
        -0.034760285168886185,
        0.472709596157074,
        0.292812317609787,
        0.03219711408019066,
        -0.17764702439308167,
        -0.3363332748413086,
        -0.2606033384799957,
        -0.4349423944950104,
        0.20404019951820374,
        -0.07602140307426453,
        -0.4588916301727295,
        0.4238148033618927,
        -0.3248310089111328,
        0.3473617136478424,
        -0.41095900535583496,
        -0.2217819094657898,
        0.3347298204898834,
        0.13055813312530518,
        0.3238071799278259,
        -0.022671014070510864,
        0.4692956507205963,
        -0.28438982367515564,
        0.4217407703399658,
        0.10431594401597977,
        0.1818288266658783,
        0.4422641098499298,
        0.301657497882843,
        0.276673823595047,
        -0.1138816773891449,
        -0.39917799830436707,
        -0.21116621792316437,
        -0.35402533411979675,
        -0.29579219222068787,
        -0.4856405556201935,
        -0.19082236289978027,
        -0.4602363109588623,
        0.2993064522743225,
        -0.4894883632659912,
        -0.2311900407075882,
        0.06656689196825027,
        0.028308048844337463,
        -0.11869939416646957,
        -0.09738948941230774,
        0.21925263106822968,
        -0.28721463680267334,
        0.3493497967720032,
        0.36831390857696533,
        -0.36262890696525574,
        -0.3208460807800293,
        -0.2339704930782318,
        0.2477749139070511,
        -0.1569838523864746,
        0.17974065244197845,
        -0.33499976992607117,
        0.4581863284111023,
        -0.4539617896080017,
        0.4077966809272766,
        0.4245326817035675,
        -0.21289411187171936,
        0.43315452337265015,
        0.10306691378355026,
        0.3692930042743683,
        -0.13253240287303925,
        -0.21673527359962463,
        -0.33200696110725403,
        0.053914401680231094,
        0.04583332687616348,
        0.3007805049419403,
        0.464810848236084,
        -0.2257363200187683,
        0.2061092108488083,
        -0.4954853653907776,
        0.12343806028366089,
        0.06818713247776031,
        0.45986539125442505,
        -0.14292012155056,
        -0.1287507563829422,
        0.4044196307659149,
        -0.3103663921356201,
        -0.11679209768772125,
        -0.11264668405056,
        -0.441360741853714,
        0.09270291030406952,
        -0.2051861733198166,
        -0.34930747747421265,
        0.018251072615385056,
        -0.3962438702583313,
        -0.1441941112279892,
        -0.3461134433746338,
        -0.13423886895179749,
        -0.011467344127595425,
        -0.35839447379112244,
        -0.25451451539993286,
        0.45646142959594727,
        0.11614804714918137,
        -0.4995565712451935,
        -0.4858647584915161,
        -0.21580412983894348,
        -0.01558862067759037,
        0.35358163714408875,
        -0.3387082815170288,
        0.23365995287895203,
        0.12609940767288208,
        -0.47517818212509155,
        0.2556484043598175,
        0.4422447681427002,
        -0.22809098660945892,
        0.1582489162683487,
        0.4210321605205536,
        0.002675022929906845,
        -0.381257027387619,
        0.26706570386886597,
        0.1827346235513687,
        -0.08138614147901535,
        0.06374729424715042,
        -0.12559011578559875,
        -0.4296795129776001,
        0.3240737020969391,
        -0.19657906889915466,
        -0.4505254924297333,
        0.1761956661939621,
        -0.4481528401374817,
        0.28777262568473816,
        -0.26027169823646545,
        0.06287788599729538,
        0.46846774220466614,
        -0.42645201086997986,
        -0.16811172664165497,
        0.4083903133869171,
        0.3307326138019562,
        -0.03646024316549301,
        0.091279998421669,
        0.2598533630371094,
        0.33579811453819275,
        -0.18833759427070618,
        0.44184646010398865,
        0.4581884741783142,
        -0.2457348108291626,
        0.2983441650867462,
        -0.11467748135328293,
        0.492322713136673,
        0.3146176040172577,
        0.1060205027461052,
        0.3778301775455475,
        0.422886461019516,
        -0.38369491696357727,
        0.33064335584640503,
        -0.2133779674768448,
        -0.23931139707565308,
        -0.48854902386665344,
        0.3301681876182556,
        -0.051615335047245026,
        -0.16676758229732513,
        -0.3553617000579834,
        0.35164740681648254,
        0.40897461771965027,
        -0.38981130719184875,
        0.43723464012145996,
        0.27789217233657837,
        0.4788801670074463,
        -0.0032501898240298033,
        0.12100726366043091,
        0.4257391691207886,
        -0.22331662476062775,
        -0.4814716875553131,
        -0.37019082903862,
        0.22414320707321167,
        0.06832010298967361,
        0.41140058636665344,
        -0.323515385389328,
        -0.0033671471755951643,
        0.4904032349586487,
        -0.41085943579673767,
        0.14373473823070526,
        -0.47412344813346863,
        0.39127883315086365,
        0.17298060655593872,
        -0.07270205020904541,
        0.04441655054688454,
        -0.032233815640211105,
        -0.439860463142395,
        0.3910384178161621,
        0.4909442663192749,
        -0.3219277858734131,
        0.21204984188079834,
        0.18297266960144043,
        0.29031410813331604,
        -0.2962754964828491,
        -0.2158057987689972,
        0.29021355509757996,
        -0.3759850561618805,
        0.16230589151382446,
        0.017094019800424576,
        0.023206308484077454,
        0.32488852739334106,
        -0.4811961054801941,
        0.22207114100456238,
        0.4924013912677765,
        0.43225935101509094,
        -0.33971720933914185,
        -0.051862385123968124,
        -0.45944297313690186,
        0.2442210614681244,
        -0.38533225655555725,
        0.18319202959537506,
        0.2880419194698334,
        0.009495897218585014,
        -0.4039183259010315,
        -0.28726932406425476,
        -0.010653841309249401,
        -0.32789117097854614,
        0.2778433561325073,
        0.009634364396333694,
        0.06020481511950493,
        0.00794041808694601,
        -0.38730961084365845,
        -0.262408047914505,
        0.488419771194458,
        0.11654093116521835,
        0.08094809204339981,
        -0.1395769715309143,
        -0.44474515318870544,
        0.18464583158493042,
        0.3504650294780731,
        -0.2931720018386841,
        0.4152524173259735,
        0.32753488421440125,
        -0.017176568508148193,
        0.14907601475715637,
        -0.2462870180606842,
        -0.18212279677391052,
        0.20910076797008514,
        0.4569457173347473,
        -0.1463458240032196,
        0.3169880211353302,
        0.4909106194972992,
        0.37869471311569214,
        0.47897884249687195,
        -0.18335451185703278,
        -0.383567750453949,
        -0.16122981905937195,
        -0.44150540232658386,
        -0.29213541746139526,
        0.426932156085968,
        0.08681797981262207,
        0.17245492339134216,
        -0.05333626642823219,
        -0.12025332450866699,
        0.4530460834503174,
        -0.21270020306110382,
        0.4533865451812744,
        -0.15456107258796692,
        -0.04735835641622543,
        0.0044662123546004295,
        0.03900144621729851,
        0.4168601334095001,
        -0.2953493893146515,
        -0.05378982052206993,
        -0.07108207046985626,
        -0.32960307598114014,
        0.11028371751308441,
        -0.03301318362355232,
        0.3826476037502289,
        -0.27237966656684875,
        0.33548104763031006,
        -0.3183181881904602,
        0.03683777526021004,
        0.21679739654064178,
        0.2406894862651825,
        0.3284699618816376,
        -0.1212366372346878,
        -0.49351564049720764,
        -0.4121691584587097,
        -0.27583047747612,
        0.4150606393814087,
        -0.09567921608686447,
        0.22327005863189697,
        0.01203830260783434,
        -0.3769761025905609,
        0.37356460094451904,
        -0.21690641343593597,
        0.10294384509325027,
        0.31081679463386536,
        0.07504475116729736,
        0.3555009067058563,
        -0.4648382067680359,
        -0.46888333559036255,
        -0.4635555148124695,
        0.2711455821990967,
        0.3380991816520691,
        0.22848321497440338,
        -0.34213483333587646,
        0.44919702410697937,
        0.39151906967163086,
        0.4348209798336029,
        0.022174939513206482,
        -0.47095370292663574,
        -0.49327659606933594,
        -0.029288290068507195,
        -0.15535736083984375,
        0.44314122200012207,
        0.47025266289711,
        0.49753448367118835,
        0.48160386085510254,
        -0.17146533727645874,
        -0.4633049964904785,
        0.4203488826751709,
        0.4216744005680084,
        0.19524867832660675,
        0.1390295773744583,
        -0.3663341701030731,
        -0.259978711605072,
        -0.3202894628047943,
        0.14215008914470673,
        0.3915981650352478,
        0.09910618513822556,
        -0.3383699059486389,
        -0.02679901011288166,
        0.36143654584884644,
        0.33342012763023376,
        0.1443912237882614,
        -0.22882980108261108,
        -0.43484222888946533,
        0.30803415179252625,
        -0.3252788782119751,
        0.06261179596185684,
        0.27106377482414246,
        0.037685975432395935,
        0.27340495586395264,
        -0.43632960319519043,
        0.45244696736335754,
        0.46825316548347473,
        -0.04422779381275177,
        -0.2800350487232208,
        -0.3948225677013397,
        0.4181528389453888,
        -0.24269036948680878,
        -0.29908305406570435,
        -0.20041395723819733,
        0.37136605381965637,
        0.226333349943161,
        0.36511704325675964,
        -0.2696428596973419,
        -0.35293081402778625,
        0.02421835996210575,
        0.4941037595272064,
        0.15200789272785187,
        0.0677453950047493,
        -0.32915985584259033,
        -0.377875417470932,
        -0.09136812388896942,
        0.37836790084838867,
        0.055830638855695724,
        -0.13463251292705536,
        0.04822167381644249,
        -0.45892074704170227,
        0.39286941289901733,
        0.33085569739341736,
        0.4746633768081665,
        0.0005566226318478584,
        -0.32049891352653503,
        0.45994114875793457,
        0.2540796995162964,
        0.0014999054837971926,
        -0.16764062643051147,
        0.03976490721106529,
        0.26117345690727234,
        0.32606974244117737,
        -0.1676231026649475,
        -0.40712207555770874,
        0.20596453547477722,
        -0.02038070559501648,
        -0.43421146273612976,
        0.45700913667678833,
        -0.07686525583267212,
        0.35299572348594666,
        0.1604464054107666,
        -0.3727095127105713,
        -0.3806394934654236,
        -0.029903674498200417,
        0.26831910014152527,
        -0.4196374714374542,
        0.3087213933467865,
        -0.2835552394390106,
        -0.13093964755535126,
        -0.3120082914829254,
        -0.21947301924228668,
        -0.47921159863471985,
        0.2811117172241211,
        -0.32689034938812256,
        0.34676381945610046,
        0.23013907670974731,
        0.36716970801353455,
        -0.2825533151626587,
        -0.14154447615146637,
        -0.4953688085079193,
        0.49071168899536133,
        0.04624795541167259,
        0.2667929530143738,
        -0.2988961637020111,
        0.024769803509116173,
        -0.4835038185119629,
        0.15518277883529663
      ]
    },
    {
      "name": "dense_Dense17/bias",
      "shape": [
        32
      ],
      "dtype": "float32",
      "values": [
        0,
        0,
        0,
        0,
        0,
        0,
        0,
        0,
        0,
        0,
        0,
        0,
        0,
        0,
        0,
        0,
        0,
        0,
        0,
        0,
        0,
        0,
        0,
        0,
        0,
        0,
        0,
        0,
        0,
        0,
        0,
        0
      ]
    },
    {
      "name": "dense_Dense18/kernel",
      "shape": [
        32,
        16
      ],
      "dtype": "float32",
      "values": [
        -0.4335719645023346,
        -0.05243130773305893,
        -0.242396280169487,
        -0.04869288578629494,
        -0.371939092874527,
        0.49884849786758423,
        0.06119229272007942,
        -0.324236124753952,
        -0.057874228805303574,
        0.1849781721830368,
        0.047309208661317825,
        0.006508497521281242,
        -0.4285230040550232,
        -0.21425826847553253,
        0.42800045013427734,
        -0.3972381353378296,
        0.05741087719798088,
        0.43560555577278137,
        0.25253790616989136,
        -0.17017844319343567,
        -0.4306575059890747,
        0.15297183394432068,
        0.12188385426998138,
        -0.05935874208807945,
        -0.15105673670768738,
        0.027762383222579956,
        -0.06110050529241562,
        -0.17269688844680786,
        -0.11440078169107437,
        -0.20001929998397827,
        0.45949071645736694,
        -0.13499514758586884,
        -0.17182038724422455,
        -0.29035577178001404,
        -0.11698208004236221,
        -0.22034238278865814,
        -0.4574313461780548,
        -0.28081563115119934,
        0.28921979665756226,
        -0.2453003227710724,
        0.0760432556271553,
        0.39954981207847595,
        0.2873297333717346,
        0.04415074363350868,
        -0.05176135525107384,
        0.0960979089140892,
        0.41423729062080383,
        -0.06614901125431061,
        0.12896446883678436,
        -0.12349691241979599,
        0.1409023106098175,
        0.12258453667163849,
        0.04044848307967186,
        -0.2249370664358139,
        -0.3946835994720459,
        -0.37840551137924194,
        -0.14530952274799347,
        0.41468071937561035,
        0.28875845670700073,
        -0.05651291459798813,
        0.3863077163696289,
        0.44520363211631775,
        0.3851813077926636,
        0.28236663341522217,
        0.3070926368236542,
        0.22399555146694183,
        0.09288792312145233,
        -0.05018986389040947,
        -0.15810523927211761,
        -0.0038355516735464334,
        -0.07642913609743118,
        -0.07411988824605942,
        0.41069960594177246,
        -0.1639910489320755,
        -0.04336784780025482,
        0.29428693652153015,
        -0.08045869320631027,
        0.11933255195617676,
        0.03481533005833626,
        0.45832645893096924,
        -0.37674564123153687,
        0.10391049832105637,
        -0.48207974433898926,
        0.1363617479801178,
        0.2435528188943863,
        0.22345656156539917,
        -0.43811994791030884,
        -0.43194863200187683,
        0.4544682204723358,
        0.23939110338687897,
        0.40946128964424133,
        0.45715567469596863,
        -0.22023719549179077,
        0.21104922890663147,
        -0.3866155743598938,
        0.27900195121765137,
        -0.19299675524234772,
        -0.20714829862117767,
        0.35304519534111023,
        0.44855308532714844,
        -0.46879616379737854,
        0.10824666172266006,
        0.11459408700466156,
        -0.30908018350601196,
        -0.06362786889076233,
        0.454052597284317,
        -0.16905800998210907,
        0.4724171459674835,
        0.1168477013707161,
        -0.3250153660774231,
        0.13764940202236176,
        0.21166889369487762,
        0.20936347544193268,
        -0.1515710949897766,
        -0.07632345706224442,
        -0.19898349046707153,
        0.001889064209535718,
        -0.1158275455236435,
        0.38579919934272766,
        0.24052076041698456,
        -0.4170910716056824,
        -0.33855894207954407,
        -0.3909268379211426,
        0.027984492480754852,
        -0.06655804067850113,
        0.20700794458389282,
        0.45592108368873596,
        -0.38705864548683167,
        -0.0998474508523941,
        0.2950730621814728,
        0.04763507470488548,
        0.17390556633472443,
        0.3093191385269165,
        0.37943384051322937,
        -0.32707855105400085,
        -0.019264541566371918,
        -0.350187748670578,
        -0.2384098321199417,
        -0.4658861458301544,
        -0.37753134965896606,
        -0.29303261637687683,
        0.3913252353668213,
        -0.274685800075531,
        -0.4383993148803711,
        0.13966214656829834,
        0.4409780204296112,
        -0.11859026551246643,
        -0.22053296864032745,
        -0.17304112017154694,
        -0.03169993683695793,
        -0.3573211431503296,
        0.4465295970439911,
        0.17305152118206024,
        0.1626642495393753,
        -0.28204700350761414,
        0.3175056576728821,
        -0.12311787903308868,
        0.47431713342666626,
        0.20131845772266388,
        -0.15893276035785675,
        0.18463310599327087,
        -0.44780999422073364,
        0.04526937007904053,
        -0.19708223640918732,
        0.13332563638687134,
        0.17950117588043213,
        0.12104681134223938,
        0.11406305432319641,
        -0.3460051715373993,
        0.2239680290222168,
        -0.26340705156326294,
        0.09174472093582153,
        0.2521560490131378,
        -0.462546169757843,
        -0.1630443036556244,
        0.43720391392707825,
        0.4201590418815613,
        0.1806342750787735,
        -0.23569542169570923,
        0.033301547169685364,
        -0.316261351108551,
        0.27539223432540894,
        -0.1816418468952179,
        0.44697725772857666,
        0.11140377074480057,
        -0.17159444093704224,
        0.08547408133745193,
        0.47209805250167847,
        0.36084070801734924,
        -0.0783124789595604,
        -0.2866683900356293,
        0.4986371099948883,
        -0.43378525972366333,
        0.2204096019268036,
        -0.17914047837257385,
        -0.19510966539382935,
        0.3232927918434143,
        -0.22286683320999146,
        0.002566632581874728,
        -0.1602540910243988,
        0.03489545360207558,
        0.46894189715385437,
        0.3047495186328888,
        -0.30718377232551575,
        0.13137462735176086,
        -0.034760285168886185,
        0.472709596157074,
        0.292812317609787,
        0.03219711408019066,
        -0.17764702439308167,
        -0.3363332748413086,
        -0.2606033384799957,
        -0.4349423944950104,
        0.20404019951820374,
        -0.07602140307426453,
        -0.4588916301727295,
        0.4238148033618927,
        -0.3248310089111328,
        0.3473617136478424,
        -0.41095900535583496,
        -0.2217819094657898,
        0.3347298204898834,
        0.13055813312530518,
        0.3238071799278259,
        -0.022671014070510864,
        0.4692956507205963,
        -0.28438982367515564,
        0.4217407703399658,
        0.10431594401597977,
        0.1818288266658783,
        0.4422641098499298,
        0.301657497882843,
        0.276673823595047,
        -0.1138816773891449,
        -0.39917799830436707,
        -0.21116621792316437,
        -0.35402533411979675,
        -0.29579219222068787,
        -0.4856405556201935,
        -0.19082236289978027,
        -0.4602363109588623,
        0.2993064522743225,
        -0.4894883632659912,
        -0.2311900407075882,
        0.06656689196825027,
        0.028308048844337463,
        -0.11869939416646957,
        -0.09738948941230774,
        0.21925263106822968,
        -0.28721463680267334,
        0.3493497967720032,
        0.36831390857696533,
        -0.36262890696525574,
        -0.3208460807800293,
        -0.2339704930782318,
        0.2477749139070511,
        -0.1569838523864746,
        0.17974065244197845,
        -0.33499976992607117,
        0.4581863284111023,
        -0.4539617896080017,
        0.4077966809272766,
        0.4245326817035675,
        -0.21289411187171936,
        0.43315452337265015,
        0.10306691378355026,
        0.3692930042743683,
        -0.13253240287303925,
        -0.21673527359962463,
        -0.33200696110725403,
        0.053914401680231094,
        0.04583332687616348,
        0.3007805049419403,
        0.464810848236084,
        -0.2257363200187683,
        0.2061092108488083,
        -0.4954853653907776,
        0.12343806028366089,
        0.06818713247776031,
        0.45986539125442505,
        -0.14292012155056,
        -0.1287507563829422,
        0.4044196307659149,
        -0.3103663921356201,
        -0.11679209768772125,
        -0.11264668405056,
        -0.441360741853714,
        0.09270291030406952,
        -0.2051861733198166,
        -0.34930747747421265,
        0.018251072615385056,
        -0.3962438702583313,
        -0.1441941112279892,
        -0.3461134433746338,
        -0.13423886895179749,
        -0.011467344127595425,
        -0.35839447379112244,
        -0.25451451539993286,
        0.45646142959594727,
        0.11614804714918137,
        -0.4995565712451935,
        -0.4858647584915161,
        -0.21580412983894348,
        -0.01558862067759037,
        0.35358163714408875,
        -0.3387082815170288,
        0.23365995287895203,
        0.12609940767288208,
        -0.47517818212509155,
        0.2556484043598175,
        0.4422447681427002,
        -0.22809098660945892,
        0.1582489162683487,
        0.4210321605205536,
        0.002675022929906845,
        -0.381257027387619,
        0.26706570386886597,
        0.1827346235513687,
        -0.08138614147901535,
        0.06374729424715042,
        -0.12559011578559875,
        -0.4296795129776001,
        0.3240737020969391,
        -0.19657906889915466,
        -0.4505254924297333,
        0.1761956661939621,
        -0.4481528401374817,
        0.28777262568473816,
        -0.26027169823646545,
        0.06287788599729538,
        0.46846774220466614,
        -0.42645201086997986,
        -0.16811172664165497,
        0.4083903133869171,
        0.3307326138019562,
        -0.03646024316549301,
        0.091279998421669,
        0.2598533630371094,
        0.33579811453819275,
        -0.18833759427070618,
        0.44184646010398865,
        0.4581884741783142,
        -0.2457348108291626,
        0.2983441650867462,
        -0.11467748135328293,
        0.492322713136673,
        0.3146176040172577,
        0.1060205027461052,
        0.3778301775455475,
        0.422886461019516,
        -0.38369491696357727,
        0.33064335584640503,
        -0.2133779674768448,
        -0.23931139707565308,
        -0.48854902386665344,
        0.3301681876182556,
        -0.051615335047245026,
        -0.16676758229732513,
        -0.3553617000579834,
        0.35164740681648254,
        0.40897461771965027,
        -0.38981130719184875,
        0.43723464012145996,
        0.27789217233657837,
        0.4788801670074463,
        -0.0032501898240298033,
        0.12100726366043091,
        0.4257391691207886,
        -0.22331662476062775,
        -0.4814716875553131,
        -0.37019082903862,
        0.22414320707321167,
        0.06832010298967361,
        0.41140058636665344,
        -0.323515385389328,
        -0.0033671471755951643,
        0.4904032349586487,
        -0.41085943579673767,
        0.14373473823070526,
        -0.47412344813346863,
        0.39127883315086365,
        0.17298060655593872,
        -0.07270205020904541,
        0.04441655054688454,
        -0.032233815640211105,
        -0.439860463142395,
        0.3910384178161621,
        0.4909442663192749,
        -0.3219277858734131,
        0.21204984188079834,
        0.18297266960144043,
        0.29031410813331604,
        -0.2962754964828491,
        -0.2158057987689972,
        0.29021355509757996,
        -0.3759850561618805,
        0.16230589151382446,
        0.017094019800424576,
        0.023206308484077454,
        0.32488852739334106,
        -0.4811961054801941,
        0.22207114100456238,
        0.4924013912677765,
        0.43225935101509094,
        -0.33971720933914185,
        -0.051862385123968124,
        -0.45944297313690186,
        0.2442210614681244,
        -0.38533225655555725,
        0.18319202959537506,
        0.2880419194698334,
        0.009495897218585014,
        -0.4039183259010315,
        -0.28726932406425476,
        -0.010653841309249401,
        -0.32789117097854614,
        0.2778433561325073,
        0.009634364396333694,
        0.06020481511950493,
        0.00794041808694601,
        -0.38730961084365845,
        -0.262408047914505,
        0.488419771194458,
        0.11654093116521835,
        0.08094809204339981,
        -0.1395769715309143,
        -0.44474515318870544,
        0.18464583158493042,
        0.3504650294780731,
        -0.2931720018386841,
        0.4152524173259735,
        0.32753488421440125,
        -0.017176568508148193,
        0.14907601475715637,
        -0.2462870180606842,
        -0.18212279677391052,
        0.20910076797008514,
        0.4569457173347473,
        -0.1463458240032196,
        0.3169880211353302,
        0.4909106194972992,
        0.37869471311569214,
        0.47897884249687195,
        -0.18335451185703278,
        -0.383567750453949,
        -0.16122981905937195,
        -0.44150540232658386,
        -0.29213541746139526,
        0.426932156085968,
        0.08681797981262207,
        0.17245492339134216,
        -0.05333626642823219,
        -0.12025332450866699,
        0.4530460834503174,
        -0.21270020306110382,
        0.4533865451812744,
        -0.15456107258796692,
        -0.04735835641622543,
        0.0044662123546004295,
        0.03900144621729851,
        0.4168601334095001,
        -0.2953493893146515,
        -0.05378982052206993,
        -0.07108207046985626,
        -0.32960307598114014,
        0.11028371751308441,
        -0.03301318362355232,
        0.3826476037502289,
        -0.27237966656684875,
        0.33548104763031006,
        -0.3183181881904602,
        0.03683777526021004,
        0.21679739654064178,
        0.2406894862651825,
        0.3284699618816376,
        -0.1212366372346878,
        -0.49351564049720764,
        -0.4121691584587097,
        -0.27583047747612,
        0.4150606393814087,
        -0.09567921608686447,
        0.22327005863189697,
        0.01203830260783434,
        -0.3769761025905609,
        0.37356460094451904,
        -0.21690641343593597,
        0.10294384509325027,
        0.31081679463386536,
        0.07504475116729736,
        0.3555009067058563,
        -0.4648382067680359,
        -0.46888333559036255,
        -0.4635555148124695,
        0.2711455821990967,
        0.3380991816520691,
        0.22848321497440338,
        -0.34213483333587646,
        0.44919702410697937,
        0.39151906967163086,
        0.4348209798336029,
        0.022174939513206482,
        -0.47095370292663574,
        -0.49327659606933594,
        -0.029288290068507195,
        -0.15535736083984375,
        0.44314122200012207,
        0.47025266289711,
        0.49753448367118835,
        0.48160386085510254,
        -0.17146533727645874,
        -0.4633049964904785,
        0.4203488826751709
      ]
    },
    {
      "name": "dense_Dense18/bias",
      "shape": [
        16
      ],
      "dtype": "float32",
      "values": [
        0,
        0,
        0,
        0,
        0,
        0,
        0,
        0,
        0,
        0,
        0,
        0,
        0,
        0,
        0,
        0
      ]
    }
  ]
}
