{
  "version": 1,
  "createdAt": 1762596687626,
  "backend": "webgl",
  "config": {
    "inputSize": 19,
    "outputSize": 16,
    "hiddenLayers": [
      56
    ],
    "activation": "relu",
    "outputActivation": "tanh",
    "backend": "webgl",
    "seed": 1762596640404
  },
  "metadata": {
    "label": "08",
    "notes": "",
    "correlations": [
      {
        "id": "rms-deltaposx",
        "featureKey": "bandBass",
        "targetId": "deltaPosX",
        "targetIndex": 0,
        "axis": "x",
        "group": "deltaPos",
        "featureIndex": 4,
        "strength": 0.65,
        "polarity": "direct"
      },
      {
        "id": "tempoproxy-rotationspeed",
        "featureKey": "tempoProxy",
        "targetId": "rotationSpeed",
        "targetIndex": 9,
        "axis": null,
        "group": "rotationSpeed",
        "featureIndex": 10,
        "strength": 0.65,
        "polarity": "direct"
      },
      {
        "id": "bandbass-wobblestrength",
        "featureKey": "bandBass",
        "targetId": "wobbleStrength",
        "targetIndex": 10,
        "axis": null,
        "group": "wobbleStrength",
        "featureIndex": 4,
        "strength": 0.6,
        "polarity": "direct"
      },
      {
        "id": "bandhigh-wobblefrequency",
        "featureKey": "bandHigh",
        "targetId": "wobbleFrequency",
        "targetIndex": 11,
        "axis": null,
        "group": "wobbleFrequency",
        "featureIndex": 7,
        "strength": 0.6,
        "polarity": "direct"
      },
      {
        "id": "speccentroid-colormix",
        "featureKey": "specCentroid",
        "targetId": "colorMix",
        "targetIndex": 12,
        "axis": null,
        "group": "colorMix",
        "featureIndex": 1,
        "strength": 0.55,
        "polarity": "direct"
      },
      {
        "id": "rms-alphascale",
        "featureKey": "rms",
        "targetId": "alphaScale",
        "targetIndex": 13,
        "axis": null,
        "group": "alphaScale",
        "featureIndex": 0,
        "strength": 0.5,
        "polarity": "direct"
      },
      {
        "id": "peak-pointscale",
        "featureKey": "peak",
        "targetId": "pointScale",
        "targetIndex": 14,
        "axis": null,
        "group": "pointScale",
        "featureIndex": 8,
        "strength": 0.55,
        "polarity": "direct"
      },
      {
        "id": "bandlowmid-camerazoom",
        "featureKey": "bandLowMid",
        "targetId": "cameraZoom",
        "targetIndex": 15,
        "axis": null,
        "group": "cameraZoom",
        "featureIndex": 5,
        "strength": 0.6,
        "polarity": "direct"
      }
    ],
    "training": {
      "status": "idle",
      "epoch": 0,
      "epochs": 24,
      "loss": null,
      "best": null,
      "metadata": null
    }
  },
  "weights": [
    {
      "name": "dense_Dense3/kernel",
      "shape": [
        19,
        56
      ],
      "dtype": "float32",
      "values": [
        0.02276628464460373,
        -0.1064794734120369,
        0.3268495798110962,
        -0.15025587379932404,
        0.38047951459884644,
        0.3523210287094116,
        -0.052520036697387695,
        -0.22056859731674194,
        0.40703248977661133,
        0.04581237956881523,
        0.11356396228075027,
        0.06118779256939888,
        -0.04074333608150482,
        -0.19356422126293182,
        -0.22400414943695068,
        -0.3494908809661865,
        -0.4588775932788849,
        0.1991480141878128,
        0.22388127446174622,
        -0.2702549695968628,
        -0.25257617235183716,
        -0.20485258102416992,
        0.19424578547477722,
        -0.1524830311536789,
        0.36506161093711853,
        0.048940468579530716,
        -0.46322712302207947,
        0.122001051902771,
        -0.20438450574874878,
        0.10775943845510483,
        0.15870577096939087,
        0.3927001357078552,
        -0.15576523542404175,
        0.16966667771339417,
        -0.09903328120708466,
        0.3513856828212738,
        0.43394243717193604,
        0.1290034055709839,
        -0.02202802523970604,
        -0.07278051227331161,
        -0.43363213539123535,
        0.3231349587440491,
        0.440373957157135,
        0.10150852799415588,
        -0.29023635387420654,
        0.31455519795417786,
        0.19546912610530853,
        0.2921440005302429,
        -0.07971716672182083,
        -0.138509601354599,
        -0.2330421358346939,
        0.4596569240093231,
        -0.07655809074640274,
        -0.03341503441333771,
        0.3777408003807068,
        0.1120966374874115,
        -0.18555007874965668,
        0.40188267827033997,
        -0.305217981338501,
        0.21523626148700714,
        0.4673769176006317,
        0.1501254141330719,
        -0.4543136656284332,
        -0.22863033413887024,
        0.17497198283672333,
        -0.1614648699760437,
        -0.11370568722486496,
        0.21360082924365997,
        -0.22907006740570068,
        -0.25608742237091064,
        -0.18516044318675995,
        0.1223950907588005,
        -0.46231043338775635,
        0.18858711421489716,
        0.3380880057811737,
        0.497429221868515,
        0.1513197422027588,
        0.06304244697093964,
        0.37424391508102417,
        0.2786429524421692,
        0.04203103482723236,
        0.17879730463027954,
        0.4887438416481018,
        -0.24650481343269348,
        0.4254634976387024,
        -0.3326173722743988,
        -0.07903403788805008,
        0.0375560037791729,
        -0.46309298276901245,
        0.3216724097728729,
        -0.3961453437805176,
        -0.32461830973625183,
        -0.4556260406970978,
        -0.026456700637936592,
        -0.2860269844532013,
        -0.19653922319412231,
        0.13364297151565552,
        -0.21741898357868195,
        -0.10610631853342056,
        -0.14222320914268494,
        -0.037746887654066086,
        -0.11093132197856903,
        0.38388684391975403,
        0.13880236446857452,
        -0.2815818190574646,
        -0.2830791473388672,
        0.4475241005420685,
        -0.4834395945072174,
        -0.4152351915836334,
        -0.14798760414123535,
        -0.09786609560251236,
        -0.14669160544872284,
        0.36592987179756165,
        0.45685750246047974,
        0.10703972727060318,
        0.16986094415187836,
        -0.05531323701143265,
        0.466139554977417,
        -0.22580046951770782,
        -0.3234231472015381,
        -0.3247150480747223,
        -0.08045297861099243,
        -0.44321906566619873,
        0.3567429482936859,
        0.4089474678039551,
        -0.27772969007492065,
        0.4792376458644867,
        0.4608522951602936,
        -0.2502889633178711,
        0.1256297081708908,
        -0.38277125358581543,
        -0.15842528641223907,
        0.008978405967354774,
        -0.2749563455581665,
        0.4924110770225525,
        -0.4152674973011017,
        -0.39155617356300354,
        0.22063393890857697,
        0.29259899258613586,
        -0.17983180284500122,
        -0.46126434206962585,
        0.4704487919807434,
        -0.21237191557884216,
        -0.46218937635421753,
        0.03985467925667763,
        -0.38893577456474304,
        -0.30875715613365173,
        -0.3990028202533722,
        -0.22018899023532867,
        0.4776069223880768,
        0.1279662549495697,
        0.13239029049873352,
        0.252524197101593,
        0.19978560507297516,
        -0.2926907539367676,
        0.47596725821495056,
        0.36211472749710083,
        -0.4086816906929016,
        -0.29164770245552063,
        0.2650676965713501,
        0.44001561403274536,
        0.26308223605155945,
        -0.04473384469747543,
        -0.1558706909418106,
        0.08409634232521057,
        -0.05138257518410683,
        -0.226623073220253,
        0.1929413378238678,
        0.20162194967269897,
        0.3429451286792755,
        -0.3792932629585266,
        0.32524996995925903,
        0.4175482392311096,
        0.4279351532459259,
        0.49080654978752136,
        0.15273915231227875,
        -0.12894307076931,
        0.11852093786001205,
        0.17218180000782013,
        -0.3567439615726471,
        0.015638284385204315,
        0.1765667349100113,
        0.42167046666145325,
        -0.3553910553455353,
        -0.130421444773674,
        0.42081865668296814,
        0.2288038730621338,
        0.4158494770526886,
        -0.2987232506275177,
        0.10859222710132599,
        -0.008981096558272839,
        -0.1915203183889389,
        -0.2645479738712311,
        -0.2110406756401062,
        -0.36748260259628296,
        0.1299162358045578,
        0.10696940124034882,
        0.07377375662326813,
        -0.14121142029762268,
        0.36492976546287537,
        0.06049435958266258,
        -0.3175564408302307,
        0.32354676723480225,
        0.36074334383010864,
        -0.46382761001586914,
        0.027508128434419632,
        -0.1472965031862259,
        0.0820331946015358,
        0.07475505769252777,
        -0.09527411311864853,
        -0.16486109793186188,
        -0.41241759061813354,
        -0.04797448590397835,
        0.0923360288143158,
        0.3110991418361664,
        -0.3022700846195221,
        -0.3647027015686035,
        0.12743937969207764,
        0.12186441570520401,
        -0.3890399932861328,
        0.18309661746025085,
        0.372211754322052,
        -0.19835127890110016,
        0.023953989148139954,
        -0.40095779299736023,
        -0.2770426273345947,
        0.09610673785209656,
        0.02651003748178482,
        -0.14933733642101288,
        -0.39883720874786377,
        0.43052664399147034,
        0.1925281435251236,
        -0.4398435056209564,
        0.344484806060791,
        0.3867098391056061,
        0.1822586953639984,
        -0.11743465065956116,
        0.4025091826915741,
        0.38259536027908325,
        0.10944432020187378,
        -0.1178397610783577,
        0.3494594395160675,
        0.015223518013954163,
        -0.24264736473560333,
        -0.01694389432668686,
        0.10489587485790253,
        0.3123316764831543,
        0.4904267489910126,
        0.29572218656539917,
        0.1303720623254776,
        -0.2813625931739807,
        0.06734675914049149,
        0.28704893589019775,
        0.012186230160295963,
        0.11097031831741333,
        -0.2612212002277374,
        0.19513654708862305,
        -0.15021947026252747,
        -0.4799194633960724,
        0.19723525643348694,
        0.09972608089447021,
        -0.2551270127296448,
        -0.04253695160150528,
        -0.04636238515377045,
        0.3978182077407837,
        0.050773441791534424,
        -0.3756198585033417,
        0.07990264147520065,
        -0.2856253683567047,
        -0.12693293392658234,
        0.4748421609401703,
        -0.17465876042842865,
        0.1280411183834076,
        0.3609335124492645,
        -0.08572995662689209,
        -0.19328725337982178,
        -0.3623504042625427,
        -0.12422582507133484,
        -0.15911835432052612,
        -0.2385329306125641,
        0.42051464319229126,
        -0.16555657982826233,
        0.2309134155511856,
        -0.16089963912963867,
        0.39942488074302673,
        -0.4815851151943207,
        0.03957947716116905,
        -0.3202745020389557,
        -0.22195784747600555,
        -0.021961120888590813,
        0.36839747428894043,
        0.3041066825389862,
        0.261740118265152,
        -0.4643290042877197,
        0.41141799092292786,
        -0.15356242656707764,
        0.34909358620643616,
        -0.056620724499225616,
        -0.16866444051265717,
        -0.2329670786857605,
        -0.11126134544610977,
        -0.11027258634567261,
        -0.02392486296594143,
        0.4254455268383026,
        -0.4352242052555084,
        -0.17479842901229858,
        0.43073150515556335,
        0.10139615833759308,
        -0.21220330893993378,
        -0.17051962018013,
        0.15335138142108917,
        0.2916640341281891,
        -0.4886677861213684,
        -0.27413830161094666,
        -0.1514558643102646,
        0.40089043974876404,
        -0.3537847399711609,
        -0.003661009483039379,
        0.04896854981780052,
        0.030483242124319077,
        0.48985710740089417,
        -0.47459492087364197,
        -0.0626329779624939,
        0.23880420625209808,
        -0.22963523864746094,
        0.4157499074935913,
        0.18455596268177032,
        -0.024952519685029984,
        -0.28884831070899963,
        0.4472387135028839,
        0.3370119035243988,
        -0.36572083830833435,
        -0.06101572886109352,
        0.2350061982870102,
        0.030915221199393272,
        0.1248880922794342,
        0.1405065804719925,
        0.4827122092247009,
        -0.19870316982269287,
        0.03501021862030029,
        -0.2864166796207428,
        -0.29066723585128784,
        -0.26021453738212585,
        -0.29464972019195557,
        0.08818519115447998,
        0.1458004266023636,
        0.1671731323003769,
        -0.41242384910583496,
        -0.12660548090934753,
        -0.16177085041999817,
        0.2090759575366974,
        0.031253937631845474,
        -0.20403586328029633,
        0.42106685042381287,
        -0.04480034485459328,
        -0.37754297256469727,
        -0.16510319709777832,
        -0.1509847491979599,
        0.39122045040130615,
        -0.28942373394966125,
        0.41861438751220703,
        -0.05596505478024483,
        0.002733422676101327,
        0.16827024519443512,
        0.30777087807655334,
        0.3336890637874603,
        -0.3889579474925995,
        -0.43776533007621765,
        0.05570174381136894,
        0.3963494896888733,
        -0.06445308029651642,
        -0.06121981889009476,
        0.053942956030368805,
        0.4215832054615021,
        0.23847465217113495,
        0.18692611157894135,
        -0.12349394708871841,
        -0.10876664519309998,
        -0.061848465353250504,
        0.2384958565235138,
        0.4368673264980316,
        0.3404025137424469,
        0.24138733744621277,
        -0.23882244527339935,
        0.1665930300951004,
        0.16221296787261963,
        -0.3465791344642639,
        0.46877533197402954,
        -0.029280254617333412,
        -0.41102030873298645,
        -0.242096409201622,
        0.2770102620124817,
        -0.11558767408132553,
        -0.3033776879310608,
        0.4451492428779602,
        0.30945461988449097,
        0.4129386842250824,
        0.4934568703174591,
        0.37551674246788025,
        -0.32700100541114807,
        -0.33799660205841064,
        0.4787925183773041,
        -0.06088776886463165,
        0.15018828213214874,
        0.09809411317110062,
        -0.23004259169101715,
        -0.33932751417160034,
        0.46968674659729004,
        -0.04592378810048103,
        0.34550905227661133,
        0.11217427998781204,
        0.017662515863776207,
        0.22293886542320251,
        0.09825719147920609,
        -0.3912220895290375,
        -0.3751869797706604,
        -0.42348456382751465,
        -0.3739851117134094,
        0.29499536752700806,
        0.16364319622516632,
        0.16956806182861328,
        -0.1537189483642578,
        0.4941313564777374,
        0.18523426353931427,
        0.438278466463089,
        0.42331835627555847,
        0.21462222933769226,
        0.36286795139312744,
        0.1565869301557541,
        0.21878135204315186,
        -0.23190204799175262,
        0.3163013458251953,
        -0.40004003047943115,
        -0.3786103129386902,
        0.20597414672374725,
        -0.29774656891822815,
        -0.11674998700618744,
        -0.4382527768611908,
        -0.3591846227645874,
        0.16720889508724213,
        0.3768695890903473,
        0.4173234701156616,
        -0.35430702567100525,
        0.13272826373577118,
        0.01691642589867115,
        -0.41628363728523254,
        -0.3851490318775177,
        0.057432401925325394,
        -0.06815401464700699,
        0.26269251108169556,
        -0.14577838778495789,
        0.3993852436542511,
        -0.08545435220003128,
        0.22597435116767883,
        -0.24476677179336548,
        0.3514746427536011,
        -0.23389610648155212,
        0.26287850737571716,
        0.07382778078317642,
        -0.21444131433963776,
        -0.07521750777959824,
        0.06594106554985046,
        0.17717744410037994,
        0.13371542096138,
        -0.10220547765493393,
        0.24351033568382263,
        0.3975059986114502,
        0.04161490872502327,
        -0.2993968427181244,
        0.023493869230151176,
        0.3655337989330292,
        -0.08517046272754669,
        -0.30627262592315674,
        -0.2754024565219879,
        0.14185450971126556,
        0.23313672840595245,
        0.483285129070282,
        0.4376092851161957,
        -0.13157808780670166,
        0.049277350306510925,
        -0.364671915769577,
        0.12584476172924042,
        0.43081915378570557,
        -0.02482375130057335,
        -0.18738152086734772,
        0.1710948348045349,
        -0.32491928339004517,
        -0.4815971255302429,
        -0.36969804763793945,
        0.1665370911359787,
        -0.32119572162628174,
        0.16628648340702057,
        0.48700496554374695,
        0.4843190014362335,
        0.30612900853157043,
        -0.42103755474090576,
        -0.46088936924934387,
        0.3464834690093994,
        0.418256938457489,
        -0.19738778471946716,
        0.3132784962654114,
        -0.4970043897628784,
        0.006447372958064079,
        -0.44949567317962646,
        0.2657906711101532,
        -0.4227849245071411,
        0.2994389832019806,
        0.15644365549087524,
        -0.409066379070282,
        0.2413002848625183,
        -0.3499443829059601,
        -0.2048814296722412,
        0.07439889758825302,
        -0.33239197731018066,
        -0.0012670792639255524,
        -0.36751267313957214,
        0.008418492041528225,
        -0.2723228931427002,
        0.1756938248872757,
        0.44585278630256653,
        -0.1841295063495636,
        0.0567912720143795,
        0.04914630576968193,
        -0.45022690296173096,
        -0.15995429456233978,
        0.33158594369888306,
        -0.13225862383842468,
        0.37001410126686096,
        0.08552701771259308,
        -0.2850748598575592,
        -0.057042282074689865,
        -0.34939196705818176,
        0.33081141114234924,
        0.13875524699687958,
        0.11712419986724854,
        0.07410059869289398,
        -0.12131405621767044,
        -0.4549157917499542,
        -0.29852405190467834,
        -0.2046225219964981,
        0.3748084008693695,
        0.4520810842514038,
        -0.43647417426109314,
        -0.128148153424263,
        0.45857641100883484,
        -0.3893297016620636,
        0.31334981322288513,
        0.28596028685569763,
        -0.210276797413826,
        -0.29827845096588135,
        -0.29363343119621277,
        -0.1605970412492752,
        0.14463134109973907,
        -0.11389368772506714,
        -0.04294005408883095,
        -0.4490901827812195,
        -0.4739156663417816,
        -0.08917129039764404,
        0.4642702341079712,
        -0.4796927273273468,
        -0.14184536039829254,
        -0.26673057675361633,
        0.006377245299518108,
        -0.3028651475906372,
        -0.10051882266998291,
        -0.10539235919713974,
        0.4156114161014557,
        -0.08817362040281296,
        0.23529177904129028,
        0.048903197050094604,
        -0.38909077644348145,
        0.4664926826953888,
        -0.16741524636745453,
        -0.467119038105011,
        0.2835243344306946,
        -0.25023412704467773,
        -0.3868670165538788,
        -0.44074371457099915,
        -0.47397294640541077,
        -0.127341166138649,
        0.24158260226249695,
        -0.3186105191707611,
        0.25986453890800476,
        -0.4062308073043823,
        -0.18491166830062866,
        -0.16639479994773865,
        -0.17143040895462036,
        -0.4695889353752136,
        0.13793259859085083,
        0.4637020528316498,
        0.4752916991710663,
        0.21331273019313812,
        0.3276132643222809,
        -0.33201926946640015,
        0.21932543814182281,
        -0.30739086866378784,
        -0.4596693515777588,
        -0.35006871819496155,
        0.24004140496253967,
        -0.34130996465682983,
        -0.3802279531955719,
        -0.03910152614116669,
        -0.2206295132637024,
        0.3560373783111572,
        -0.27649104595184326,
        -0.2816069722175598,
        -0.32029464840888977,
        -0.47879666090011597,
        -0.1456202268600464,
        0.23466497659683228,
        0.22864407300949097,
        0.06844393908977509,
        0.4117996394634247,
        -0.14574769139289856,
        0.008772664703428745,
        0.16542357206344604,
        0.44594070315361023,
        0.24780014157295227,
        0.39022502303123474,
        -0.06395328044891357,
        0.4266572594642639,
        -0.1528816521167755,
        -0.1712353676557541,
        -0.06206994876265526,
        -0.21916963160037994,
        0.4294359087944031,
        0.07508713006973267,
        0.2526032626628876,
        -0.08116553723812103,
        0.17740952968597412,
        -0.13478714227676392,
        0.0020932862535119057,
        -0.3216821253299713,
        -0.028544802218675613,
        0.399343878030777,
        0.12373644858598709,
        -0.4205070436000824,
        0.20704112946987152,
        -0.01408209465444088,
        0.09053701907396317,
        0.2898409962654114,
        0.3409894108772278,
        -0.24313350021839142,
        -0.261793851852417,
        -0.2472895234823227,
        0.4945032298564911,
        -0.2298826426267624,
        -0.4144130349159241,
        0.2583617866039276,
        0.4909771680831909,
        -0.43902209401130676,
        -0.40709188580513,
        -0.01503728237003088,
        0.27263087034225464,
        -0.2644168734550476,
        0.4337860643863678,
        0.3388460874557495,
        0.37800151109695435,
        -0.1236603632569313,
        -0.3099733889102936,
        -0.2803642451763153,
        0.1677291989326477,
        -0.415874719619751,
        0.2189551591873169,
        -0.08057668060064316,
        0.2074275016784668,
        0.151222363114357,
        -0.3331286907196045,
        0.439238578081131,
        -0.4048583507537842,
        0.03781508654356003,
        -0.48064059019088745,
        0.4947720766067505,
        -0.49209877848625183,
        0.3875826895236969,
        -0.4562077820301056,
        0.017673177644610405,
        0.05257858335971832,
        0.033349476754665375,
        -0.09090228378772736,
        0.41577205061912537,
        0.066965751349926,
        0.23537828028202057,
        0.021287238225340843,
        0.1820167601108551,
        0.38132697343826294,
        0.2194935381412506,
        0.3655563294887543,
        0.347812682390213,
        0.23628747463226318,
        -0.14318698644638062,
        -0.43180549144744873,
        0.09513024985790253,
        -0.4891681373119354,
        -0.17595802247524261,
        0.13438478112220764,
        -0.13768525421619415,
        0.32517123222351074,
        0.43523654341697693,
        0.16698837280273438,
        -0.14837290346622467,
        -0.2599610686302185,
        0.38673824071884155,
        0.45522260665893555,
        0.3183014690876007,
        -0.23666706681251526,
        0.3450523912906647,
        -0.2393648624420166,
        -0.07289312034845352,
        0.04025604948401451,
        0.1271771341562271,
        -0.09517358243465424,
        0.12426868826150894,
        -0.33093056082725525,
        0.22643737494945526,
        0.23845274746418,
        -0.2918510138988495,
        0.25919416546821594,
        0.06612000614404678,
        0.01948033645749092,
        -0.36606690287590027,
        0.1824398636817932,
        -0.1697176843881607,
        0.1944585144519806,
        0.3277657628059387,
        -0.1268366277217865,
        0.018227647989988327,
        -0.31614428758621216,
        -0.42897629737854004,
        -0.34235212206840515,
        0.2533859610557556,
        0.467357873916626,
        -0.06628736853599548,
        -0.043187517672777176,
        -0.022164108231663704,
        -0.2506101429462433,
        0.30052465200424194,
        -0.3134421110153198,
        0.07433965802192688,
        0.10657783597707748,
        0.27963677048683167,
        -0.2734048068523407,
        0.36244094371795654,
        0.1757667064666748,
        -0.17297805845737457,
        -0.3911953568458557,
        0.49661925435066223,
        0.33932340145111084,
        -0.4395145773887634,
        0.22349263727664948,
        0.0776180699467659,
        0.18047483265399933,
        -0.07340289652347565,
        -0.019390268251299858,
        0.2114408165216446,
        -0.3665940463542938,
        -0.44060012698173523,
        -0.14271143078804016,
        -0.4085589647293091,
        -0.41770094633102417,
        0.22123079001903534,
        0.1503564864397049,
        0.4254585802555084,
        -0.057886265218257904,
        0.4796035587787628,
        -0.23741424083709717,
        -0.16944415867328644,
        0.49368584156036377,
        0.11518679559230804,
        -0.004144386388361454,
        -0.4613114297389984,
        0.20222178101539612,
        0.4405856132507324,
        0.0026867275591939688,
        -0.028367934748530388,
        0.07864099740982056,
        -0.33539676666259766,
        -0.4774506688117981,
        -0.41723206639289856,
        0.07285026460886002,
        -0.4603235721588135,
        0.14617197215557098,
        0.44978654384613037,
        0.2509833574295044,
        -0.015949105843901634,
        0.07417647540569305,
        -0.4334489107131958,
        0.22856749594211578,
        0.40712884068489075,
        0.3677603304386139,
        -0.31424471735954285,
        -0.46230676770210266,
        -0.17459681630134583,
        -0.4796527326107025,
        0.12944382429122925,
        0.4844096601009369,
        -0.34867772459983826,
        -0.23710545897483826,
        0.1193314865231514,
        0.10346897691488266,
        -0.03720591962337494,
        0.3941898047924042,
        -0.2488841414451599,
        -0.35222122073173523,
        -0.21411052346229553,
        0.23636919260025024,
        0.3421412706375122,
        0.08473178744316101,
        0.02567640319466591,
        0.011897651478648186,
        0.3110789358615875,
        -0.23292654752731323,
        -0.40887683629989624,
        -0.13815224170684814,
        -0.2593144476413727,
        0.24705766141414642,
        0.37994393706321716,
        -0.20885194838047028,
        0.4429018199443817,
        -0.47276806831359863,
        0.11996994912624359,
        -0.273760586977005,
        -0.13551115989685059,
        -0.16923530399799347,
        -0.33810099959373474,
        -0.43904024362564087,
        -0.15697157382965088,
        -0.20633430778980255,
        0.28641003370285034,
        0.127011239528656,
        0.12372186034917831,
        0.40344518423080444,
        -0.3258925974369049,
        0.46125927567481995,
        -0.3316328525543213,
        0.3323686420917511,
        -0.09421808272600174,
        -0.19787578284740448,
        0.2356860339641571,
        -0.21154658496379852,
        0.2932034730911255,
        0.11174283176660538,
        -0.10021775215864182,
        -0.19911257922649384,
        -0.3274152874946594,
        -0.36250540614128113,
        0.34948402643203735,
        0.4390023648738861,
        -0.46020883321762085,
        0.44592711329460144,
        0.4927130341529846,
        0.279643714427948,
        -0.4591432213783264,
        -0.21610654890537262,
        -0.3090801537036896,
        0.14997805655002594,
        0.11027803272008896,
        -0.09616941213607788,
        -0.047682784497737885,
        -0.16901183128356934,
        0.30872729420661926,
        -0.16807842254638672,
        0.2614721357822418,
        0.06759414076805115,
        -0.3696267306804657,
        0.3430749475955963,
        -0.46008822321891785,
        0.33880555629730225,
        -0.05280463770031929,
        -0.44782593846321106,
        -0.11179730296134949,
        -0.2357773780822754,
        -0.17791657149791718,
        0.40495261549949646,
        -0.15961258113384247,
        -0.22690071165561676,
        -0.31562539935112,
        0.11059045046567917,
        -0.3891488313674927,
        -0.39015740156173706,
        0.3061293363571167,
        0.15458954870700836,
        -0.43329522013664246,
        0.06632712483406067,
        -0.45544251799583435,
        -0.1903725564479828,
        0.3933013081550598,
        -0.31898656487464905,
        0.3369123935699463,
        0.3638048768043518,
        0.281808078289032,
        0.10449738800525665,
        0.48957565426826477,
        -0.21108703315258026,
        -0.1830863505601883,
        -0.46973559260368347,
        0.11542275547981262,
        0.4387143850326538,
        -0.2645697295665741,
        -0.2553442716598511,
        0.12276500463485718,
        -0.3826296627521515,
        -0.010617812164127827,
        0.06385663151741028,
        -0.11658700555562973,
        0.3705269992351532,
        0.02258976548910141,
        0.07937919348478317,
        -0.29178300499916077,
        -0.3655651807785034,
        -0.38578617572784424,
        0.30989059805870056,
        -0.4177898168563843,
        -0.39370283484458923,
        0.28309041261672974,
        -0.4991821348667145,
        -0.18327756226062775,
        -0.04460102692246437,
        0.1755819022655487,
        0.4990551471710205,
        -0.2476838380098343,
        -0.050662387162446976,
        0.2356005311012268,
        -0.16064158082008362,
        -0.4222642183303833,
        0.2492639124393463,
        -0.19851568341255188,
        -0.2852841913700104,
        0.12497156113386154,
        -0.15247742831707,
        0.47595176100730896,
        0.38444507122039795,
        0.27825260162353516,
        0.274376779794693,
        0.2974926829338074,
        0.0026039297226816416,
        0.14690712094306946,
        0.2987031042575836,
        0.4813495874404907,
        -0.32160305976867676,
        0.06016628071665764,
        -0.4099196791648865,
        0.491815447807312,
        0.14175377786159515,
        -0.008476863615214825,
        0.376350075006485,
        -0.273240327835083,
        0.4617772698402405,
        -0.48720523715019226,
        -0.11054893583059311,
        0.34361281991004944,
        -0.4536183178424835,
        -0.46899452805519104,
        -0.02770848758518696,
        0.254690021276474,
        -0.22567734122276306,
        -0.1547100841999054,
        -0.43881118297576904,
        0.47399768233299255,
        0.3499448001384735,
        0.39333102107048035,
        0.0417160801589489,
        0.21177107095718384,
        0.48256686329841614,
        -0.018890369683504105,
        -0.3555014431476593,
        -0.3297317326068878,
        0.1684720665216446,
        0.3322873115539551,
        0.2617611587047577,
        -0.2615007758140564,
        0.07505306601524353,
        -0.1304217129945755,
        -0.2364358901977539,
        -0.07311882823705673,
        -0.15226715803146362,
        0.47952160239219666,
        -0.18875059485435486,
        0.07502411305904388,
        0.08848433941602707,
        -0.10109756141901016,
        0.36047929525375366,
        0.2974398136138916,
        0.39655670523643494,
        -0.46761438250541687,
        -0.26092350482940674,
        0.4605454206466675,
        -0.45510974526405334,
        0.19110403954982758,
        -0.21292470395565033,
        -0.2847016155719757,
        -0.3334152102470398,
        0.371843546628952,
        0.006899408530443907,
        -0.2310301810503006,
        0.4485246241092682,
        0.07238379120826721,
        0.25997599959373474,
        -0.37878483533859253,
        -0.23157404363155365,
        -0.047732070088386536,
        -0.15720856189727783,
        -0.2873525023460388,
        -0.2577558755874634,
        0.4463789761066437,
        0.3180182874202728,
        -0.2656172215938568,
        -0.3431832194328308,
        0.4438893795013428,
        -0.320853054523468,
        -0.39557015895843506,
        0.3408491611480713,
        0.2071814090013504,
        0.0006147155072540045,
        0.405443400144577,
        -0.2829873263835907,
        -0.23672673106193542,
        0.25895965099334717,
        -0.3566615581512451,
        0.14535298943519592,
        0.11044226586818695,
        -0.22884328663349152,
        -0.018947947770357132,
        0.3459825813770294,
        0.4716964364051819,
        -0.26785537600517273,
        -0.3475158214569092,
        -0.36333978176116943,
        0.23602519929409027,
        0.35678473114967346,
        0.3383951187133789,
        -0.4949251115322113,
        -0.13065043091773987,
        0.446146696805954,
        0.3121592700481415,
        0.45017918944358826,
        -0.1656506359577179,
        -0.46784913539886475,
        0.3388231694698334,
        -0.32910722494125366,
        0.49221932888031006,
        -0.24120864272117615,
        0.47259870171546936,
        0.14833208918571472,
        -0.41156142950057983,
        -0.11330258101224899,
        0.1860879510641098,
        0.057632602751255035,
        -0.09135884046554565,
        -0.1688389629125595,
        -0.40397581458091736,
        0.2909420430660248,
        -0.17103639245033264,
        0.4079511761665344,
        -0.3007735311985016,
        -0.4035801589488983,
        -0.4189269542694092,
        0.33391374349594116,
        -0.005830664187669754,
        0.03850186988711357,
        0.03584345802664757,
        0.3562822639942169,
        0.016278455033898354,
        -0.4255213439464569
      ]
    },
    {
      "name": "dense_Dense3/bias",
      "shape": [
        56
      ],
      "dtype": "float32",
      "values": [
        0,
        0,
        0,
        0,
        0,
        0,
        0,
        0,
        0,
        0,
        0,
        0,
        0,
        0,
        0,
        0,
        0,
        0,
        0,
        0,
        0,
        0,
        0,
        0,
        0,
        0,
        0,
        0,
        0,
        0,
        0,
        0,
        0,
        0,
        0,
        0,
        0,
        0,
        0,
        0,
        0,
        0,
        0,
        0,
        0,
        0,
        0,
        0,
        0,
        0,
        0,
        0,
        0,
        0,
        0,
        0
      ]
    },
    {
      "name": "dense_Dense4/kernel",
      "shape": [
        56,
        16
      ],
      "dtype": "float32",
      "values": [
        0.02276628464460373,
        -0.1064794734120369,
        0.3268495798110962,
        -0.15025587379932404,
        0.38047951459884644,
        0.3523210287094116,
        -0.052520036697387695,
        -0.22056859731674194,
        0.40703248977661133,
        0.04581237956881523,
        0.11356396228075027,
        0.06118779256939888,
        -0.04074333608150482,
        -0.19356422126293182,
        -0.22400414943695068,
        -0.3494908809661865,
        -0.4588775932788849,
        0.1991480141878128,
        0.22388127446174622,
        -0.2702549695968628,
        -0.25257617235183716,
        -0.20485258102416992,
        0.19424578547477722,
        -0.1524830311536789,
        0.36506161093711853,
        0.048940468579530716,
        -0.46322712302207947,
        0.122001051902771,
        -0.20438450574874878,
        0.10775943845510483,
        0.15870577096939087,
        0.3927001357078552,
        -0.15576523542404175,
        0.16966667771339417,
        -0.09903328120708466,
        0.3513856828212738,
        0.43394243717193604,
        0.1290034055709839,
        -0.02202802523970604,
        -0.07278051227331161,
        -0.43363213539123535,
        0.3231349587440491,
        0.440373957157135,
        0.10150852799415588,
        -0.29023635387420654,
        0.31455519795417786,
        0.19546912610530853,
        0.2921440005302429,
        -0.07971716672182083,
        -0.138509601354599,
        -0.2330421358346939,
        0.4596569240093231,
        -0.07655809074640274,
        -0.03341503441333771,
        0.3777408003807068,
        0.1120966374874115,
        -0.18555007874965668,
        0.40188267827033997,
        -0.305217981338501,
        0.21523626148700714,
        0.4673769176006317,
        0.1501254141330719,
        -0.4543136656284332,
        -0.22863033413887024,
        0.17497198283672333,
        -0.1614648699760437,
        -0.11370568722486496,
        0.21360082924365997,
        -0.22907006740570068,
        -0.25608742237091064,
        -0.18516044318675995,
        0.1223950907588005,
        -0.46231043338775635,
        0.18858711421489716,
        0.3380880057811737,
        0.497429221868515,
        0.1513197422027588,
        0.06304244697093964,
        0.37424391508102417,
        0.2786429524421692,
        0.04203103482723236,
        0.17879730463027954,
        0.4887438416481018,
        -0.24650481343269348,
        0.4254634976387024,
        -0.3326173722743988,
        -0.07903403788805008,
        0.0375560037791729,
        -0.46309298276901245,
        0.3216724097728729,
        -0.3961453437805176,
        -0.32461830973625183,
        -0.4556260406970978,
        -0.026456700637936592,
        -0.2860269844532013,
        -0.19653922319412231,
        0.13364297151565552,
        -0.21741898357868195,
        -0.10610631853342056,
        -0.14222320914268494,
        -0.037746887654066086,
        -0.11093132197856903,
        0.38388684391975403,
        0.13880236446857452,
        -0.2815818190574646,
        -0.2830791473388672,
        0.4475241005420685,
        -0.4834395945072174,
        -0.4152351915836334,
        -0.14798760414123535,
        -0.09786609560251236,
        -0.14669160544872284,
        0.36592987179756165,
        0.45685750246047974,
        0.10703972727060318,
        0.16986094415187836,
        -0.05531323701143265,
        0.466139554977417,
        -0.22580046951770782,
        -0.3234231472015381,
        -0.3247150480747223,
        -0.08045297861099243,
        -0.44321906566619873,
        0.3567429482936859,
        0.4089474678039551,
        -0.27772969007492065,
        0.4792376458644867,
        0.4608522951602936,
        -0.2502889633178711,
        0.1256297081708908,
        -0.38277125358581543,
        -0.15842528641223907,
        0.008978405967354774,
        -0.2749563455581665,
        0.4924110770225525,
        -0.4152674973011017,
        -0.39155617356300354,
        0.22063393890857697,
        0.29259899258613586,
        -0.17983180284500122,
        -0.46126434206962585,
        0.4704487919807434,
        -0.21237191557884216,
        -0.46218937635421753,
        0.03985467925667763,
        -0.38893577456474304,
        -0.30875715613365173,
        -0.3990028202533722,
        -0.22018899023532867,
        0.4776069223880768,
        0.1279662549495697,
        0.13239029049873352,
        0.252524197101593,
        0.19978560507297516,
        -0.2926907539367676,
        0.47596725821495056,
        0.36211472749710083,
        -0.4086816906929016,
        -0.29164770245552063,
        0.2650676965713501,
        0.44001561403274536,
        0.26308223605155945,
        -0.04473384469747543,
        -0.1558706909418106,
        0.08409634232521057,
        -0.05138257518410683,
        -0.226623073220253,
        0.1929413378238678,
        0.20162194967269897,
        0.3429451286792755,
        -0.3792932629585266,
        0.32524996995925903,
        0.4175482392311096,
        0.4279351532459259,
        0.49080654978752136,
        0.15273915231227875,
        -0.12894307076931,
        0.11852093786001205,
        0.17218180000782013,
        -0.3567439615726471,
        0.015638284385204315,
        0.1765667349100113,
        0.42167046666145325,
        -0.3553910553455353,
        -0.130421444773674,
        0.42081865668296814,
        0.2288038730621338,
        0.4158494770526886,
        -0.2987232506275177,
        0.10859222710132599,
        -0.008981096558272839,
        -0.1915203183889389,
        -0.2645479738712311,
        -0.2110406756401062,
        -0.36748260259628296,
        0.1299162358045578,
        0.10696940124034882,
        0.07377375662326813,
        -0.14121142029762268,
        0.36492976546287537,
        0.06049435958266258,
        -0.3175564408302307,
        0.32354676723480225,
        0.36074334383010864,
        -0.46382761001586914,
        0.027508128434419632,
        -0.1472965031862259,
        0.0820331946015358,
        0.07475505769252777,
        -0.09527411311864853,
        -0.16486109793186188,
        -0.41241759061813354,
        -0.04797448590397835,
        0.0923360288143158,
        0.3110991418361664,
        -0.3022700846195221,
        -0.3647027015686035,
        0.12743937969207764,
        0.12186441570520401,
        -0.3890399932861328,
        0.18309661746025085,
        0.372211754322052,
        -0.19835127890110016,
        0.023953989148139954,
        -0.40095779299736023,
        -0.2770426273345947,
        0.09610673785209656,
        0.02651003748178482,
        -0.14933733642101288,
        -0.39883720874786377,
        0.43052664399147034,
        0.1925281435251236,
        -0.4398435056209564,
        0.344484806060791,
        0.3867098391056061,
        0.1822586953639984,
        -0.11743465065956116,
        0.4025091826915741,
        0.38259536027908325,
        0.10944432020187378,
        -0.1178397610783577,
        0.3494594395160675,
        0.015223518013954163,
        -0.24264736473560333,
        -0.01694389432668686,
        0.10489587485790253,
        0.3123316764831543,
        0.4904267489910126,
        0.29572218656539917,
        0.1303720623254776,
        -0.2813625931739807,
        0.06734675914049149,
        0.28704893589019775,
        0.012186230160295963,
        0.11097031831741333,
        -0.2612212002277374,
        0.19513654708862305,
        -0.15021947026252747,
        -0.4799194633960724,
        0.19723525643348694,
        0.09972608089447021,
        -0.2551270127296448,
        -0.04253695160150528,
        -0.04636238515377045,
        0.3978182077407837,
        0.050773441791534424,
        -0.3756198585033417,
        0.07990264147520065,
        -0.2856253683567047,
        -0.12693293392658234,
        0.4748421609401703,
        -0.17465876042842865,
        0.1280411183834076,
        0.3609335124492645,
        -0.08572995662689209,
        -0.19328725337982178,
        -0.3623504042625427,
        -0.12422582507133484,
        -0.15911835432052612,
        -0.2385329306125641,
        0.42051464319229126,
        -0.16555657982826233,
        0.2309134155511856,
        -0.16089963912963867,
        0.39942488074302673,
        -0.4815851151943207,
        0.03957947716116905,
        -0.3202745020389557,
        -0.22195784747600555,
        -0.021961120888590813,
        0.36839747428894043,
        0.3041066825389862,
        0.261740118265152,
        -0.4643290042877197,
        0.41141799092292786,
        -0.15356242656707764,
        0.34909358620643616,
        -0.056620724499225616,
        -0.16866444051265717,
        -0.2329670786857605,
        -0.11126134544610977,
        -0.11027258634567261,
        -0.02392486296594143,
        0.4254455268383026,
        -0.4352242052555084,
        -0.17479842901229858,
        0.43073150515556335,
        0.10139615833759308,
        -0.21220330893993378,
        -0.17051962018013,
        0.15335138142108917,
        0.2916640341281891,
        -0.4886677861213684,
        -0.27413830161094666,
        -0.1514558643102646,
        0.40089043974876404,
        -0.3537847399711609,
        -0.003661009483039379,
        0.04896854981780052,
        0.030483242124319077,
        0.48985710740089417,
        -0.47459492087364197,
        -0.0626329779624939,
        0.23880420625209808,
        -0.22963523864746094,
        0.4157499074935913,
        0.18455596268177032,
        -0.024952519685029984,
        -0.28884831070899963,
        0.4472387135028839,
        0.3370119035243988,
        -0.36572083830833435,
        -0.06101572886109352,
        0.2350061982870102,
        0.030915221199393272,
        0.1248880922794342,
        0.1405065804719925,
        0.4827122092247009,
        -0.19870316982269287,
        0.03501021862030029,
        -0.2864166796207428,
        -0.29066723585128784,
        -0.26021453738212585,
        -0.29464972019195557,
        0.08818519115447998,
        0.1458004266023636,
        0.1671731323003769,
        -0.41242384910583496,
        -0.12660548090934753,
        -0.16177085041999817,
        0.2090759575366974,
        0.031253937631845474,
        -0.20403586328029633,
        0.42106685042381287,
        -0.04480034485459328,
        -0.37754297256469727,
        -0.16510319709777832,
        -0.1509847491979599,
        0.39122045040130615,
        -0.28942373394966125,
        0.41861438751220703,
        -0.05596505478024483,
        0.002733422676101327,
        0.16827024519443512,
        0.30777087807655334,
        0.3336890637874603,
        -0.3889579474925995,
        -0.43776533007621765,
        0.05570174381136894,
        0.3963494896888733,
        -0.06445308029651642,
        -0.06121981889009476,
        0.053942956030368805,
        0.4215832054615021,
        0.23847465217113495,
        0.18692611157894135,
        -0.12349394708871841,
        -0.10876664519309998,
        -0.061848465353250504,
        0.2384958565235138,
        0.4368673264980316,
        0.3404025137424469,
        0.24138733744621277,
        -0.23882244527339935,
        0.1665930300951004,
        0.16221296787261963,
        -0.3465791344642639,
        0.46877533197402954,
        -0.029280254617333412,
        -0.41102030873298645,
        -0.242096409201622,
        0.2770102620124817,
        -0.11558767408132553,
        -0.3033776879310608,
        0.4451492428779602,
        0.30945461988449097,
        0.4129386842250824,
        0.4934568703174591,
        0.37551674246788025,
        -0.32700100541114807,
        -0.33799660205841064,
        0.4787925183773041,
        -0.06088776886463165,
        0.15018828213214874,
        0.09809411317110062,
        -0.23004259169101715,
        -0.33932751417160034,
        0.46968674659729004,
        -0.04592378810048103,
        0.34550905227661133,
        0.11217427998781204,
        0.017662515863776207,
        0.22293886542320251,
        0.09825719147920609,
        -0.3912220895290375,
        -0.3751869797706604,
        -0.42348456382751465,
        -0.3739851117134094,
        0.29499536752700806,
        0.16364319622516632,
        0.16956806182861328,
        -0.1537189483642578,
        0.4941313564777374,
        0.18523426353931427,
        0.438278466463089,
        0.42331835627555847,
        0.21462222933769226,
        0.36286795139312744,
        0.1565869301557541,
        0.21878135204315186,
        -0.23190204799175262,
        0.3163013458251953,
        -0.40004003047943115,
        -0.3786103129386902,
        0.20597414672374725,
        -0.29774656891822815,
        -0.11674998700618744,
        -0.4382527768611908,
        -0.3591846227645874,
        0.16720889508724213,
        0.3768695890903473,
        0.4173234701156616,
        -0.35430702567100525,
        0.13272826373577118,
        0.01691642589867115,
        -0.41628363728523254,
        -0.3851490318775177,
        0.057432401925325394,
        -0.06815401464700699,
        0.26269251108169556,
        -0.14577838778495789,
        0.3993852436542511,
        -0.08545435220003128,
        0.22597435116767883,
        -0.24476677179336548,
        0.3514746427536011,
        -0.23389610648155212,
        0.26287850737571716,
        0.07382778078317642,
        -0.21444131433963776,
        -0.07521750777959824,
        0.06594106554985046,
        0.17717744410037994,
        0.13371542096138,
        -0.10220547765493393,
        0.24351033568382263,
        0.3975059986114502,
        0.04161490872502327,
        -0.2993968427181244,
        0.023493869230151176,
        0.3655337989330292,
        -0.08517046272754669,
        -0.30627262592315674,
        -0.2754024565219879,
        0.14185450971126556,
        0.23313672840595245,
        0.483285129070282,
        0.4376092851161957,
        -0.13157808780670166,
        0.049277350306510925,
        -0.364671915769577,
        0.12584476172924042,
        0.43081915378570557,
        -0.02482375130057335,
        -0.18738152086734772,
        0.1710948348045349,
        -0.32491928339004517,
        -0.4815971255302429,
        -0.36969804763793945,
        0.1665370911359787,
        -0.32119572162628174,
        0.16628648340702057,
        0.48700496554374695,
        0.4843190014362335,
        0.30612900853157043,
        -0.42103755474090576,
        -0.46088936924934387,
        0.3464834690093994,
        0.418256938457489,
        -0.19738778471946716,
        0.3132784962654114,
        -0.4970043897628784,
        0.006447372958064079,
        -0.44949567317962646,
        0.2657906711101532,
        -0.4227849245071411,
        0.2994389832019806,
        0.15644365549087524,
        -0.409066379070282,
        0.2413002848625183,
        -0.3499443829059601,
        -0.2048814296722412,
        0.07439889758825302,
        -0.33239197731018066,
        -0.0012670792639255524,
        -0.36751267313957214,
        0.008418492041528225,
        -0.2723228931427002,
        0.1756938248872757,
        0.44585278630256653,
        -0.1841295063495636,
        0.0567912720143795,
        0.04914630576968193,
        -0.45022690296173096,
        -0.15995429456233978,
        0.33158594369888306,
        -0.13225862383842468,
        0.37001410126686096,
        0.08552701771259308,
        -0.2850748598575592,
        -0.057042282074689865,
        -0.34939196705818176,
        0.33081141114234924,
        0.13875524699687958,
        0.11712419986724854,
        0.07410059869289398,
        -0.12131405621767044,
        -0.4549157917499542,
        -0.29852405190467834,
        -0.2046225219964981,
        0.3748084008693695,
        0.4520810842514038,
        -0.43647417426109314,
        -0.128148153424263,
        0.45857641100883484,
        -0.3893297016620636,
        0.31334981322288513,
        0.28596028685569763,
        -0.210276797413826,
        -0.29827845096588135,
        -0.29363343119621277,
        -0.1605970412492752,
        0.14463134109973907,
        -0.11389368772506714,
        -0.04294005408883095,
        -0.4490901827812195,
        -0.4739156663417816,
        -0.08917129039764404,
        0.4642702341079712,
        -0.4796927273273468,
        -0.14184536039829254,
        -0.26673057675361633,
        0.006377245299518108,
        -0.3028651475906372,
        -0.10051882266998291,
        -0.10539235919713974,
        0.4156114161014557,
        -0.08817362040281296,
        0.23529177904129028,
        0.048903197050094604,
        -0.38909077644348145,
        0.4664926826953888,
        -0.16741524636745453,
        -0.467119038105011,
        0.2835243344306946,
        -0.25023412704467773,
        -0.3868670165538788,
        -0.44074371457099915,
        -0.47397294640541077,
        -0.127341166138649,
        0.24158260226249695,
        -0.3186105191707611,
        0.25986453890800476,
        -0.4062308073043823,
        -0.18491166830062866,
        -0.16639479994773865,
        -0.17143040895462036,
        -0.4695889353752136,
        0.13793259859085083,
        0.4637020528316498,
        0.4752916991710663,
        0.21331273019313812,
        0.3276132643222809,
        -0.33201926946640015,
        0.21932543814182281,
        -0.30739086866378784,
        -0.4596693515777588,
        -0.35006871819496155,
        0.24004140496253967,
        -0.34130996465682983,
        -0.3802279531955719,
        -0.03910152614116669,
        -0.2206295132637024,
        0.3560373783111572,
        -0.27649104595184326,
        -0.2816069722175598,
        -0.32029464840888977,
        -0.47879666090011597,
        -0.1456202268600464,
        0.23466497659683228,
        0.22864407300949097,
        0.06844393908977509,
        0.4117996394634247,
        -0.14574769139289856,
        0.008772664703428745,
        0.16542357206344604,
        0.44594070315361023,
        0.24780014157295227,
        0.39022502303123474,
        -0.06395328044891357,
        0.4266572594642639,
        -0.1528816521167755,
        -0.1712353676557541,
        -0.06206994876265526,
        -0.21916963160037994,
        0.4294359087944031,
        0.07508713006973267,
        0.2526032626628876,
        -0.08116553723812103,
        0.17740952968597412,
        -0.13478714227676392,
        0.0020932862535119057,
        -0.3216821253299713,
        -0.028544802218675613,
        0.399343878030777,
        0.12373644858598709,
        -0.4205070436000824,
        0.20704112946987152,
        -0.01408209465444088,
        0.09053701907396317,
        0.2898409962654114,
        0.3409894108772278,
        -0.24313350021839142,
        -0.261793851852417,
        -0.2472895234823227,
        0.4945032298564911,
        -0.2298826426267624,
        -0.4144130349159241,
        0.2583617866039276,
        0.4909771680831909,
        -0.43902209401130676,
        -0.40709188580513,
        -0.01503728237003088,
        0.27263087034225464,
        -0.2644168734550476,
        0.4337860643863678,
        0.3388460874557495,
        0.37800151109695435,
        -0.1236603632569313,
        -0.3099733889102936,
        -0.2803642451763153,
        0.1677291989326477,
        -0.415874719619751,
        0.2189551591873169,
        -0.08057668060064316,
        0.2074275016784668,
        0.151222363114357,
        -0.3331286907196045,
        0.439238578081131,
        -0.4048583507537842,
        0.03781508654356003,
        -0.48064059019088745,
        0.4947720766067505,
        -0.49209877848625183,
        0.3875826895236969,
        -0.4562077820301056,
        0.017673177644610405,
        0.05257858335971832,
        0.033349476754665375,
        -0.09090228378772736,
        0.41577205061912537,
        0.066965751349926,
        0.23537828028202057,
        0.021287238225340843,
        0.1820167601108551,
        0.38132697343826294,
        0.2194935381412506,
        0.3655563294887543,
        0.347812682390213,
        0.23628747463226318,
        -0.14318698644638062,
        -0.43180549144744873,
        0.09513024985790253,
        -0.4891681373119354,
        -0.17595802247524261,
        0.13438478112220764,
        -0.13768525421619415,
        0.32517123222351074,
        0.43523654341697693,
        0.16698837280273438,
        -0.14837290346622467,
        -0.2599610686302185,
        0.38673824071884155,
        0.45522260665893555,
        0.3183014690876007,
        -0.23666706681251526,
        0.3450523912906647,
        -0.2393648624420166,
        -0.07289312034845352,
        0.04025604948401451,
        0.1271771341562271,
        -0.09517358243465424,
        0.12426868826150894,
        -0.33093056082725525,
        0.22643737494945526,
        0.23845274746418,
        -0.2918510138988495,
        0.25919416546821594,
        0.06612000614404678,
        0.01948033645749092,
        -0.36606690287590027,
        0.1824398636817932,
        -0.1697176843881607,
        0.1944585144519806,
        0.3277657628059387,
        -0.1268366277217865,
        0.018227647989988327,
        -0.31614428758621216,
        -0.42897629737854004,
        -0.34235212206840515,
        0.2533859610557556,
        0.467357873916626,
        -0.06628736853599548,
        -0.043187517672777176,
        -0.022164108231663704,
        -0.2506101429462433,
        0.30052465200424194,
        -0.3134421110153198,
        0.07433965802192688,
        0.10657783597707748,
        0.27963677048683167,
        -0.2734048068523407,
        0.36244094371795654,
        0.1757667064666748,
        -0.17297805845737457,
        -0.3911953568458557,
        0.49661925435066223,
        0.33932340145111084,
        -0.4395145773887634,
        0.22349263727664948,
        0.0776180699467659,
        0.18047483265399933,
        -0.07340289652347565,
        -0.019390268251299858,
        0.2114408165216446,
        -0.3665940463542938,
        -0.44060012698173523,
        -0.14271143078804016,
        -0.4085589647293091,
        -0.41770094633102417,
        0.22123079001903534,
        0.1503564864397049,
        0.4254585802555084,
        -0.057886265218257904,
        0.4796035587787628,
        -0.23741424083709717,
        -0.16944415867328644,
        0.49368584156036377,
        0.11518679559230804,
        -0.004144386388361454,
        -0.4613114297389984,
        0.20222178101539612,
        0.4405856132507324,
        0.0026867275591939688,
        -0.028367934748530388,
        0.07864099740982056,
        -0.33539676666259766,
        -0.4774506688117981,
        -0.41723206639289856,
        0.07285026460886002,
        -0.4603235721588135,
        0.14617197215557098,
        0.44978654384613037,
        0.2509833574295044,
        -0.015949105843901634,
        0.07417647540569305,
        -0.4334489107131958,
        0.22856749594211578,
        0.40712884068489075,
        0.3677603304386139,
        -0.31424471735954285,
        -0.46230676770210266,
        -0.17459681630134583,
        -0.4796527326107025,
        0.12944382429122925,
        0.4844096601009369,
        -0.34867772459983826,
        -0.23710545897483826,
        0.1193314865231514,
        0.10346897691488266,
        -0.03720591962337494,
        0.3941898047924042,
        -0.2488841414451599,
        -0.35222122073173523,
        -0.21411052346229553,
        0.23636919260025024,
        0.3421412706375122,
        0.08473178744316101,
        0.02567640319466591,
        0.011897651478648186,
        0.3110789358615875,
        -0.23292654752731323,
        -0.40887683629989624,
        -0.13815224170684814,
        -0.2593144476413727,
        0.24705766141414642,
        0.37994393706321716,
        -0.20885194838047028,
        0.4429018199443817,
        -0.47276806831359863,
        0.11996994912624359,
        -0.273760586977005,
        -0.13551115989685059,
        -0.16923530399799347,
        -0.33810099959373474,
        -0.43904024362564087,
        -0.15697157382965088,
        -0.20633430778980255,
        0.28641003370285034,
        0.127011239528656,
        0.12372186034917831,
        0.40344518423080444,
        -0.3258925974369049,
        0.46125927567481995,
        -0.3316328525543213,
        0.3323686420917511,
        -0.09421808272600174,
        -0.19787578284740448,
        0.2356860339641571,
        -0.21154658496379852,
        0.2932034730911255,
        0.11174283176660538,
        -0.10021775215864182,
        -0.19911257922649384,
        -0.3274152874946594,
        -0.36250540614128113,
        0.34948402643203735,
        0.4390023648738861,
        -0.46020883321762085,
        0.44592711329460144,
        0.4927130341529846,
        0.279643714427948,
        -0.4591432213783264,
        -0.21610654890537262,
        -0.3090801537036896,
        0.14997805655002594,
        0.11027803272008896,
        -0.09616941213607788,
        -0.047682784497737885,
        -0.16901183128356934,
        0.30872729420661926,
        -0.16807842254638672,
        0.2614721357822418,
        0.06759414076805115,
        -0.3696267306804657,
        0.3430749475955963,
        -0.46008822321891785,
        0.33880555629730225,
        -0.05280463770031929,
        -0.44782593846321106,
        -0.11179730296134949,
        -0.2357773780822754,
        -0.17791657149791718,
        0.40495261549949646,
        -0.15961258113384247,
        -0.22690071165561676,
        -0.31562539935112,
        0.11059045046567917,
        -0.3891488313674927,
        -0.39015740156173706,
        0.3061293363571167,
        0.15458954870700836,
        -0.43329522013664246,
        0.06632712483406067,
        -0.45544251799583435,
        -0.1903725564479828,
        0.3933013081550598,
        -0.31898656487464905,
        0.3369123935699463,
        0.3638048768043518,
        0.281808078289032,
        0.10449738800525665,
        0.48957565426826477,
        -0.21108703315258026,
        -0.1830863505601883,
        -0.46973559260368347
      ]
    },
    {
      "name": "dense_Dense4/bias",
      "shape": [
        16
      ],
      "dtype": "float32",
      "values": [
        0,
        0,
        0,
        0,
        0,
        0,
        0,
        0,
        0,
        0,
        0,
        0,
        0,
        0,
        0,
        0
      ]
    }
  ]
}
