{
  "version": 1,
  "createdAt": 1762610972037,
  "backend": "webgl",
  "config": {
    "inputSize": 19,
    "outputSize": 16,
    "hiddenLayers": [
      56
    ],
    "activation": "relu",
    "outputActivation": "tanh",
    "backend": "webgl",
    "seed": 1674404348
  },
  "metadata": {
    "label": "10",
    "notes": "",
    "correlations": [
      {
        "id": "rms-deltaposx",
        "featureKey": "bandBass",
        "targetId": "deltaPosX",
        "targetIndex": 0,
        "axis": "x",
        "group": "deltaPos",
        "featureIndex": 4,
        "strength": 0.65,
        "polarity": "direct"
      },
      {
        "id": "tempoproxy-rotationspeed",
        "featureKey": "tempoProxy",
        "targetId": "rotationSpeed",
        "targetIndex": 9,
        "axis": null,
        "group": "rotationSpeed",
        "featureIndex": 10,
        "strength": 0.65,
        "polarity": "direct"
      },
      {
        "id": "bandbass-wobblestrength",
        "featureKey": "bandBass",
        "targetId": "wobbleStrength",
        "targetIndex": 10,
        "axis": null,
        "group": "wobbleStrength",
        "featureIndex": 4,
        "strength": 0.6,
        "polarity": "direct"
      },
      {
        "id": "bandhigh-wobblefrequency",
        "featureKey": "bandHigh",
        "targetId": "wobbleFrequency",
        "targetIndex": 11,
        "axis": null,
        "group": "wobbleFrequency",
        "featureIndex": 7,
        "strength": 0.6,
        "polarity": "direct"
      },
      {
        "id": "speccentroid-colormix",
        "featureKey": "specCentroid",
        "targetId": "colorMix",
        "targetIndex": 12,
        "axis": null,
        "group": "colorMix",
        "featureIndex": 1,
        "strength": 0.55,
        "polarity": "direct"
      },
      {
        "id": "rms-alphascale",
        "featureKey": "rms",
        "targetId": "alphaScale",
        "targetIndex": 13,
        "axis": null,
        "group": "alphaScale",
        "featureIndex": 0,
        "strength": 0.5,
        "polarity": "direct"
      },
      {
        "id": "peak-pointscale",
        "featureKey": "peak",
        "targetId": "pointScale",
        "targetIndex": 14,
        "axis": null,
        "group": "pointScale",
        "featureIndex": 8,
        "strength": 0.55,
        "polarity": "direct"
      },
      {
        "id": "bandlowmid-camerazoom",
        "featureKey": "bandLowMid",
        "targetId": "cameraZoom",
        "targetIndex": 15,
        "axis": null,
        "group": "cameraZoom",
        "featureIndex": 5,
        "strength": 0.6,
        "polarity": "direct"
      },
      {
        "id": "peak-flickerdepth",
        "featureKey": "bandBass",
        "targetId": "pointScale",
        "targetIndex": 14,
        "axis": null,
        "group": "pointScale",
        "featureIndex": 4,
        "strength": 0.65,
        "polarity": "direct"
      },
      {
        "id": "zerocrossrate-rotationspeed",
        "featureKey": "bandBass",
        "targetId": "alphaScale",
        "targetIndex": 13,
        "axis": null,
        "group": "alphaScale",
        "featureIndex": 4,
        "strength": 0.65,
        "polarity": "direct"
      },
      {
        "id": "tempoproxy-wobblestrength",
        "featureKey": "bandBass",
        "targetId": "sizeDelta",
        "targetIndex": 3,
        "axis": null,
        "group": "size",
        "featureIndex": 4,
        "strength": 0.65,
        "polarity": "direct"
      }
    ],
    "training": {
      "status": "completed",
      "epoch": 100,
      "epochs": 100,
      "loss": 0.00048176487325690687,
      "best": null,
      "metadata": {
        "status": "completed",
        "epochs": 100,
        "loss": 0.00048176487325690687,
        "sampleCount": 2048,
        "batchSize": 64,
        "learningRate": 0.0015,
        "noise": 0.04,
        "seed": 1762563234828,
        "createdAt": 1762610957015,
        "correlations": [
          {
            "id": "rms-deltaposx",
            "featureKey": "bandBass",
            "targetId": "deltaPosX",
            "strength": 0.65,
            "polarity": "direct",
            "achieved": 0.9992162566828119
          },
          {
            "id": "tempoproxy-rotationspeed",
            "featureKey": "tempoProxy",
            "targetId": "rotationSpeed",
            "strength": 0.65,
            "polarity": "direct",
            "achieved": 0.9991959172640738
          },
          {
            "id": "bandbass-wobblestrength",
            "featureKey": "bandBass",
            "targetId": "wobbleStrength",
            "strength": 0.6,
            "polarity": "direct",
            "achieved": 0.9994233959746925
          },
          {
            "id": "bandhigh-wobblefrequency",
            "featureKey": "bandHigh",
            "targetId": "wobbleFrequency",
            "strength": 0.6,
            "polarity": "direct",
            "achieved": 0.9994174880587476
          },
          {
            "id": "speccentroid-colormix",
            "featureKey": "specCentroid",
            "targetId": "colorMix",
            "strength": 0.55,
            "polarity": "direct",
            "achieved": 0.9995526240859108
          },
          {
            "id": "rms-alphascale",
            "featureKey": "rms",
            "targetId": "alphaScale",
            "strength": 0.5,
            "polarity": "direct",
            "achieved": 0.597316532084439
          },
          {
            "id": "peak-pointscale",
            "featureKey": "peak",
            "targetId": "pointScale",
            "strength": 0.55,
            "polarity": "direct",
            "achieved": 0.6432760248898637
          },
          {
            "id": "bandlowmid-camerazoom",
            "featureKey": "bandLowMid",
            "targetId": "cameraZoom",
            "strength": 0.6,
            "polarity": "direct",
            "achieved": 0.9994191067732452
          },
          {
            "id": "peak-flickerdepth",
            "featureKey": "bandBass",
            "targetId": "pointScale",
            "strength": 0.65,
            "polarity": "direct",
            "achieved": 0.7543770215158814
          },
          {
            "id": "zerocrossrate-rotationspeed",
            "featureKey": "bandBass",
            "targetId": "alphaScale",
            "strength": 0.65,
            "polarity": "direct",
            "achieved": 0.7954057629965119
          },
          {
            "id": "tempoproxy-wobblestrength",
            "featureKey": "bandBass",
            "targetId": "sizeDelta",
            "strength": 0.65,
            "polarity": "direct",
            "achieved": 0.9991925547256431
          }
        ]
      }
    }
  },
  "weights": [
    {
      "name": "dense_Dense17/kernel",
      "shape": [
        19,
        56
      ],
      "dtype": "float32",
      "values": [
        -0.13203077018260956,
        0.0057539911940693855,
        -0.05697653070092201,
        -0.04904624819755554,
        0.009178461506962776,
        0.1045648604631424,
        -0.048935770988464355,
        -0.07951617985963821,
        -0.04047544673085213,
        -0.06356367468833923,
        -0.07368706911802292,
        0.02272452600300312,
        -0.008267641998827457,
        0.0048044039867818356,
        0.01590225100517273,
        -0.11317887157201767,
        -0.013663271442055702,
        -0.02504139393568039,
        -0.06600633263587952,
        -0.0007776315324008465,
        -0.028997493907809258,
        -0.006442712619900703,
        0.13289879262447357,
        0.014899980276823044,
        -0.17857258021831512,
        0.002914928365498781,
        -0.05987454950809479,
        0.05480171740055084,
        -0.001860794611275196,
        0.004627486225217581,
        0.06004112586379051,
        0.03443639352917671,
        0.018982714042067528,
        0.07189386337995529,
        0.02791029028594494,
        0.09977202862501144,
        0.07873120903968811,
        -0.027614083141088486,
        -0.07577495276927948,
        -0.15935936570167542,
        -0.08511102944612503,
        0.002425828482955694,
        -0.04733097925782204,
        0.1917942613363266,
        0.06716323643922806,
        -0.03546472266316414,
        0.008390550501644611,
        0.011711038649082184,
        -0.07551959902048111,
        0.10231951624155045,
        0.016426607966423035,
        0.0379970520734787,
        0.05269312113523483,
        -0.04668263718485832,
        0.011763428337872028,
        0.03228967636823654,
        -0.17030565440654755,
        -0.04344958811998367,
        -0.07329072058200836,
        0.03588229417800903,
        -0.01001830492168665,
        0.013677815906703472,
        0.09778442978858948,
        -0.044533565640449524,
        0.12816843390464783,
        -0.028035173192620277,
        -0.007268435787409544,
        0.13523761928081512,
        -0.09298807382583618,
        -0.05029470846056938,
        -0.01496201753616333,
        0.03700939193367958,
        0.04553065076470375,
        0.0442136786878109,
        0.07848096638917923,
        -0.0005854542832821608,
        -0.006210506893694401,
        0.0740051195025444,
        0.06053542718291283,
        -0.06804151087999344,
        0.0665830671787262,
        0.019151952117681503,
        0.013630506582558155,
        0.026757335290312767,
        0.0599251314997673,
        0.06481532007455826,
        0.03012397512793541,
        0.08067497611045837,
        -0.09177124500274658,
        0.058338966220617294,
        -0.052290238440036774,
        0.004863240290433168,
        -0.1213962510228157,
        0.06677926331758499,
        0.022160224616527557,
        0.05912187322974205,
        0.08536691218614578,
        0.030582593753933907,
        -0.040832795202732086,
        0.04368678107857704,
        -0.04462558776140213,
        -0.1852523535490036,
        -0.04567611590027809,
        0.009051811881363392,
        -0.041607197374105453,
        0.1329217553138733,
        -0.061803046613931656,
        -0.12197954952716827,
        0.1258820742368698,
        0.0038631591014564037,
        0.008844541385769844,
        -0.017473038285970688,
        0.025313016027212143,
        0.1329878568649292,
        -0.1359545737504959,
        0.07651417702436447,
        -0.14007391035556793,
        -0.013548795133829117,
        0.01531266700476408,
        0.032105349004268646,
        -0.014853710308670998,
        -0.023357335478067398,
        0.03964754194021225,
        0.002588438568636775,
        0.05938796326518059,
        0.02114967629313469,
        0.17047777771949768,
        0.08100847899913788,
        -0.07552211731672287,
        0.0719105452299118,
        0.07314939796924591,
        3.0393452107091434e-05,
        0.021654140204191208,
        0.021229133009910583,
        0.06597748398780823,
        -0.11483312398195267,
        0.08302608132362366,
        -0.0904909074306488,
        0.004787500482052565,
        0.013431099243462086,
        -0.1488446444272995,
        -0.07224082201719284,
        0.1579960286617279,
        -0.033362843096256256,
        -0.055881258100271225,
        -0.016392018646001816,
        -0.1693434864282608,
        -0.0071134320460259914,
        0.19381214678287506,
        0.10624668747186661,
        0.037741366773843765,
        0.1480046808719635,
        -0.10794089734554291,
        0.019312230870127678,
        0.02181336097419262,
        -0.028663501143455505,
        0.0010127383284270763,
        -0.190659761428833,
        0.05945727601647377,
        0.022662773728370667,
        0.008860685862600803,
        0.05209706351161003,
        0.023877857252955437,
        -0.13286663591861725,
        0.053468696773052216,
        -0.00011580945283640176,
        0.033326372504234314,
        0.07080251723527908,
        -0.2869562804698944,
        0.15965457260608673,
        -0.12926693260669708,
        -0.053306225687265396,
        -0.16132837533950806,
        -0.038755498826503754,
        -0.157740518450737,
        0.1637084186077118,
        0.2890923023223877,
        0.09303786605596542,
        0.29597488045692444,
        0.09469952434301376,
        -0.014318017289042473,
        0.03608764708042145,
        -0.09836702793836594,
        0.20628026127815247,
        -0.024648822844028473,
        0.05994041636586189,
        0.19428931176662445,
        -0.022570336237549782,
        0.13220453262329102,
        0.07743837684392929,
        -0.10376980155706406,
        0.10271568596363068,
        0.284433513879776,
        0.08845777064561844,
        0.09426943957805634,
        0.13804423809051514,
        0.16763737797737122,
        0.11360824853181839,
        -0.06620078533887863,
        0.14459072053432465,
        0.08001033961772919,
        0.2628888189792633,
        -0.08205883949995041,
        -0.021496854722499847,
        -0.15075576305389404,
        0.18251490592956543,
        0.17448009550571442,
        -0.35276272892951965,
        0.2618151009082794,
        0.13970786333084106,
        -0.084137462079525,
        -0.2942177951335907,
        -0.10769790410995483,
        -0.24085010588169098,
        -0.01084704976528883,
        0.08918418735265732,
        -0.08914661407470703,
        0.21853269636631012,
        0.11639468371868134,
        0.08429759740829468,
        0.1921195387840271,
        -0.050826430320739746,
        0.18810667097568512,
        0.07274726033210754,
        -0.009664461947977543,
        -0.03707565739750862,
        0.08457720279693604,
        -0.09199569374322891,
        -0.01776295155286789,
        -0.025855571031570435,
        -0.01640765182673931,
        0.22798646986484528,
        0.06380918622016907,
        0.14482642710208893,
        -0.1854962855577469,
        0.22625716030597687,
        -0.24625444412231445,
        0.11977816373109818,
        0.028683580458164215,
        0.18163791298866272,
        0.05276394262909889,
        -0.055347803980112076,
        9.898133612296078e-06,
        0.06240110099315643,
        0.09879016131162643,
        -0.013830184005200863,
        -0.1564929485321045,
        0.044218506664037704,
        0.05279681086540222,
        -0.19947080314159393,
        -0.1135784387588501,
        0.016909277066588402,
        0.07885382324457169,
        -0.20008668303489685,
        -0.08408556133508682,
        0.21105560660362244,
        0.010147981345653534,
        -0.015811169520020485,
        0.020774006843566895,
        0.07239066064357758,
        -0.14573988318443298,
        -0.04576794430613518,
        -0.06731918454170227,
        -0.04081987589597702,
        -0.023529373109340668,
        -0.13328441977500916,
        -0.1505717933177948,
        -0.21498951315879822,
        -0.23276938498020172,
        -0.1243494525551796,
        0.05998915806412697,
        0.10963808745145798,
        -0.020256560295820236,
        -0.058646924793720245,
        -0.06473183631896973,
        -0.010392727330327034,
        0.03150220215320587,
        0.11181630194187164,
        -0.0694245845079422,
        -0.10460434854030609,
        0.17129486799240112,
        0.06793021410703659,
        -0.02819834090769291,
        -0.10266570746898651,
        -0.05786203220486641,
        -0.04943624138832092,
        -0.04460282251238823,
        0.1694038212299347,
        0.0031466931104660034,
        0.015538281761109829,
        -0.10257180780172348,
        0.0381171815097332,
        -0.19526635110378265,
        0.03306703269481659,
        0.07065299153327942,
        -0.0384567566215992,
        0.01342710666358471,
        0.07206428796052933,
        -0.03030034899711609,
        0.14610058069229126,
        -0.018328214064240456,
        -0.05142206326127052,
        -0.009241163730621338,
        0.03995795175433159,
        0.03219703957438469,
        0.019307492300868034,
        0.04632733389735222,
        0.11325911432504654,
        0.017618589103221893,
        -0.01902593858540058,
        -0.08248360455036163,
        0.10770708322525024,
        0.09460099786520004,
        -0.07499077171087265,
        -0.04835167154669762,
        -0.0727655217051506,
        -0.04523777589201927,
        -0.10441339015960693,
        0.13387681543827057,
        0.020230447873473167,
        -0.025991739705204964,
        -0.0485728457570076,
        0.17092551290988922,
        -0.1552637219429016,
        -0.1619184911251068,
        -0.09286917746067047,
        -0.012752239592373371,
        0.007099704351276159,
        -0.058751046657562256,
        0.0784967839717865,
        0.14497974514961243,
        0.06427320092916489,
        0.01946656033396721,
        0.08600886911153793,
        -0.008013798855245113,
        0.018515264615416527,
        -0.20071111619472504,
        -0.009027809835970402,
        0.08924314379692078,
        -0.0746588483452797,
        -0.11405477672815323,
        0.009134692139923573,
        -0.01619427278637886,
        -0.030994374305009842,
        0.0380583181977272,
        0.06551680713891983,
        0.0682707205414772,
        0.012746317312121391,
        0.05493295565247536,
        -0.03937646001577377,
        -0.09488951414823532,
        -0.006423790007829666,
        -0.017968740314245224,
        0.08682966232299805,
        0.156585693359375,
        -0.09770247340202332,
        -0.030918339267373085,
        0.05552453175187111,
        -0.021257149055600166,
        -0.07636900991201401,
        0.10308099538087845,
        0.02665662206709385,
        0.07947076112031937,
        -0.06520548462867737,
        -0.08566733449697495,
        0.1345146894454956,
        -0.10631231218576431,
        -0.1570742428302765,
        -0.07962971925735474,
        -0.08626777678728104,
        -0.04217170923948288,
        -0.08094996213912964,
        0.049052879214286804,
        0.015915662050247192,
        -0.029982473701238632,
        -0.002674672519788146,
        -0.03757621720433235,
        0.08791490644216537,
        0.16521604359149933,
        -0.26895129680633545,
        -0.08912746608257294,
        -0.14191988110542297,
        0.02249613218009472,
        -0.12155022472143173,
        0.2729468047618866,
        -0.08825810998678207,
        -0.12004975229501724,
        -0.025993527844548225,
        0.025362588465213776,
        -0.07444943487644196,
        -0.015296217985451221,
        -0.028448928147554398,
        0.0012839550618082285,
        -0.13054277002811432,
        0.046704281121492386,
        -0.31877437233924866,
        0.24256296455860138,
        0.030717408284544945,
        0.11186494678258896,
        0.06047109141945839,
        0.07052648812532425,
        0.3015170395374298,
        0.02287605032324791,
        0.12524361908435822,
        0.20558281242847443,
        -0.3049725294113159,
        -0.050969988107681274,
        -0.13342872262001038,
        -0.09727081656455994,
        0.26426592469215393,
        -0.23315666615962982,
        -0.029735883697867393,
        0.14635752141475677,
        -0.23722323775291443,
        -0.08011414855718613,
        -0.08515424281358719,
        0.024044949561357498,
        -0.16577112674713135,
        0.07077262550592422,
        -0.06567198783159256,
        0.07562568038702011,
        -0.055005576461553574,
        -0.012682868167757988,
        0.10317996889352798,
        0.11757578700780869,
        0.2872598171234131,
        0.10715824365615845,
        0.004446519538760185,
        0.12617835402488708,
        -0.013093807734549046,
        -0.12813445925712585,
        -0.05654342100024223,
        0.17762207984924316,
        -0.06243176385760307,
        0.06061989441514015,
        0.08571136742830276,
        -0.059819769114255905,
        -0.13161353766918182,
        0.04853430762887001,
        0.09573239088058472,
        0.19233478605747223,
        -0.23910996317863464,
        -0.27372339367866516,
        0.06850249320268631,
        0.030317533761262894,
        -0.010188307613134384,
        0.11926107108592987,
        -0.028690887615084648,
        -0.09828562289476395,
        0.19861865043640137,
        0.017980821430683136,
        -0.21908293664455414,
        -0.1129675954580307,
        0.1651049554347992,
        0.10170906037092209,
        -0.12930066883563995,
        -0.059018101543188095,
        0.04182704910635948,
        0.15653708577156067,
        0.1722644418478012,
        0.0966559424996376,
        -0.04961172863841057,
        0.0210884977132082,
        -0.07622828334569931,
        -0.07898737490177155,
        0.11318446695804596,
        -0.09192267060279846,
        0.027938269078731537,
        0.0924299880862236,
        0.3822272717952728,
        -0.05057632550597191,
        -0.39630556106567383,
        -0.27805280685424805,
        -0.13862143456935883,
        0.32292795181274414,
        -0.020337266847491264,
        0.3940369188785553,
        0.3931873142719269,
        -0.1271917074918747,
        0.3402678370475769,
        -0.1015748381614685,
        -0.0783628523349762,
        -0.09473519772291183,
        0.029020464047789574,
        -0.04936385527253151,
        0.018050717189908028,
        0.24042683839797974,
        -0.055407244712114334,
        -0.09910555928945541,
        -0.3202042281627655,
        -0.07956581562757492,
        0.06660225242376328,
        -0.08819974213838577,
        -0.20152191817760468,
        0.0938010960817337,
        -0.0665690004825592,
        -0.13891330361366272,
        -0.24144087731838226,
        0.008148702792823315,
        0.22370770573616028,
        0.22624680399894714,
        0.3326517641544342,
        0.19680051505565643,
        0.09712480753660202,
        -0.1180972158908844,
        0.0520891398191452,
        -0.10186836123466492,
        -0.1050671860575676,
        0.07087866961956024,
        -0.19541719555854797,
        -0.23602813482284546,
        0.35913848876953125,
        -0.19290438294410706,
        0.02994944155216217,
        0.15670450031757355,
        0.22461146116256714,
        0.024160703644156456,
        0.3257106840610504,
        0.1056460365653038,
        0.0335456021130085,
        0.06222173199057579,
        -0.19957630336284637,
        -0.22690677642822266,
        0.009780866093933582,
        -0.3319593667984009,
        -0.12254969775676727,
        -0.38799479603767395,
        0.2667388319969177,
        -0.06744050234556198,
        0.023151284083724022,
        0.3692571222782135,
        0.41855746507644653,
        0.04229690507054329,
        0.07932806760072708,
        -0.02458060532808304,
        -0.02229548618197441,
        0.08151330798864365,
        0.025272555649280548,
        -0.01946466974914074,
        0.09954110532999039,
        -0.1662692278623581,
        0.272817462682724,
        -0.050830792635679245,
        -0.23087549209594727,
        0.48585134744644165,
        -0.04121902957558632,
        -0.1954333782196045,
        -0.15112058818340302,
        0.21956132352352142,
        0.030799701809883118,
        -0.07614555209875107,
        -0.2551889717578888,
        -0.09874752908945084,
        0.2679841220378876,
        -0.2719607651233673,
        0.006699655670672655,
        0.20145514607429504,
        0.1559423953294754,
        -0.14531360566616058,
        0.17852765321731567,
        -0.3126370906829834,
        -0.08696199208498001,
        -0.20215599238872528,
        -0.28137943148612976,
        0.00365032022818923,
        -0.1012948602437973,
        0.059101179242134094,
        0.008571796119213104,
        0.20452135801315308,
        0.16055110096931458,
        -0.0014191599329933524,
        0.16270297765731812,
        -0.20913191139698029,
        0.0854874700307846,
        -0.0733712762594223,
        -0.016915110871195793,
        0.06525865942239761,
        0.11240514367818832,
        -0.015937136486172676,
        -0.11771319061517715,
        0.015285879373550415,
        0.04132204130291939,
        0.030851881951093674,
        0.2181144654750824,
        0.004368988797068596,
        0.1825457066297531,
        0.14659741520881653,
        0.03751497343182564,
        0.11781039834022522,
        0.18552567064762115,
        0.0187764223664999,
        0.0017083563143387437,
        0.13494277000427246,
        -0.03321405127644539,
        -0.21813549101352692,
        0.008660560473799706,
        0.041132617741823196,
        0.1115197092294693,
        0.07882267236709595,
        0.050205476582050323,
        -0.025443242862820625,
        0.2675418257713318,
        -0.31067535281181335,
        0.061237089335918427,
        0.06009328365325928,
        0.17290182411670685,
        -0.09019367396831512,
        0.011327321641147137,
        -0.11670605838298798,
        0.02027050592005253,
        -0.06986652314662933,
        0.34954339265823364,
        -0.11936689913272858,
        0.1356208771467209,
        0.06333425641059875,
        -0.018510669469833374,
        -0.21370045840740204,
        0.09728075563907623,
        -0.0766654759645462,
        0.014568991959095001,
        -0.041969843208789825,
        -0.20371326804161072,
        -0.17614880204200745,
        -0.028659638017416,
        -0.08881556242704391,
        0.16097086668014526,
        0.16435688734054565,
        -0.03264951333403587,
        0.05517744645476341,
        0.02637452818453312,
        -0.0038152500055730343,
        -0.09905727207660675,
        -0.03202015534043312,
        0.25464946031570435,
        0.18696342408657074,
        -0.07734707742929459,
        0.10923174023628235,
        -0.19655552506446838,
        0.16544948518276215,
        0.08163221925497055,
        0.07803182303905487,
        0.1713295429944992,
        0.08444130420684814,
        -0.1543547362089157,
        -0.15492002665996552,
        -0.05343063548207283,
        0.07358768582344055,
        -0.03227374330163002,
        0.2790854275226593,
        0.012238589115440845,
        -0.07419012486934662,
        -0.03299044072628021,
        0.13279519975185394,
        -0.11391112953424454,
        0.019365373998880386,
        0.13370269536972046,
        0.1512879878282547,
        0.027398450300097466,
        -0.03327038139104843,
        0.04172813147306442,
        -0.19330552220344543,
        0.16128972172737122,
        0.0442533977329731,
        -0.029605383053421974,
        -0.07009923458099365,
        -0.17228947579860687,
        -0.12592928111553192,
        0.10934386402368546,
        -0.011864088475704193,
        0.16056592762470245,
        0.009576231241226196,
        0.0495268777012825,
        -0.028343787416815758,
        0.2373468428850174,
        -0.29197269678115845,
        -0.006819332018494606,
        -0.10684476792812347,
        6.556350126629695e-05,
        0.03271381929516792,
        0.13914652168750763,
        0.07160092145204544,
        -0.42014214396476746,
        -0.24594338238239288,
        -0.3667350113391876,
        -0.12715469300746918,
        0.35799622535705566,
        -0.23225948214530945,
        -0.3067454397678375,
        0.24225616455078125,
        0.4635923504829407,
        -0.03054792806506157,
        0.098049595952034,
        -0.14408771693706512,
        0.36847424507141113,
        -0.10969942063093185,
        -0.1613292396068573,
        0.08325661718845367,
        -0.15603215992450714,
        0.43277668952941895,
        -0.5567461848258972,
        0.5149839520454407,
        0.07644382864236832,
        -0.06734927743673325,
        0.4070051908493042,
        0.46998292207717896,
        0.40509864687919617,
        -0.1970992386341095,
        -0.1091863289475441,
        -0.19190818071365356,
        0.37263086438179016,
        0.542537271976471,
        0.018474724143743515,
        -0.20972734689712524,
        0.10320241749286652,
        -0.04029277339577675,
        -0.031503111124038696,
        0.06467219442129135,
        -0.08536778390407562,
        -0.3270362913608551,
        0.05422026291489601,
        -0.1180235743522644,
        0.0541343092918396,
        -0.339647114276886,
        0.23733380436897278,
        0.1826498806476593,
        -0.40818580985069275,
        -0.22454282641410828,
        -0.2213088423013687,
        -0.027081284672021866,
        0.31763020157814026,
        0.16106238961219788,
        -0.0035860405769199133,
        -0.0441439263522625,
        0.13590332865715027,
        -0.0077956500463187695,
        0.22297555208206177,
        0.04848214238882065,
        -0.06081132963299751,
        -0.005712410435080528,
        0.309755802154541,
        -0.15447716414928436,
        0.34808745980262756,
        -0.143864244222641,
        0.15118835866451263,
        -0.03203071653842926,
        0.06753827631473541,
        -0.1729983240365982,
        0.008158636279404163,
        0.40775299072265625,
        0.3831510841846466,
        -0.14508366584777832,
        0.3687272369861603,
        -0.04682859405875206,
        0.030454952269792557,
        0.020923877134919167,
        0.2153499275445938,
        -0.2014618217945099,
        0.16048447787761688,
        -0.15890364348888397,
        -0.1707092821598053,
        0.16023606061935425,
        0.4905841052532196,
        0.15220895409584045,
        0.10195249319076538,
        -0.030194684863090515,
        -0.078341044485569,
        0.4912973642349243,
        0.030828826129436493,
        0.0013992369640618563,
        0.12384366244077682,
        -0.06492223590612411,
        -0.22019970417022705,
        0.03502544388175011,
        -0.06157571077346802,
        -0.022102471441030502,
        0.11020871996879578,
        -0.18979771435260773,
        0.043485820293426514,
        0.10608433187007904,
        -0.33783572912216187,
        -0.1990925520658493,
        0.31374090909957886,
        0.006557737477123737,
        0.06876799464225769,
        0.213561549782753,
        0.21120890974998474,
        0.056847427040338516,
        -0.10073472559452057,
        0.20917768776416779,
        -0.14165449142456055,
        -0.22798234224319458,
        0.06327503174543381,
        -0.003702593268826604,
        0.2316502183675766,
        0.12910504639148712,
        0.03812025487422943,
        -0.19374969601631165,
        0.038109902292490005,
        -0.14530068635940552,
        0.0748792290687561,
        0.17125467956066132,
        0.1436426341533661,
        0.2504268288612366,
        -0.022739725187420845,
        0.034449730068445206,
        0.07464095950126648,
        -0.131632998585701,
        -0.01000823825597763,
        0.0858498141169548,
        -0.1083470955491066,
        0.05838099867105484,
        0.03145444020628929,
        0.019199099391698837,
        0.17665331065654755,
        -0.28656384348869324,
        -0.06986414641141891,
        -0.027881627902388573,
        -0.015599805861711502,
        -0.3050841987133026,
        0.15754950046539307,
        -0.1586795300245285,
        0.0925769954919815,
        0.04951631277799606,
        0.1624602973461151,
        -0.09983687102794647,
        0.0055730608291924,
        0.0877639502286911,
        -0.06243424862623215,
        -0.24139265716075897,
        -0.18197385966777802,
        -0.07399911433458328,
        -0.03638410195708275,
        -0.029594233259558678,
        -0.04007190093398094,
        -0.010569747537374496,
        -0.08651097863912582,
        -0.123843252658844,
        -0.08346609026193619,
        0.09689309448003769,
        0.09422443062067032,
        -0.08260327577590942,
        -0.19090363383293152,
        -0.031268589198589325,
        -0.04479154199361801,
        -0.22478348016738892,
        -0.05287344381213188,
        0.004888249095529318,
        -0.360851526260376,
        0.21948127448558807,
        -0.10917926579713821,
        0.10235632956027985,
        0.008188392966985703,
        -0.09853015840053558,
        0.3794589638710022,
        -0.3413092792034149,
        -0.18479414284229279,
        -0.014141717925667763,
        0.1781425178050995,
        -0.020879849791526794,
        0.0010851103579625487,
        0.1494516134262085,
        -0.19997350871562958,
        -0.13384637236595154,
        0.20527148246765137,
        -0.06704441457986832,
        0.16045068204402924,
        -0.17022642493247986,
        0.3217107355594635,
        0.4357115626335144,
        0.02905486337840557,
        -0.19540409743785858,
        -0.09275121986865997,
        0.16540072858333588,
        -0.30965057015419006,
        0.1454114466905594,
        -0.12040071189403534,
        -0.2521474063396454,
        0.3430316746234894,
        -0.03481538966298103,
        0.06733005493879318,
        -0.20986108481884003,
        -0.3970452845096588,
        0.2656640112400055,
        0.07981906086206436,
        -0.12882468104362488,
        0.006163467187434435,
        -0.042850930243730545,
        -0.12794643640518188,
        0.08544708788394928,
        0.1480945348739624,
        0.3693433105945587,
        -0.06804202497005463,
        0.1327219158411026,
        -0.02563915215432644,
        0.12585386633872986,
        0.04053717106580734,
        0.15984758734703064,
        0.1552211195230484,
        -0.02493159845471382,
        -0.14071950316429138,
        -0.12449634820222855,
        -0.2475680261850357,
        0.2117527574300766,
        0.027349727228283882,
        0.11381114274263382,
        -0.37473180890083313,
        -0.31288108229637146,
        -0.2742224335670471,
        -0.10056144744157791,
        -0.14788372814655304,
        -0.08896472305059433,
        -0.06683961302042007,
        0.12536777555942535,
        -0.22326631844043732,
        0.5789688229560852,
        -0.09844571352005005,
        -0.0930652841925621,
        0.1107691079378128,
        0.1723535805940628,
        0.4041590392589569,
        0.1513185352087021,
        0.07708004862070084,
        0.025219667702913284,
        0.09385325759649277,
        0.026594173163175583,
        0.18184077739715576,
        -0.3150065541267395,
        0.14972767233848572,
        0.44850149750709534,
        -0.3154922127723694,
        -0.23161734640598297,
        0.32988637685775757,
        0.046021103858947754,
        0.2593722641468048,
        0.2641622722148895,
        0.08107957988977432,
        -0.0848245844244957,
        -0.11900927126407623,
        -0.26996031403541565,
        -0.05666675791144371,
        -0.18256942927837372,
        -0.20825213193893433,
        -0.23582763969898224,
        0.18478189408779144,
        -0.07190708070993423,
        0.2603055536746979,
        0.04294724017381668,
        0.08185890316963196,
        -0.03334986791014671,
        0.20858529210090637,
        -0.2911173105239868,
        -0.04784609004855156,
        0.04482486844062805,
        0.1527785360813141,
        -0.12839698791503906,
        0.12442030012607574,
        -0.014482083730399609,
        -0.056834932416677475,
        -0.008790825493633747,
        0.1665494292974472,
        0.012654369696974754,
        0.25081634521484375,
        0.09278086572885513,
        0.09185569733381271,
        -0.25007808208465576,
        0.047263652086257935,
        -0.033204901963472366,
        -0.08900364488363266,
        0.16984418034553528,
        0.1635056585073471,
        -0.09520116448402405,
        -0.016094418242573738,
        0.02439478412270546,
        0.1785445660352707,
        -0.3080636262893677,
        0.23428696393966675,
        0.039551347494125366,
        0.10405875742435455,
        -0.022668082267045975,
        -0.009641779586672783,
        0.11527325212955475,
        0.0031823432072997093,
        -0.13973894715309143,
        0.029173195362091064,
        0.21439537405967712,
        0.08132579922676086,
        -0.2198847085237503,
        0.4252360463142395,
        -0.08558840304613113,
        0.24761731922626495,
        -0.14901331067085266,
        0.13963733613491058,
        -0.07597213238477707,
        0.016522850841283798,
        0.03481212258338928,
        -0.2131534367799759,
        -0.3216194212436676,
        0.035871390253305435,
        -0.0994424819946289,
        0.09264916181564331,
        0.049853429198265076,
        -0.08184768259525299,
        0.14003044366836548,
        0.18138070404529572,
        0.11780579388141632,
        0.020384201779961586,
        0.1898120939731598,
        0.13898782432079315,
        -0.1433616578578949,
        -0.48255643248558044,
        -0.23885810375213623,
        0.10136520862579346,
        -0.03509777411818504,
        -0.10286886245012283,
        0.07624296098947525,
        0.22517621517181396,
        0.04333147406578064,
        -0.04607205092906952,
        0.3851558268070221,
        -0.09188035875558853,
        -0.2487865686416626,
        0.3334847688674927,
        -0.22117218375205994,
        0.10373499989509583,
        0.20785146951675415,
        0.22895684838294983,
        0.3468032479286194,
        -0.050048891454935074,
        -0.1576903909444809,
        0.424607515335083,
        -0.03847859799861908,
        0.26685261726379395,
        -0.1602601408958435,
        0.15655723214149475,
        -0.04597051441669464,
        -0.0011726071825250983,
        -0.08702016621828079,
        -0.11809030175209045,
        -0.13031397759914398,
        0.5425130128860474,
        -0.07541816681623459,
        -0.020344628021121025,
        -0.13833613693714142,
        0.20897763967514038,
        -0.11951030045747757,
        -0.27532249689102173,
        -0.04374244064092636,
        0.01983807235956192,
        -0.09989728778600693,
        0.09043851494789124,
        -0.0382961742579937,
        0.16110046207904816,
        0.17404226958751678,
        -0.12232573330402374,
        -0.11650184541940689,
        -0.039957448840141296,
        -0.0986519455909729,
        -0.009521479718387127,
        0.29022863507270813,
        -0.004662961699068546,
        0.06979037821292877,
        0.22485242784023285,
        0.39257827401161194,
        0.12439970672130585
      ]
    },
    {
      "name": "dense_Dense17/bias",
      "shape": [
        56
      ],
      "dtype": "float32",
      "values": [
        -0.04668191075325012,
        0.114952951669693,
        -0.07139979302883148,
        -0.00032333802664652467,
        0.0025254227221012115,
        -0.02214837074279785,
        -0.05139048397541046,
        -0.14332535862922668,
        0.09209753572940826,
        0.4466860294342041,
        0.018820177763700485,
        0.2640881836414337,
        -0.052016131579875946,
        -0.2078506350517273,
        -0.04732838273048401,
        0.27401813864707947,
        0.11153162270784378,
        -0.03682759404182434,
        0.06745818257331848,
        0.47374141216278076,
        0.1014300212264061,
        -0.1801711618900299,
        -0.10443471372127533,
        -0.014490141533315182,
        0.12491863965988159,
        0.13318179547786713,
        -0.09994209557771683,
        0.17959794402122498,
        -0.07856672257184982,
        -0.09335196763277054,
        -0.0851263552904129,
        -0.16056858003139496,
        -0.141476109623909,
        0.06347552686929703,
        -0.08614828437566757,
        0.2087121605873108,
        -0.07467073202133179,
        -0.1254342645406723,
        -0.2504133880138397,
        -0.1225925087928772,
        0.2249419391155243,
        0.47994449734687805,
        -0.052160922437906265,
        0.011027537286281586,
        -0.03481683135032654,
        -0.04780752584338188,
        0.05684071406722069,
        0.09756715595722198,
        -0.04414491355419159,
        0.10762275010347366,
        0.35341212153434753,
        0.4086143374443054,
        -0.07136811316013336,
        0.3073141872882843,
        0.025501245632767677,
        0.09030604362487793
      ]
    },
    {
      "name": "dense_Dense18/kernel",
      "shape": [
        56,
        16
      ],
      "dtype": "float32",
      "values": [
        -0.05090758949518204,
        0.10758494585752487,
        0.19865640997886658,
        0.007493629585951567,
        -0.2949851155281067,
        -0.07381948083639145,
        -0.020500462502241135,
        -0.0022776881232857704,
        0.09445539861917496,
        0.04531615599989891,
        0.12409775704145432,
        -0.11478991061449051,
        -0.22968989610671997,
        -0.02783144637942314,
        -0.0987810492515564,
        -0.011582492850720882,
        0.01325812004506588,
        0.09923624247312546,
        0.21780361235141754,
        -0.061440203338861465,
        -0.07645845413208008,
        -0.06183268874883652,
        0.014525728300213814,
        0.1495925486087799,
        0.12677323818206787,
        -0.4864840805530548,
        -0.016458233818411827,
        -0.19117918610572815,
        -0.12108488380908966,
        0.15798251330852509,
        0.07420889288187027,
        0.1507972925901413,
        -0.07729083299636841,
        -0.004302425310015678,
        -0.04708845913410187,
        -0.012989501468837261,
        0.05925058573484421,
        -0.052801042795181274,
        0.056160736829042435,
        -0.013520103879272938,
        0.06736468523740768,
        0.07792290300130844,
        0.05059106647968292,
        0.041380178183317184,
        -0.21442672610282898,
        0.02739883027970791,
        -0.18458066880702972,
        -0.11663772910833359,
        -0.011078344658017159,
        0.0785067155957222,
        -0.0233742855489254,
        0.03919313848018646,
        0.021244008094072342,
        -0.04948769882321358,
        9.197762665280607e-06,
        0.0037515705917030573,
        -0.0008172299712896347,
        0.03185132518410683,
        -0.11581863462924957,
        0.01942695677280426,
        0.03790309280157089,
        -0.16423393785953522,
        -0.17210134863853455,
        0.04001873359084129,
        -0.025102965533733368,
        0.10653118044137955,
        0.03105420619249344,
        -0.32299020886421204,
        -0.07601803541183472,
        0.2690744698047638,
        -0.015889622271060944,
        -0.09295399487018585,
        -0.13204681873321533,
        0.07139435410499573,
        -0.31265631318092346,
        0.001300541334785521,
        0.08030195534229279,
        -0.07004415988922119,
        -0.01620378904044628,
        -0.06046010181307793,
        0.07206854224205017,
        -0.06040117144584656,
        -0.052009619772434235,
        -0.07612549513578415,
        -0.007842005230486393,
        0.0031356518156826496,
        0.04275190085172653,
        -0.0030364093836396933,
        -0.08411353081464767,
        -0.011559227481484413,
        0.07464990019798279,
        -0.08943971991539001,
        -0.192604660987854,
        0.09254363179206848,
        -0.14870011806488037,
        -0.06720990687608719,
        0.1093112975358963,
        -0.24363215267658234,
        0.15751880407333374,
        0.06010649353265762,
        -0.2300547957420349,
        -0.029534509405493736,
        -0.09293366968631744,
        0.198856920003891,
        -0.06781045347452164,
        -0.14525392651557922,
        -0.12636953592300415,
        -0.04433990642428398,
        -0.13648919761180878,
        -0.01422838307917118,
        0.02981628105044365,
        0.02202492393553257,
        0.04817679896950722,
        -0.08426069468259811,
        0.0403231643140316,
        0.19148480892181396,
        0.08948031067848206,
        0.038784902542829514,
        -0.10212748497724533,
        -0.16646409034729004,
        -0.08246432989835739,
        0.3413151800632477,
        0.026131410151720047,
        -0.24429787695407867,
        0.39161211252212524,
        0.06633421778678894,
        0.19915378093719482,
        0.09229257702827454,
        0.12683887779712677,
        0.030521079897880554,
        0.17112797498703003,
        0.037510570138692856,
        -0.040326133370399475,
        -0.1860990971326828,
        -0.1272074431180954,
        0.05821521207690239,
        -0.13436797261238098,
        -0.08593334257602692,
        -0.30493998527526855,
        0.2907073199748993,
        -0.2801521420478821,
        -0.12621602416038513,
        -0.0423567071557045,
        -0.08497544378042221,
        -0.028266003355383873,
        0.16230514645576477,
        -0.12185639142990112,
        -0.3416786193847656,
        0.2074078470468521,
        0.10691773146390915,
        -0.106053426861763,
        0.020411336794495583,
        -0.035977452993392944,
        -0.24676820635795593,
        -0.13235341012477875,
        -0.1056852787733078,
        -0.11050206422805786,
        -0.31442371010780334,
        -0.4751966893672943,
        -0.19272784888744354,
        -0.05463819205760956,
        0.16491103172302246,
        0.007798681501299143,
        0.003456506412476301,
        0.11607702821493149,
        -0.017300397157669067,
        -0.23148858547210693,
        0.014369316399097443,
        -0.10833665728569031,
        0.2412939965724945,
        -0.13539016246795654,
        0.0693049356341362,
        0.1425197571516037,
        0.022558163851499557,
        -0.24251586198806763,
        -0.1278412640094757,
        -0.17960591614246368,
        -0.07227188348770142,
        -0.04539366066455841,
        -0.18512488901615143,
        -0.1897820681333542,
        -0.04043031111359596,
        -0.0016936302417889237,
        -0.043423768132925034,
        0.05930790677666664,
        -0.1644294261932373,
        -0.04176761955022812,
        0.053622860461473465,
        0.11477336287498474,
        -0.036800138652324677,
        -0.340454638004303,
        0.14035193622112274,
        0.17500945925712585,
        -0.0612441785633564,
        0.16794241964817047,
        -0.15690992772579193,
        -0.19483758509159088,
        0.14981983602046967,
        0.06727346032857895,
        0.03013606369495392,
        0.22126084566116333,
        -0.1397533118724823,
        0.04198519513010979,
        0.1158798485994339,
        -0.0896419808268547,
        0.2904175817966461,
        -0.014921041205525398,
        0.10668188333511353,
        0.30811023712158203,
        0.019581614062190056,
        0.016070786863565445,
        0.31278786063194275,
        -0.08453695476055145,
        0.060591861605644226,
        -0.006088699214160442,
        0.062415651977062225,
        -0.050138089805841446,
        0.2830868363380432,
        0.3888610601425171,
        0.5375699996948242,
        0.17328384518623352,
        0.07581374794244766,
        0.017556071281433105,
        0.27296575903892517,
        -0.10450828820466995,
        0.0784287080168724,
        0.11219964176416397,
        -0.10467936843633652,
        -0.019321678206324577,
        0.16175825893878937,
        -0.1471400111913681,
        -0.3022228181362152,
        -0.1347188502550125,
        -0.014925990253686905,
        -0.18928653001785278,
        0.2353794425725937,
        -0.25032976269721985,
        -0.11622697860002518,
        -0.12338075786828995,
        -0.1149689331650734,
        -0.01956024020910263,
        0.05132121220231056,
        -0.03529635816812515,
        -0.2796127498149872,
        0.03976064175367355,
        0.03460973873734474,
        0.1734074354171753,
        -0.0037462078034877777,
        -0.09095005691051483,
        0.10425282269716263,
        0.015564881265163422,
        -0.16910851001739502,
        0.11080996692180634,
        -0.1313208043575287,
        -0.13920597732067108,
        -0.1452188640832901,
        0.1098000779747963,
        -0.06549151986837387,
        0.09517281502485275,
        0.2026405930519104,
        -0.007153869140893221,
        -0.0401904471218586,
        0.009075201116502285,
        0.02677311562001705,
        -0.06977248936891556,
        0.13507914543151855,
        -0.04452119395136833,
        -0.09848618507385254,
        0.03466014564037323,
        -0.13033853471279144,
        6.62288221064955e-06,
        -0.004776066169142723,
        0.1904996633529663,
        -0.02793518640100956,
        -0.017363935708999634,
        0.27200621366500854,
        0.04922741651535034,
        -0.040199339389801025,
        0.0035255628172308207,
        -0.07289387285709381,
        -0.034978415817022324,
        0.1390991508960724,
        0.3054170608520508,
        0.19153772294521332,
        -0.059432074427604675,
        0.13879327476024628,
        -0.08261801302433014,
        -0.053453586995601654,
        -0.08981824666261673,
        -0.15273723006248474,
        -0.08095651119947433,
        -0.08615428954362869,
        -0.05662354826927185,
        0.042816437780857086,
        0.042543064802885056,
        -0.05323377624154091,
        0.06922285258769989,
        0.26416799426078796,
        0.02178570255637169,
        0.04323966056108475,
        -0.159243643283844,
        -0.17870807647705078,
        0.32349926233291626,
        -0.25548234581947327,
        0.02008070796728134,
        -0.09100371599197388,
        -0.010957705788314342,
        0.043952010571956635,
        0.09828714281320572,
        0.011722794733941555,
        -0.00886278785765171,
        -0.0022839887533336878,
        -0.08718820661306381,
        -0.26213324069976807,
        -0.09434634447097778,
        -0.12460477650165558,
        -0.2777532637119293,
        -0.31745675206184387,
        -0.3802304267883301,
        -0.329797625541687,
        -0.15378743410110474,
        -0.08823633193969727,
        0.19945292174816132,
        0.1882263869047165,
        0.2865108251571655,
        0.09635893255472183,
        0.038478679955005646,
        -0.06364051252603531,
        0.12344354391098022,
        -0.190156489610672,
        -0.25764623284339905,
        0.14320670068264008,
        -0.31644701957702637,
        0.10395699739456177,
        -0.1830565184354782,
        0.5047727227210999,
        0.1770467609167099,
        0.12508618831634521,
        -0.1273948848247528,
        -0.02717226929962635,
        0.1592901200056076,
        0.04111411049962044,
        0.07499034702777863,
        0.02085653506219387,
        0.13139882683753967,
        0.2734426259994507,
        0.189176544547081,
        -0.20211100578308105,
        -0.22909900546073914,
        0.33257564902305603,
        0.2507971227169037,
        0.4235383868217468,
        -0.13361456990242004,
        -0.13922740519046783,
        -0.13984917104244232,
        -0.07399734109640121,
        0.24916896224021912,
        -0.03505932167172432,
        -0.13894785940647125,
        -0.21380306780338287,
        -0.1312425285577774,
        0.02756602130830288,
        -0.06711317598819733,
        -0.08377915620803833,
        -0.033434316515922546,
        0.15769743919372559,
        -0.019526850432157516,
        0.008128778077661991,
        -0.08000167459249496,
        -0.020703786984086037,
        0.14347904920578003,
        -0.03555586189031601,
        -0.11721799522638321,
        0.027615966275334358,
        0.056622039526700974,
        0.15662573277950287,
        0.06700355559587479,
        0.09763142466545105,
        -0.13436003029346466,
        0.14418910443782806,
        0.0995529368519783,
        -0.2623680531978607,
        0.21585087478160858,
        0.3471938371658325,
        -0.16096746921539307,
        0.090224988758564,
        -0.09463471919298172,
        0.05285514146089554,
        -0.13821245729923248,
        0.046924199908971786,
        0.10100777447223663,
        0.22607693076133728,
        0.06231537461280823,
        -0.2705347537994385,
        0.15287022292613983,
        0.026177095249295235,
        -0.20724152028560638,
        -0.26811742782592773,
        0.09420130401849747,
        0.13897955417633057,
        -0.1386079043149948,
        -0.06917405873537064,
        0.01858634687960148,
        -0.2720341980457306,
        0.13672633469104767,
        0.17463216185569763,
        0.005988366901874542,
        0.028713377192616463,
        -0.033459652215242386,
        0.12512291967868805,
        0.05955231562256813,
        0.02672526240348816,
        -0.06909951567649841,
        -0.3524755537509918,
        -0.07451440393924713,
        0.24194614589214325,
        0.10760867595672607,
        -0.11528769135475159,
        0.10447092354297638,
        0.3636748790740967,
        0.010224896483123302,
        0.04682064428925514,
        0.09729528427124023,
        0.245960995554924,
        0.25260573625564575,
        -0.010547608137130737,
        0.13729611039161682,
        -0.17906494438648224,
        0.32087990641593933,
        0.36619019508361816,
        0.054018113762140274,
        -0.12923119962215424,
        -0.3384726345539093,
        -0.11401795595884323,
        -0.10602691769599915,
        -0.3015040457248688,
        0.07628203928470612,
        -0.12146316468715668,
        0.03088548593223095,
        -0.09786602109670639,
        0.05944225564599037,
        -0.02984543889760971,
        -0.20364323258399963,
        0.18848155438899994,
        0.23554974794387817,
        -0.19920741021633148,
        -0.15463793277740479,
        0.1184924989938736,
        0.17560002207756042,
        0.16317705810070038,
        -0.05507642403244972,
        0.06964246928691864,
        -0.12412426620721817,
        0.11436515301465988,
        0.18443655967712402,
        0.025649135932326317,
        0.16405659914016724,
        -0.23326563835144043,
        0.31786495447158813,
        0.3101572096347809,
        -0.07016480714082718,
        0.2895415425300598,
        0.057143744081258774,
        -0.12859416007995605,
        -0.15710121393203735,
        0.007532425690442324,
        0.05101225525140762,
        -0.11947617679834366,
        0.019269254058599472,
        -0.016163773834705353,
        -0.1142319068312645,
        -0.09210365265607834,
        -0.22694985568523407,
        -0.05630537495017052,
        -0.038992203772068024,
        -0.02458954229950905,
        0.09455027431249619,
        0.14709235727787018,
        0.0918767899274826,
        0.1788477599620819,
        -0.1391826868057251,
        0.1168370395898819,
        0.2645581066608429,
        0.0920897051692009,
        -0.14698198437690735,
        0.09408028423786163,
        -0.08823248744010925,
        0.04068427532911301,
        0.19856315851211548,
        -0.14218410849571228,
        -0.06733506917953491,
        0.06142179295420647,
        -0.05004062503576279,
        0.0740717276930809,
        -0.08941713720560074,
        0.08915658295154572,
        0.11803430318832397,
        0.02569260075688362,
        0.1962847113609314,
        0.04466760903596878,
        0.09743736684322357,
        -0.11196429282426834,
        -0.10822747647762299,
        -0.03487475588917732,
        0.07334978878498077,
        0.42116862535476685,
        0.11384919285774231,
        -0.22938759624958038,
        0.04668543115258217,
        0.4340774118900299,
        0.25483983755111694,
        -0.2023499310016632,
        0.33792197704315186,
        0.16623468697071075,
        -0.17213183641433716,
        0.010486654005944729,
        0.06997834146022797,
        -0.14082588255405426,
        0.05878153815865517,
        -0.14563806354999542,
        0.022024719044566154,
        -0.049608875066041946,
        0.18628254532814026,
        0.1413087248802185,
        0.08394355326890945,
        0.24749231338500977,
        0.5050214529037476,
        -0.09756698459386826,
        0.09464965015649796,
        -0.10933226346969604,
        -0.13370281457901,
        0.15353943407535553,
        -0.03845224529504776,
        -0.0064253718592226505,
        -0.030904442071914673,
        0.09214895963668823,
        -0.05483269318938255,
        -0.07155095040798187,
        0.27021798491477966,
        -0.19107525050640106,
        -0.048007719218730927,
        -0.05472252145409584,
        -0.07398920506238937,
        0.3309216797351837,
        -0.20670221745967865,
        0.186445951461792,
        -0.03583945706486702,
        -0.16493403911590576,
        -0.014988742768764496,
        -0.09099120646715164,
        0.0774121955037117,
        0.01844049245119095,
        -0.24748829007148743,
        0.09586195647716522,
        -0.2322184294462204,
        0.05714407563209534,
        -0.03578253462910652,
        0.2351171374320984,
        0.06518707424402237,
        0.09594713896512985,
        -0.15531179308891296,
        -0.0056269820779562,
        -0.015057657845318317,
        0.07466733455657959,
        -0.013333623297512531,
        -0.003068246180191636,
        -0.02179139107465744,
        0.013700881972908974,
        -0.03921797499060631,
        -0.048939287662506104,
        -0.1779664158821106,
        -0.19069123268127441,
        0.011470680125057697,
        -0.18754419684410095,
        0.08141154050827026,
        -0.022929703816771507,
        -0.11180499941110611,
        -0.027749108150601387,
        -0.1446956992149353,
        0.10403977334499359,
        0.2119990587234497,
        -0.06941354274749756,
        0.009995165280997753,
        -0.0471675768494606,
        -0.1314626932144165,
        0.004954101517796516,
        0.07957331091165543,
        -0.08537719398736954,
        -0.0921764224767685,
        -0.10730983316898346,
        -0.06865324825048447,
        -0.0823507308959961,
        0.10117152333259583,
        -0.19847360253334045,
        0.014288515783846378,
        0.11687356978654861,
        0.13044756650924683,
        -0.06331740319728851,
        -0.1386994868516922,
        -0.18283025920391083,
        -0.029817940667271614,
        -0.16047272086143494,
        0.07482144981622696,
        0.2113930732011795,
        0.30900636315345764,
        0.16410043835639954,
        0.2934127151966095,
        -0.2698209285736084,
        0.20120616257190704,
        -0.07129774987697601,
        -0.14208346605300903,
        0.10919206589460373,
        -0.09513325244188309,
        0.037176601588726044,
        -0.05452919378876686,
        -0.133752703666687,
        -0.18234069645404816,
        -0.04738001897931099,
        -0.018218521028757095,
        0.009511342272162437,
        -0.02742752619087696,
        0.3413942754268646,
        0.3449913561344147,
        0.31695303320884705,
        0.2064712941646576,
        -0.11386336386203766,
        0.042563267052173615,
        0.10386305302381516,
        -0.04320361465215683,
        -0.05199691653251648,
        -0.09602237492799759,
        0.023045070469379425,
        -0.07515702396631241,
        0.11687721312046051,
        -0.06363590061664581,
        0.02621510624885559,
        0.09906850010156631,
        0.06368549913167953,
        0.14359934628009796,
        0.028921514749526978,
        -0.03818976879119873,
        -0.07774068415164948,
        0.030266139656305313,
        -0.04357845336198807,
        -0.026596013456583023,
        -0.09963729232549667,
        0.01619749702513218,
        -0.15943944454193115,
        0.0589444525539875,
        -0.07222402095794678,
        -0.09421801567077637,
        -0.13317188620567322,
        0.23482078313827515,
        -0.028655624017119408,
        -0.16393126547336578,
        -0.10267943143844604,
        0.0928499773144722,
        0.11351735889911652,
        0.11173304170370102,
        -0.018648633733391762,
        -0.06177618354558945,
        -0.087184377014637,
        0.066663958132267,
        -0.16477230191230774,
        0.1561920940876007,
        0.0035117759834975004,
        -0.0018774773925542831,
        -0.477247416973114,
        -0.16539618372917175,
        -0.31815528869628906,
        -0.26780131459236145,
        -0.1105857789516449,
        -0.023448379710316658,
        0.1940925270318985,
        -0.04143365100026131,
        0.03322282433509827,
        -0.18636870384216309,
        -0.10140672326087952,
        0.06538175046443939,
        0.03344389796257019,
        -0.272953063249588,
        -0.049480728805065155,
        0.1594177484512329,
        0.1435369998216629,
        0.014198855496942997,
        0.041167594492435455,
        -0.0969432070851326,
        -0.13386036455631256,
        -0.018372664228081703,
        -0.0019947148393839598,
        -0.1300072818994522,
        -0.10549920797348022,
        -0.0757279098033905,
        -0.03383060544729233,
        -0.03647429496049881,
        0.024859391152858734,
        -0.011967802420258522,
        0.15154026448726654,
        0.11050724983215332,
        0.08263064175844193,
        -0.0706530436873436,
        -0.22937482595443726,
        -0.14151248335838318,
        -0.06543222069740295,
        -0.025541668757796288,
        0.21544650197029114,
        0.14997592568397522,
        -0.1272350251674652,
        0.21434953808784485,
        -0.014157703146338463,
        0.007129045203328133,
        -0.25917816162109375,
        -0.048456791788339615,
        0.15595947206020355,
        -0.09171819686889648,
        0.04152510687708855,
        -0.20863988995552063,
        -0.003790969727560878,
        -0.059310633689165115,
        0.1429838389158249,
        0.17646485567092896,
        -0.08884051442146301,
        0.14492644369602203,
        0.10806015133857727,
        0.05607518181204796,
        -0.02732526697218418,
        0.14693023264408112,
        -0.09784155339002609,
        -0.08943700045347214,
        -0.001984476111829281,
        -0.11170727014541626,
        -0.1747000366449356,
        0.10010866075754166,
        0.12341573089361191,
        -0.20213039219379425,
        -0.11037451773881912,
        -0.20563428103923798,
        0.0844888910651207,
        -0.1535971611738205,
        -0.2085704356431961,
        0.030020495876669884,
        0.016847729682922363,
        0.015558209270238876,
        -0.011804332956671715,
        0.04024635627865791,
        -0.16165348887443542,
        -0.08455755561590195,
        -0.03405771031975746,
        -0.1181030422449112,
        0.09352987259626389,
        -0.18804213404655457,
        -0.11289303004741669,
        -0.07167810201644897,
        -0.07767647504806519,
        -0.08778664469718933,
        -0.0749226063489914,
        -0.0963539257645607,
        0.13425680994987488,
        -0.06380819529294968,
        -0.019951680675148964,
        -0.15014313161373138,
        -0.08114255964756012,
        0.17508231103420258,
        -0.10433685779571533,
        -0.25225144624710083,
        -0.0419992059469223,
        0.1301381140947342,
        -0.1419251412153244,
        0.013816874474287033,
        0.13868756592273712,
        -0.016935480758547783,
        -0.2847304940223694,
        -0.12232083082199097,
        -0.07606421411037445,
        0.019013822078704834,
        0.09812378138303757,
        -0.1265059858560562,
        -0.05907965824007988,
        0.20970067381858826,
        -0.028120219707489014,
        0.13855357468128204,
        0.29599064588546753,
        -0.16329678893089294,
        0.05756907910108566,
        0.013234397396445274,
        0.23728103935718536,
        -0.08096928149461746,
        0.11981870979070663,
        0.2374398112297058,
        0.20628203451633453,
        -0.013249128125607967,
        0.1764247715473175,
        0.032105039805173874,
        -0.03144057095050812,
        0.03676518052816391,
        -0.09914624691009521,
        0.057222045958042145,
        -0.3201116621494293,
        0.033042874187231064,
        -0.1393340528011322,
        -0.15267403423786163,
        -0.004057557787746191,
        0.04698995128273964,
        -0.1575203835964203,
        -0.04910903424024582,
        -0.07976631075143814,
        -0.08565660566091537,
        -0.040177274495363235,
        0.0988159254193306,
        0.07873882353305817,
        -0.04766380414366722,
        0.0970173329114914,
        -0.2708081305027008,
        -0.32203957438468933,
        -0.34931716322898865,
        -0.045588694512844086,
        -0.10159900784492493,
        -0.11448190361261368,
        -0.08209279179573059,
        0.07937908172607422,
        0.003832345362752676,
        0.04182193800806999,
        0.001779054058715701,
        0.03223066031932831,
        -0.10765141993761063,
        -0.13935254514217377,
        -0.012636002153158188,
        -0.22997353971004486,
        -0.13616147637367249,
        0.11920104175806046,
        -0.04074661806225777,
        -0.3692314326763153,
        0.05048318952322006,
        0.00487898662686348,
        0.021033497527241707,
        -0.02187580056488514,
        -0.07220649719238281,
        0.05846528336405754,
        0.04486597701907158,
        -0.016868354752659798,
        -0.1263137310743332,
        -0.060899727046489716,
        -0.12040219455957413,
        0.09044437110424042,
        0.07860696315765381,
        0.153718039393425,
        0.04469684138894081,
        -0.03224337473511696,
        -0.36248934268951416,
        0.11421161144971848,
        -0.03296562656760216,
        -0.28043049573898315,
        -0.012728589586913586,
        0.011063789948821068,
        -0.019878510385751724,
        0.1172381043434143,
        -0.014037213288247585,
        0.014129404909908772,
        -0.28716084361076355,
        -0.10102710872888565,
        -0.01603708602488041,
        -0.10393308103084564,
        -0.1850033402442932,
        0.14042448997497559,
        -0.2175106257200241,
        -0.1959933042526245,
        -0.05913247540593147,
        0.01105091255158186,
        -0.19248083233833313,
        -0.040816228836774826,
        0.2191333770751953,
        0.07160749286413193,
        0.12049014121294022,
        0.38989853858947754,
        -0.25366777181625366,
        0.088840052485466,
        -0.12545889616012573,
        0.2682042419910431,
        -0.14313577115535736,
        -0.1355162262916565,
        0.028795458376407623,
        0.042849086225032806,
        0.02401568368077278,
        -0.3409181237220764,
        -0.21159842610359192,
        0.08286489546298981,
        0.21679741144180298,
        -0.08006514608860016,
        -0.1131880059838295,
        0.02755069173872471,
        -0.04352589696645737,
        0.08107343316078186,
        0.22833402454853058,
        -0.0319393016397953,
        -0.2639959752559662,
        -0.03268062695860863
      ]
    },
    {
      "name": "dense_Dense18/bias",
      "shape": [
        16
      ],
      "dtype": "float32",
      "values": [
        -0.1009732261300087,
        -0.02923823893070221,
        0.012959979474544525,
        -0.09544403105974197,
        -0.030680276453495026,
        -0.007435665000230074,
        -0.044024646282196045,
        -0.039058420807123184,
        -0.026714622974395752,
        -0.17388667166233063,
        -0.11532129347324371,
        -0.07711268961429596,
        -0.06962776929140091,
        -0.17727701365947723,
        -0.18369197845458984,
        -0.1514749377965927
      ]
    }
  ]
}
