{
  "version": 1,
  "createdAt": 1762598479167,
  "backend": "webgl",
  "config": {
    "inputSize": 19,
    "outputSize": 16,
    "hiddenLayers": [
      56
    ],
    "activation": "relu",
    "outputActivation": "tanh",
    "backend": "webgl",
    "seed": 1762598444071
  },
  "metadata": {
    "label": "11",
    "notes": "",
    "correlations": [
      {
        "id": "bandlowmid-camerazoom",
        "featureKey": "bandBass",
        "targetId": "pointScale",
        "targetIndex": 14,
        "axis": null,
        "group": "pointScale",
        "featureIndex": 4,
        "strength": 0.6,
        "polarity": "direct"
      },
      {
        "id": "speccentroid-deltaposy",
        "featureKey": "bandBass",
        "targetId": "alphaScale",
        "targetIndex": 13,
        "axis": null,
        "group": "alphaScale",
        "featureIndex": 4,
        "strength": 0.65,
        "polarity": "direct"
      },
      {
        "id": "specrolloff-deltaposz",
        "featureKey": "bandBass",
        "targetId": "sizeDelta",
        "targetIndex": 3,
        "axis": null,
        "group": "size",
        "featureIndex": 4,
        "strength": 0.65,
        "polarity": "direct"
      }
    ],
    "training": {
      "status": "completed",
      "epoch": 100,
      "epochs": 100,
      "loss": 8.855720807332546e-05,
      "best": null,
      "metadata": {
        "status": "completed",
        "epochs": 100,
        "loss": 8.855720807332546e-05,
        "sampleCount": 512,
        "batchSize": 8,
        "learningRate": 0.0015,
        "noise": 0.04,
        "seed": 1762563234828,
        "createdAt": 1762598426888,
        "correlations": [
          {
            "id": "bandlowmid-camerazoom",
            "featureKey": "bandBass",
            "targetId": "pointScale",
            "strength": 0.6,
            "polarity": "direct",
            "achieved": 0.9989829062221881
          },
          {
            "id": "speccentroid-deltaposy",
            "featureKey": "bandBass",
            "targetId": "alphaScale",
            "strength": 0.65,
            "polarity": "direct",
            "achieved": 0.999024074583482
          },
          {
            "id": "specrolloff-deltaposz",
            "featureKey": "bandBass",
            "targetId": "sizeDelta",
            "strength": 0.65,
            "polarity": "direct",
            "achieved": 0.9988480867986427
          }
        ]
      }
    }
  },
  "weights": [
    {
      "name": "dense_Dense5/kernel",
      "shape": [
        19,
        56
      ],
      "dtype": "float32",
      "values": [
        0.40107423067092896,
        -0.0194203183054924,
        0.35479581356048584,
        0.47482946515083313,
        -0.2932603657245636,
        -0.268792986869812,
        -0.18848301470279694,
        0.17750100791454315,
        0.131161168217659,
        -0.42135536670684814,
        0.019644130021333694,
        -0.17520049214363098,
        -0.3044070303440094,
        0.4265640079975128,
        -0.17657677829265594,
        0.3748505115509033,
        -0.098416768014431,
        0.13616789877414703,
        -0.06386160850524902,
        -0.3571118414402008,
        0.10194256156682968,
        -0.43502548336982727,
        -0.07515964657068253,
        0.03468068316578865,
        -0.25405511260032654,
        0.15885615348815918,
        0.4677151143550873,
        0.44781601428985596,
        -0.27336740493774414,
        0.17049944400787354,
        0.4378625154495239,
        0.06814704090356827,
        0.27937057614326477,
        0.3006429374217987,
        0.00407525897026062,
        0.42006227374076843,
        0.46511968970298767,
        -0.02949978969991207,
        -0.35875168442726135,
        0.46507981419563293,
        0.08984187990427017,
        -0.009851641021668911,
        0.09459804743528366,
        -0.2269938886165619,
        -0.07677467167377472,
        -0.03977878391742706,
        -0.26357153058052063,
        0.10897886008024216,
        0.14439184963703156,
        -0.4695388972759247,
        0.43452152609825134,
        -0.38253843784332275,
        0.1390334665775299,
        0.1479395627975464,
        -0.33023399114608765,
        -0.19355396926403046,
        0.1590145081281662,
        -0.28689929842948914,
        -0.028199784457683563,
        -0.05503206327557564,
        0.2264782339334488,
        0.23308847844600677,
        -0.20859390497207642,
        -0.2828100323677063,
        -0.03355494886636734,
        -0.1381659209728241,
        -0.48000070452690125,
        0.16284886002540588,
        -0.21929755806922913,
        -0.19684872031211853,
        0.02577042393386364,
        -0.3369145095348358,
        -0.4481932818889618,
        0.42438122630119324,
        0.49241402745246887,
        0.46334341168403625,
        0.34038254618644714,
        0.3649369180202484,
        0.1721825897693634,
        0.41970595717430115,
        0.2940891981124878,
        -0.18797513842582703,
        0.3722613453865051,
        0.44497767090797424,
        -0.12627916038036346,
        0.33033591508865356,
        -0.370889812707901,
        -0.4109216332435608,
        -0.49334198236465454,
        0.38590991497039795,
        0.25729408860206604,
        -0.35739272832870483,
        0.2281550168991089,
        0.34575098752975464,
        0.46167394518852234,
        -0.07681767642498016,
        0.2681792676448822,
        0.19974519312381744,
        0.1540294587612152,
        0.22319552302360535,
        -0.15485963225364685,
        0.019051644951105118,
        0.4647960662841797,
        -0.44648218154907227,
        0.16327497363090515,
        -0.4277656078338623,
        0.44115281105041504,
        0.2938304841518402,
        -0.23810794949531555,
        0.4192308783531189,
        0.28735026717185974,
        0.12701216340065002,
        -0.3354518711566925,
        0.038586683571338654,
        -0.4100433588027954,
        -0.20239302515983582,
        0.41280561685562134,
        0.3027414381504059,
        -0.14519548416137695,
        0.29953333735466003,
        -0.17625410854816437,
        0.4655300974845886,
        -0.3740321099758148,
        0.037422776222229004,
        -0.08058182895183563,
        -0.17430536448955536,
        -0.06267796456813812,
        -0.08856029808521271,
        0.09900669753551483,
        0.32941025495529175,
        -0.17749665677547455,
        0.27635782957077026,
        0.33753013610839844,
        0.06293076276779175,
        -0.1923753321170807,
        0.20793867111206055,
        0.43519073724746704,
        0.2520061135292053,
        -0.3788929581642151,
        -0.05391781032085419,
        -0.187657430768013,
        -0.30236533284187317,
        0.4013012945652008,
        0.3915911018848419,
        -0.1480788141489029,
        0.4424552917480469,
        0.2221682369709015,
        -0.4106254577636719,
        -0.25780001282691956,
        -0.25345343351364136,
        -0.20688971877098083,
        0.4390142261981964,
        -0.08512909710407257,
        0.38249072432518005,
        0.30594658851623535,
        -0.3312883973121643,
        0.4973459243774414,
        -0.21184557676315308,
        0.25176894664764404,
        0.13930603861808777,
        -0.47861555218696594,
        -0.23306962847709656,
        -0.0660647451877594,
        0.03414960205554962,
        0.4734242260456085,
        0.4030572175979614,
        -0.36224278807640076,
        -0.44252997636795044,
        0.18434549868106842,
        -0.16253645718097687,
        0.04477479308843613,
        0.22480380535125732,
        0.41828566789627075,
        -0.2934729754924774,
        0.4078603982925415,
        -0.39668306708335876,
        0.49748000502586365,
        -0.2852492034435272,
        0.21792499721050262,
        -0.4172824025154114,
        -0.35961663722991943,
        0.42626693844795227,
        -0.15066128969192505,
        -0.18587365746498108,
        -0.42807039618492126,
        -0.021553874015808105,
        0.41109171509742737,
        0.2803310751914978,
        0.07702947407960892,
        0.4787175953388214,
        0.401460200548172,
        -0.14310260117053986,
        0.40144386887550354,
        -0.16568109393119812,
        0.015420278534293175,
        -0.35175827145576477,
        -0.03378117084503174,
        -0.34386399388313293,
        -0.339839369058609,
        -0.018228918313980103,
        -0.34689265489578247,
        -0.24876248836517334,
        -0.3183433413505554,
        -0.17877407371997833,
        -0.3106391429901123,
        -0.31979092955589294,
        0.1889428198337555,
        0.06787467002868652,
        -0.1566372513771057,
        0.16887402534484863,
        0.3126366138458252,
        0.413521409034729,
        -0.4984385371208191,
        -0.05363844707608223,
        -0.49215826392173767,
        -0.46439406275749207,
        -0.2702380120754242,
        -0.4129296541213989,
        0.2742767632007599,
        -0.3346412479877472,
        0.23860003054141998,
        -0.01989614963531494,
        0.33991411328315735,
        0.12741416692733765,
        0.4397806227207184,
        -0.39546066522598267,
        0.43428879976272583,
        0.3100244402885437,
        0.05156605318188667,
        0.3884628415107727,
        0.2355525642633438,
        -0.4287722110748291,
        0.005760477390140295,
        -0.06619512289762497,
        0.2903900146484375,
        -0.16079747676849365,
        -0.2965201735496521,
        0.0868784710764885,
        -0.27312564849853516,
        -0.1727539598941803,
        0.4008980393409729,
        -0.27651992440223694,
        0.07093843072652817,
        -0.029140502214431763,
        0.13010703027248383,
        -0.4164547324180603,
        -0.4111202359199524,
        -0.07568851113319397,
        0.02904573455452919,
        -0.13565661013126373,
        -0.04851280525326729,
        0.19284553825855255,
        0.3497432768344879,
        -0.2762637138366699,
        0.23684251308441162,
        -0.3374316990375519,
        0.07148806750774384,
        0.035873331129550934,
        -0.3021583557128906,
        0.2223210334777832,
        0.0597027912735939,
        -0.21143794059753418,
        0.3530047535896301,
        -0.3130115270614624,
        0.1707880198955536,
        0.48801910877227783,
        -0.10826994478702545,
        -0.10653567314147949,
        -0.22823984920978546,
        0.3687417507171631,
        -0.1632862240076065,
        -0.3687956929206848,
        -0.39846324920654297,
        0.16320404410362244,
        -0.4585639238357544,
        -0.24282336235046387,
        -0.05829368531703949,
        -0.1965048611164093,
        0.17158088088035583,
        -0.3465116024017334,
        -0.2451084852218628,
        0.2666344940662384,
        -0.1724429428577423,
        -0.4712291955947876,
        0.09156141430139542,
        -0.38515666127204895,
        -0.37740808725357056,
        0.43090593814849854,
        0.28503379225730896,
        -0.49753493070602417,
        -0.3314553201198578,
        -0.2189272940158844,
        -0.4635707139968872,
        0.11594107002019882,
        0.14105895161628723,
        0.4179181456565857,
        -0.14012226462364197,
        0.41210466623306274,
        -0.1303136944770813,
        -0.18716412782669067,
        0.19166332483291626,
        -0.21782009303569794,
        0.19786781072616577,
        0.47306761145591736,
        -0.0036752442829310894,
        0.02453991398215294,
        -0.347538024187088,
        -0.2838028371334076,
        -0.36007755994796753,
        -0.09924013912677765,
        -0.05511276796460152,
        -0.28337764739990234,
        0.4551921486854553,
        -0.011268558911979198,
        0.27238771319389343,
        -0.35602816939353943,
        0.24365808069705963,
        -0.22014090418815613,
        -0.4169749319553375,
        -0.25567877292633057,
        -0.2959500849246979,
        -0.0027789685409516096,
        0.3153945505619049,
        0.2872220575809479,
        0.4011193513870239,
        -0.4880959689617157,
        -0.16957822442054749,
        -0.13569775223731995,
        0.46572259068489075,
        -0.4126460552215576,
        0.2966739535331726,
        -0.4761919677257538,
        0.43911364674568176,
        -0.16703538596630096,
        0.2785252034664154,
        0.21534115076065063,
        0.26305022835731506,
        0.1670144945383072,
        -0.04989800602197647,
        0.1101214662194252,
        0.034609194844961166,
        0.3849070370197296,
        0.35808390378952026,
        -0.05751955509185791,
        -0.43703970313072205,
        0.2710442841053009,
        -0.14427489042282104,
        -0.2835051715373993,
        -0.17684873938560486,
        0.005541432648897171,
        -0.47477707266807556,
        0.26850470900535583,
        -0.322711318731308,
        -0.23589521646499634,
        -0.05752056464552879,
        0.41355645656585693,
        0.38051164150238037,
        -0.25959497690200806,
        -0.18263357877731323,
        -0.01802666485309601,
        0.027406444773077965,
        0.48160189390182495,
        -0.2760660946369171,
        0.38799944519996643,
        0.29086682200431824,
        0.37136486172676086,
        -0.23807229101657867,
        0.40180468559265137,
        0.22986344993114471,
        -0.2765973210334778,
        0.34505191445350647,
        0.3433537781238556,
        0.23885437846183777,
        0.04043041914701462,
        0.14038380980491638,
        0.14443619549274445,
        -0.15865293145179749,
        0.24110578000545502,
        0.38809508085250854,
        0.334119975566864,
        0.26395201683044434,
        -0.20742975175380707,
        0.35544928908348083,
        0.3207624852657318,
        -0.16059152781963348,
        -0.42376813292503357,
        0.32725730538368225,
        0.49969056248664856,
        0.026415202766656876,
        0.16882342100143433,
        0.28344181180000305,
        0.06878649443387985,
        -0.35021162033081055,
        -0.04944774881005287,
        -0.48567429184913635,
        -0.25871023535728455,
        0.15825164318084717,
        -0.2597157657146454,
        -0.4189395010471344,
        0.3141656219959259,
        0.38070693612098694,
        -0.18430377542972565,
        0.07525737583637238,
        0.45899975299835205,
        0.026639889925718307,
        0.26102975010871887,
        -0.23970800638198853,
        0.03465236350893974,
        0.03545098006725311,
        0.3700258731842041,
        0.23411023616790771,
        -0.34772974252700806,
        -0.4411771595478058,
        0.11140565574169159,
        -0.07304002344608307,
        -0.3434922993183136,
        0.413424551486969,
        -0.36081600189208984,
        0.10442309826612473,
        -0.0932420864701271,
        0.2014651596546173,
        0.43025901913642883,
        0.21530506014823914,
        0.38332492113113403,
        -0.4634098410606384,
        0.4704093933105469,
        0.3599281311035156,
        -0.10975199192762375,
        -0.3694024980068207,
        -0.2808791995048523,
        0.45767125487327576,
        0.3452194929122925,
        0.1145254597067833,
        0.059127531945705414,
        -0.46846091747283936,
        -0.0830337330698967,
        0.4511166512966156,
        -0.14465658366680145,
        0.3983058035373688,
        0.2005973756313324,
        -0.3491060733795166,
        -0.036020904779434204,
        0.28632664680480957,
        0.1391686499118805,
        0.27228254079818726,
        0.0028500184416770935,
        -0.42729300260543823,
        -0.24755600094795227,
        0.21009942889213562,
        0.27890631556510925,
        0.20305468142032623,
        0.16336743533611298,
        0.3185621500015259,
        0.09993661195039749,
        -0.29424765706062317,
        0.013781116344034672,
        0.31742995977401733,
        0.13437849283218384,
        0.12050892412662506,
        -0.14533787965774536,
        0.30796805024147034,
        0.15952925384044647,
        -0.38475921750068665,
        -0.01859724521636963,
        -0.3755360245704651,
        -0.39630067348480225,
        0.2766689956188202,
        0.22189581394195557,
        0.05616053193807602,
        -0.32985639572143555,
        -0.050530076026916504,
        -0.43883803486824036,
        -0.48437461256980896,
        0.3189830183982849,
        0.2776159942150116,
        0.1522369682788849,
        0.3089652359485626,
        0.442383736371994,
        -0.22147542238235474,
        -0.2527881860733032,
        0.0593104287981987,
        0.3845594525337219,
        0.35582154989242554,
        0.003179440973326564,
        -0.4358925223350525,
        0.2059023380279541,
        0.24315479397773743,
        0.2299405336380005,
        0.3716426193714142,
        0.04364660754799843,
        -0.39962509274482727,
        0.1941729038953781,
        -0.055932410061359406,
        -0.4242289662361145,
        -0.39213424921035767,
        -0.4103972613811493,
        0.14853312075138092,
        -0.2722892761230469,
        0.0670706033706665,
        -0.3244960904121399,
        0.1169721707701683,
        0.4820825457572937,
        0.29933372139930725,
        -0.450486958026886,
        -0.33798232674598694,
        0.07107526808977127,
        -0.0997510775923729,
        -0.030031468719244003,
        -0.19286610186100006,
        -0.2434191256761551,
        0.008994469419121742,
        -0.251922607421875,
        0.06840940564870834,
        0.18314629793167114,
        -0.14895641803741455,
        -0.22538849711418152,
        -0.0631856694817543,
        -0.038811735808849335,
        -0.372005432844162,
        0.39009159803390503,
        -0.14298474788665771,
        -0.09713500738143921,
        -0.22572849690914154,
        -0.4673464596271515,
        -0.37147843837738037,
        0.45852673053741455,
        -0.08961346745491028,
        0.2257436066865921,
        0.37515223026275635,
        -0.0205521322786808,
        0.12610222399234772,
        0.012245111167430878,
        0.35804495215415955,
        0.32602664828300476,
        0.3533560335636139,
        -0.2101757824420929,
        0.03303897753357887,
        0.27326416969299316,
        0.13651718199253082,
        -0.38544249534606934,
        0.012423986569046974,
        -0.3254227936267853,
        0.43212488293647766,
        0.4953860938549042,
        -0.03171306475996971,
        0.2649233639240265,
        -0.1513923555612564,
        -0.2820897400379181,
        0.025612812489271164,
        -0.15433427691459656,
        0.11934749782085419,
        -0.2438526302576065,
        0.4066506028175354,
        -0.11591516435146332,
        0.3402901887893677,
        0.2691173553466797,
        0.3263755738735199,
        0.20066939294338226,
        0.38224005699157715,
        -0.09728831797838211,
        -0.06585387885570526,
        0.23525691032409668,
        -0.04213332384824753,
        0.4569322466850281,
        -0.46675220131874084,
        0.2950494587421417,
        0.33647987246513367,
        -0.12516701221466064,
        -0.05683779716491699,
        0.4126623570919037,
        -0.21895122528076172,
        -0.1540156751871109,
        -0.3490786850452423,
        0.08049742877483368,
        -0.2077927440404892,
        0.4021281898021698,
        -0.4404493272304535,
        -0.42119234800338745,
        -0.018930960446596146,
        0.008132364600896835,
        -0.3162325918674469,
        0.26534780859947205,
        -0.027830269187688828,
        -0.39372771978378296,
        -0.15345141291618347,
        0.12201126664876938,
        -0.2368059754371643,
        0.029964210465550423,
        -0.48240023851394653,
        0.4007684290409088,
        0.31134212017059326,
        -0.14687000215053558,
        -0.11117879301309586,
        0.33788809180259705,
        -0.03474697098135948,
        0.1017068475484848,
        -0.08936075121164322,
        -0.11922843009233475,
        0.013996019028127193,
        -0.4354195296764374,
        0.16542308032512665,
        -0.38105759024620056,
        -0.4576946496963501,
        0.36926159262657166,
        0.08380608260631561,
        0.05085555464029312,
        -0.02777666226029396,
        0.0746489018201828,
        0.46271058917045593,
        0.2492208182811737,
        -0.4424937665462494,
        0.4855688810348511,
        -0.03198627009987831,
        -0.2414020597934723,
        -0.16345427930355072,
        0.26755255460739136,
        0.04945850372314453,
        -0.3330073356628418,
        0.33650246262550354,
        0.33661675453186035,
        -0.10107104480266571,
        -0.3527669906616211,
        -0.24438446760177612,
        -0.14256855845451355,
        -0.21097013354301453,
        -0.09261136502027512,
        0.052827198058366776,
        -0.35167473554611206,
        0.45770812034606934,
        0.42548301815986633,
        0.3895803689956665,
        0.13621185719966888,
        -0.1356266587972641,
        -0.4827476739883423,
        0.03370147943496704,
        -0.01597518101334572,
        0.13031218945980072,
        0.3287522792816162,
        -0.3133276402950287,
        0.046684280037879944,
        0.08363430947065353,
        -0.33811333775520325,
        -0.33714693784713745,
        -0.22215084731578827,
        -0.020008839666843414,
        0.2922843098640442,
        -0.3809194266796112,
        -0.269256591796875,
        0.25063252449035645,
        0.09457401186227798,
        0.3843767046928406,
        -0.22969017922878265,
        -0.30170586705207825,
        0.2953156530857086,
        0.06363877654075623,
        0.23379774391651154,
        -0.2932797372341156,
        0.34926024079322815,
        0.4673873484134674,
        -0.35250920057296753,
        0.3355362117290497,
        -0.4164271056652069,
        0.02866077795624733,
        -0.3876863718032837,
        -0.1744595617055893,
        0.0009843269363045692,
        0.07593915611505508,
        -0.4270276129245758,
        -0.14323273301124573,
        0.30128830671310425,
        0.41389942169189453,
        -0.17966032028198242,
        0.38686177134513855,
        0.17726141214370728,
        0.45318084955215454,
        0.1604316234588623,
        -0.10699329525232315,
        -0.2563107907772064,
        0.030697116628289223,
        -0.3497406542301178,
        0.3818398118019104,
        0.2879069447517395,
        -0.1637689173221588,
        0.04754768684506416,
        0.3993130028247833,
        -0.4540750980377197,
        -0.40513232350349426,
        -0.32644203305244446,
        -0.1757545918226242,
        0.4266648590564728,
        0.11637040227651596,
        -0.15957476198673248,
        -0.1265871375799179,
        -0.13354544341564178,
        0.21932293474674225,
        0.4019222855567932,
        0.1522013545036316,
        0.40116721391677856,
        0.327303022146225,
        0.2893718481063843,
        -0.001740740379318595,
        -0.2044023722410202,
        0.4585012197494507,
        -8.183554746210575e-05,
        0.03845876082777977,
        0.015387561172246933,
        -0.16995586454868317,
        -0.15863947570323944,
        0.22283798456192017,
        -0.32649269700050354,
        0.4965542256832123,
        -0.37382468581199646,
        0.15231753885746002,
        0.19533924758434296,
        -0.2817818522453308,
        0.2964407801628113,
        0.1980486959218979,
        0.10183899104595184,
        0.0668913796544075,
        0.3849562108516693,
        0.4110892713069916,
        -0.38174495100975037,
        0.41688069701194763,
        0.3829721212387085,
        0.39915648102760315,
        -0.10153591632843018,
        0.4027402400970459,
        0.2783470153808594,
        -0.47475042939186096,
        0.18789342045783997,
        0.49818071722984314,
        0.4865092933177948,
        0.20900729298591614,
        0.219001904129982,
        -0.18920893967151642,
        -0.1835118532180786,
        -0.06957121193408966,
        0.19714058935642242,
        0.44661515951156616,
        0.1351255476474762,
        -0.0546095035970211,
        -0.29893794655799866,
        -0.14002715051174164,
        -0.3686458468437195,
        -0.28345465660095215,
        -0.25432828068733215,
        -0.053646933287382126,
        0.21139667928218842,
        0.037728942930698395,
        -0.015339656732976437,
        -0.4472895860671997,
        0.3278350830078125,
        -0.024494431912899017,
        -0.32036107778549194,
        -0.36890989542007446,
        0.4927922785282135,
        0.25296449661254883,
        -0.30128318071365356,
        -0.44298872351646423,
        0.43838152289390564,
        0.35489892959594727,
        -0.4944664537906647,
        -0.1317228376865387,
        0.4650600254535675,
        -0.33264684677124023,
        0.3618709146976471,
        -0.3263899087905884,
        -0.1252557337284088,
        0.342578649520874,
        0.13068193197250366,
        0.22877556085586548,
        -0.12422436475753784,
        0.4147184193134308,
        -0.11241186410188675,
        0.4728168249130249,
        0.2283162921667099,
        -0.04539070650935173,
        0.11590298265218735,
        0.25030410289764404,
        0.02546018734574318,
        0.20479699969291687,
        -0.18595927953720093,
        -0.47688695788383484,
        0.40066254138946533,
        0.3081373870372772,
        -0.343477338552475,
        0.4125175178050995,
        0.15022601187229156,
        0.4278108775615692,
        -0.30218029022216797,
        -0.4172310531139374,
        -0.07137639820575714,
        -0.07035520672798157,
        0.2763850688934326,
        0.34430861473083496,
        0.3030414581298828,
        -0.22236351668834686,
        0.30604419112205505,
        0.3031456470489502,
        -0.20475241541862488,
        -0.04178240895271301,
        0.26282334327697754,
        -0.127789705991745,
        0.281629353761673,
        -0.45266029238700867,
        0.05534568428993225,
        -0.0618940144777298,
        0.06787163764238358,
        0.19176556169986725,
        0.06815725564956665,
        -0.04085693880915642,
        0.332367867231369,
        0.37487348914146423,
        0.03072085976600647,
        -0.3805175721645355,
        0.011333719827234745,
        -0.05068683251738548,
        -0.38802221417427063,
        0.049976907670497894,
        0.4474911689758301,
        -0.41919031739234924,
        -0.35124945640563965,
        -0.011241761967539787,
        0.15690934658050537,
        -0.05294152349233627,
        0.29328641295433044,
        -0.3021906316280365,
        0.4440899193286896,
        0.30069708824157715,
        0.31321439146995544,
        -0.1802920401096344,
        -0.22992576658725739,
        0.41552186012268066,
        0.12525121867656708,
        0.29819589853286743,
        -0.2577604055404663,
        0.3342272937297821,
        0.17326387763023376,
        0.2971403896808624,
        -0.15891335904598236,
        0.47781792283058167,
        0.4458784759044647,
        -0.3712214231491089,
        -0.399977445602417,
        -0.18080851435661316,
        -0.18197065591812134,
        -0.42281869053840637,
        -0.1328066736459732,
        0.08473849296569824,
        -0.05365122854709625,
        0.3761354386806488,
        0.3436850607395172,
        0.0016667298041284084,
        -0.4747149348258972,
        0.09520573168992996,
        0.19747164845466614,
        -0.2864169180393219,
        0.022412503138184547,
        0.4045139253139496,
        0.19651685655117035,
        -0.13570553064346313,
        0.08933521807193756,
        0.31883835792541504,
        0.022364627569913864,
        0.032701149582862854,
        -0.2857740819454193,
        -0.2723555266857147,
        -0.0004202576819807291,
        -0.23712870478630066,
        -0.4287151098251343,
        -0.02724681794643402,
        0.35718876123428345,
        -0.25467246770858765,
        0.4925050437450409,
        -0.05446246266365051,
        0.14544586837291718,
        -0.21590182185173035,
        0.1856440305709839,
        0.26404356956481934,
        0.3300451934337616,
        0.29557180404663086,
        -0.16602113842964172,
        0.4055386483669281,
        -0.46941956877708435,
        -0.27442747354507446,
        0.46526914834976196,
        -0.26626238226890564,
        -0.17612959444522858,
        0.08168507367372513,
        0.20433460175991058,
        0.46206504106521606,
        -0.31889840960502625,
        0.20922483503818512,
        0.2807385325431824,
        -0.3632482588291168,
        -0.16446341574192047,
        -0.36150839924812317,
        -0.22885183990001678,
        -0.10557336360216141,
        -0.06360955536365509,
        -0.4256972372531891,
        -0.3635654151439667,
        -0.223170205950737,
        0.08482736349105835,
        0.39379990100860596,
        0.4814869165420532,
        0.21847090125083923,
        0.22363857924938202,
        -0.2044675350189209,
        0.26666533946990967,
        0.18970942497253418,
        -0.26720505952835083,
        -0.3671066164970398,
        -0.38034844398498535,
        -0.49200308322906494,
        0.4843771159648895,
        0.3517834544181824,
        0.16256912052631378,
        0.06743757426738739,
        -0.011087797582149506,
        -0.10053257644176483,
        0.06267372518777847,
        0.3314034044742584,
        0.1362510472536087,
        -0.19436240196228027,
        0.2897011339664459,
        0.01631932519376278,
        0.005621940828859806,
        0.19321927428245544,
        0.13887453079223633,
        0.07143177837133408,
        -0.03157387673854828,
        0.38797131180763245,
        0.49573996663093567,
        -0.14925426244735718,
        -0.04681599885225296,
        0.03388647362589836,
        -0.04404516518115997,
        -0.17080050706863403,
        0.2705160975456238,
        0.4154926538467407,
        0.0008525063749402761,
        0.019914550706744194,
        -0.38400131464004517,
        0.13602741062641144,
        0.05019562318921089,
        -0.10553228855133057,
        0.2493666559457779,
        0.12145361304283142,
        -0.45022526383399963,
        0.00845794565975666,
        0.10971325635910034,
        0.2611762583255768,
        -0.02999993786215782,
        -0.47539567947387695,
        0.4354228377342224,
        -0.037711385637521744,
        -0.15069513022899628,
        0.3957255184650421,
        0.3979470431804657,
        0.17557914555072784,
        -0.06773021072149277,
        -0.4163539707660675,
        0.19616283476352692,
        -0.14502431452274323,
        -0.2043096423149109,
        -0.1498073935508728,
        0.4964139461517334,
        -0.022100014612078667,
        0.0284015741199255,
        -0.21433067321777344,
        -0.25343894958496094,
        -0.16065062582492828,
        -0.3811052739620209,
        0.23877504467964172,
        -0.12786568701267242,
        0.32120373845100403,
        0.1840486377477646,
        0.1426422894001007,
        0.25819218158721924,
        0.31095799803733826,
        0.1612817347049713,
        -0.15003518760204315,
        -0.09581507742404938,
        0.1725354790687561,
        -0.4513866901397705,
        0.4508512616157532,
        -0.0653342604637146,
        -0.021407656371593475,
        0.06692145764827728,
        0.31957197189331055,
        -0.08924073725938797,
        -0.465116947889328,
        0.1922030746936798,
        -0.4118853211402893,
        0.22613587975502014,
        0.4562191665172577,
        -0.4223153591156006,
        -0.375536173582077,
        -0.21837829053401947,
        -0.25450560450553894,
        -0.1055632159113884,
        0.4581312835216522,
        0.12427592277526855,
        -0.13632413744926453,
        0.2784319519996643,
        0.3648693561553955,
        0.11339080333709717,
        0.11667679995298386,
        -0.0180504210293293,
        -0.3808695673942566,
        -0.2579334080219269,
        0.03619595244526863,
        0.35234177112579346,
        0.4317414164543152,
        -0.13410544395446777,
        -0.17972923815250397,
        0.16258428990840912,
        -0.17866870760917664,
        0.32108810544013977,
        -0.37143322825431824,
        -0.4448712468147278,
        0.3946782350540161,
        -0.23106974363327026,
        -0.022481830790638924,
        0.4006049335002899,
        -0.48024967312812805,
        0.12751886248588562,
        -0.08703888952732086,
        0.04708158224821091,
        0.42115074396133423,
        0.07127153128385544,
        -0.32472583651542664,
        0.34848684072494507,
        0.3148716390132904,
        -0.21102313697338104,
        -0.34017252922058105,
        -0.2179385870695114,
        -0.23692195117473602,
        -0.11653073132038116,
        0.1663682758808136,
        -0.20555774867534637,
        -0.22901807725429535,
        0.3816867768764496,
        0.3944949805736542,
        -0.146816685795784,
        -0.039881009608507156,
        0.07784852385520935,
        -0.4956856369972229,
        0.3270634710788727,
        0.0034550887066870928,
        -0.41174980998039246,
        -0.30789387226104736,
        -0.20130985975265503,
        0.03068164549767971,
        0.18844066560268402,
        0.4546293318271637,
        -0.07354741543531418,
        -0.16850395500659943,
        0.4408419132232666,
        0.35360822081565857,
        -0.45201733708381653,
        0.12797988951206207,
        -0.2600071430206299
      ]
    },
    {
      "name": "dense_Dense5/bias",
      "shape": [
        56
      ],
      "dtype": "float32",
      "values": [
        0,
        0,
        0,
        0,
        0,
        0,
        0,
        0,
        0,
        0,
        0,
        0,
        0,
        0,
        0,
        0,
        0,
        0,
        0,
        0,
        0,
        0,
        0,
        0,
        0,
        0,
        0,
        0,
        0,
        0,
        0,
        0,
        0,
        0,
        0,
        0,
        0,
        0,
        0,
        0,
        0,
        0,
        0,
        0,
        0,
        0,
        0,
        0,
        0,
        0,
        0,
        0,
        0,
        0,
        0,
        0
      ]
    },
    {
      "name": "dense_Dense6/kernel",
      "shape": [
        56,
        16
      ],
      "dtype": "float32",
      "values": [
        0.40107423067092896,
        -0.0194203183054924,
        0.35479581356048584,
        0.47482946515083313,
        -0.2932603657245636,
        -0.268792986869812,
        -0.18848301470279694,
        0.17750100791454315,
        0.131161168217659,
        -0.42135536670684814,
        0.019644130021333694,
        -0.17520049214363098,
        -0.3044070303440094,
        0.4265640079975128,
        -0.17657677829265594,
        0.3748505115509033,
        -0.098416768014431,
        0.13616789877414703,
        -0.06386160850524902,
        -0.3571118414402008,
        0.10194256156682968,
        -0.43502548336982727,
        -0.07515964657068253,
        0.03468068316578865,
        -0.25405511260032654,
        0.15885615348815918,
        0.4677151143550873,
        0.44781601428985596,
        -0.27336740493774414,
        0.17049944400787354,
        0.4378625154495239,
        0.06814704090356827,
        0.27937057614326477,
        0.3006429374217987,
        0.00407525897026062,
        0.42006227374076843,
        0.46511968970298767,
        -0.02949978969991207,
        -0.35875168442726135,
        0.46507981419563293,
        0.08984187990427017,
        -0.009851641021668911,
        0.09459804743528366,
        -0.2269938886165619,
        -0.07677467167377472,
        -0.03977878391742706,
        -0.26357153058052063,
        0.10897886008024216,
        0.14439184963703156,
        -0.4695388972759247,
        0.43452152609825134,
        -0.38253843784332275,
        0.1390334665775299,
        0.1479395627975464,
        -0.33023399114608765,
        -0.19355396926403046,
        0.1590145081281662,
        -0.28689929842948914,
        -0.028199784457683563,
        -0.05503206327557564,
        0.2264782339334488,
        0.23308847844600677,
        -0.20859390497207642,
        -0.2828100323677063,
        -0.03355494886636734,
        -0.1381659209728241,
        -0.48000070452690125,
        0.16284886002540588,
        -0.21929755806922913,
        -0.19684872031211853,
        0.02577042393386364,
        -0.3369145095348358,
        -0.4481932818889618,
        0.42438122630119324,
        0.49241402745246887,
        0.46334341168403625,
        0.34038254618644714,
        0.3649369180202484,
        0.1721825897693634,
        0.41970595717430115,
        0.2940891981124878,
        -0.18797513842582703,
        0.3722613453865051,
        0.44497767090797424,
        -0.12627916038036346,
        0.33033591508865356,
        -0.370889812707901,
        -0.4109216332435608,
        -0.49334198236465454,
        0.38590991497039795,
        0.25729408860206604,
        -0.35739272832870483,
        0.2281550168991089,
        0.34575098752975464,
        0.46167394518852234,
        -0.07681767642498016,
        0.2681792676448822,
        0.19974519312381744,
        0.1540294587612152,
        0.22319552302360535,
        -0.15485963225364685,
        0.019051644951105118,
        0.4647960662841797,
        -0.44648218154907227,
        0.16327497363090515,
        -0.4277656078338623,
        0.44115281105041504,
        0.2938304841518402,
        -0.23810794949531555,
        0.4192308783531189,
        0.28735026717185974,
        0.12701216340065002,
        -0.3354518711566925,
        0.038586683571338654,
        -0.4100433588027954,
        -0.20239302515983582,
        0.41280561685562134,
        0.3027414381504059,
        -0.14519548416137695,
        0.29953333735466003,
        -0.17625410854816437,
        0.4655300974845886,
        -0.3740321099758148,
        0.037422776222229004,
        -0.08058182895183563,
        -0.17430536448955536,
        -0.06267796456813812,
        -0.08856029808521271,
        0.09900669753551483,
        0.32941025495529175,
        -0.17749665677547455,
        0.27635782957077026,
        0.33753013610839844,
        0.06293076276779175,
        -0.1923753321170807,
        0.20793867111206055,
        0.43519073724746704,
        0.2520061135292053,
        -0.3788929581642151,
        -0.05391781032085419,
        -0.187657430768013,
        -0.30236533284187317,
        0.4013012945652008,
        0.3915911018848419,
        -0.1480788141489029,
        0.4424552917480469,
        0.2221682369709015,
        -0.4106254577636719,
        -0.25780001282691956,
        -0.25345343351364136,
        -0.20688971877098083,
        0.4390142261981964,
        -0.08512909710407257,
        0.38249072432518005,
        0.30594658851623535,
        -0.3312883973121643,
        0.4973459243774414,
        -0.21184557676315308,
        0.25176894664764404,
        0.13930603861808777,
        -0.47861555218696594,
        -0.23306962847709656,
        -0.0660647451877594,
        0.03414960205554962,
        0.4734242260456085,
        0.4030572175979614,
        -0.36224278807640076,
        -0.44252997636795044,
        0.18434549868106842,
        -0.16253645718097687,
        0.04477479308843613,
        0.22480380535125732,
        0.41828566789627075,
        -0.2934729754924774,
        0.4078603982925415,
        -0.39668306708335876,
        0.49748000502586365,
        -0.2852492034435272,
        0.21792499721050262,
        -0.4172824025154114,
        -0.35961663722991943,
        0.42626693844795227,
        -0.15066128969192505,
        -0.18587365746498108,
        -0.42807039618492126,
        -0.021553874015808105,
        0.41109171509742737,
        0.2803310751914978,
        0.07702947407960892,
        0.4787175953388214,
        0.401460200548172,
        -0.14310260117053986,
        0.40144386887550354,
        -0.16568109393119812,
        0.015420278534293175,
        -0.35175827145576477,
        -0.03378117084503174,
        -0.34386399388313293,
        -0.339839369058609,
        -0.018228918313980103,
        -0.34689265489578247,
        -0.24876248836517334,
        -0.3183433413505554,
        -0.17877407371997833,
        -0.3106391429901123,
        -0.31979092955589294,
        0.1889428198337555,
        0.06787467002868652,
        -0.1566372513771057,
        0.16887402534484863,
        0.3126366138458252,
        0.413521409034729,
        -0.4984385371208191,
        -0.05363844707608223,
        -0.49215826392173767,
        -0.46439406275749207,
        -0.2702380120754242,
        -0.4129296541213989,
        0.2742767632007599,
        -0.3346412479877472,
        0.23860003054141998,
        -0.01989614963531494,
        0.33991411328315735,
        0.12741416692733765,
        0.4397806227207184,
        -0.39546066522598267,
        0.43428879976272583,
        0.3100244402885437,
        0.05156605318188667,
        0.3884628415107727,
        0.2355525642633438,
        -0.4287722110748291,
        0.005760477390140295,
        -0.06619512289762497,
        0.2903900146484375,
        -0.16079747676849365,
        -0.2965201735496521,
        0.0868784710764885,
        -0.27312564849853516,
        -0.1727539598941803,
        0.4008980393409729,
        -0.27651992440223694,
        0.07093843072652817,
        -0.029140502214431763,
        0.13010703027248383,
        -0.4164547324180603,
        -0.4111202359199524,
        -0.07568851113319397,
        0.02904573455452919,
        -0.13565661013126373,
        -0.04851280525326729,
        0.19284553825855255,
        0.3497432768344879,
        -0.2762637138366699,
        0.23684251308441162,
        -0.3374316990375519,
        0.07148806750774384,
        0.035873331129550934,
        -0.3021583557128906,
        0.2223210334777832,
        0.0597027912735939,
        -0.21143794059753418,
        0.3530047535896301,
        -0.3130115270614624,
        0.1707880198955536,
        0.48801910877227783,
        -0.10826994478702545,
        -0.10653567314147949,
        -0.22823984920978546,
        0.3687417507171631,
        -0.1632862240076065,
        -0.3687956929206848,
        -0.39846324920654297,
        0.16320404410362244,
        -0.4585639238357544,
        -0.24282336235046387,
        -0.05829368531703949,
        -0.1965048611164093,
        0.17158088088035583,
        -0.3465116024017334,
        -0.2451084852218628,
        0.2666344940662384,
        -0.1724429428577423,
        -0.4712291955947876,
        0.09156141430139542,
        -0.38515666127204895,
        -0.37740808725357056,
        0.43090593814849854,
        0.28503379225730896,
        -0.49753493070602417,
        -0.3314553201198578,
        -0.2189272940158844,
        -0.4635707139968872,
        0.11594107002019882,
        0.14105895161628723,
        0.4179181456565857,
        -0.14012226462364197,
        0.41210466623306274,
        -0.1303136944770813,
        -0.18716412782669067,
        0.19166332483291626,
        -0.21782009303569794,
        0.19786781072616577,
        0.47306761145591736,
        -0.0036752442829310894,
        0.02453991398215294,
        -0.347538024187088,
        -0.2838028371334076,
        -0.36007755994796753,
        -0.09924013912677765,
        -0.05511276796460152,
        -0.28337764739990234,
        0.4551921486854553,
        -0.011268558911979198,
        0.27238771319389343,
        -0.35602816939353943,
        0.24365808069705963,
        -0.22014090418815613,
        -0.4169749319553375,
        -0.25567877292633057,
        -0.2959500849246979,
        -0.0027789685409516096,
        0.3153945505619049,
        0.2872220575809479,
        0.4011193513870239,
        -0.4880959689617157,
        -0.16957822442054749,
        -0.13569775223731995,
        0.46572259068489075,
        -0.4126460552215576,
        0.2966739535331726,
        -0.4761919677257538,
        0.43911364674568176,
        -0.16703538596630096,
        0.2785252034664154,
        0.21534115076065063,
        0.26305022835731506,
        0.1670144945383072,
        -0.04989800602197647,
        0.1101214662194252,
        0.034609194844961166,
        0.3849070370197296,
        0.35808390378952026,
        -0.05751955509185791,
        -0.43703970313072205,
        0.2710442841053009,
        -0.14427489042282104,
        -0.2835051715373993,
        -0.17684873938560486,
        0.005541432648897171,
        -0.47477707266807556,
        0.26850470900535583,
        -0.322711318731308,
        -0.23589521646499634,
        -0.05752056464552879,
        0.41355645656585693,
        0.38051164150238037,
        -0.25959497690200806,
        -0.18263357877731323,
        -0.01802666485309601,
        0.027406444773077965,
        0.48160189390182495,
        -0.2760660946369171,
        0.38799944519996643,
        0.29086682200431824,
        0.37136486172676086,
        -0.23807229101657867,
        0.40180468559265137,
        0.22986344993114471,
        -0.2765973210334778,
        0.34505191445350647,
        0.3433537781238556,
        0.23885437846183777,
        0.04043041914701462,
        0.14038380980491638,
        0.14443619549274445,
        -0.15865293145179749,
        0.24110578000545502,
        0.38809508085250854,
        0.334119975566864,
        0.26395201683044434,
        -0.20742975175380707,
        0.35544928908348083,
        0.3207624852657318,
        -0.16059152781963348,
        -0.42376813292503357,
        0.32725730538368225,
        0.49969056248664856,
        0.026415202766656876,
        0.16882342100143433,
        0.28344181180000305,
        0.06878649443387985,
        -0.35021162033081055,
        -0.04944774881005287,
        -0.48567429184913635,
        -0.25871023535728455,
        0.15825164318084717,
        -0.2597157657146454,
        -0.4189395010471344,
        0.3141656219959259,
        0.38070693612098694,
        -0.18430377542972565,
        0.07525737583637238,
        0.45899975299835205,
        0.026639889925718307,
        0.26102975010871887,
        -0.23970800638198853,
        0.03465236350893974,
        0.03545098006725311,
        0.3700258731842041,
        0.23411023616790771,
        -0.34772974252700806,
        -0.4411771595478058,
        0.11140565574169159,
        -0.07304002344608307,
        -0.3434922993183136,
        0.413424551486969,
        -0.36081600189208984,
        0.10442309826612473,
        -0.0932420864701271,
        0.2014651596546173,
        0.43025901913642883,
        0.21530506014823914,
        0.38332492113113403,
        -0.4634098410606384,
        0.4704093933105469,
        0.3599281311035156,
        -0.10975199192762375,
        -0.3694024980068207,
        -0.2808791995048523,
        0.45767125487327576,
        0.3452194929122925,
        0.1145254597067833,
        0.059127531945705414,
        -0.46846091747283936,
        -0.0830337330698967,
        0.4511166512966156,
        -0.14465658366680145,
        0.3983058035373688,
        0.2005973756313324,
        -0.3491060733795166,
        -0.036020904779434204,
        0.28632664680480957,
        0.1391686499118805,
        0.27228254079818726,
        0.0028500184416770935,
        -0.42729300260543823,
        -0.24755600094795227,
        0.21009942889213562,
        0.27890631556510925,
        0.20305468142032623,
        0.16336743533611298,
        0.3185621500015259,
        0.09993661195039749,
        -0.29424765706062317,
        0.013781116344034672,
        0.31742995977401733,
        0.13437849283218384,
        0.12050892412662506,
        -0.14533787965774536,
        0.30796805024147034,
        0.15952925384044647,
        -0.38475921750068665,
        -0.01859724521636963,
        -0.3755360245704651,
        -0.39630067348480225,
        0.2766689956188202,
        0.22189581394195557,
        0.05616053193807602,
        -0.32985639572143555,
        -0.050530076026916504,
        -0.43883803486824036,
        -0.48437461256980896,
        0.3189830183982849,
        0.2776159942150116,
        0.1522369682788849,
        0.3089652359485626,
        0.442383736371994,
        -0.22147542238235474,
        -0.2527881860733032,
        0.0593104287981987,
        0.3845594525337219,
        0.35582154989242554,
        0.003179440973326564,
        -0.4358925223350525,
        0.2059023380279541,
        0.24315479397773743,
        0.2299405336380005,
        0.3716426193714142,
        0.04364660754799843,
        -0.39962509274482727,
        0.1941729038953781,
        -0.055932410061359406,
        -0.4242289662361145,
        -0.39213424921035767,
        -0.4103972613811493,
        0.14853312075138092,
        -0.2722892761230469,
        0.0670706033706665,
        -0.3244960904121399,
        0.1169721707701683,
        0.4820825457572937,
        0.29933372139930725,
        -0.450486958026886,
        -0.33798232674598694,
        0.07107526808977127,
        -0.0997510775923729,
        -0.030031468719244003,
        -0.19286610186100006,
        -0.2434191256761551,
        0.008994469419121742,
        -0.251922607421875,
        0.06840940564870834,
        0.18314629793167114,
        -0.14895641803741455,
        -0.22538849711418152,
        -0.0631856694817543,
        -0.038811735808849335,
        -0.372005432844162,
        0.39009159803390503,
        -0.14298474788665771,
        -0.09713500738143921,
        -0.22572849690914154,
        -0.4673464596271515,
        -0.37147843837738037,
        0.45852673053741455,
        -0.08961346745491028,
        0.2257436066865921,
        0.37515223026275635,
        -0.0205521322786808,
        0.12610222399234772,
        0.012245111167430878,
        0.35804495215415955,
        0.32602664828300476,
        0.3533560335636139,
        -0.2101757824420929,
        0.03303897753357887,
        0.27326416969299316,
        0.13651718199253082,
        -0.38544249534606934,
        0.012423986569046974,
        -0.3254227936267853,
        0.43212488293647766,
        0.4953860938549042,
        -0.03171306475996971,
        0.2649233639240265,
        -0.1513923555612564,
        -0.2820897400379181,
        0.025612812489271164,
        -0.15433427691459656,
        0.11934749782085419,
        -0.2438526302576065,
        0.4066506028175354,
        -0.11591516435146332,
        0.3402901887893677,
        0.2691173553466797,
        0.3263755738735199,
        0.20066939294338226,
        0.38224005699157715,
        -0.09728831797838211,
        -0.06585387885570526,
        0.23525691032409668,
        -0.04213332384824753,
        0.4569322466850281,
        -0.46675220131874084,
        0.2950494587421417,
        0.33647987246513367,
        -0.12516701221466064,
        -0.05683779716491699,
        0.4126623570919037,
        -0.21895122528076172,
        -0.1540156751871109,
        -0.3490786850452423,
        0.08049742877483368,
        -0.2077927440404892,
        0.4021281898021698,
        -0.4404493272304535,
        -0.42119234800338745,
        -0.018930960446596146,
        0.008132364600896835,
        -0.3162325918674469,
        0.26534780859947205,
        -0.027830269187688828,
        -0.39372771978378296,
        -0.15345141291618347,
        0.12201126664876938,
        -0.2368059754371643,
        0.029964210465550423,
        -0.48240023851394653,
        0.4007684290409088,
        0.31134212017059326,
        -0.14687000215053558,
        -0.11117879301309586,
        0.33788809180259705,
        -0.03474697098135948,
        0.1017068475484848,
        -0.08936075121164322,
        -0.11922843009233475,
        0.013996019028127193,
        -0.4354195296764374,
        0.16542308032512665,
        -0.38105759024620056,
        -0.4576946496963501,
        0.36926159262657166,
        0.08380608260631561,
        0.05085555464029312,
        -0.02777666226029396,
        0.0746489018201828,
        0.46271058917045593,
        0.2492208182811737,
        -0.4424937665462494,
        0.4855688810348511,
        -0.03198627009987831,
        -0.2414020597934723,
        -0.16345427930355072,
        0.26755255460739136,
        0.04945850372314453,
        -0.3330073356628418,
        0.33650246262550354,
        0.33661675453186035,
        -0.10107104480266571,
        -0.3527669906616211,
        -0.24438446760177612,
        -0.14256855845451355,
        -0.21097013354301453,
        -0.09261136502027512,
        0.052827198058366776,
        -0.35167473554611206,
        0.45770812034606934,
        0.42548301815986633,
        0.3895803689956665,
        0.13621185719966888,
        -0.1356266587972641,
        -0.4827476739883423,
        0.03370147943496704,
        -0.01597518101334572,
        0.13031218945980072,
        0.3287522792816162,
        -0.3133276402950287,
        0.046684280037879944,
        0.08363430947065353,
        -0.33811333775520325,
        -0.33714693784713745,
        -0.22215084731578827,
        -0.020008839666843414,
        0.2922843098640442,
        -0.3809194266796112,
        -0.269256591796875,
        0.25063252449035645,
        0.09457401186227798,
        0.3843767046928406,
        -0.22969017922878265,
        -0.30170586705207825,
        0.2953156530857086,
        0.06363877654075623,
        0.23379774391651154,
        -0.2932797372341156,
        0.34926024079322815,
        0.4673873484134674,
        -0.35250920057296753,
        0.3355362117290497,
        -0.4164271056652069,
        0.02866077795624733,
        -0.3876863718032837,
        -0.1744595617055893,
        0.0009843269363045692,
        0.07593915611505508,
        -0.4270276129245758,
        -0.14323273301124573,
        0.30128830671310425,
        0.41389942169189453,
        -0.17966032028198242,
        0.38686177134513855,
        0.17726141214370728,
        0.45318084955215454,
        0.1604316234588623,
        -0.10699329525232315,
        -0.2563107907772064,
        0.030697116628289223,
        -0.3497406542301178,
        0.3818398118019104,
        0.2879069447517395,
        -0.1637689173221588,
        0.04754768684506416,
        0.3993130028247833,
        -0.4540750980377197,
        -0.40513232350349426,
        -0.32644203305244446,
        -0.1757545918226242,
        0.4266648590564728,
        0.11637040227651596,
        -0.15957476198673248,
        -0.1265871375799179,
        -0.13354544341564178,
        0.21932293474674225,
        0.4019222855567932,
        0.1522013545036316,
        0.40116721391677856,
        0.327303022146225,
        0.2893718481063843,
        -0.001740740379318595,
        -0.2044023722410202,
        0.4585012197494507,
        -8.183554746210575e-05,
        0.03845876082777977,
        0.015387561172246933,
        -0.16995586454868317,
        -0.15863947570323944,
        0.22283798456192017,
        -0.32649269700050354,
        0.4965542256832123,
        -0.37382468581199646,
        0.15231753885746002,
        0.19533924758434296,
        -0.2817818522453308,
        0.2964407801628113,
        0.1980486959218979,
        0.10183899104595184,
        0.0668913796544075,
        0.3849562108516693,
        0.4110892713069916,
        -0.38174495100975037,
        0.41688069701194763,
        0.3829721212387085,
        0.39915648102760315,
        -0.10153591632843018,
        0.4027402400970459,
        0.2783470153808594,
        -0.47475042939186096,
        0.18789342045783997,
        0.49818071722984314,
        0.4865092933177948,
        0.20900729298591614,
        0.219001904129982,
        -0.18920893967151642,
        -0.1835118532180786,
        -0.06957121193408966,
        0.19714058935642242,
        0.44661515951156616,
        0.1351255476474762,
        -0.0546095035970211,
        -0.29893794655799866,
        -0.14002715051174164,
        -0.3686458468437195,
        -0.28345465660095215,
        -0.25432828068733215,
        -0.053646933287382126,
        0.21139667928218842,
        0.037728942930698395,
        -0.015339656732976437,
        -0.4472895860671997,
        0.3278350830078125,
        -0.024494431912899017,
        -0.32036107778549194,
        -0.36890989542007446,
        0.4927922785282135,
        0.25296449661254883,
        -0.30128318071365356,
        -0.44298872351646423,
        0.43838152289390564,
        0.35489892959594727,
        -0.4944664537906647,
        -0.1317228376865387,
        0.4650600254535675,
        -0.33264684677124023,
        0.3618709146976471,
        -0.3263899087905884,
        -0.1252557337284088,
        0.342578649520874,
        0.13068193197250366,
        0.22877556085586548,
        -0.12422436475753784,
        0.4147184193134308,
        -0.11241186410188675,
        0.4728168249130249,
        0.2283162921667099,
        -0.04539070650935173,
        0.11590298265218735,
        0.25030410289764404,
        0.02546018734574318,
        0.20479699969291687,
        -0.18595927953720093,
        -0.47688695788383484,
        0.40066254138946533,
        0.3081373870372772,
        -0.343477338552475,
        0.4125175178050995,
        0.15022601187229156,
        0.4278108775615692,
        -0.30218029022216797,
        -0.4172310531139374,
        -0.07137639820575714,
        -0.07035520672798157,
        0.2763850688934326,
        0.34430861473083496,
        0.3030414581298828,
        -0.22236351668834686,
        0.30604419112205505,
        0.3031456470489502,
        -0.20475241541862488,
        -0.04178240895271301,
        0.26282334327697754,
        -0.127789705991745,
        0.281629353761673,
        -0.45266029238700867,
        0.05534568428993225,
        -0.0618940144777298,
        0.06787163764238358,
        0.19176556169986725,
        0.06815725564956665,
        -0.04085693880915642,
        0.332367867231369,
        0.37487348914146423,
        0.03072085976600647,
        -0.3805175721645355,
        0.011333719827234745,
        -0.05068683251738548,
        -0.38802221417427063,
        0.049976907670497894,
        0.4474911689758301,
        -0.41919031739234924,
        -0.35124945640563965,
        -0.011241761967539787,
        0.15690934658050537,
        -0.05294152349233627,
        0.29328641295433044,
        -0.3021906316280365,
        0.4440899193286896,
        0.30069708824157715,
        0.31321439146995544,
        -0.1802920401096344,
        -0.22992576658725739,
        0.41552186012268066,
        0.12525121867656708,
        0.29819589853286743,
        -0.2577604055404663,
        0.3342272937297821,
        0.17326387763023376,
        0.2971403896808624,
        -0.15891335904598236,
        0.47781792283058167,
        0.4458784759044647,
        -0.3712214231491089,
        -0.399977445602417,
        -0.18080851435661316,
        -0.18197065591812134,
        -0.42281869053840637,
        -0.1328066736459732,
        0.08473849296569824,
        -0.05365122854709625,
        0.3761354386806488,
        0.3436850607395172,
        0.0016667298041284084,
        -0.4747149348258972,
        0.09520573168992996,
        0.19747164845466614,
        -0.2864169180393219,
        0.022412503138184547,
        0.4045139253139496,
        0.19651685655117035,
        -0.13570553064346313,
        0.08933521807193756,
        0.31883835792541504,
        0.022364627569913864,
        0.032701149582862854,
        -0.2857740819454193,
        -0.2723555266857147,
        -0.0004202576819807291,
        -0.23712870478630066,
        -0.4287151098251343,
        -0.02724681794643402,
        0.35718876123428345,
        -0.25467246770858765,
        0.4925050437450409,
        -0.05446246266365051,
        0.14544586837291718,
        -0.21590182185173035,
        0.1856440305709839,
        0.26404356956481934,
        0.3300451934337616,
        0.29557180404663086,
        -0.16602113842964172,
        0.4055386483669281,
        -0.46941956877708435,
        -0.27442747354507446,
        0.46526914834976196,
        -0.26626238226890564,
        -0.17612959444522858,
        0.08168507367372513,
        0.20433460175991058,
        0.46206504106521606,
        -0.31889840960502625,
        0.20922483503818512,
        0.2807385325431824,
        -0.3632482588291168,
        -0.16446341574192047
      ]
    },
    {
      "name": "dense_Dense6/bias",
      "shape": [
        16
      ],
      "dtype": "float32",
      "values": [
        0,
        0,
        0,
        0,
        0,
        0,
        0,
        0,
        0,
        0,
        0,
        0,
        0,
        0,
        0,
        0
      ]
    }
  ]
}
