{
  "version": 1,
  "createdAt": 1762598349828,
  "backend": "webgl",
  "config": {
    "inputSize": 19,
    "outputSize": 16,
    "hiddenLayers": [
      56
    ],
    "activation": "relu",
    "outputActivation": "tanh",
    "backend": "webgl",
    "seed": 1762596690442
  },
  "metadata": {
    "label": "12",
    "notes": "",
    "correlations": [
      {
        "id": "rms-deltaposx",
        "featureKey": "bandBass",
        "targetId": "deltaPosX",
        "targetIndex": 0,
        "axis": "x",
        "group": "deltaPos",
        "featureIndex": 4,
        "strength": 0.65,
        "polarity": "direct"
      },
      {
        "id": "tempoproxy-rotationspeed",
        "featureKey": "tempoProxy",
        "targetId": "rotationSpeed",
        "targetIndex": 9,
        "axis": null,
        "group": "rotationSpeed",
        "featureIndex": 10,
        "strength": 0.65,
        "polarity": "direct"
      },
      {
        "id": "bandbass-wobblestrength",
        "featureKey": "bandBass",
        "targetId": "wobbleStrength",
        "targetIndex": 10,
        "axis": null,
        "group": "wobbleStrength",
        "featureIndex": 4,
        "strength": 0.6,
        "polarity": "direct"
      },
      {
        "id": "bandhigh-wobblefrequency",
        "featureKey": "bandHigh",
        "targetId": "wobbleFrequency",
        "targetIndex": 11,
        "axis": null,
        "group": "wobbleFrequency",
        "featureIndex": 7,
        "strength": 0.6,
        "polarity": "direct"
      },
      {
        "id": "speccentroid-colormix",
        "featureKey": "specCentroid",
        "targetId": "colorMix",
        "targetIndex": 12,
        "axis": null,
        "group": "colorMix",
        "featureIndex": 1,
        "strength": 0.55,
        "polarity": "direct"
      },
      {
        "id": "rms-alphascale",
        "featureKey": "rms",
        "targetId": "alphaScale",
        "targetIndex": 13,
        "axis": null,
        "group": "alphaScale",
        "featureIndex": 0,
        "strength": 0.5,
        "polarity": "direct"
      },
      {
        "id": "peak-pointscale",
        "featureKey": "peak",
        "targetId": "pointScale",
        "targetIndex": 14,
        "axis": null,
        "group": "pointScale",
        "featureIndex": 8,
        "strength": 0.55,
        "polarity": "direct"
      },
      {
        "id": "bandlowmid-camerazoom",
        "featureKey": "bandLowMid",
        "targetId": "cameraZoom",
        "targetIndex": 15,
        "axis": null,
        "group": "cameraZoom",
        "featureIndex": 5,
        "strength": 0.6,
        "polarity": "direct"
      }
    ],
    "training": {
      "status": "idle",
      "epoch": 0,
      "epochs": 24,
      "loss": null,
      "best": null,
      "metadata": null
    }
  },
  "weights": [
    {
      "name": "dense_Dense5/kernel",
      "shape": [
        19,
        56
      ],
      "dtype": "float32",
      "values": [
        0.19632667303085327,
        0.17597340047359467,
        -0.2050401270389557,
        -0.48831644654273987,
        -0.17031970620155334,
        0.08086752891540527,
        0.290823370218277,
        -0.34969398379325867,
        -0.31960436701774597,
        0.4913679361343384,
        0.44578468799591064,
        0.03268260881304741,
        0.31820204854011536,
        -0.3668330907821655,
        0.22113670408725739,
        -0.19877012073993683,
        -0.4124079942703247,
        0.1493082493543625,
        -0.3367101550102234,
        0.36467206478118896,
        -0.052325986325740814,
        -0.1159491017460823,
        0.31542137265205383,
        -0.07426528632640839,
        0.3408869206905365,
        -0.35826238989830017,
        -0.17321234941482544,
        0.38395753502845764,
        0.4236919581890106,
        0.28695937991142273,
        -0.44182246923446655,
        -0.35148513317108154,
        0.4459853172302246,
        -0.13753771781921387,
        -0.0017185471951961517,
        0.270843505859375,
        -0.2541009783744812,
        0.4198397099971771,
        -0.18338102102279663,
        -0.4988858997821808,
        0.10155858099460602,
        0.08943293243646622,
        -0.21460725367069244,
        -0.10341452062129974,
        0.411609411239624,
        0.08762559294700623,
        0.16051115095615387,
        0.32818982005119324,
        0.10756303369998932,
        0.3757689893245697,
        -0.36389032006263733,
        0.04346650466322899,
        0.07140974700450897,
        -0.1788950264453888,
        0.23836156725883484,
        0.40720945596694946,
        0.18800705671310425,
        0.35033607482910156,
        0.1762198507785797,
        -0.102591872215271,
        -0.3931925296783447,
        0.31287676095962524,
        -0.16457514464855194,
        0.19155055284500122,
        0.25300076603889465,
        0.2167232781648636,
        -0.3935214877128601,
        0.2569516599178314,
        -0.13248483836650848,
        0.12294673919677734,
        0.13837461173534393,
        -0.46615540981292725,
        0.19188380241394043,
        -0.27784305810928345,
        0.19479204714298248,
        -0.3578212261199951,
        -0.3851366639137268,
        -0.36693766713142395,
        0.19359484314918518,
        0.1558992862701416,
        -0.12534521520137787,
        -0.4782404601573944,
        0.033416543155908585,
        0.06363680958747864,
        -0.41567960381507874,
        0.3458946645259857,
        0.2291325330734253,
        0.3172553777694702,
        -0.21075156331062317,
        -0.4523729085922241,
        -0.27221158146858215,
        -0.18094150722026825,
        0.18198592960834503,
        -0.37317711114883423,
        -0.307752788066864,
        -0.1266675740480423,
        0.2109728455543518,
        0.2661823630332947,
        0.15828336775302887,
        0.019709330052137375,
        0.43681570887565613,
        -0.3311743140220642,
        -0.19773948192596436,
        -0.20436105132102966,
        -0.10227160900831223,
        0.37518414855003357,
        0.4692460596561432,
        -0.28633755445480347,
        -0.22784113883972168,
        0.3701132833957672,
        0.1936957836151123,
        -0.41754150390625,
        0.36397823691368103,
        -0.3493013083934784,
        -0.0758192241191864,
        0.09840894490480423,
        -0.22922611236572266,
        -0.4397130608558655,
        -0.019499652087688446,
        -0.288813054561615,
        -0.009165527299046516,
        -0.2332506775856018,
        0.3754666745662689,
        0.02526159957051277,
        -0.21621042490005493,
        -0.2367710918188095,
        0.14680342376232147,
        -0.15423673391342163,
        0.3538263738155365,
        -0.24070197343826294,
        0.4265850782394409,
        0.06721942126750946,
        0.36247339844703674,
        -0.0002611200325191021,
        -0.2320852279663086,
        0.48037266731262207,
        -0.16842368245124817,
        0.49389711022377014,
        0.22314749658107758,
        0.4713747203350067,
        0.46227580308914185,
        0.0031893926206976175,
        -0.23685809969902039,
        0.07559473812580109,
        0.05846038833260536,
        0.3526827394962311,
        -0.09497815370559692,
        0.030419927090406418,
        -0.036910828202962875,
        -0.002231404185295105,
        -0.49587130546569824,
        -0.125098317861557,
        -0.29179319739341736,
        0.2596903443336487,
        0.48439836502075195,
        -0.04359513521194458,
        0.45077210664749146,
        0.49708667397499084,
        -0.2850271761417389,
        0.48743048310279846,
        -0.11223466694355011,
        0.045729633420705795,
        -0.4179465174674988,
        -0.4045892655849457,
        -0.1136317178606987,
        -0.2574983239173889,
        0.30196017026901245,
        0.47415000200271606,
        0.4566299617290497,
        -0.30354171991348267,
        -0.3723364472389221,
        0.01167151890695095,
        0.2814878523349762,
        -0.43163570761680603,
        -0.39677679538726807,
        -0.027832750231027603,
        -0.08238530904054642,
        0.1551823914051056,
        -0.06386221945285797,
        -0.3310302793979645,
        -0.47096937894821167,
        0.29781588912010193,
        0.1415717899799347,
        0.08608639985322952,
        0.3207254707813263,
        0.09075931459665298,
        -0.335689902305603,
        -0.12741585075855255,
        -0.2839076519012451,
        -0.11124779284000397,
        0.04520721361041069,
        -0.31206363439559937,
        -0.22595882415771484,
        0.16979719698429108,
        -0.4888589680194855,
        -0.2757619619369507,
        0.4335924983024597,
        -0.4695341885089874,
        -0.4645584523677826,
        0.006450932938605547,
        -0.0074021536856889725,
        0.4013478457927704,
        0.02293803170323372,
        0.36691364645957947,
        -0.19293396174907684,
        0.08213267475366592,
        -0.0799063965678215,
        -0.198396697640419,
        -0.09513536840677261,
        -0.32879626750946045,
        -0.2593373656272888,
        0.14600294828414917,
        -0.06968218088150024,
        -0.16847382485866547,
        0.4472273886203766,
        0.037073783576488495,
        -0.41747400164604187,
        0.2242051064968109,
        -0.029880549758672714,
        0.07112175226211548,
        0.13797010481357574,
        -0.32432499527931213,
        0.031495723873376846,
        -0.34571170806884766,
        0.20806758105754852,
        -0.3160146474838257,
        -0.09888654202222824,
        0.27552974224090576,
        0.41620752215385437,
        0.05270776525139809,
        -0.27546748518943787,
        -0.12782788276672363,
        -0.379716157913208,
        0.4601450264453888,
        0.20548708736896515,
        -0.11197824031114578,
        0.31176063418388367,
        -0.1955430656671524,
        -0.05083360895514488,
        -0.2738504111766815,
        0.4941703677177429,
        0.43773794174194336,
        -0.19704245030879974,
        0.012898910790681839,
        -0.21956880390644073,
        0.3184562623500824,
        -0.13449814915657043,
        0.32340672612190247,
        -0.4490758180618286,
        0.42035090923309326,
        0.13600681722164154,
        0.4849320650100708,
        0.3666631579399109,
        0.1650758534669876,
        -0.1689637154340744,
        -0.06821691989898682,
        0.10420584678649902,
        -0.10766386985778809,
        -0.17044638097286224,
        0.01532493345439434,
        0.055591750890016556,
        -0.2971736192703247,
        0.229620099067688,
        -0.12404820322990417,
        0.04116174206137657,
        0.36277157068252563,
        -0.05647828429937363,
        -0.49822238087654114,
        0.17630831897258759,
        -0.18216048181056976,
        -0.3613242506980896,
        0.3584233522415161,
        0.020140640437602997,
        0.13155975937843323,
        0.27430155873298645,
        -0.050070684403181076,
        -0.47230416536331177,
        -0.14123181998729706,
        0.2031487077474594,
        0.18905675411224365,
        0.0060861315578222275,
        -0.2511020302772522,
        0.4877619743347168,
        -0.009538959711790085,
        0.1832074671983719,
        -0.028721308335661888,
        -0.05918457359075546,
        -0.1196867972612381,
        0.39071282744407654,
        0.2379087209701538,
        0.43214794993400574,
        0.19225049018859863,
        0.15186309814453125,
        -0.48599666357040405,
        -0.374550461769104,
        -0.208747997879982,
        0.4239497184753418,
        -0.36060240864753723,
        -0.46857351064682007,
        -0.2229681760072708,
        -0.0687631294131279,
        0.34843018651008606,
        0.07608558982610703,
        0.3612753450870514,
        0.17439675331115723,
        -0.41159453988075256,
        -0.39381393790245056,
        0.035534508526325226,
        -0.17637628316879272,
        0.41754865646362305,
        0.3663662075996399,
        0.4930668771266937,
        0.07681640982627869,
        -0.17824052274227142,
        -0.0678567886352539,
        0.2034992277622223,
        0.16909779608249664,
        0.0985284224152565,
        -0.07853220403194427,
        -0.45066121220588684,
        -0.10679393261671066,
        -0.01311272569000721,
        0.4183582067489624,
        -0.36073142290115356,
        -0.08728403598070145,
        0.35897523164749146,
        0.08145072311162949,
        0.3077941834926605,
        -0.42667898535728455,
        -0.49151718616485596,
        0.30676162242889404,
        -0.39027640223503113,
        0.47454309463500977,
        -0.4185413718223572,
        -0.3525545299053192,
        -0.18476015329360962,
        -0.4301316738128662,
        0.16887816786766052,
        0.4660758674144745,
        -0.17077980935573578,
        0.16073358058929443,
        0.47374361753463745,
        0.28496548533439636,
        -0.3789394497871399,
        -0.3527877926826477,
        -0.08210340887308121,
        0.4973018169403076,
        0.29708200693130493,
        0.301708847284317,
        -0.1300702542066574,
        0.300693541765213,
        -0.024057824164628983,
        -0.01069115474820137,
        0.3094775378704071,
        -0.28288793563842773,
        -0.03502059355378151,
        0.30560392141342163,
        -0.457409530878067,
        -0.44258350133895874,
        0.09493062645196915,
        0.4085509479045868,
        0.1146484911441803,
        -0.4052346348762512,
        0.10566689074039459,
        0.2616547644138336,
        0.4231274425983429,
        -0.017577465623617172,
        0.2925468385219574,
        -0.10950025916099548,
        0.28636905550956726,
        0.357534259557724,
        -0.01705525442957878,
        -0.3246527910232544,
        -0.3960549831390381,
        -0.4334412217140198,
        -0.46814775466918945,
        -0.07070745527744293,
        0.440888911485672,
        -0.10237009078264236,
        -0.4710335433483124,
        0.43727007508277893,
        -0.2728823125362396,
        -0.12986887991428375,
        0.12651924788951874,
        -0.2805235683917999,
        0.19914451241493225,
        -0.39694342017173767,
        -0.03917132690548897,
        0.4235529601573944,
        -0.31470823287963867,
        -0.2735261023044586,
        -0.09610898792743683,
        0.004956546705216169,
        0.16523811221122742,
        -0.3136202394962311,
        0.30659064650535583,
        0.46493637561798096,
        -0.3111337423324585,
        -0.048591408878564835,
        0.0332651361823082,
        -0.4833315312862396,
        0.31567761301994324,
        -0.3440879285335541,
        -0.08099532127380371,
        -0.3829455077648163,
        0.25406330823898315,
        0.0345870777964592,
        0.23495739698410034,
        -0.2647603750228882,
        -0.3227136433124542,
        0.044903818517923355,
        -0.11595462262630463,
        -0.4479138255119324,
        -0.42185264825820923,
        -0.21211108565330505,
        -0.03368488699197769,
        -0.45765575766563416,
        0.17754428088665009,
        0.3787451684474945,
        0.37184110283851624,
        -0.45833688974380493,
        0.18665720522403717,
        0.32760411500930786,
        -0.34398311376571655,
        -0.49870115518569946,
        -0.44592469930648804,
        -0.48838579654693604,
        0.19555160403251648,
        -0.48336613178253174,
        0.20631277561187744,
        0.374174565076828,
        -0.4550987482070923,
        -0.16790777444839478,
        0.11054471880197525,
        -0.26679953932762146,
        -0.44552162289619446,
        -0.35620900988578796,
        -0.293583482503891,
        -0.39145246148109436,
        0.32137012481689453,
        0.3295431137084961,
        -0.2203693985939026,
        0.3065216541290283,
        0.22531814873218536,
        -0.23297154903411865,
        -0.36104801297187805,
        0.2281758040189743,
        -0.3648349940776825,
        -0.07496758550405502,
        0.42570704221725464,
        -0.1305558979511261,
        -0.1284322738647461,
        0.44741326570510864,
        0.20576515793800354,
        0.04048776626586914,
        0.043639082461595535,
        0.4301326870918274,
        -0.20627672970294952,
        0.20755110681056976,
        0.27502796053886414,
        -0.4521861672401428,
        -0.01815076731145382,
        0.19067920744419098,
        -0.23932749032974243,
        0.14869572222232819,
        0.0757799744606018,
        0.29606950283050537,
        -0.240801602602005,
        0.3561606705188751,
        -0.4721227288246155,
        -0.025799157097935677,
        -0.4233914613723755,
        -0.3426598906517029,
        0.4768604040145874,
        -0.12186238169670105,
        0.20219650864601135,
        -0.17499974370002747,
        -0.10387000441551208,
        0.09310503304004669,
        -0.278344064950943,
        0.4455576241016388,
        0.1242397353053093,
        -0.2974851131439209,
        -0.2868337631225586,
        -0.32187727093696594,
        -0.4443003237247467,
        0.2932068109512329,
        -0.036930590867996216,
        0.10114850848913193,
        -0.17574575543403625,
        -0.46327924728393555,
        0.16391222178936005,
        0.31196752190589905,
        0.037707287818193436,
        0.19228017330169678,
        0.4407450258731842,
        0.034667182713747025,
        -0.28789857029914856,
        -0.4998805820941925,
        0.2303813397884369,
        0.14011035859584808,
        0.3036022484302521,
        -0.39021626114845276,
        0.28582876920700073,
        0.32942700386047363,
        0.4399121105670929,
        -0.3794712722301483,
        0.3858683407306671,
        0.3323083519935608,
        0.09733449667692184,
        0.2567603290081024,
        0.10315590351819992,
        -0.3737088441848755,
        -0.11209677904844284,
        -0.08436957746744156,
        0.033936597406864166,
        0.012047364376485348,
        0.3034924864768982,
        0.11135290563106537,
        -0.26207590103149414,
        -0.29976949095726013,
        0.07813756912946701,
        -0.1923048049211502,
        0.4637344181537628,
        -0.41830307245254517,
        -0.22763092815876007,
        -0.02175535447895527,
        -0.021640222519636154,
        0.2745577096939087,
        -0.3492153584957123,
        0.46489417552948,
        -0.3684016764163971,
        -0.4609034061431885,
        -0.2353791445493698,
        -0.2989780902862549,
        0.4425232410430908,
        -0.2043510377407074,
        -0.22391943633556366,
        -0.12809498608112335,
        0.4133790135383606,
        0.38934341073036194,
        -0.46650928258895874,
        -0.34549546241760254,
        -0.10659769177436829,
        -0.03226786479353905,
        0.21844860911369324,
        0.1125979870557785,
        0.27233371138572693,
        -0.37042826414108276,
        0.33896225690841675,
        -0.19282251596450806,
        -0.18412375450134277,
        -0.32580721378326416,
        -0.08675595372915268,
        -0.43581879138946533,
        -0.0995134636759758,
        -0.1289122998714447,
        0.42163315415382385,
        -0.23869651556015015,
        0.016431178897619247,
        0.3763737380504608,
        0.06567008793354034,
        0.09277749806642532,
        -0.012127364054322243,
        0.1126120388507843,
        0.03939761221408844,
        -0.06830853223800659,
        -0.26986756920814514,
        -0.41894879937171936,
        0.20922692120075226,
        0.4452173709869385,
        0.37474489212036133,
        0.1819419264793396,
        0.046199001371860504,
        0.05281095951795578,
        -0.17918063700199127,
        -0.3695594370365143,
        0.4598991870880127,
        -0.21397295594215393,
        0.05227470025420189,
        0.08022809028625488,
        -0.1927623599767685,
        -0.19809570908546448,
        0.19550223648548126,
        -0.26275891065597534,
        0.29367679357528687,
        0.11717721074819565,
        0.2137521654367447,
        -0.17040441930294037,
        0.42624664306640625,
        0.3570965528488159,
        0.4716482162475586,
        0.12628017365932465,
        0.07764222472906113,
        -0.20886071026325226,
        -0.46678316593170166,
        0.49975109100341797,
        -0.20200303196907043,
        0.10235967487096786,
        -0.12190455198287964,
        -0.41929787397384644,
        0.494950532913208,
        -0.31832054257392883,
        0.205597385764122,
        -0.17393659055233002,
        0.3142988681793213,
        -0.47737428545951843,
        0.4396343529224396,
        -0.22950148582458496,
        0.29908642172813416,
        0.37390726804733276,
        -0.24713709950447083,
        -0.14610439538955688,
        0.0538402684032917,
        0.4013461768627167,
        0.3428109586238861,
        0.4033871591091156,
        0.31288769841194153,
        -0.2381289005279541,
        0.2916133999824524,
        0.09747467935085297,
        0.3152514398097992,
        -0.06340945512056351,
        -0.1631547212600708,
        0.19783733785152435,
        0.30525413155555725,
        0.21147698163986206,
        0.29507943987846375,
        0.45022156834602356,
        0.49256542325019836,
        -0.3122166693210602,
        -0.020307034254074097,
        0.054167356342077255,
        0.4311763644218445,
        0.016732284799218178,
        -0.44520139694213867,
        0.33065366744995117,
        -0.09864037483930588,
        0.38435202836990356,
        0.11755897849798203,
        -0.05409698560833931,
        -0.2763690948486328,
        -0.04998580738902092,
        -0.3675020635128021,
        -0.3716059625148773,
        -0.26504644751548767,
        0.32237544655799866,
        0.4572429656982422,
        -0.4956252872943878,
        0.04849858582019806,
        0.21213863790035248,
        -0.15450109541416168,
        -0.4630425274372101,
        0.44870635867118835,
        0.4885058104991913,
        0.22180287539958954,
        -0.2509304881095886,
        -0.20723320543766022,
        -0.46524763107299805,
        -0.018243422731757164,
        -0.05008414760231972,
        -0.08479733765125275,
        0.3450506925582886,
        0.04480184242129326,
        -0.42610037326812744,
        0.4945001006126404,
        0.2783697843551636,
        -0.17931775748729706,
        -0.33323854207992554,
        0.09494118392467499,
        -0.009216934442520142,
        0.25706371665000916,
        -0.318376749753952,
        -0.49876368045806885,
        0.4954691231250763,
        -0.24218083918094635,
        0.42305788397789,
        -0.46802812814712524,
        0.10830521583557129,
        0.3388303220272064,
        0.08530014008283615,
        0.4104386866092682,
        -0.25698423385620117,
        0.10546820610761642,
        -0.443973183631897,
        -0.2206384837627411,
        0.412786066532135,
        0.34572336077690125,
        -0.0682256817817688,
        0.4618491232395172,
        0.46846553683280945,
        -0.49202150106430054,
        -0.34738320112228394,
        -0.195491224527359,
        -0.3434350788593292,
        -0.27916720509529114,
        -0.06638287007808685,
        -0.19015201926231384,
        0.010240822099149227,
        -0.0013407075311988592,
        -0.3889465928077698,
        0.10304553806781769,
        -0.2759113609790802,
        0.14462696015834808,
        0.06527871638536453,
        0.03225678205490112,
        0.3948107659816742,
        -0.48429352045059204,
        -0.45490318536758423,
        -0.4239605665206909,
        -0.2372748702764511,
        -0.24567940831184387,
        -0.42712894082069397,
        -0.3820931017398834,
        0.36430999636650085,
        0.43973463773727417,
        0.1955382376909256,
        -0.020010467618703842,
        0.13297300040721893,
        0.41219523549079895,
        0.32391121983528137,
        -0.48519349098205566,
        -0.4002058506011963,
        0.33357131481170654,
        0.36140307784080505,
        -0.17780035734176636,
        -0.22227898240089417,
        -0.22628819942474365,
        -0.1753334105014801,
        -0.40000104904174805,
        -0.21133337914943695,
        -0.1890476644039154,
        0.1888965666294098,
        -0.13583405315876007,
        -0.4534626305103302,
        0.41419166326522827,
        0.1840716153383255,
        -0.1204056590795517,
        0.4324871003627777,
        0.3762108087539673,
        -0.1749403327703476,
        -0.11223844438791275,
        0.22023236751556396,
        -0.035904660820961,
        -0.3098577857017517,
        -0.40205422043800354,
        0.41539183259010315,
        0.39457446336746216,
        -0.2874901294708252,
        -0.22996343672275543,
        0.3593181371688843,
        0.43936339020729065,
        -0.48054492473602295,
        -0.1678367257118225,
        -0.37699782848358154,
        -0.4839445650577545,
        0.1730012595653534,
        -0.3544788360595703,
        -0.3275139331817627,
        0.17377187311649323,
        0.23825496435165405,
        0.09558544307947159,
        0.026023514568805695,
        0.3771706521511078,
        0.24580681324005127,
        -0.2036687582731247,
        -0.16378909349441528,
        0.10577784478664398,
        0.4790685772895813,
        0.35172170400619507,
        0.06370743364095688,
        -0.4695446491241455,
        -0.1497194617986679,
        -0.04533088207244873,
        0.13060599565505981,
        -0.06534226983785629,
        0.1568884700536728,
        -0.40124964714050293,
        -0.44499126076698303,
        0.027729343622922897,
        -0.4055054485797882,
        -0.06248236447572708,
        -0.22243310511112213,
        0.018027884885668755,
        0.4511573612689972,
        0.23487958312034607,
        -0.17275044322013855,
        0.34244656562805176,
        0.30071744322776794,
        0.4209544360637665,
        -0.43405482172966003,
        0.34676867723464966,
        -0.29706501960754395,
        0.029095591977238655,
        -0.090718574821949,
        0.24226737022399902,
        0.476467490196228,
        0.48918765783309937,
        -0.13539664447307587,
        0.00797692034393549,
        0.011189771816134453,
        0.08479677885770798,
        -0.1621311753988266,
        -0.036133892834186554,
        0.24754711985588074,
        0.12141871452331543,
        -0.05590027943253517,
        0.20509716868400574,
        0.12337386608123779,
        -0.20621734857559204,
        0.22290238738059998,
        -0.4112413227558136,
        -0.2508887052536011,
        0.3292164206504822,
        -0.379482626914978,
        0.3907093405723572,
        -0.07455182820558548,
        0.3103671371936798,
        -0.12647677958011627,
        0.4890376627445221,
        0.019393792375922203,
        0.2283255010843277,
        0.2646051049232483,
        -0.1884879469871521,
        -0.46432259678840637,
        0.3773781657218933,
        0.2477361559867859,
        -0.24895021319389343,
        -0.13369913399219513,
        -0.3915656805038452,
        0.02344149351119995,
        -0.3349769711494446,
        -0.05942594259977341,
        0.14112508296966553,
        0.08089496940374374,
        0.38482290506362915,
        -0.2689588665962219,
        0.07322090119123459,
        -0.4150806665420532,
        0.13884449005126953,
        -0.30247077345848083,
        0.09291578829288483,
        -0.46132025122642517,
        0.33223721385002136,
        0.28904032707214355,
        -0.40723833441734314,
        0.2884350121021271,
        0.01816016249358654,
        0.39882898330688477,
        -0.09720846265554428,
        -0.4950111210346222,
        0.280417263507843,
        -0.00582567835226655,
        0.4495903551578522,
        -0.33387720584869385,
        -0.21566300094127655,
        -0.2954452335834503,
        0.4271862506866455,
        -0.1313699632883072,
        0.20578332245349884,
        0.391131728887558,
        0.4515821933746338,
        0.41810286045074463,
        0.38544031977653503,
        -0.06878910958766937,
        0.24647176265716553,
        0.015691136941313744,
        0.01117238774895668,
        -0.03887757658958435,
        0.19337032735347748,
        -0.3982970118522644,
        0.1433676779270172,
        -0.08212713152170181,
        0.42507606744766235,
        0.4416380524635315,
        -0.31190958619117737,
        -0.31915634870529175,
        0.3583093583583832,
        -0.27884262800216675,
        0.1608268767595291,
        -0.17239156365394592,
        -0.13075774908065796,
        -0.2195519357919693,
        0.09614817798137665,
        -0.01857071928679943,
        -0.3858911991119385,
        0.2823903560638428,
        -0.24188898503780365,
        -0.051390986889600754,
        -0.33112633228302,
        -0.44949138164520264,
        -0.3913270831108093,
        0.220955491065979,
        0.2751283645629883,
        0.011720784939825535,
        0.11220372468233109,
        0.19089239835739136,
        -0.34873175621032715,
        -0.310824990272522,
        -0.017902985215187073,
        0.04487251490354538,
        0.35259491205215454,
        0.41605162620544434,
        0.10487010329961777,
        0.29094311594963074,
        -0.18781708180904388,
        0.4018506109714508,
        -0.05497954785823822,
        0.4706161916255951,
        0.4034157693386078,
        -0.36557644605636597,
        0.1650683730840683,
        0.1777772158384323,
        0.017219219356775284,
        0.43421271443367004,
        -0.22662010788917542,
        0.39254724979400635,
        0.24367423355579376,
        -0.44613727927207947,
        0.14785896241664886,
        -0.47131291031837463,
        -0.15958906710147858,
        -0.4130736291408539,
        -0.47482386231422424,
        0.26868095993995667,
        0.05982436612248421,
        -0.09827777743339539,
        -0.40175700187683105,
        -0.021806590259075165,
        0.36669862270355225,
        0.38362500071525574,
        0.486378937959671,
        0.15679684281349182,
        0.008910157717764378,
        0.1548713594675064,
        0.3793239891529083,
        -0.16581451892852783,
        -0.031124873086810112,
        -0.13961933553218842,
        -0.11023293435573578,
        0.0007703297305852175,
        -0.23738491535186768,
        0.48974862694740295,
        0.2518971562385559,
        0.4498732388019562,
        0.34695345163345337,
        -0.061138447374105453,
        0.3829677999019623,
        0.35209083557128906,
        0.4424073100090027,
        0.3764929175376892,
        -0.10459236800670624,
        0.4121607542037964,
        0.2578296363353729,
        -0.47024136781692505,
        -0.49983733892440796,
        0.49588721990585327,
        -0.15718528628349304,
        -0.24349015951156616,
        0.07943759113550186,
        0.11085834354162216,
        0.49907827377319336,
        -0.2376510053873062,
        -0.36002078652381897,
        -0.41335585713386536,
        -0.10687477141618729,
        0.4880678355693817,
        -0.21357253193855286,
        -0.4365589916706085,
        -0.2690851092338562,
        0.34971383213996887,
        0.16252368688583374,
        0.11704897880554199,
        0.08489889651536942,
        -0.113289013504982,
        0.20638050138950348,
        -0.16399595141410828,
        0.2799053192138672,
        -0.48355188965797424,
        -0.3303978443145752,
        -0.14902904629707336,
        0.019674446433782578,
        0.004264615476131439,
        0.0420197956264019,
        -0.15890377759933472,
        0.03630296140909195,
        0.24501077830791473,
        -0.3318791687488556,
        -0.3123701214790344,
        0.10348634421825409,
        -0.4005919396877289,
        0.467178612947464,
        0.08141766488552094,
        0.30586424469947815,
        -0.00044973287731409073,
        0.3582775294780731,
        -0.40218794345855713,
        0.3215666711330414,
        0.24544431269168854,
        -0.000598670681938529,
        0.4124045670032501,
        -0.11502070724964142,
        -0.20258347690105438,
        0.4870792627334595,
        0.19799643754959106,
        -0.485757440328598,
        -0.009551648050546646,
        0.05894555151462555,
        -0.19178161025047302,
        0.39994314312934875,
        -0.18241466581821442,
        0.09212757647037506,
        -0.3282809555530548,
        0.36831894516944885,
        -0.3669504225254059,
        -0.23664173483848572,
        0.25952497124671936,
        0.185115247964859,
        -0.07619406282901764,
        -0.4738621115684509,
        0.2851698100566864,
        -0.48083993792533875,
        -0.46225857734680176,
        0.26615601778030396,
        0.4358951449394226,
        -0.07868070900440216,
        0.336599200963974,
        0.2883610427379608,
        0.3648504912853241,
        0.04358213394880295,
        0.22052372992038727,
        -0.46242061257362366,
        0.0949007049202919,
        0.024451719596982002,
        -0.012635866180062294,
        0.013609085232019424,
        0.1691548377275467,
        0.3292674124240875,
        0.2926889657974243,
        -0.15191222727298737,
        -0.4442628026008606,
        -0.344351589679718,
        0.4592970013618469,
        -0.37575387954711914,
        -0.21027597784996033,
        -0.47588372230529785,
        -0.46888187527656555,
        -0.4257466495037079,
        0.0436931811273098,
        0.3754981756210327,
        -0.30740708112716675,
        0.3602551221847534,
        -0.3585154712200165,
        0.36748257279396057,
        -0.3549007177352905,
        0.0348488911986351,
        -0.08963505178689957,
        -0.1936086118221283,
        0.3039044737815857,
        -0.16885003447532654,
        -0.313283234834671,
        0.4337143301963806,
        -0.31492045521736145,
        -0.41092419624328613
      ]
    },
    {
      "name": "dense_Dense5/bias",
      "shape": [
        56
      ],
      "dtype": "float32",
      "values": [
        0,
        0,
        0,
        0,
        0,
        0,
        0,
        0,
        0,
        0,
        0,
        0,
        0,
        0,
        0,
        0,
        0,
        0,
        0,
        0,
        0,
        0,
        0,
        0,
        0,
        0,
        0,
        0,
        0,
        0,
        0,
        0,
        0,
        0,
        0,
        0,
        0,
        0,
        0,
        0,
        0,
        0,
        0,
        0,
        0,
        0,
        0,
        0,
        0,
        0,
        0,
        0,
        0,
        0,
        0,
        0
      ]
    },
    {
      "name": "dense_Dense6/kernel",
      "shape": [
        56,
        16
      ],
      "dtype": "float32",
      "values": [
        0.19632667303085327,
        0.17597340047359467,
        -0.2050401270389557,
        -0.48831644654273987,
        -0.17031970620155334,
        0.08086752891540527,
        0.290823370218277,
        -0.34969398379325867,
        -0.31960436701774597,
        0.4913679361343384,
        0.44578468799591064,
        0.03268260881304741,
        0.31820204854011536,
        -0.3668330907821655,
        0.22113670408725739,
        -0.19877012073993683,
        -0.4124079942703247,
        0.1493082493543625,
        -0.3367101550102234,
        0.36467206478118896,
        -0.052325986325740814,
        -0.1159491017460823,
        0.31542137265205383,
        -0.07426528632640839,
        0.3408869206905365,
        -0.35826238989830017,
        -0.17321234941482544,
        0.38395753502845764,
        0.4236919581890106,
        0.28695937991142273,
        -0.44182246923446655,
        -0.35148513317108154,
        0.4459853172302246,
        -0.13753771781921387,
        -0.0017185471951961517,
        0.270843505859375,
        -0.2541009783744812,
        0.4198397099971771,
        -0.18338102102279663,
        -0.4988858997821808,
        0.10155858099460602,
        0.08943293243646622,
        -0.21460725367069244,
        -0.10341452062129974,
        0.411609411239624,
        0.08762559294700623,
        0.16051115095615387,
        0.32818982005119324,
        0.10756303369998932,
        0.3757689893245697,
        -0.36389032006263733,
        0.04346650466322899,
        0.07140974700450897,
        -0.1788950264453888,
        0.23836156725883484,
        0.40720945596694946,
        0.18800705671310425,
        0.35033607482910156,
        0.1762198507785797,
        -0.102591872215271,
        -0.3931925296783447,
        0.31287676095962524,
        -0.16457514464855194,
        0.19155055284500122,
        0.25300076603889465,
        0.2167232781648636,
        -0.3935214877128601,
        0.2569516599178314,
        -0.13248483836650848,
        0.12294673919677734,
        0.13837461173534393,
        -0.46615540981292725,
        0.19188380241394043,
        -0.27784305810928345,
        0.19479204714298248,
        -0.3578212261199951,
        -0.3851366639137268,
        -0.36693766713142395,
        0.19359484314918518,
        0.1558992862701416,
        -0.12534521520137787,
        -0.4782404601573944,
        0.033416543155908585,
        0.06363680958747864,
        -0.41567960381507874,
        0.3458946645259857,
        0.2291325330734253,
        0.3172553777694702,
        -0.21075156331062317,
        -0.4523729085922241,
        -0.27221158146858215,
        -0.18094150722026825,
        0.18198592960834503,
        -0.37317711114883423,
        -0.307752788066864,
        -0.1266675740480423,
        0.2109728455543518,
        0.2661823630332947,
        0.15828336775302887,
        0.019709330052137375,
        0.43681570887565613,
        -0.3311743140220642,
        -0.19773948192596436,
        -0.20436105132102966,
        -0.10227160900831223,
        0.37518414855003357,
        0.4692460596561432,
        -0.28633755445480347,
        -0.22784113883972168,
        0.3701132833957672,
        0.1936957836151123,
        -0.41754150390625,
        0.36397823691368103,
        -0.3493013083934784,
        -0.0758192241191864,
        0.09840894490480423,
        -0.22922611236572266,
        -0.4397130608558655,
        -0.019499652087688446,
        -0.288813054561615,
        -0.009165527299046516,
        -0.2332506775856018,
        0.3754666745662689,
        0.02526159957051277,
        -0.21621042490005493,
        -0.2367710918188095,
        0.14680342376232147,
        -0.15423673391342163,
        0.3538263738155365,
        -0.24070197343826294,
        0.4265850782394409,
        0.06721942126750946,
        0.36247339844703674,
        -0.0002611200325191021,
        -0.2320852279663086,
        0.48037266731262207,
        -0.16842368245124817,
        0.49389711022377014,
        0.22314749658107758,
        0.4713747203350067,
        0.46227580308914185,
        0.0031893926206976175,
        -0.23685809969902039,
        0.07559473812580109,
        0.05846038833260536,
        0.3526827394962311,
        -0.09497815370559692,
        0.030419927090406418,
        -0.036910828202962875,
        -0.002231404185295105,
        -0.49587130546569824,
        -0.125098317861557,
        -0.29179319739341736,
        0.2596903443336487,
        0.48439836502075195,
        -0.04359513521194458,
        0.45077210664749146,
        0.49708667397499084,
        -0.2850271761417389,
        0.48743048310279846,
        -0.11223466694355011,
        0.045729633420705795,
        -0.4179465174674988,
        -0.4045892655849457,
        -0.1136317178606987,
        -0.2574983239173889,
        0.30196017026901245,
        0.47415000200271606,
        0.4566299617290497,
        -0.30354171991348267,
        -0.3723364472389221,
        0.01167151890695095,
        0.2814878523349762,
        -0.43163570761680603,
        -0.39677679538726807,
        -0.027832750231027603,
        -0.08238530904054642,
        0.1551823914051056,
        -0.06386221945285797,
        -0.3310302793979645,
        -0.47096937894821167,
        0.29781588912010193,
        0.1415717899799347,
        0.08608639985322952,
        0.3207254707813263,
        0.09075931459665298,
        -0.335689902305603,
        -0.12741585075855255,
        -0.2839076519012451,
        -0.11124779284000397,
        0.04520721361041069,
        -0.31206363439559937,
        -0.22595882415771484,
        0.16979719698429108,
        -0.4888589680194855,
        -0.2757619619369507,
        0.4335924983024597,
        -0.4695341885089874,
        -0.4645584523677826,
        0.006450932938605547,
        -0.0074021536856889725,
        0.4013478457927704,
        0.02293803170323372,
        0.36691364645957947,
        -0.19293396174907684,
        0.08213267475366592,
        -0.0799063965678215,
        -0.198396697640419,
        -0.09513536840677261,
        -0.32879626750946045,
        -0.2593373656272888,
        0.14600294828414917,
        -0.06968218088150024,
        -0.16847382485866547,
        0.4472273886203766,
        0.037073783576488495,
        -0.41747400164604187,
        0.2242051064968109,
        -0.029880549758672714,
        0.07112175226211548,
        0.13797010481357574,
        -0.32432499527931213,
        0.031495723873376846,
        -0.34571170806884766,
        0.20806758105754852,
        -0.3160146474838257,
        -0.09888654202222824,
        0.27552974224090576,
        0.41620752215385437,
        0.05270776525139809,
        -0.27546748518943787,
        -0.12782788276672363,
        -0.379716157913208,
        0.4601450264453888,
        0.20548708736896515,
        -0.11197824031114578,
        0.31176063418388367,
        -0.1955430656671524,
        -0.05083360895514488,
        -0.2738504111766815,
        0.4941703677177429,
        0.43773794174194336,
        -0.19704245030879974,
        0.012898910790681839,
        -0.21956880390644073,
        0.3184562623500824,
        -0.13449814915657043,
        0.32340672612190247,
        -0.4490758180618286,
        0.42035090923309326,
        0.13600681722164154,
        0.4849320650100708,
        0.3666631579399109,
        0.1650758534669876,
        -0.1689637154340744,
        -0.06821691989898682,
        0.10420584678649902,
        -0.10766386985778809,
        -0.17044638097286224,
        0.01532493345439434,
        0.055591750890016556,
        -0.2971736192703247,
        0.229620099067688,
        -0.12404820322990417,
        0.04116174206137657,
        0.36277157068252563,
        -0.05647828429937363,
        -0.49822238087654114,
        0.17630831897258759,
        -0.18216048181056976,
        -0.3613242506980896,
        0.3584233522415161,
        0.020140640437602997,
        0.13155975937843323,
        0.27430155873298645,
        -0.050070684403181076,
        -0.47230416536331177,
        -0.14123181998729706,
        0.2031487077474594,
        0.18905675411224365,
        0.0060861315578222275,
        -0.2511020302772522,
        0.4877619743347168,
        -0.009538959711790085,
        0.1832074671983719,
        -0.028721308335661888,
        -0.05918457359075546,
        -0.1196867972612381,
        0.39071282744407654,
        0.2379087209701538,
        0.43214794993400574,
        0.19225049018859863,
        0.15186309814453125,
        -0.48599666357040405,
        -0.374550461769104,
        -0.208747997879982,
        0.4239497184753418,
        -0.36060240864753723,
        -0.46857351064682007,
        -0.2229681760072708,
        -0.0687631294131279,
        0.34843018651008606,
        0.07608558982610703,
        0.3612753450870514,
        0.17439675331115723,
        -0.41159453988075256,
        -0.39381393790245056,
        0.035534508526325226,
        -0.17637628316879272,
        0.41754865646362305,
        0.3663662075996399,
        0.4930668771266937,
        0.07681640982627869,
        -0.17824052274227142,
        -0.0678567886352539,
        0.2034992277622223,
        0.16909779608249664,
        0.0985284224152565,
        -0.07853220403194427,
        -0.45066121220588684,
        -0.10679393261671066,
        -0.01311272569000721,
        0.4183582067489624,
        -0.36073142290115356,
        -0.08728403598070145,
        0.35897523164749146,
        0.08145072311162949,
        0.3077941834926605,
        -0.42667898535728455,
        -0.49151718616485596,
        0.30676162242889404,
        -0.39027640223503113,
        0.47454309463500977,
        -0.4185413718223572,
        -0.3525545299053192,
        -0.18476015329360962,
        -0.4301316738128662,
        0.16887816786766052,
        0.4660758674144745,
        -0.17077980935573578,
        0.16073358058929443,
        0.47374361753463745,
        0.28496548533439636,
        -0.3789394497871399,
        -0.3527877926826477,
        -0.08210340887308121,
        0.4973018169403076,
        0.29708200693130493,
        0.301708847284317,
        -0.1300702542066574,
        0.300693541765213,
        -0.024057824164628983,
        -0.01069115474820137,
        0.3094775378704071,
        -0.28288793563842773,
        -0.03502059355378151,
        0.30560392141342163,
        -0.457409530878067,
        -0.44258350133895874,
        0.09493062645196915,
        0.4085509479045868,
        0.1146484911441803,
        -0.4052346348762512,
        0.10566689074039459,
        0.2616547644138336,
        0.4231274425983429,
        -0.017577465623617172,
        0.2925468385219574,
        -0.10950025916099548,
        0.28636905550956726,
        0.357534259557724,
        -0.01705525442957878,
        -0.3246527910232544,
        -0.3960549831390381,
        -0.4334412217140198,
        -0.46814775466918945,
        -0.07070745527744293,
        0.440888911485672,
        -0.10237009078264236,
        -0.4710335433483124,
        0.43727007508277893,
        -0.2728823125362396,
        -0.12986887991428375,
        0.12651924788951874,
        -0.2805235683917999,
        0.19914451241493225,
        -0.39694342017173767,
        -0.03917132690548897,
        0.4235529601573944,
        -0.31470823287963867,
        -0.2735261023044586,
        -0.09610898792743683,
        0.004956546705216169,
        0.16523811221122742,
        -0.3136202394962311,
        0.30659064650535583,
        0.46493637561798096,
        -0.3111337423324585,
        -0.048591408878564835,
        0.0332651361823082,
        -0.4833315312862396,
        0.31567761301994324,
        -0.3440879285335541,
        -0.08099532127380371,
        -0.3829455077648163,
        0.25406330823898315,
        0.0345870777964592,
        0.23495739698410034,
        -0.2647603750228882,
        -0.3227136433124542,
        0.044903818517923355,
        -0.11595462262630463,
        -0.4479138255119324,
        -0.42185264825820923,
        -0.21211108565330505,
        -0.03368488699197769,
        -0.45765575766563416,
        0.17754428088665009,
        0.3787451684474945,
        0.37184110283851624,
        -0.45833688974380493,
        0.18665720522403717,
        0.32760411500930786,
        -0.34398311376571655,
        -0.49870115518569946,
        -0.44592469930648804,
        -0.48838579654693604,
        0.19555160403251648,
        -0.48336613178253174,
        0.20631277561187744,
        0.374174565076828,
        -0.4550987482070923,
        -0.16790777444839478,
        0.11054471880197525,
        -0.26679953932762146,
        -0.44552162289619446,
        -0.35620900988578796,
        -0.293583482503891,
        -0.39145246148109436,
        0.32137012481689453,
        0.3295431137084961,
        -0.2203693985939026,
        0.3065216541290283,
        0.22531814873218536,
        -0.23297154903411865,
        -0.36104801297187805,
        0.2281758040189743,
        -0.3648349940776825,
        -0.07496758550405502,
        0.42570704221725464,
        -0.1305558979511261,
        -0.1284322738647461,
        0.44741326570510864,
        0.20576515793800354,
        0.04048776626586914,
        0.043639082461595535,
        0.4301326870918274,
        -0.20627672970294952,
        0.20755110681056976,
        0.27502796053886414,
        -0.4521861672401428,
        -0.01815076731145382,
        0.19067920744419098,
        -0.23932749032974243,
        0.14869572222232819,
        0.0757799744606018,
        0.29606950283050537,
        -0.240801602602005,
        0.3561606705188751,
        -0.4721227288246155,
        -0.025799157097935677,
        -0.4233914613723755,
        -0.3426598906517029,
        0.4768604040145874,
        -0.12186238169670105,
        0.20219650864601135,
        -0.17499974370002747,
        -0.10387000441551208,
        0.09310503304004669,
        -0.278344064950943,
        0.4455576241016388,
        0.1242397353053093,
        -0.2974851131439209,
        -0.2868337631225586,
        -0.32187727093696594,
        -0.4443003237247467,
        0.2932068109512329,
        -0.036930590867996216,
        0.10114850848913193,
        -0.17574575543403625,
        -0.46327924728393555,
        0.16391222178936005,
        0.31196752190589905,
        0.037707287818193436,
        0.19228017330169678,
        0.4407450258731842,
        0.034667182713747025,
        -0.28789857029914856,
        -0.4998805820941925,
        0.2303813397884369,
        0.14011035859584808,
        0.3036022484302521,
        -0.39021626114845276,
        0.28582876920700073,
        0.32942700386047363,
        0.4399121105670929,
        -0.3794712722301483,
        0.3858683407306671,
        0.3323083519935608,
        0.09733449667692184,
        0.2567603290081024,
        0.10315590351819992,
        -0.3737088441848755,
        -0.11209677904844284,
        -0.08436957746744156,
        0.033936597406864166,
        0.012047364376485348,
        0.3034924864768982,
        0.11135290563106537,
        -0.26207590103149414,
        -0.29976949095726013,
        0.07813756912946701,
        -0.1923048049211502,
        0.4637344181537628,
        -0.41830307245254517,
        -0.22763092815876007,
        -0.02175535447895527,
        -0.021640222519636154,
        0.2745577096939087,
        -0.3492153584957123,
        0.46489417552948,
        -0.3684016764163971,
        -0.4609034061431885,
        -0.2353791445493698,
        -0.2989780902862549,
        0.4425232410430908,
        -0.2043510377407074,
        -0.22391943633556366,
        -0.12809498608112335,
        0.4133790135383606,
        0.38934341073036194,
        -0.46650928258895874,
        -0.34549546241760254,
        -0.10659769177436829,
        -0.03226786479353905,
        0.21844860911369324,
        0.1125979870557785,
        0.27233371138572693,
        -0.37042826414108276,
        0.33896225690841675,
        -0.19282251596450806,
        -0.18412375450134277,
        -0.32580721378326416,
        -0.08675595372915268,
        -0.43581879138946533,
        -0.0995134636759758,
        -0.1289122998714447,
        0.42163315415382385,
        -0.23869651556015015,
        0.016431178897619247,
        0.3763737380504608,
        0.06567008793354034,
        0.09277749806642532,
        -0.012127364054322243,
        0.1126120388507843,
        0.03939761221408844,
        -0.06830853223800659,
        -0.26986756920814514,
        -0.41894879937171936,
        0.20922692120075226,
        0.4452173709869385,
        0.37474489212036133,
        0.1819419264793396,
        0.046199001371860504,
        0.05281095951795578,
        -0.17918063700199127,
        -0.3695594370365143,
        0.4598991870880127,
        -0.21397295594215393,
        0.05227470025420189,
        0.08022809028625488,
        -0.1927623599767685,
        -0.19809570908546448,
        0.19550223648548126,
        -0.26275891065597534,
        0.29367679357528687,
        0.11717721074819565,
        0.2137521654367447,
        -0.17040441930294037,
        0.42624664306640625,
        0.3570965528488159,
        0.4716482162475586,
        0.12628017365932465,
        0.07764222472906113,
        -0.20886071026325226,
        -0.46678316593170166,
        0.49975109100341797,
        -0.20200303196907043,
        0.10235967487096786,
        -0.12190455198287964,
        -0.41929787397384644,
        0.494950532913208,
        -0.31832054257392883,
        0.205597385764122,
        -0.17393659055233002,
        0.3142988681793213,
        -0.47737428545951843,
        0.4396343529224396,
        -0.22950148582458496,
        0.29908642172813416,
        0.37390726804733276,
        -0.24713709950447083,
        -0.14610439538955688,
        0.0538402684032917,
        0.4013461768627167,
        0.3428109586238861,
        0.4033871591091156,
        0.31288769841194153,
        -0.2381289005279541,
        0.2916133999824524,
        0.09747467935085297,
        0.3152514398097992,
        -0.06340945512056351,
        -0.1631547212600708,
        0.19783733785152435,
        0.30525413155555725,
        0.21147698163986206,
        0.29507943987846375,
        0.45022156834602356,
        0.49256542325019836,
        -0.3122166693210602,
        -0.020307034254074097,
        0.054167356342077255,
        0.4311763644218445,
        0.016732284799218178,
        -0.44520139694213867,
        0.33065366744995117,
        -0.09864037483930588,
        0.38435202836990356,
        0.11755897849798203,
        -0.05409698560833931,
        -0.2763690948486328,
        -0.04998580738902092,
        -0.3675020635128021,
        -0.3716059625148773,
        -0.26504644751548767,
        0.32237544655799866,
        0.4572429656982422,
        -0.4956252872943878,
        0.04849858582019806,
        0.21213863790035248,
        -0.15450109541416168,
        -0.4630425274372101,
        0.44870635867118835,
        0.4885058104991913,
        0.22180287539958954,
        -0.2509304881095886,
        -0.20723320543766022,
        -0.46524763107299805,
        -0.018243422731757164,
        -0.05008414760231972,
        -0.08479733765125275,
        0.3450506925582886,
        0.04480184242129326,
        -0.42610037326812744,
        0.4945001006126404,
        0.2783697843551636,
        -0.17931775748729706,
        -0.33323854207992554,
        0.09494118392467499,
        -0.009216934442520142,
        0.25706371665000916,
        -0.318376749753952,
        -0.49876368045806885,
        0.4954691231250763,
        -0.24218083918094635,
        0.42305788397789,
        -0.46802812814712524,
        0.10830521583557129,
        0.3388303220272064,
        0.08530014008283615,
        0.4104386866092682,
        -0.25698423385620117,
        0.10546820610761642,
        -0.443973183631897,
        -0.2206384837627411,
        0.412786066532135,
        0.34572336077690125,
        -0.0682256817817688,
        0.4618491232395172,
        0.46846553683280945,
        -0.49202150106430054,
        -0.34738320112228394,
        -0.195491224527359,
        -0.3434350788593292,
        -0.27916720509529114,
        -0.06638287007808685,
        -0.19015201926231384,
        0.010240822099149227,
        -0.0013407075311988592,
        -0.3889465928077698,
        0.10304553806781769,
        -0.2759113609790802,
        0.14462696015834808,
        0.06527871638536453,
        0.03225678205490112,
        0.3948107659816742,
        -0.48429352045059204,
        -0.45490318536758423,
        -0.4239605665206909,
        -0.2372748702764511,
        -0.24567940831184387,
        -0.42712894082069397,
        -0.3820931017398834,
        0.36430999636650085,
        0.43973463773727417,
        0.1955382376909256,
        -0.020010467618703842,
        0.13297300040721893,
        0.41219523549079895,
        0.32391121983528137,
        -0.48519349098205566,
        -0.4002058506011963,
        0.33357131481170654,
        0.36140307784080505,
        -0.17780035734176636,
        -0.22227898240089417,
        -0.22628819942474365,
        -0.1753334105014801,
        -0.40000104904174805,
        -0.21133337914943695,
        -0.1890476644039154,
        0.1888965666294098,
        -0.13583405315876007,
        -0.4534626305103302,
        0.41419166326522827,
        0.1840716153383255,
        -0.1204056590795517,
        0.4324871003627777,
        0.3762108087539673,
        -0.1749403327703476,
        -0.11223844438791275,
        0.22023236751556396,
        -0.035904660820961,
        -0.3098577857017517,
        -0.40205422043800354,
        0.41539183259010315,
        0.39457446336746216,
        -0.2874901294708252,
        -0.22996343672275543,
        0.3593181371688843,
        0.43936339020729065,
        -0.48054492473602295,
        -0.1678367257118225,
        -0.37699782848358154,
        -0.4839445650577545,
        0.1730012595653534,
        -0.3544788360595703,
        -0.3275139331817627,
        0.17377187311649323,
        0.23825496435165405,
        0.09558544307947159,
        0.026023514568805695,
        0.3771706521511078,
        0.24580681324005127,
        -0.2036687582731247,
        -0.16378909349441528,
        0.10577784478664398,
        0.4790685772895813,
        0.35172170400619507,
        0.06370743364095688,
        -0.4695446491241455,
        -0.1497194617986679,
        -0.04533088207244873,
        0.13060599565505981,
        -0.06534226983785629,
        0.1568884700536728,
        -0.40124964714050293,
        -0.44499126076698303,
        0.027729343622922897,
        -0.4055054485797882,
        -0.06248236447572708,
        -0.22243310511112213,
        0.018027884885668755,
        0.4511573612689972,
        0.23487958312034607,
        -0.17275044322013855,
        0.34244656562805176,
        0.30071744322776794,
        0.4209544360637665,
        -0.43405482172966003,
        0.34676867723464966,
        -0.29706501960754395,
        0.029095591977238655,
        -0.090718574821949,
        0.24226737022399902,
        0.476467490196228,
        0.48918765783309937,
        -0.13539664447307587,
        0.00797692034393549,
        0.011189771816134453,
        0.08479677885770798,
        -0.1621311753988266,
        -0.036133892834186554,
        0.24754711985588074,
        0.12141871452331543,
        -0.05590027943253517,
        0.20509716868400574,
        0.12337386608123779,
        -0.20621734857559204,
        0.22290238738059998,
        -0.4112413227558136,
        -0.2508887052536011,
        0.3292164206504822,
        -0.379482626914978,
        0.3907093405723572,
        -0.07455182820558548,
        0.3103671371936798,
        -0.12647677958011627,
        0.4890376627445221,
        0.019393792375922203,
        0.2283255010843277,
        0.2646051049232483,
        -0.1884879469871521,
        -0.46432259678840637,
        0.3773781657218933,
        0.2477361559867859,
        -0.24895021319389343,
        -0.13369913399219513,
        -0.3915656805038452,
        0.02344149351119995,
        -0.3349769711494446,
        -0.05942594259977341,
        0.14112508296966553,
        0.08089496940374374,
        0.38482290506362915,
        -0.2689588665962219,
        0.07322090119123459,
        -0.4150806665420532,
        0.13884449005126953,
        -0.30247077345848083,
        0.09291578829288483,
        -0.46132025122642517,
        0.33223721385002136,
        0.28904032707214355,
        -0.40723833441734314,
        0.2884350121021271,
        0.01816016249358654,
        0.39882898330688477,
        -0.09720846265554428,
        -0.4950111210346222,
        0.280417263507843,
        -0.00582567835226655,
        0.4495903551578522,
        -0.33387720584869385,
        -0.21566300094127655,
        -0.2954452335834503,
        0.4271862506866455,
        -0.1313699632883072,
        0.20578332245349884,
        0.391131728887558,
        0.4515821933746338,
        0.41810286045074463,
        0.38544031977653503,
        -0.06878910958766937,
        0.24647176265716553,
        0.015691136941313744,
        0.01117238774895668,
        -0.03887757658958435,
        0.19337032735347748,
        -0.3982970118522644,
        0.1433676779270172,
        -0.08212713152170181,
        0.42507606744766235,
        0.4416380524635315,
        -0.31190958619117737,
        -0.31915634870529175,
        0.3583093583583832,
        -0.27884262800216675,
        0.1608268767595291,
        -0.17239156365394592,
        -0.13075774908065796,
        -0.2195519357919693,
        0.09614817798137665,
        -0.01857071928679943,
        -0.3858911991119385,
        0.2823903560638428,
        -0.24188898503780365,
        -0.051390986889600754,
        -0.33112633228302,
        -0.44949138164520264,
        -0.3913270831108093,
        0.220955491065979,
        0.2751283645629883,
        0.011720784939825535,
        0.11220372468233109
      ]
    },
    {
      "name": "dense_Dense6/bias",
      "shape": [
        16
      ],
      "dtype": "float32",
      "values": [
        0,
        0,
        0,
        0,
        0,
        0,
        0,
        0,
        0,
        0,
        0,
        0,
        0,
        0,
        0,
        0
      ]
    }
  ]
}
