{
  "version": 1,
  "createdAt": 1762605034513,
  "backend": "webgl",
  "config": {
    "inputSize": 19,
    "outputSize": 16,
    "hiddenLayers": [
      32
    ],
    "activation": "relu",
    "outputActivation": "tanh",
    "backend": "webgl",
    "seed": 1762604915279
  },
  "metadata": {
    "label": "12",
    "notes": "",
    "correlations": [
      {
        "id": "rms-deltaposx",
        "featureKey": "bandBass",
        "targetId": "deltaPosX",
        "targetIndex": 0,
        "axis": "x",
        "group": "deltaPos",
        "featureIndex": 4,
        "strength": 0.65,
        "polarity": "direct"
      },
      {
        "id": "tempoproxy-rotationspeed",
        "featureKey": "tempoProxy",
        "targetId": "rotationSpeed",
        "targetIndex": 9,
        "axis": null,
        "group": "rotationSpeed",
        "featureIndex": 10,
        "strength": 0.65,
        "polarity": "direct"
      },
      {
        "id": "bandbass-wobblestrength",
        "featureKey": "bandBass",
        "targetId": "wobbleStrength",
        "targetIndex": 10,
        "axis": null,
        "group": "wobbleStrength",
        "featureIndex": 4,
        "strength": 0.6,
        "polarity": "direct"
      },
      {
        "id": "bandhigh-wobblefrequency",
        "featureKey": "bandHigh",
        "targetId": "wobbleFrequency",
        "targetIndex": 11,
        "axis": null,
        "group": "wobbleFrequency",
        "featureIndex": 7,
        "strength": 0.6,
        "polarity": "direct"
      },
      {
        "id": "speccentroid-colormix",
        "featureKey": "specCentroid",
        "targetId": "colorMix",
        "targetIndex": 12,
        "axis": null,
        "group": "colorMix",
        "featureIndex": 1,
        "strength": 0.55,
        "polarity": "direct"
      },
      {
        "id": "rms-alphascale",
        "featureKey": "rms",
        "targetId": "alphaScale",
        "targetIndex": 13,
        "axis": null,
        "group": "alphaScale",
        "featureIndex": 0,
        "strength": 0.5,
        "polarity": "direct"
      },
      {
        "id": "peak-pointscale",
        "featureKey": "peak",
        "targetId": "pointScale",
        "targetIndex": 14,
        "axis": null,
        "group": "pointScale",
        "featureIndex": 8,
        "strength": 0.55,
        "polarity": "direct"
      },
      {
        "id": "bandlowmid-camerazoom",
        "featureKey": "bandLowMid",
        "targetId": "cameraZoom",
        "targetIndex": 15,
        "axis": null,
        "group": "cameraZoom",
        "featureIndex": 5,
        "strength": 0.6,
        "polarity": "direct"
      }
    ],
    "training": {
      "status": "idle",
      "epoch": 0,
      "epochs": 24,
      "loss": null,
      "best": null,
      "metadata": null
    }
  },
  "weights": [
    {
      "name": "dense_Dense33/kernel",
      "shape": [
        19,
        32
      ],
      "dtype": "float32",
      "values": [
        -0.27283596992492676,
        -0.2674400508403778,
        0.008698721416294575,
        -0.3533966839313507,
        -0.015065210871398449,
        -0.414922297000885,
        -0.31117063760757446,
        0.017956551164388657,
        0.3628004193305969,
        0.37094148993492126,
        -0.37523913383483887,
        -0.4773885905742645,
        -0.28231996297836304,
        0.22396282851696014,
        0.3790757358074188,
        -0.4698699712753296,
        0.39506134390830994,
        -0.43346381187438965,
        -0.3520372807979584,
        -0.2608374059200287,
        0.1917877346277237,
        0.11159335821866989,
        0.29458096623420715,
        -0.3031804859638214,
        0.01906704716384411,
        0.03500900790095329,
        -0.13442489504814148,
        0.3780975937843323,
        0.20945170521736145,
        -0.34646207094192505,
        -0.3278304934501648,
        0.3702867031097412,
        0.3973667025566101,
        -0.04687583073973656,
        0.0982886552810669,
        -0.2779875099658966,
        -0.31334763765335083,
        0.38632509112358093,
        0.4873167872428894,
        -0.11452861875295639,
        -0.35656553506851196,
        -0.20493841171264648,
        0.47780299186706543,
        -0.39460137486457825,
        -0.18712832033634186,
        0.3722495436668396,
        0.3880177438259125,
        0.11843229085206985,
        -0.36287975311279297,
        0.06947895884513855,
        -0.40505799651145935,
        -0.41829603910446167,
        -0.10042033344507217,
        -0.0810599997639656,
        -0.3025591969490051,
        -0.0862739235162735,
        -0.2585996985435486,
        0.35434994101524353,
        0.09309051930904388,
        -0.21271245181560516,
        0.16613270342350006,
        -0.2437368631362915,
        0.3329807221889496,
        -0.37086600065231323,
        0.47603386640548706,
        0.47756531834602356,
        0.20138829946517944,
        -0.024966483935713768,
        0.22930435836315155,
        -0.38649782538414,
        0.12933576107025146,
        -0.05364135280251503,
        0.04517265781760216,
        -0.2809174954891205,
        -0.34181901812553406,
        -0.10744467377662659,
        0.020171085372567177,
        -0.016418250277638435,
        -0.46311846375465393,
        -0.37243223190307617,
        -0.05185214802622795,
        0.3495992422103882,
        0.22621740400791168,
        0.021607710048556328,
        0.3876810371875763,
        0.15242041647434235,
        -0.47060808539390564,
        -0.203324094414711,
        0.49912720918655396,
        -0.21701553463935852,
        0.40959376096725464,
        -0.03734888881444931,
        -0.15390996634960175,
        0.2603837251663208,
        -0.393468976020813,
        -0.09080219268798828,
        -0.261379212141037,
        -0.08243676275014877,
        -0.4030768573284149,
        0.030711887404322624,
        0.056010231375694275,
        -0.2633812427520752,
        0.18053169548511505,
        0.18265488743782043,
        -0.4945218563079834,
        0.13610202074050903,
        0.09276793897151947,
        -0.2026217132806778,
        0.2901793420314789,
        0.045743200927972794,
        -0.4779430031776428,
        0.4381851553916931,
        0.26050862669944763,
        -0.2283666878938675,
        0.16658003628253937,
        -0.02386096678674221,
        0.3257747292518616,
        0.30161625146865845,
        0.4721027612686157,
        0.1588563770055771,
        0.32085177302360535,
        -0.4428795278072357,
        0.17892004549503326,
        0.08686615526676178,
        -0.10395138710737228,
        0.16016392409801483,
        -0.3542283773422241,
        0.2195509523153305,
        0.12386525422334671,
        0.08798989653587341,
        0.3319858908653259,
        0.40169885754585266,
        0.10340020060539246,
        -0.36974796652793884,
        0.007817473262548447,
        -0.10931479930877686,
        -0.24913476407527924,
        0.3320208489894867,
        -0.10505606979131699,
        0.01675158366560936,
        -0.2705901861190796,
        -0.3674870729446411,
        0.26638609170913696,
        0.032940641045570374,
        -0.29122015833854675,
        -0.4736340045928955,
        -0.07305283844470978,
        -0.41469666361808777,
        -0.34686505794525146,
        -0.17324377596378326,
        0.28638845682144165,
        -0.45854413509368896,
        -0.44456949830055237,
        0.23881180584430695,
        0.23001061379909515,
        0.08552838861942291,
        0.07851241528987885,
        0.17595289647579193,
        -0.49321889877319336,
        -0.371371328830719,
        -0.053442563861608505,
        0.08689826726913452,
        0.23199020326137543,
        0.446794718503952,
        -0.20028695464134216,
        -0.23029282689094543,
        0.26685231924057007,
        -0.009440954774618149,
        -0.44972044229507446,
        -0.2690427005290985,
        -0.06834337115287781,
        0.20838715136051178,
        -0.1777956336736679,
        0.332312673330307,
        -0.2961912751197815,
        -0.27036261558532715,
        0.15470680594444275,
        -0.24595782160758972,
        -0.012228921055793762,
        -0.20273037254810333,
        0.04095130413770676,
        -0.4871104955673218,
        0.2333824634552002,
        0.3410840630531311,
        -0.33197638392448425,
        -0.13556675612926483,
        -0.24186259508132935,
        0.240922212600708,
        0.2761184275150299,
        -0.240718811750412,
        0.30960357189178467,
        0.044698067009449005,
        0.1335121989250183,
        -0.07975564152002335,
        0.2230108380317688,
        0.3380965292453766,
        -0.008016791194677353,
        0.17083756625652313,
        -0.137176513671875,
        -0.231735497713089,
        -0.48059117794036865,
        0.26126453280448914,
        -0.004037416074424982,
        -0.27943822741508484,
        0.09393206238746643,
        0.18345023691654205,
        0.09546232223510742,
        -0.03290453925728798,
        -0.3237729072570801,
        -0.2858846187591553,
        -0.4158366024494171,
        -0.036325834691524506,
        -0.44528281688690186,
        -0.03523951768875122,
        0.46944063901901245,
        0.07248041033744812,
        -0.3519473373889923,
        0.33486050367355347,
        -0.14506907761096954,
        0.2531566917896271,
        0.26768743991851807,
        -0.1497585028409958,
        0.38304615020751953,
        -0.4851655960083008,
        0.2625880837440491,
        0.2521345317363739,
        -0.3055020570755005,
        0.4803105294704437,
        0.44357380270957947,
        -0.002183125587180257,
        0.2302887737751007,
        0.2665770649909973,
        -0.3101605176925659,
        -0.016345400363206863,
        -0.01156865805387497,
        0.14777544140815735,
        0.32273516058921814,
        -0.45661461353302,
        -0.1164526492357254,
        0.43913519382476807,
        0.07796602696180344,
        0.09333038330078125,
        0.27643534541130066,
        -0.2241792529821396,
        0.4708523154258728,
        -0.07462018728256226,
        -0.05938423052430153,
        0.08872127532958984,
        -0.48856472969055176,
        -0.3703944683074951,
        -0.12455929070711136,
        -0.047228485345840454,
        0.48130035400390625,
        -0.07311420142650604,
        0.05540056526660919,
        -0.38671621680259705,
        0.48775535821914673,
        -0.01880641281604767,
        0.2505408525466919,
        0.09908445179462433,
        -0.22698910534381866,
        0.012670278549194336,
        -0.09061025828123093,
        -0.2664814889431,
        -0.35159969329833984,
        0.050715573132038116,
        -0.05585917830467224,
        0.38918977975845337,
        -0.3331533968448639,
        -0.2316858321428299,
        -0.4765785336494446,
        0.3816027343273163,
        -0.11341018229722977,
        -0.2186804562807083,
        0.18939591944217682,
        -0.1657046228647232,
        0.4200407862663269,
        -0.09468095004558563,
        -0.2639903426170349,
        -0.30530890822410583,
        -0.3643023669719696,
        0.4849633276462555,
        -0.015478042885661125,
        -0.013619189150631428,
        0.21168875694274902,
        -0.4786376357078552,
        -0.42693987488746643,
        0.4688858091831207,
        -0.15851669013500214,
        -0.09636832773685455,
        -0.17684534192085266,
        0.3121565580368042,
        0.25189009308815,
        0.388014554977417,
        -0.19573195278644562,
        0.14378631114959717,
        0.40290945768356323,
        0.41492515802383423,
        0.07179873436689377,
        0.1174544021487236,
        -0.3316325843334198,
        0.0343719981610775,
        0.20317743718624115,
        0.3357062041759491,
        -0.19049134850502014,
        -0.13310404121875763,
        0.20853173732757568,
        -0.14887262880802155,
        0.39355799555778503,
        0.10399684309959412,
        0.20146268606185913,
        0.22614361345767975,
        -0.1490958333015442,
        0.2061489075422287,
        -0.19571439921855927,
        0.3353256583213806,
        0.10375956445932388,
        0.14225172996520996,
        0.20190496742725372,
        -0.44307708740234375,
        0.25822776556015015,
        0.3112953305244446,
        -0.3132403492927551,
        0.2770441174507141,
        0.42304423451423645,
        0.2957386374473572,
        0.31106528639793396,
        -0.20238834619522095,
        0.4381474256515503,
        0.3136964738368988,
        -0.3669053912162781,
        0.228290393948555,
        -0.22362537682056427,
        0.3680000901222229,
        0.08698999881744385,
        0.44811204075813293,
        0.3119048774242401,
        -0.3244667649269104,
        -0.35503193736076355,
        0.4287743866443634,
        -0.35296550393104553,
        0.3234623074531555,
        0.21671508252620697,
        -0.39812758564949036,
        0.3608126938343048,
        -0.2664889991283417,
        -0.1940242350101471,
        -0.09344851970672607,
        0.18706455826759338,
        0.35101330280303955,
        0.43524712324142456,
        -0.4888216555118561,
        0.09256834536790848,
        -0.11519111692905426,
        -0.46747756004333496,
        -0.4313526153564453,
        -0.23379477858543396,
        -0.29456308484077454,
        0.06938619166612625,
        -0.2875661849975586,
        0.35904639959335327,
        -0.13778460025787354,
        0.3716481029987335,
        0.4362315833568573,
        0.3647115230560303,
        -0.361074298620224,
        -0.026761459186673164,
        -0.12397681176662445,
        -0.08836657553911209,
        -0.3126381039619446,
        0.2675917148590088,
        0.02448906935751438,
        -0.02755650505423546,
        0.29034310579299927,
        0.2929157018661499,
        -0.26236769556999207,
        -0.018293244764208794,
        -0.10361944884061813,
        0.48284289240837097,
        0.1359303593635559,
        -0.47427499294281006,
        0.01703522726893425,
        0.2453034520149231,
        -0.04438234120607376,
        -0.45571890473365784,
        0.267320841550827,
        0.16458502411842346,
        -0.4212943911552429,
        -0.3125048577785492,
        0.46781066060066223,
        0.24516497552394867,
        -0.3437977731227875,
        0.020958425477147102,
        -0.37626272439956665,
        0.20017997920513153,
        0.4596956670284271,
        0.18438145518302917,
        0.24087095260620117,
        0.38514167070388794,
        0.43521296977996826,
        0.08023256808519363,
        0.3179023265838623,
        0.44860053062438965,
        -0.4335024058818817,
        -0.11959376931190491,
        0.3715169429779053,
        0.48315349221229553,
        0.01139158383011818,
        0.35455048084259033,
        -0.31763511896133423,
        0.08197663724422455,
        -0.37096792459487915,
        0.008053949102759361,
        -0.4717712998390198,
        0.043853603303432465,
        -0.04686380922794342,
        -0.24957656860351562,
        -0.0896172821521759,
        -0.1737268567085266,
        -0.07977363467216492,
        0.0001334487460553646,
        0.1308738887310028,
        0.3566548228263855,
        0.12680639326572418,
        -0.06367404013872147,
        0.15723589062690735,
        0.2111700475215912,
        -0.10679745674133301,
        -0.26755160093307495,
        -0.48437294363975525,
        0.2781343460083008,
        -0.3409176766872406,
        -0.3612633943557739,
        -0.37412184476852417,
        0.29982247948646545,
        0.36935967206954956,
        0.16951172053813934,
        0.41071179509162903,
        0.11256231367588043,
        0.3280060291290283,
        -0.18204733729362488,
        -0.2821337580680847,
        0.22546161711215973,
        -0.30379530787467957,
        0.05973092094063759,
        0.3177919387817383,
        -0.08439452946186066,
        -0.4751850962638855,
        -0.004217831417918205,
        0.11070218682289124,
        0.3143071234226227,
        -0.18116405606269836,
        0.0145074762403965,
        0.05564489588141441,
        0.19533763825893402,
        0.4027642607688904,
        0.032192081212997437,
        -0.17543113231658936,
        0.436942994594574,
        0.21299591660499573,
        0.40014365315437317,
        0.028395768254995346,
        -0.4335319399833679,
        0.057738449424505234,
        -0.3037315309047699,
        -0.3433513939380646,
        -0.004916819278150797,
        0.3080773949623108,
        -0.17639659345149994,
        -0.21088184416294098,
        -0.3312481939792633,
        0.017264176160097122,
        0.3095404803752899,
        0.3491942584514618,
        0.4237545132637024,
        -0.08277928829193115,
        0.32118144631385803,
        0.46678194403648376,
        -0.3863597810268402,
        -0.3664543032646179,
        0.295179545879364,
        -0.19432233273983002,
        -0.1362336426973343,
        0.06970851123332977,
        -0.17713432013988495,
        0.39558807015419006,
        0.03749573975801468,
        -0.04612164944410324,
        0.44731441140174866,
        -0.4469781517982483,
        0.15759214758872986,
        0.28298091888427734,
        0.08744010329246521,
        -0.1048348993062973,
        -0.09345246851444244,
        0.12426088750362396,
        0.23779694736003876,
        0.17532335221767426,
        -0.07840283215045929,
        0.37581419944763184,
        0.15757255256175995,
        -0.4250034689903259,
        -0.3892871141433716,
        -0.11304570734500885,
        0.19866463541984558,
        -0.10912921279668808,
        0.19124950468540192,
        -0.2926546633243561,
        0.0901203602552414,
        -0.08097495883703232,
        0.09689152240753174,
        0.26176589727401733,
        -0.3816395401954651,
        0.09308500587940216,
        -0.2712688446044922,
        -0.15460988879203796,
        0.22331325709819794,
        -0.4784999489784241,
        -0.05894876644015312,
        -0.288886159658432,
        -0.13981910049915314,
        0.46209636330604553,
        0.47181984782218933,
        -0.08344613760709763,
        -0.25184735655784607,
        -0.21167047321796417,
        -0.1929101049900055,
        0.22380366921424866,
        -0.21486230194568634,
        -0.3091777265071869,
        0.4986051023006439,
        -0.3851238191127777,
        -0.18763291835784912,
        -0.12964101135730743,
        0.019106997177004814,
        -0.33015215396881104,
        -0.209812194108963,
        -0.057890329509973526,
        -0.1053384393453598,
        -0.36925214529037476,
        0.32824140787124634,
        0.008385435678064823,
        -0.20769771933555603,
        -0.4571559727191925,
        0.30518656969070435,
        0.35124826431274414,
        -0.27949896454811096,
        0.1553250402212143,
        -0.40986114740371704,
        0.0710630863904953,
        -0.07786240428686142,
        0.4646616578102112,
        0.31764164566993713,
        -0.04359705001115799,
        0.44743406772613525,
        -0.3317868709564209,
        -0.2867681086063385,
        -0.4640200436115265,
        -0.32783815264701843,
        -0.3690882921218872,
        -0.44960257411003113,
        -0.09545379132032394,
        -0.4603177309036255,
        -0.2974380850791931,
        0.12642709910869598,
        -0.4908806383609772,
        -0.10125262290239334,
        -0.15313172340393066,
        -0.1047675609588623,
        0.06801148504018784,
        -0.273413747549057,
        0.07934951037168503,
        0.4805944263935089,
        0.16029877960681915,
        -0.46741732954978943,
        0.037430472671985626,
        0.1668936312198639,
        -0.34076449275016785,
        0.0398540124297142,
        0.2374257743358612,
        -0.3307725489139557,
        0.20288604497909546,
        -0.004653938114643097,
        0.22036336362361908,
        0.3560374975204468,
        -0.3581218719482422,
        -0.38741445541381836,
        -0.11407987028360367,
        0.3297059237957001,
        -0.18842118978500366,
        0.09084571897983551,
        -0.23399193584918976,
        -0.10565466433763504,
        0.4484660029411316,
        0.354729026556015,
        -0.41681796312332153,
        -0.014473185874521732,
        0.03956662863492966,
        0.3011259138584137,
        0.32049810886383057,
        0.10378778725862503,
        -0.30267930030822754,
        0.34285497665405273,
        -0.4189685583114624,
        0.18442557752132416,
        -0.13747531175613403,
        0.01579347997903824,
        -0.26601043343544006
      ]
    },
    {
      "name": "dense_Dense33/bias",
      "shape": [
        32
      ],
      "dtype": "float32",
      "values": [
        0,
        0,
        0,
        0,
        0,
        0,
        0,
        0,
        0,
        0,
        0,
        0,
        0,
        0,
        0,
        0,
        0,
        0,
        0,
        0,
        0,
        0,
        0,
        0,
        0,
        0,
        0,
        0,
        0,
        0,
        0,
        0
      ]
    },
    {
      "name": "dense_Dense34/kernel",
      "shape": [
        32,
        16
      ],
      "dtype": "float32",
      "values": [
        -0.27283596992492676,
        -0.2674400508403778,
        0.008698721416294575,
        -0.3533966839313507,
        -0.015065210871398449,
        -0.414922297000885,
        -0.31117063760757446,
        0.017956551164388657,
        0.3628004193305969,
        0.37094148993492126,
        -0.37523913383483887,
        -0.4773885905742645,
        -0.28231996297836304,
        0.22396282851696014,
        0.3790757358074188,
        -0.4698699712753296,
        0.39506134390830994,
        -0.43346381187438965,
        -0.3520372807979584,
        -0.2608374059200287,
        0.1917877346277237,
        0.11159335821866989,
        0.29458096623420715,
        -0.3031804859638214,
        0.01906704716384411,
        0.03500900790095329,
        -0.13442489504814148,
        0.3780975937843323,
        0.20945170521736145,
        -0.34646207094192505,
        -0.3278304934501648,
        0.3702867031097412,
        0.3973667025566101,
        -0.04687583073973656,
        0.0982886552810669,
        -0.2779875099658966,
        -0.31334763765335083,
        0.38632509112358093,
        0.4873167872428894,
        -0.11452861875295639,
        -0.35656553506851196,
        -0.20493841171264648,
        0.47780299186706543,
        -0.39460137486457825,
        -0.18712832033634186,
        0.3722495436668396,
        0.3880177438259125,
        0.11843229085206985,
        -0.36287975311279297,
        0.06947895884513855,
        -0.40505799651145935,
        -0.41829603910446167,
        -0.10042033344507217,
        -0.0810599997639656,
        -0.3025591969490051,
        -0.0862739235162735,
        -0.2585996985435486,
        0.35434994101524353,
        0.09309051930904388,
        -0.21271245181560516,
        0.16613270342350006,
        -0.2437368631362915,
        0.3329807221889496,
        -0.37086600065231323,
        0.47603386640548706,
        0.47756531834602356,
        0.20138829946517944,
        -0.024966483935713768,
        0.22930435836315155,
        -0.38649782538414,
        0.12933576107025146,
        -0.05364135280251503,
        0.04517265781760216,
        -0.2809174954891205,
        -0.34181901812553406,
        -0.10744467377662659,
        0.020171085372567177,
        -0.016418250277638435,
        -0.46311846375465393,
        -0.37243223190307617,
        -0.05185214802622795,
        0.3495992422103882,
        0.22621740400791168,
        0.021607710048556328,
        0.3876810371875763,
        0.15242041647434235,
        -0.47060808539390564,
        -0.203324094414711,
        0.49912720918655396,
        -0.21701553463935852,
        0.40959376096725464,
        -0.03734888881444931,
        -0.15390996634960175,
        0.2603837251663208,
        -0.393468976020813,
        -0.09080219268798828,
        -0.261379212141037,
        -0.08243676275014877,
        -0.4030768573284149,
        0.030711887404322624,
        0.056010231375694275,
        -0.2633812427520752,
        0.18053169548511505,
        0.18265488743782043,
        -0.4945218563079834,
        0.13610202074050903,
        0.09276793897151947,
        -0.2026217132806778,
        0.2901793420314789,
        0.045743200927972794,
        -0.4779430031776428,
        0.4381851553916931,
        0.26050862669944763,
        -0.2283666878938675,
        0.16658003628253937,
        -0.02386096678674221,
        0.3257747292518616,
        0.30161625146865845,
        0.4721027612686157,
        0.1588563770055771,
        0.32085177302360535,
        -0.4428795278072357,
        0.17892004549503326,
        0.08686615526676178,
        -0.10395138710737228,
        0.16016392409801483,
        -0.3542283773422241,
        0.2195509523153305,
        0.12386525422334671,
        0.08798989653587341,
        0.3319858908653259,
        0.40169885754585266,
        0.10340020060539246,
        -0.36974796652793884,
        0.007817473262548447,
        -0.10931479930877686,
        -0.24913476407527924,
        0.3320208489894867,
        -0.10505606979131699,
        0.01675158366560936,
        -0.2705901861190796,
        -0.3674870729446411,
        0.26638609170913696,
        0.032940641045570374,
        -0.29122015833854675,
        -0.4736340045928955,
        -0.07305283844470978,
        -0.41469666361808777,
        -0.34686505794525146,
        -0.17324377596378326,
        0.28638845682144165,
        -0.45854413509368896,
        -0.44456949830055237,
        0.23881180584430695,
        0.23001061379909515,
        0.08552838861942291,
        0.07851241528987885,
        0.17595289647579193,
        -0.49321889877319336,
        -0.371371328830719,
        -0.053442563861608505,
        0.08689826726913452,
        0.23199020326137543,
        0.446794718503952,
        -0.20028695464134216,
        -0.23029282689094543,
        0.26685231924057007,
        -0.009440954774618149,
        -0.44972044229507446,
        -0.2690427005290985,
        -0.06834337115287781,
        0.20838715136051178,
        -0.1777956336736679,
        0.332312673330307,
        -0.2961912751197815,
        -0.27036261558532715,
        0.15470680594444275,
        -0.24595782160758972,
        -0.012228921055793762,
        -0.20273037254810333,
        0.04095130413770676,
        -0.4871104955673218,
        0.2333824634552002,
        0.3410840630531311,
        -0.33197638392448425,
        -0.13556675612926483,
        -0.24186259508132935,
        0.240922212600708,
        0.2761184275150299,
        -0.240718811750412,
        0.30960357189178467,
        0.044698067009449005,
        0.1335121989250183,
        -0.07975564152002335,
        0.2230108380317688,
        0.3380965292453766,
        -0.008016791194677353,
        0.17083756625652313,
        -0.137176513671875,
        -0.231735497713089,
        -0.48059117794036865,
        0.26126453280448914,
        -0.004037416074424982,
        -0.27943822741508484,
        0.09393206238746643,
        0.18345023691654205,
        0.09546232223510742,
        -0.03290453925728798,
        -0.3237729072570801,
        -0.2858846187591553,
        -0.4158366024494171,
        -0.036325834691524506,
        -0.44528281688690186,
        -0.03523951768875122,
        0.46944063901901245,
        0.07248041033744812,
        -0.3519473373889923,
        0.33486050367355347,
        -0.14506907761096954,
        0.2531566917896271,
        0.26768743991851807,
        -0.1497585028409958,
        0.38304615020751953,
        -0.4851655960083008,
        0.2625880837440491,
        0.2521345317363739,
        -0.3055020570755005,
        0.4803105294704437,
        0.44357380270957947,
        -0.002183125587180257,
        0.2302887737751007,
        0.2665770649909973,
        -0.3101605176925659,
        -0.016345400363206863,
        -0.01156865805387497,
        0.14777544140815735,
        0.32273516058921814,
        -0.45661461353302,
        -0.1164526492357254,
        0.43913519382476807,
        0.07796602696180344,
        0.09333038330078125,
        0.27643534541130066,
        -0.2241792529821396,
        0.4708523154258728,
        -0.07462018728256226,
        -0.05938423052430153,
        0.08872127532958984,
        -0.48856472969055176,
        -0.3703944683074951,
        -0.12455929070711136,
        -0.047228485345840454,
        0.48130035400390625,
        -0.07311420142650604,
        0.05540056526660919,
        -0.38671621680259705,
        0.48775535821914673,
        -0.01880641281604767,
        0.2505408525466919,
        0.09908445179462433,
        -0.22698910534381866,
        0.012670278549194336,
        -0.09061025828123093,
        -0.2664814889431,
        -0.35159969329833984,
        0.050715573132038116,
        -0.05585917830467224,
        0.38918977975845337,
        -0.3331533968448639,
        -0.2316858321428299,
        -0.4765785336494446,
        0.3816027343273163,
        -0.11341018229722977,
        -0.2186804562807083,
        0.18939591944217682,
        -0.1657046228647232,
        0.4200407862663269,
        -0.09468095004558563,
        -0.2639903426170349,
        -0.30530890822410583,
        -0.3643023669719696,
        0.4849633276462555,
        -0.015478042885661125,
        -0.013619189150631428,
        0.21168875694274902,
        -0.4786376357078552,
        -0.42693987488746643,
        0.4688858091831207,
        -0.15851669013500214,
        -0.09636832773685455,
        -0.17684534192085266,
        0.3121565580368042,
        0.25189009308815,
        0.388014554977417,
        -0.19573195278644562,
        0.14378631114959717,
        0.40290945768356323,
        0.41492515802383423,
        0.07179873436689377,
        0.1174544021487236,
        -0.3316325843334198,
        0.0343719981610775,
        0.20317743718624115,
        0.3357062041759491,
        -0.19049134850502014,
        -0.13310404121875763,
        0.20853173732757568,
        -0.14887262880802155,
        0.39355799555778503,
        0.10399684309959412,
        0.20146268606185913,
        0.22614361345767975,
        -0.1490958333015442,
        0.2061489075422287,
        -0.19571439921855927,
        0.3353256583213806,
        0.10375956445932388,
        0.14225172996520996,
        0.20190496742725372,
        -0.44307708740234375,
        0.25822776556015015,
        0.3112953305244446,
        -0.3132403492927551,
        0.2770441174507141,
        0.42304423451423645,
        0.2957386374473572,
        0.31106528639793396,
        -0.20238834619522095,
        0.4381474256515503,
        0.3136964738368988,
        -0.3669053912162781,
        0.228290393948555,
        -0.22362537682056427,
        0.3680000901222229,
        0.08698999881744385,
        0.44811204075813293,
        0.3119048774242401,
        -0.3244667649269104,
        -0.35503193736076355,
        0.4287743866443634,
        -0.35296550393104553,
        0.3234623074531555,
        0.21671508252620697,
        -0.39812758564949036,
        0.3608126938343048,
        -0.2664889991283417,
        -0.1940242350101471,
        -0.09344851970672607,
        0.18706455826759338,
        0.35101330280303955,
        0.43524712324142456,
        -0.4888216555118561,
        0.09256834536790848,
        -0.11519111692905426,
        -0.46747756004333496,
        -0.4313526153564453,
        -0.23379477858543396,
        -0.29456308484077454,
        0.06938619166612625,
        -0.2875661849975586,
        0.35904639959335327,
        -0.13778460025787354,
        0.3716481029987335,
        0.4362315833568573,
        0.3647115230560303,
        -0.361074298620224,
        -0.026761459186673164,
        -0.12397681176662445,
        -0.08836657553911209,
        -0.3126381039619446,
        0.2675917148590088,
        0.02448906935751438,
        -0.02755650505423546,
        0.29034310579299927,
        0.2929157018661499,
        -0.26236769556999207,
        -0.018293244764208794,
        -0.10361944884061813,
        0.48284289240837097,
        0.1359303593635559,
        -0.47427499294281006,
        0.01703522726893425,
        0.2453034520149231,
        -0.04438234120607376,
        -0.45571890473365784,
        0.267320841550827,
        0.16458502411842346,
        -0.4212943911552429,
        -0.3125048577785492,
        0.46781066060066223,
        0.24516497552394867,
        -0.3437977731227875,
        0.020958425477147102,
        -0.37626272439956665,
        0.20017997920513153,
        0.4596956670284271,
        0.18438145518302917,
        0.24087095260620117,
        0.38514167070388794,
        0.43521296977996826,
        0.08023256808519363,
        0.3179023265838623,
        0.44860053062438965,
        -0.4335024058818817,
        -0.11959376931190491,
        0.3715169429779053,
        0.48315349221229553,
        0.01139158383011818,
        0.35455048084259033,
        -0.31763511896133423,
        0.08197663724422455,
        -0.37096792459487915,
        0.008053949102759361,
        -0.4717712998390198,
        0.043853603303432465,
        -0.04686380922794342,
        -0.24957656860351562,
        -0.0896172821521759,
        -0.1737268567085266,
        -0.07977363467216492,
        0.0001334487460553646,
        0.1308738887310028,
        0.3566548228263855,
        0.12680639326572418,
        -0.06367404013872147,
        0.15723589062690735,
        0.2111700475215912,
        -0.10679745674133301,
        -0.26755160093307495,
        -0.48437294363975525,
        0.2781343460083008,
        -0.3409176766872406,
        -0.3612633943557739,
        -0.37412184476852417,
        0.29982247948646545,
        0.36935967206954956,
        0.16951172053813934,
        0.41071179509162903,
        0.11256231367588043,
        0.3280060291290283,
        -0.18204733729362488,
        -0.2821337580680847,
        0.22546161711215973,
        -0.30379530787467957,
        0.05973092094063759,
        0.3177919387817383,
        -0.08439452946186066,
        -0.4751850962638855,
        -0.004217831417918205,
        0.11070218682289124,
        0.3143071234226227,
        -0.18116405606269836,
        0.0145074762403965,
        0.05564489588141441,
        0.19533763825893402,
        0.4027642607688904,
        0.032192081212997437,
        -0.17543113231658936,
        0.436942994594574,
        0.21299591660499573,
        0.40014365315437317,
        0.028395768254995346,
        -0.4335319399833679,
        0.057738449424505234,
        -0.3037315309047699,
        -0.3433513939380646,
        -0.004916819278150797,
        0.3080773949623108,
        -0.17639659345149994,
        -0.21088184416294098,
        -0.3312481939792633,
        0.017264176160097122,
        0.3095404803752899,
        0.3491942584514618,
        0.4237545132637024,
        -0.08277928829193115,
        0.32118144631385803,
        0.46678194403648376,
        -0.3863597810268402,
        -0.3664543032646179,
        0.295179545879364,
        -0.19432233273983002,
        -0.1362336426973343,
        0.06970851123332977,
        -0.17713432013988495,
        0.39558807015419006,
        0.03749573975801468,
        -0.04612164944410324,
        0.44731441140174866,
        -0.4469781517982483,
        0.15759214758872986,
        0.28298091888427734,
        0.08744010329246521,
        -0.1048348993062973,
        -0.09345246851444244,
        0.12426088750362396,
        0.23779694736003876,
        0.17532335221767426,
        -0.07840283215045929,
        0.37581419944763184,
        0.15757255256175995,
        -0.4250034689903259,
        -0.3892871141433716,
        -0.11304570734500885,
        0.19866463541984558,
        -0.10912921279668808,
        0.19124950468540192,
        -0.2926546633243561,
        0.0901203602552414,
        -0.08097495883703232,
        0.09689152240753174,
        0.26176589727401733
      ]
    },
    {
      "name": "dense_Dense34/bias",
      "shape": [
        16
      ],
      "dtype": "float32",
      "values": [
        0,
        0,
        0,
        0,
        0,
        0,
        0,
        0,
        0,
        0,
        0,
        0,
        0,
        0,
        0,
        0
      ]
    }
  ]
}
