{
  "version": 1,
  "createdAt": 1762615046088,
  "backend": "webgl",
  "config": {
    "inputSize": 19,
    "outputSize": 16,
    "hiddenLayers": [
      56
    ],
    "activation": "relu",
    "outputActivation": "tanh",
    "backend": "webgl",
    "seed": 1762615037089
  },
  "metadata": {
    "label": "16",
    "notes": "",
    "correlations": [
      {
        "id": "rms-deltaposx",
        "featureKey": "bandBass",
        "targetId": "deltaPosX",
        "targetIndex": 0,
        "axis": "x",
        "group": "deltaPos",
        "featureIndex": 4,
        "baseIndex": null,
        "strength": 0.65,
        "polarity": "direct",
        "source": "audio"
      },
      {
        "id": "tempoproxy-rotationspeed",
        "featureKey": "bandBass",
        "targetId": "cameraZoom",
        "targetIndex": 15,
        "axis": null,
        "group": "cameraZoom",
        "featureIndex": 4,
        "baseIndex": null,
        "strength": 0.65,
        "polarity": "direct",
        "source": "audio"
      },
      {
        "id": "bandbass-wobblestrength",
        "featureKey": "bandBass",
        "targetId": "wobbleStrength",
        "targetIndex": 10,
        "axis": null,
        "group": "wobbleStrength",
        "featureIndex": 4,
        "baseIndex": null,
        "strength": 0.6,
        "polarity": "direct",
        "source": "audio"
      },
      {
        "id": "bandhigh-wobblefrequency",
        "featureKey": "particlePosZ",
        "targetId": "colorB",
        "targetIndex": 6,
        "axis": "b",
        "group": "color",
        "featureIndex": null,
        "baseIndex": 2,
        "strength": 0.6,
        "polarity": "direct",
        "source": "particle"
      },
      {
        "id": "rms-alphascale",
        "featureKey": "bandBass",
        "targetId": "alphaScale",
        "targetIndex": 13,
        "axis": null,
        "group": "alphaScale",
        "featureIndex": 4,
        "baseIndex": null,
        "strength": 0.5,
        "polarity": "direct",
        "source": "audio"
      },
      {
        "id": "peak-pointscale",
        "featureKey": "bandLowMid",
        "targetId": "pointScale",
        "targetIndex": 14,
        "axis": null,
        "group": "pointScale",
        "featureIndex": 5,
        "baseIndex": null,
        "strength": 0.55,
        "polarity": "direct",
        "source": "audio"
      },
      {
        "id": "peak-flickerdepth",
        "featureKey": "particlePosX",
        "targetId": "colorR",
        "targetIndex": 4,
        "axis": "r",
        "group": "color",
        "featureIndex": null,
        "baseIndex": 0,
        "strength": 0.65,
        "polarity": "direct",
        "source": "particle"
      },
      {
        "id": "bandhigh-flickerrate",
        "featureKey": "particlePosY",
        "targetId": "colorG",
        "targetIndex": 5,
        "axis": "g",
        "group": "color",
        "featureIndex": null,
        "baseIndex": 1,
        "strength": 0.65,
        "polarity": "direct",
        "source": "particle"
      }
    ],
    "training": {
      "status": "completed",
      "epoch": 100,
      "epochs": 100,
      "loss": 0.00016257743118330836,
      "best": null,
      "metadata": {
        "status": "completed",
        "epochs": 100,
        "loss": 0.00016257743118330836,
        "sampleCount": 2048,
        "batchSize": 64,
        "learningRate": 0.0015,
        "noise": 0.04,
        "seed": 1762563234828,
        "createdAt": 1762614933899,
        "correlations": [
          {
            "id": "rms-deltaposx",
            "featureKey": "bandBass",
            "targetId": "deltaPosX",
            "strength": 0.65,
            "polarity": "direct",
            "achieved": 0.9991985988493837
          },
          {
            "id": "tempoproxy-rotationspeed",
            "featureKey": "bandBass",
            "targetId": "cameraZoom",
            "strength": 0.65,
            "polarity": "direct",
            "achieved": 0.9992141062943981
          },
          {
            "id": "bandbass-wobblestrength",
            "featureKey": "bandBass",
            "targetId": "wobbleStrength",
            "strength": 0.6,
            "polarity": "direct",
            "achieved": 0.9994150902470753
          },
          {
            "id": "bandhigh-wobblefrequency",
            "featureKey": "particlePosZ",
            "targetId": "colorB",
            "strength": 0.6,
            "polarity": "direct",
            "achieved": 0.9993904343310341
          },
          {
            "id": "rms-alphascale",
            "featureKey": "bandBass",
            "targetId": "alphaScale",
            "strength": 0.5,
            "polarity": "direct",
            "achieved": 0.9996818885657434
          },
          {
            "id": "peak-pointscale",
            "featureKey": "bandLowMid",
            "targetId": "pointScale",
            "strength": 0.55,
            "polarity": "direct",
            "achieved": 0.9995302266179479
          },
          {
            "id": "peak-flickerdepth",
            "featureKey": "particlePosX",
            "targetId": "colorR",
            "strength": 0.65,
            "polarity": "direct",
            "achieved": 0.9991684282796409
          },
          {
            "id": "bandhigh-flickerrate",
            "featureKey": "particlePosY",
            "targetId": "colorG",
            "strength": 0.65,
            "polarity": "direct",
            "achieved": 0.9993633295516041
          }
        ]
      }
    }
  },
  "weights": [
    {
      "name": "dense_Dense9/kernel",
      "shape": [
        19,
        56
      ],
      "dtype": "float32",
      "values": [
        -0.34716787934303284,
        0.2683757543563843,
        0.06824007630348206,
        0.1384081095457077,
        0.18577469885349274,
        -0.3995364308357239,
        -0.20377717912197113,
        -0.38315293192863464,
        -0.0007767335046082735,
        -0.28683361411094666,
        0.388653963804245,
        0.3539660573005676,
        -0.3754902780056,
        -0.21218563616275787,
        0.2134808599948883,
        -0.10625948756933212,
        0.242378830909729,
        -0.10685399174690247,
        -0.49284255504608154,
        0.012287961319088936,
        0.028788013383746147,
        0.31554731726646423,
        -0.01989702135324478,
        0.13274943828582764,
        0.06614447385072708,
        -0.3854491114616394,
        -0.08621851354837418,
        0.35950082540512085,
        -0.39085081219673157,
        -0.00783901009708643,
        -0.06891986727714539,
        0.19211524724960327,
        -0.37918731570243835,
        -0.4888499975204468,
        -0.25907012820243835,
        0.04588441178202629,
        0.30201005935668945,
        -0.20433169603347778,
        -0.37129834294319153,
        0.0202696043998003,
        -0.1347162425518036,
        -0.08533840626478195,
        -0.3058341145515442,
        0.268982470035553,
        -0.14440734684467316,
        0.41870856285095215,
        0.2520091235637665,
        -0.02794540300965309,
        0.14963921904563904,
        0.10580523312091827,
        0.3075084984302521,
        0.23840323090553284,
        0.3454982042312622,
        -0.20866793394088745,
        -0.4968137741088867,
        -0.4695523679256439,
        0.018549539148807526,
        -0.04165857285261154,
        -0.07597492635250092,
        -0.06095649674534798,
        0.30069369077682495,
        -0.11924480646848679,
        0.013336560688912868,
        -0.3559214174747467,
        -0.08493201434612274,
        0.27113521099090576,
        -0.09507357329130173,
        -0.11494573950767517,
        0.0036988386418670416,
        0.40076613426208496,
        0.0139160780236125,
        -0.36465445160865784,
        0.055119216442108154,
        0.4119599163532257,
        -0.45521309971809387,
        -0.49717432260513306,
        0.39707064628601074,
        -0.4474002420902252,
        -0.2233915627002716,
        0.4242045283317566,
        0.18550461530685425,
        0.48352283239364624,
        -0.27514392137527466,
        -0.3212340474128723,
        0.22710779309272766,
        0.2176196426153183,
        0.3238029479980469,
        -0.4899812340736389,
        -0.26993364095687866,
        -0.0965699702501297,
        0.1575285643339157,
        0.29400435090065,
        0.4792380630970001,
        -0.1139506921172142,
        -0.025374338030815125,
        0.004451915621757507,
        0.2941245138645172,
        0.04516356810927391,
        -0.19894269108772278,
        0.2814118564128876,
        -0.1177157536149025,
        -0.2755946218967438,
        -0.016111643984913826,
        0.13238725066184998,
        -0.44504037499427795,
        0.2557353377342224,
        0.35094568133354187,
        0.18516837060451508,
        -0.008500093594193459,
        -0.31690719723701477,
        0.37132734060287476,
        -0.12644459307193756,
        -0.44362932443618774,
        -0.26179254055023193,
        -0.4403230547904968,
        -0.3822295367717743,
        -0.4725995659828186,
        0.1003061905503273,
        -0.19337277114391327,
        0.3145166337490082,
        0.3405968248844147,
        -0.03911028802394867,
        0.24235054850578308,
        -0.371101051568985,
        0.3942422568798065,
        -0.15643338859081268,
        -0.4223012328147888,
        0.47902658581733704,
        -0.16922523081302643,
        0.28988274931907654,
        -0.28180992603302,
        -0.10717266798019409,
        0.038740213960409164,
        0.39626574516296387,
        0.46071985363960266,
        -0.4608297348022461,
        -0.08746684342622757,
        -0.3559097647666931,
        -0.4593271017074585,
        -0.05408014729619026,
        0.2260272055864334,
        -0.47377413511276245,
        -0.14713864028453827,
        0.3160477876663208,
        -0.47537147998809814,
        0.08402165025472641,
        -0.1466054469347,
        -0.49643954634666443,
        -0.04239284619688988,
        0.34447330236434937,
        -0.33997178077697754,
        0.46957531571388245,
        -0.21583303809165955,
        -0.22055138647556305,
        0.04727138578891754,
        0.20830313861370087,
        0.11040306836366653,
        -0.32478976249694824,
        -0.022907696664333344,
        0.3633670508861542,
        0.0540829673409462,
        0.36688104271888733,
        -0.29556623101234436,
        0.04755549132823944,
        -0.29900968074798584,
        0.1314048022031784,
        -0.08103512972593307,
        -0.32592129707336426,
        0.41160833835601807,
        -0.2315533608198166,
        0.3013928234577179,
        0.023121563717722893,
        -0.03086189180612564,
        -0.03499789908528328,
        -0.03373575583100319,
        0.06422628462314606,
        0.03153161704540253,
        -0.02382514253258705,
        0.20002195239067078,
        -0.24026699364185333,
        0.40441814064979553,
        -0.28523963689804077,
        0.1889488399028778,
        -0.2674717903137207,
        -0.32263046503067017,
        -0.23199282586574554,
        -0.4539823532104492,
        -0.44414013624191284,
        -0.23539665341377258,
        -0.20392218232154846,
        0.16861951351165771,
        0.172946497797966,
        0.39503607153892517,
        0.15758416056632996,
        -0.34681782126426697,
        -0.13921670615673065,
        0.18863362073898315,
        0.348201721906662,
        -0.08661738783121109,
        0.43558958172798157,
        0.3256053626537323,
        -0.2992348372936249,
        0.15003228187561035,
        -0.09567581862211227,
        -0.27638083696365356,
        0.3789457678794861,
        -0.2732703685760498,
        0.07395203411579132,
        -0.2714153230190277,
        0.032178040593862534,
        -0.04656063765287399,
        0.11376737058162689,
        -0.15280398726463318,
        -0.04580744728446007,
        0.2753007709980011,
        0.22458967566490173,
        0.3554774820804596,
        -0.15338440239429474,
        -0.4730563759803772,
        -0.4603167176246643,
        0.19994202256202698,
        -0.17428337037563324,
        -0.38674765825271606,
        -0.4585981070995331,
        0.09655879437923431,
        0.4852917194366455,
        0.32171157002449036,
        0.14257173240184784,
        0.0743793323636055,
        0.43690043687820435,
        -0.39212262630462646,
        -0.29365235567092896,
        -0.010724769905209541,
        0.04343598335981369,
        0.2731843888759613,
        -0.3459252715110779,
        0.399958997964859,
        0.11394982039928436,
        0.20068442821502686,
        -0.15894575417041779,
        -0.11506756395101547,
        0.3828902244567871,
        -0.14624498784542084,
        0.19431015849113464,
        0.10543913394212723,
        0.28175896406173706,
        -0.28790050745010376,
        -0.39985227584838867,
        0.008906115777790546,
        0.0562683567404747,
        0.3934920132160187,
        0.37914812564849854,
        0.09113311767578125,
        0.22717911005020142,
        -0.01850545033812523,
        -0.4145016074180603,
        -0.31460681557655334,
        0.27968835830688477,
        0.26090824604034424,
        0.1071239486336708,
        0.047977086156606674,
        -0.15236464142799377,
        -0.3713202476501465,
        -0.2566538155078888,
        0.17890504002571106,
        0.07408466190099716,
        -0.11095952987670898,
        -0.2564510703086853,
        0.3708995580673218,
        -0.27983221411705017,
        -0.07564385235309601,
        -0.029371967539191246,
        0.03230353072285652,
        0.3703632354736328,
        0.4459339678287506,
        0.32784879207611084,
        0.1853070706129074,
        -0.13565070927143097,
        0.34782880544662476,
        -0.49252617359161377,
        -0.3043030798435211,
        0.32175788283348083,
        0.028214992955327034,
        -0.20714910328388214,
        0.3324912488460541,
        -0.42092370986938477,
        -0.13324640691280365,
        -0.30982738733291626,
        -0.45594802498817444,
        -0.37396520376205444,
        -0.07224590331315994,
        0.325645387172699,
        -0.22818610072135925,
        -0.34451568126678467,
        -0.4024541974067688,
        0.06651129573583603,
        -0.4261508584022522,
        0.11285798996686935,
        -0.3740069270133972,
        0.27125614881515503,
        0.16600731015205383,
        -0.4501630365848541,
        -0.08979391306638718,
        0.368470698595047,
        0.44589799642562866,
        -0.45781296491622925,
        -0.2865547239780426,
        -0.37045830488204956,
        -0.4404628276824951,
        -0.045052122324705124,
        -0.03241726756095886,
        -0.2137579768896103,
        0.22491586208343506,
        -0.217960387468338,
        0.4928402304649353,
        -0.2032162994146347,
        -0.45627081394195557,
        -0.13649527728557587,
        -0.1475217640399933,
        0.1838037371635437,
        0.14840400218963623,
        -0.2762988209724426,
        0.05835070461034775,
        -0.4019050598144531,
        -0.3761352598667145,
        -0.3870415985584259,
        -0.28934136033058167,
        -0.2021404653787613,
        -0.2870098948478699,
        0.31673455238342285,
        0.10901127010583878,
        -0.09660961478948593,
        0.35810035467147827,
        0.2292606234550476,
        -0.4314410984516144,
        -0.3193969130516052,
        0.476697713136673,
        -0.04977098107337952,
        -0.04319394379854202,
        -0.47336557507514954,
        0.07685530185699463,
        -0.13378459215164185,
        0.1289227306842804,
        -0.45716214179992676,
        -0.07561951875686646,
        -0.20294584333896637,
        -0.17795491218566895,
        0.2732197344303131,
        -0.4464529752731323,
        -0.4295544922351837,
        0.04495595768094063,
        -0.44755280017852783,
        0.09871363639831543,
        -0.369006872177124,
        0.11761873215436935,
        0.29613104462623596,
        -0.16433511674404144,
        -0.06824859231710434,
        0.2671886384487152,
        0.2587013244628906,
        -0.4225790500640869,
        0.168954536318779,
        -0.19713924825191498,
        0.15334860980510712,
        -0.1123109757900238,
        -0.15435853600502014,
        -0.06455337256193161,
        -0.014824300073087215,
        -0.3371111750602722,
        -0.3563337028026581,
        -0.08348151296377182,
        0.09966447949409485,
        -0.4974759817123413,
        -0.18822406232357025,
        0.11437538266181946,
        -0.17971771955490112,
        0.203688845038414,
        0.012141214683651924,
        0.4246710240840912,
        -0.4535737931728363,
        0.03848239406943321,
        0.48954257369041443,
        0.37549901008605957,
        0.27578461170196533,
        0.3371185064315796,
        0.4056071639060974,
        -0.16036489605903625,
        0.19413694739341736,
        -0.26561981439590454,
        -0.47428297996520996,
        0.42333635687828064,
        0.2646466791629791,
        0.2236436903476715,
        -0.15803098678588867,
        0.30947646498680115,
        -0.14891543984413147,
        0.23200052976608276,
        0.04927203804254532,
        -0.3369029462337494,
        0.3577113747596741,
        0.320631742477417,
        -0.34372490644454956,
        0.052043426781892776,
        -0.15796250104904175,
        -0.42162612080574036,
        0.06171375513076782,
        0.47545909881591797,
        0.377080500125885,
        -0.10386786609888077,
        -0.17603136599063873,
        0.2865218222141266,
        -0.07379508763551712,
        -0.06185741722583771,
        0.22174789011478424,
        0.31902414560317993,
        -0.38804927468299866,
        -0.47195979952812195,
        0.3739696443080902,
        0.025952082127332687,
        0.49007824063301086,
        0.4855596125125885,
        0.38753435015678406,
        -0.20887762308120728,
        0.4384223222732544,
        -0.03304847702383995,
        0.43335220217704773,
        0.19963322579860687,
        -0.4839506447315216,
        0.3597318232059479,
        -0.3724052309989929,
        -0.06076078489422798,
        0.14067333936691284,
        -0.28554990887641907,
        0.36978477239608765,
        -0.15885400772094727,
        -0.3211573660373688,
        0.25555020570755005,
        -0.24668480455875397,
        -0.29904675483703613,
        -0.2387809008359909,
        0.4375755190849304,
        0.11858490854501724,
        -0.43188390135765076,
        -0.004033380188047886,
        -0.18342819809913635,
        -0.184465691447258,
        -0.37526997923851013,
        0.4332416355609894,
        0.35845616459846497,
        -0.317132830619812,
        0.08340498059988022,
        -0.12925682961940765,
        -0.3880077600479126,
        0.11371499300003052,
        0.368591845035553,
        -0.17716123163700104,
        -0.2871628701686859,
        0.060925282537937164,
        -0.35215792059898376,
        -0.04188161715865135,
        -0.3057759702205658,
        -0.2586294710636139,
        -0.22570809721946716,
        0.06343889236450195,
        0.48946666717529297,
        0.14330551028251648,
        0.2585979998111725,
        -0.4275137484073639,
        0.39032068848609924,
        -0.3627965450286865,
        -0.4395495355129242,
        0.001851545413956046,
        -0.4153625965118408,
        0.0330851785838604,
        -0.23537245392799377,
        0.366967111825943,
        0.24842819571495056,
        -0.21510283648967743,
        -0.29848653078079224,
        0.09597426652908325,
        -0.4678120017051697,
        -0.04670216515660286,
        -0.47470226883888245,
        0.14412277936935425,
        -0.07341930270195007,
        0.22132886946201324,
        -0.17874032258987427,
        0.3292734622955322,
        0.08322545886039734,
        -0.22389329969882965,
        0.1980268955230713,
        -0.3855118453502655,
        0.03695129603147507,
        -0.2089916169643402,
        0.40863627195358276,
        -0.2256292849779129,
        -0.02035016193985939,
        -0.4575664699077606,
        0.0030505165923386812,
        -0.1941840946674347,
        0.14957107603549957,
        -0.4205046594142914,
        -0.03313307464122772,
        -0.29663828015327454,
        0.06961362063884735,
        -0.4349667727947235,
        -0.210531085729599,
        -0.4370155334472656,
        -0.4600472152233124,
        -0.01595676690340042,
        0.251679927110672,
        0.3179251253604889,
        0.20307639241218567,
        -0.42581355571746826,
        -0.4059150516986847,
        -0.4816691279411316,
        -0.21420104801654816,
        0.2345542013645172,
        0.09227203577756882,
        -0.2804732918739319,
        -0.27834197878837585,
        -0.2095395177602768,
        0.1337994933128357,
        0.08092887699604034,
        -0.037507589906454086,
        0.23463883996009827,
        -0.0028792275115847588,
        -0.3409704267978668,
        -0.25412145256996155,
        -0.3041953444480896,
        -0.02476305142045021,
        -0.34231552481651306,
        0.17109860479831696,
        -0.36352765560150146,
        0.49188879132270813,
        -0.49015143513679504,
        0.3583252429962158,
        -0.23738501965999603,
        0.13700097799301147,
        0.06901107728481293,
        0.23771637678146362,
        -0.39714086055755615,
        0.267809122800827,
        -0.15656907856464386,
        -0.2916225790977478,
        -0.012649819254875183,
        0.0016620855312794447,
        -0.15858018398284912,
        0.1438310295343399,
        0.48315590620040894,
        0.4925716519355774,
        -0.3954136073589325,
        -0.28024226427078247,
        0.0838056430220604,
        0.455798864364624,
        0.36672478914260864,
        0.15682901442050934,
        -0.33297786116600037,
        -0.14631599187850952,
        -0.3157104253768921,
        -0.4826664924621582,
        -0.2197585105895996,
        -0.2104937881231308,
        -0.08778317272663116,
        -0.46401771903038025,
        -0.01538560539484024,
        0.2949572205543518,
        0.4540736973285675,
        -0.13129094243049622,
        0.02267010696232319,
        0.27407369017601013,
        -0.2497127801179886,
        -0.3214248716831207,
        0.18979373574256897,
        0.021397709846496582,
        0.21511441469192505,
        -0.0076162442564964294,
        0.2867095470428467,
        -0.2902873158454895,
        -0.43317216634750366,
        -0.1553039401769638,
        -0.2930465042591095,
        0.2271180897951126,
        0.23651467263698578,
        0.49038389325141907,
        0.05139975994825363,
        0.3083568811416626,
        0.10616204142570496,
        -0.2584802806377411,
        0.28219178318977356,
        -0.331005722284317,
        -0.4198337197303772,
        0.3324989378452301,
        -0.48098111152648926,
        0.41837918758392334,
        -0.2765071988105774,
        0.1633962094783783,
        0.1958412528038025,
        -0.22672978043556213,
        -0.13030394911766052,
        0.20687934756278992,
        0.16129335761070251,
        0.1899925172328949,
        -0.09595503658056259,
        0.47318077087402344,
        -0.25358739495277405,
        -0.2935003340244293,
        0.33561402559280396,
        -0.286665678024292,
        0.2827203571796417,
        0.39812639355659485,
        -0.11463209986686707,
        -0.09956211596727371,
        -0.2772456407546997,
        0.03749591484665871,
        -0.009848973713815212,
        0.20200350880622864,
        -0.08400555700063705,
        -0.49678102135658264,
        0.4183686375617981,
        -0.30425435304641724,
        0.4151754677295685,
        0.1825655698776245,
        -0.27614837884902954,
        0.17102187871932983,
        0.27571189403533936,
        0.27111804485321045,
        0.024186670780181885,
        -0.2196381688117981,
        0.09071942418813705,
        -0.2162274718284607,
        0.22976598143577576,
        0.2897219657897949,
        0.17808690667152405,
        -0.49712052941322327,
        -0.23343302309513092,
        -0.4656219482421875,
        0.30843889713287354,
        0.3889037072658539,
        -0.04603642597794533,
        -0.15657822787761688,
        0.16078156232833862,
        0.4135148227214813,
        -0.13993357121944427,
        -0.027221804484725,
        -0.2659868896007538,
        0.4815770387649536,
        -0.18870927393436432,
        0.46647152304649353,
        0.29982832074165344,
        0.3322211802005768,
        0.03209303319454193,
        -0.3715686798095703,
        -0.21565896272659302,
        0.03977629169821739,
        0.47689682245254517,
        0.3000020682811737,
        -0.35930514335632324,
        0.006716622970998287,
        0.032904282212257385,
        0.3413659632205963,
        -0.24889004230499268,
        -0.12078506499528885,
        0.36025628447532654,
        -0.1319359689950943,
        0.2543785870075226,
        0.12157323211431503,
        -0.4119900166988373,
        0.15064018964767456,
        0.3203447163105011,
        -0.3838002383708954,
        -0.11601061373949051,
        0.476097971200943,
        0.4365687370300293,
        -0.3177239000797272,
        0.07580581307411194,
        0.17511321604251862,
        0.30858319997787476,
        0.39562827348709106,
        -0.36714261770248413,
        -0.3355737328529358,
        -0.44308409094810486,
        0.1593116819858551,
        -0.12058201432228088,
        0.01277158036828041,
        -0.4868980050086975,
        -0.04499495029449463,
        -0.4651992917060852,
        0.1497953087091446,
        -0.19429363310337067,
        0.022325744852423668,
        -0.30147090554237366,
        -0.15230919420719147,
        0.4002472460269928,
        -0.31629231572151184,
        0.15040834248065948,
        -0.242606058716774,
        -0.3313240706920624,
        -0.04436563327908516,
        -0.2961665391921997,
        -0.33170199394226074,
        0.11174291372299194,
        -0.47585558891296387,
        0.15663394331932068,
        -0.17139334976673126,
        -0.08543851226568222,
        -0.32178181409835815,
        -0.02900288626551628,
        0.47336816787719727,
        -0.41844186186790466,
        0.431574285030365,
        0.3112929165363312,
        -0.30584055185317993,
        -0.4129865765571594,
        0.4051048159599304,
        -0.018337570130825043,
        0.19979797303676605,
        0.019043050706386566,
        0.42164191603660583,
        0.22983722388744354,
        0.18933825194835663,
        -0.306598424911499,
        -0.48429352045059204,
        0.26501747965812683,
        -0.21572978794574738,
        -0.21813654899597168,
        -0.11798063665628433,
        0.1585475206375122,
        0.07768009603023529,
        0.09585317224264145,
        0.18744471669197083,
        -0.2769157290458679,
        0.22728678584098816,
        -0.3111669719219208,
        0.27051496505737305,
        -0.09492869675159454,
        -0.0033364645205438137,
        -0.33527445793151855,
        0.4340824484825134,
        0.32088398933410645,
        -0.1482294648885727,
        -0.23947717249393463,
        0.45338577032089233,
        0.4599757492542267,
        0.19829431176185608,
        0.3433041572570801,
        0.21958065032958984,
        0.11301778256893158,
        0.3956889510154724,
        0.4386494755744934,
        0.3947601616382599,
        0.45915651321411133,
        0.3718182444572449,
        -0.23958703875541687,
        -0.3411095440387726,
        -0.4361127018928528,
        0.40139925479888916,
        -0.03178786486387253,
        -0.318552166223526,
        0.3374004065990448,
        0.2654849588871002,
        -0.13710157573223114,
        -0.1654631495475769,
        -0.30420953035354614,
        -0.00628618011251092,
        -0.16820085048675537,
        0.4628238379955292,
        -0.419389009475708,
        -0.4648017883300781,
        0.4180885851383209,
        -0.3942859470844269,
        0.4308704137802124,
        0.3794333338737488,
        0.16510625183582306,
        0.3833751976490021,
        -0.45853522419929504,
        -0.33869802951812744,
        -0.46613481640815735,
        -0.1646837592124939,
        0.015145815908908844,
        0.22518548369407654,
        0.04070396348834038,
        -0.4196208119392395,
        -0.27296966314315796,
        -0.004108038265258074,
        -0.2561744451522827,
        -0.001973905134946108,
        0.46706146001815796,
        -0.47611328959465027,
        0.30315619707107544,
        -0.04091751202940941,
        -0.14637839794158936,
        0.30785226821899414,
        0.3359604477882385,
        0.224591463804245,
        -0.20253141224384308,
        -0.008484311401844025,
        0.27977707982063293,
        0.393447607755661,
        -0.11744537204504013,
        -0.33223074674606323,
        0.35537421703338623,
        -0.3171818256378174,
        0.1821252703666687,
        -0.420184850692749,
        0.12917828559875488,
        0.3058115541934967,
        0.0027899497654289007,
        0.3299234211444855,
        0.3888050615787506,
        -0.43187016248703003,
        -0.3221208155155182,
        -0.15868636965751648,
        -0.46900439262390137,
        -0.4906047284603119,
        0.41125649213790894,
        0.12917470932006836,
        -0.0045578028075397015,
        0.12819036841392517,
        -0.1241447776556015,
        -0.27780014276504517,
        -0.022837800905108452,
        -0.056823864579200745,
        0.36594220995903015,
        -0.4349391460418701,
        -0.011052197776734829,
        -0.007044652476906776,
        0.3126288652420044,
        -0.20836085081100464,
        0.12988896667957306,
        -0.2507791221141815,
        0.3304542005062103,
        -0.15638434886932373,
        -0.38069209456443787,
        -0.08008814603090286,
        0.39537176489830017,
        -0.409900426864624,
        -0.49253982305526733,
        -0.017289290204644203,
        0.2707754075527191,
        -0.4858666956424713,
        0.047303277999162674,
        0.3873293101787567,
        0.2612285017967224,
        0.3781757950782776,
        0.10296746343374252,
        -0.30310913920402527,
        0.2261415272951126,
        -0.23732323944568634,
        0.07279722392559052,
        0.43810591101646423,
        0.45420071482658386,
        -0.48867857456207275,
        0.4020995497703552,
        -0.0866549089550972,
        -0.15919676423072815,
        0.11041457951068878,
        0.2186843603849411,
        -0.17612142860889435,
        0.44230011105537415,
        -0.2555265724658966,
        -0.43677613139152527,
        0.18259938061237335,
        -0.33284616470336914,
        -0.004204514902085066,
        -0.012643532827496529,
        0.008510302752256393,
        -0.32726389169692993,
        0.2929076850414276,
        0.4808887839317322,
        0.10786744207143784,
        0.13508149981498718,
        -0.292725533246994,
        -0.25669941306114197,
        -0.26553845405578613,
        -0.1461959034204483,
        0.4794202446937561,
        0.4121547043323517,
        -0.05165926739573479,
        0.05116945132613182,
        -0.14834299683570862,
        0.46058687567710876,
        0.01827268861234188,
        0.0017359780613332987,
        0.47466063499450684,
        -0.13042177259922028,
        0.039668627083301544,
        -0.3009144067764282,
        -0.2626210153102875,
        0.4466898739337921,
        -0.28328874707221985,
        -0.36164161562919617,
        -0.029893435537815094,
        0.21028463542461395,
        0.280657559633255,
        -0.2770085036754608,
        -0.4503461718559265,
        0.2986936569213867,
        0.23316283524036407,
        0.36943110823631287,
        0.2751086950302124,
        0.47554531693458557,
        -0.49071264266967773,
        0.09177163243293762,
        0.1018383577466011,
        0.31534504890441895,
        0.1293908953666687,
        0.08299492299556732,
        0.0025514860171824694,
        0.05556585639715195,
        0.4219420254230499,
        -0.21205459535121918,
        -0.28842055797576904,
        0.3817744851112366,
        0.35085809230804443,
        0.28443047404289246,
        0.3755817413330078,
        0.4775584936141968,
        -0.1044001430273056,
        0.4347999691963196,
        -0.0368538536131382,
        -0.41028541326522827,
        -0.4314205050468445,
        0.04245071858167648,
        0.010689969174563885,
        0.05261898413300514,
        -0.4248121380805969,
        -0.4437884986400604,
        -0.08185931295156479,
        0.38893625140190125,
        -0.3548462688922882,
        -0.1324293166399002,
        0.2190007120370865,
        -0.29409968852996826,
        -0.32725265622138977,
        0.44316548109054565,
        -0.38001498579978943,
        -0.41801896691322327,
        0.21109184622764587,
        -0.13861308991909027,
        0.19690316915512085,
        -0.07447026669979095,
        0.4536130428314209,
        0.3406994640827179,
        0.08422171324491501,
        -0.28846481442451477,
        0.31457778811454773,
        0.424862265586853,
        -0.2289086878299713,
        0.16490016877651215,
        -0.4889756143093109,
        -0.34770655632019043,
        -0.37867042422294617,
        -0.45487454533576965,
        0.43400922417640686,
        0.16044797003269196,
        -0.3590393662452698,
        -0.37156495451927185,
        0.22376711666584015,
        0.22915388643741608,
        0.257954865694046,
        0.014075436629354954,
        0.21791449189186096,
        0.4761864244937897,
        -0.26743489503860474,
        0.4399296045303345,
        0.12046727538108826,
        -0.24669529497623444,
        -0.08520550280809402,
        0.0523555651307106,
        0.4972913861274719,
        -0.14818167686462402,
        -0.05790356174111366,
        0.053474295884370804,
        0.4163302779197693,
        -0.34780529141426086,
        -0.07652841508388519,
        -0.34916964173316956,
        -0.1017422303557396,
        0.18685945868492126,
        0.13802620768547058,
        -0.01493760384619236,
        -0.4767807424068451,
        0.004221505485475063,
        -0.07543452084064484,
        -0.1891869157552719,
        -0.13447655737400055,
        0.2076909840106964,
        0.2703843116760254,
        -0.4147598147392273,
        -0.44209980964660645,
        0.3765043616294861,
        0.18941587209701538,
        -0.22708378732204437,
        0.18310664594173431,
        -0.3883989453315735,
        -0.31961768865585327,
        0.0029178280383348465,
        -0.385664701461792,
        0.19198183715343475,
        0.043008118867874146,
        -0.3161329925060272,
        -0.29865357279777527,
        0.46199965476989746,
        -0.08971690386533737,
        -0.4383487403392792,
        -0.49133676290512085,
        -0.3692585229873657,
        -0.2963448166847229,
        -0.11299418658018112,
        0.46883246302604675,
        -0.38277992606163025,
        -0.0502471886575222,
        0.2677288055419922,
        -0.39548492431640625,
        0.01818566583096981,
        -0.017418786883354187,
        0.30194365978240967,
        -0.15059508383274078,
        0.1877354383468628,
        0.15870152413845062,
        0.4478897154331207,
        -0.240171417593956,
        0.28979039192199707,
        -0.3856484889984131,
        0.08407487720251083,
        -0.12307009100914001,
        -0.40342459082603455,
        0.2906716763973236,
        -0.195472851395607,
        0.36664190888404846,
        0.21897803246974945,
        0.35512083768844604,
        -0.47737741470336914,
        -0.007207950577139854,
        -0.42774292826652527,
        -0.20133838057518005,
        -0.43101319670677185,
        0.20512054860591888,
        -0.20410272479057312,
        -0.01598408631980419,
        0.1275111883878708,
        -0.21639984846115112,
        0.060357239097356796,
        0.37431713938713074,
        -0.36427783966064453,
        -0.4441465437412262,
        0.31715649366378784,
        0.2885057330131531,
        -0.21111036837100983,
        -0.09411244094371796,
        -0.17959703505039215,
        0.3347177505493164,
        -0.24636541306972504,
        -0.1689290702342987,
        -0.27542686462402344,
        0.49076977372169495,
        0.36810073256492615,
        0.44745880365371704,
        0.20225581526756287,
        -0.17083603143692017,
        0.3011091351509094,
        0.16626176238059998,
        -0.3114606738090515
      ]
    },
    {
      "name": "dense_Dense9/bias",
      "shape": [
        56
      ],
      "dtype": "float32",
      "values": [
        0,
        0,
        0,
        0,
        0,
        0,
        0,
        0,
        0,
        0,
        0,
        0,
        0,
        0,
        0,
        0,
        0,
        0,
        0,
        0,
        0,
        0,
        0,
        0,
        0,
        0,
        0,
        0,
        0,
        0,
        0,
        0,
        0,
        0,
        0,
        0,
        0,
        0,
        0,
        0,
        0,
        0,
        0,
        0,
        0,
        0,
        0,
        0,
        0,
        0,
        0,
        0,
        0,
        0,
        0,
        0
      ]
    },
    {
      "name": "dense_Dense10/kernel",
      "shape": [
        56,
        16
      ],
      "dtype": "float32",
      "values": [
        -0.34716787934303284,
        0.2683757543563843,
        0.06824007630348206,
        0.1384081095457077,
        0.18577469885349274,
        -0.3995364308357239,
        -0.20377717912197113,
        -0.38315293192863464,
        -0.0007767335046082735,
        -0.28683361411094666,
        0.388653963804245,
        0.3539660573005676,
        -0.3754902780056,
        -0.21218563616275787,
        0.2134808599948883,
        -0.10625948756933212,
        0.242378830909729,
        -0.10685399174690247,
        -0.49284255504608154,
        0.012287961319088936,
        0.028788013383746147,
        0.31554731726646423,
        -0.01989702135324478,
        0.13274943828582764,
        0.06614447385072708,
        -0.3854491114616394,
        -0.08621851354837418,
        0.35950082540512085,
        -0.39085081219673157,
        -0.00783901009708643,
        -0.06891986727714539,
        0.19211524724960327,
        -0.37918731570243835,
        -0.4888499975204468,
        -0.25907012820243835,
        0.04588441178202629,
        0.30201005935668945,
        -0.20433169603347778,
        -0.37129834294319153,
        0.0202696043998003,
        -0.1347162425518036,
        -0.08533840626478195,
        -0.3058341145515442,
        0.268982470035553,
        -0.14440734684467316,
        0.41870856285095215,
        0.2520091235637665,
        -0.02794540300965309,
        0.14963921904563904,
        0.10580523312091827,
        0.3075084984302521,
        0.23840323090553284,
        0.3454982042312622,
        -0.20866793394088745,
        -0.4968137741088867,
        -0.4695523679256439,
        0.018549539148807526,
        -0.04165857285261154,
        -0.07597492635250092,
        -0.06095649674534798,
        0.30069369077682495,
        -0.11924480646848679,
        0.013336560688912868,
        -0.3559214174747467,
        -0.08493201434612274,
        0.27113521099090576,
        -0.09507357329130173,
        -0.11494573950767517,
        0.0036988386418670416,
        0.40076613426208496,
        0.0139160780236125,
        -0.36465445160865784,
        0.055119216442108154,
        0.4119599163532257,
        -0.45521309971809387,
        -0.49717432260513306,
        0.39707064628601074,
        -0.4474002420902252,
        -0.2233915627002716,
        0.4242045283317566,
        0.18550461530685425,
        0.48352283239364624,
        -0.27514392137527466,
        -0.3212340474128723,
        0.22710779309272766,
        0.2176196426153183,
        0.3238029479980469,
        -0.4899812340736389,
        -0.26993364095687866,
        -0.0965699702501297,
        0.1575285643339157,
        0.29400435090065,
        0.4792380630970001,
        -0.1139506921172142,
        -0.025374338030815125,
        0.004451915621757507,
        0.2941245138645172,
        0.04516356810927391,
        -0.19894269108772278,
        0.2814118564128876,
        -0.1177157536149025,
        -0.2755946218967438,
        -0.016111643984913826,
        0.13238725066184998,
        -0.44504037499427795,
        0.2557353377342224,
        0.35094568133354187,
        0.18516837060451508,
        -0.008500093594193459,
        -0.31690719723701477,
        0.37132734060287476,
        -0.12644459307193756,
        -0.44362932443618774,
        -0.26179254055023193,
        -0.4403230547904968,
        -0.3822295367717743,
        -0.4725995659828186,
        0.1003061905503273,
        -0.19337277114391327,
        0.3145166337490082,
        0.3405968248844147,
        -0.03911028802394867,
        0.24235054850578308,
        -0.371101051568985,
        0.3942422568798065,
        -0.15643338859081268,
        -0.4223012328147888,
        0.47902658581733704,
        -0.16922523081302643,
        0.28988274931907654,
        -0.28180992603302,
        -0.10717266798019409,
        0.038740213960409164,
        0.39626574516296387,
        0.46071985363960266,
        -0.4608297348022461,
        -0.08746684342622757,
        -0.3559097647666931,
        -0.4593271017074585,
        -0.05408014729619026,
        0.2260272055864334,
        -0.47377413511276245,
        -0.14713864028453827,
        0.3160477876663208,
        -0.47537147998809814,
        0.08402165025472641,
        -0.1466054469347,
        -0.49643954634666443,
        -0.04239284619688988,
        0.34447330236434937,
        -0.33997178077697754,
        0.46957531571388245,
        -0.21583303809165955,
        -0.22055138647556305,
        0.04727138578891754,
        0.20830313861370087,
        0.11040306836366653,
        -0.32478976249694824,
        -0.022907696664333344,
        0.3633670508861542,
        0.0540829673409462,
        0.36688104271888733,
        -0.29556623101234436,
        0.04755549132823944,
        -0.29900968074798584,
        0.1314048022031784,
        -0.08103512972593307,
        -0.32592129707336426,
        0.41160833835601807,
        -0.2315533608198166,
        0.3013928234577179,
        0.023121563717722893,
        -0.03086189180612564,
        -0.03499789908528328,
        -0.03373575583100319,
        0.06422628462314606,
        0.03153161704540253,
        -0.02382514253258705,
        0.20002195239067078,
        -0.24026699364185333,
        0.40441814064979553,
        -0.28523963689804077,
        0.1889488399028778,
        -0.2674717903137207,
        -0.32263046503067017,
        -0.23199282586574554,
        -0.4539823532104492,
        -0.44414013624191284,
        -0.23539665341377258,
        -0.20392218232154846,
        0.16861951351165771,
        0.172946497797966,
        0.39503607153892517,
        0.15758416056632996,
        -0.34681782126426697,
        -0.13921670615673065,
        0.18863362073898315,
        0.348201721906662,
        -0.08661738783121109,
        0.43558958172798157,
        0.3256053626537323,
        -0.2992348372936249,
        0.15003228187561035,
        -0.09567581862211227,
        -0.27638083696365356,
        0.3789457678794861,
        -0.2732703685760498,
        0.07395203411579132,
        -0.2714153230190277,
        0.032178040593862534,
        -0.04656063765287399,
        0.11376737058162689,
        -0.15280398726463318,
        -0.04580744728446007,
        0.2753007709980011,
        0.22458967566490173,
        0.3554774820804596,
        -0.15338440239429474,
        -0.4730563759803772,
        -0.4603167176246643,
        0.19994202256202698,
        -0.17428337037563324,
        -0.38674765825271606,
        -0.4585981070995331,
        0.09655879437923431,
        0.4852917194366455,
        0.32171157002449036,
        0.14257173240184784,
        0.0743793323636055,
        0.43690043687820435,
        -0.39212262630462646,
        -0.29365235567092896,
        -0.010724769905209541,
        0.04343598335981369,
        0.2731843888759613,
        -0.3459252715110779,
        0.399958997964859,
        0.11394982039928436,
        0.20068442821502686,
        -0.15894575417041779,
        -0.11506756395101547,
        0.3828902244567871,
        -0.14624498784542084,
        0.19431015849113464,
        0.10543913394212723,
        0.28175896406173706,
        -0.28790050745010376,
        -0.39985227584838867,
        0.008906115777790546,
        0.0562683567404747,
        0.3934920132160187,
        0.37914812564849854,
        0.09113311767578125,
        0.22717911005020142,
        -0.01850545033812523,
        -0.4145016074180603,
        -0.31460681557655334,
        0.27968835830688477,
        0.26090824604034424,
        0.1071239486336708,
        0.047977086156606674,
        -0.15236464142799377,
        -0.3713202476501465,
        -0.2566538155078888,
        0.17890504002571106,
        0.07408466190099716,
        -0.11095952987670898,
        -0.2564510703086853,
        0.3708995580673218,
        -0.27983221411705017,
        -0.07564385235309601,
        -0.029371967539191246,
        0.03230353072285652,
        0.3703632354736328,
        0.4459339678287506,
        0.32784879207611084,
        0.1853070706129074,
        -0.13565070927143097,
        0.34782880544662476,
        -0.49252617359161377,
        -0.3043030798435211,
        0.32175788283348083,
        0.028214992955327034,
        -0.20714910328388214,
        0.3324912488460541,
        -0.42092370986938477,
        -0.13324640691280365,
        -0.30982738733291626,
        -0.45594802498817444,
        -0.37396520376205444,
        -0.07224590331315994,
        0.325645387172699,
        -0.22818610072135925,
        -0.34451568126678467,
        -0.4024541974067688,
        0.06651129573583603,
        -0.4261508584022522,
        0.11285798996686935,
        -0.3740069270133972,
        0.27125614881515503,
        0.16600731015205383,
        -0.4501630365848541,
        -0.08979391306638718,
        0.368470698595047,
        0.44589799642562866,
        -0.45781296491622925,
        -0.2865547239780426,
        -0.37045830488204956,
        -0.4404628276824951,
        -0.045052122324705124,
        -0.03241726756095886,
        -0.2137579768896103,
        0.22491586208343506,
        -0.217960387468338,
        0.4928402304649353,
        -0.2032162994146347,
        -0.45627081394195557,
        -0.13649527728557587,
        -0.1475217640399933,
        0.1838037371635437,
        0.14840400218963623,
        -0.2762988209724426,
        0.05835070461034775,
        -0.4019050598144531,
        -0.3761352598667145,
        -0.3870415985584259,
        -0.28934136033058167,
        -0.2021404653787613,
        -0.2870098948478699,
        0.31673455238342285,
        0.10901127010583878,
        -0.09660961478948593,
        0.35810035467147827,
        0.2292606234550476,
        -0.4314410984516144,
        -0.3193969130516052,
        0.476697713136673,
        -0.04977098107337952,
        -0.04319394379854202,
        -0.47336557507514954,
        0.07685530185699463,
        -0.13378459215164185,
        0.1289227306842804,
        -0.45716214179992676,
        -0.07561951875686646,
        -0.20294584333896637,
        -0.17795491218566895,
        0.2732197344303131,
        -0.4464529752731323,
        -0.4295544922351837,
        0.04495595768094063,
        -0.44755280017852783,
        0.09871363639831543,
        -0.369006872177124,
        0.11761873215436935,
        0.29613104462623596,
        -0.16433511674404144,
        -0.06824859231710434,
        0.2671886384487152,
        0.2587013244628906,
        -0.4225790500640869,
        0.168954536318779,
        -0.19713924825191498,
        0.15334860980510712,
        -0.1123109757900238,
        -0.15435853600502014,
        -0.06455337256193161,
        -0.014824300073087215,
        -0.3371111750602722,
        -0.3563337028026581,
        -0.08348151296377182,
        0.09966447949409485,
        -0.4974759817123413,
        -0.18822406232357025,
        0.11437538266181946,
        -0.17971771955490112,
        0.203688845038414,
        0.012141214683651924,
        0.4246710240840912,
        -0.4535737931728363,
        0.03848239406943321,
        0.48954257369041443,
        0.37549901008605957,
        0.27578461170196533,
        0.3371185064315796,
        0.4056071639060974,
        -0.16036489605903625,
        0.19413694739341736,
        -0.26561981439590454,
        -0.47428297996520996,
        0.42333635687828064,
        0.2646466791629791,
        0.2236436903476715,
        -0.15803098678588867,
        0.30947646498680115,
        -0.14891543984413147,
        0.23200052976608276,
        0.04927203804254532,
        -0.3369029462337494,
        0.3577113747596741,
        0.320631742477417,
        -0.34372490644454956,
        0.052043426781892776,
        -0.15796250104904175,
        -0.42162612080574036,
        0.06171375513076782,
        0.47545909881591797,
        0.377080500125885,
        -0.10386786609888077,
        -0.17603136599063873,
        0.2865218222141266,
        -0.07379508763551712,
        -0.06185741722583771,
        0.22174789011478424,
        0.31902414560317993,
        -0.38804927468299866,
        -0.47195979952812195,
        0.3739696443080902,
        0.025952082127332687,
        0.49007824063301086,
        0.4855596125125885,
        0.38753435015678406,
        -0.20887762308120728,
        0.4384223222732544,
        -0.03304847702383995,
        0.43335220217704773,
        0.19963322579860687,
        -0.4839506447315216,
        0.3597318232059479,
        -0.3724052309989929,
        -0.06076078489422798,
        0.14067333936691284,
        -0.28554990887641907,
        0.36978477239608765,
        -0.15885400772094727,
        -0.3211573660373688,
        0.25555020570755005,
        -0.24668480455875397,
        -0.29904675483703613,
        -0.2387809008359909,
        0.4375755190849304,
        0.11858490854501724,
        -0.43188390135765076,
        -0.004033380188047886,
        -0.18342819809913635,
        -0.184465691447258,
        -0.37526997923851013,
        0.4332416355609894,
        0.35845616459846497,
        -0.317132830619812,
        0.08340498059988022,
        -0.12925682961940765,
        -0.3880077600479126,
        0.11371499300003052,
        0.368591845035553,
        -0.17716123163700104,
        -0.2871628701686859,
        0.060925282537937164,
        -0.35215792059898376,
        -0.04188161715865135,
        -0.3057759702205658,
        -0.2586294710636139,
        -0.22570809721946716,
        0.06343889236450195,
        0.48946666717529297,
        0.14330551028251648,
        0.2585979998111725,
        -0.4275137484073639,
        0.39032068848609924,
        -0.3627965450286865,
        -0.4395495355129242,
        0.001851545413956046,
        -0.4153625965118408,
        0.0330851785838604,
        -0.23537245392799377,
        0.366967111825943,
        0.24842819571495056,
        -0.21510283648967743,
        -0.29848653078079224,
        0.09597426652908325,
        -0.4678120017051697,
        -0.04670216515660286,
        -0.47470226883888245,
        0.14412277936935425,
        -0.07341930270195007,
        0.22132886946201324,
        -0.17874032258987427,
        0.3292734622955322,
        0.08322545886039734,
        -0.22389329969882965,
        0.1980268955230713,
        -0.3855118453502655,
        0.03695129603147507,
        -0.2089916169643402,
        0.40863627195358276,
        -0.2256292849779129,
        -0.02035016193985939,
        -0.4575664699077606,
        0.0030505165923386812,
        -0.1941840946674347,
        0.14957107603549957,
        -0.4205046594142914,
        -0.03313307464122772,
        -0.29663828015327454,
        0.06961362063884735,
        -0.4349667727947235,
        -0.210531085729599,
        -0.4370155334472656,
        -0.4600472152233124,
        -0.01595676690340042,
        0.251679927110672,
        0.3179251253604889,
        0.20307639241218567,
        -0.42581355571746826,
        -0.4059150516986847,
        -0.4816691279411316,
        -0.21420104801654816,
        0.2345542013645172,
        0.09227203577756882,
        -0.2804732918739319,
        -0.27834197878837585,
        -0.2095395177602768,
        0.1337994933128357,
        0.08092887699604034,
        -0.037507589906454086,
        0.23463883996009827,
        -0.0028792275115847588,
        -0.3409704267978668,
        -0.25412145256996155,
        -0.3041953444480896,
        -0.02476305142045021,
        -0.34231552481651306,
        0.17109860479831696,
        -0.36352765560150146,
        0.49188879132270813,
        -0.49015143513679504,
        0.3583252429962158,
        -0.23738501965999603,
        0.13700097799301147,
        0.06901107728481293,
        0.23771637678146362,
        -0.39714086055755615,
        0.267809122800827,
        -0.15656907856464386,
        -0.2916225790977478,
        -0.012649819254875183,
        0.0016620855312794447,
        -0.15858018398284912,
        0.1438310295343399,
        0.48315590620040894,
        0.4925716519355774,
        -0.3954136073589325,
        -0.28024226427078247,
        0.0838056430220604,
        0.455798864364624,
        0.36672478914260864,
        0.15682901442050934,
        -0.33297786116600037,
        -0.14631599187850952,
        -0.3157104253768921,
        -0.4826664924621582,
        -0.2197585105895996,
        -0.2104937881231308,
        -0.08778317272663116,
        -0.46401771903038025,
        -0.01538560539484024,
        0.2949572205543518,
        0.4540736973285675,
        -0.13129094243049622,
        0.02267010696232319,
        0.27407369017601013,
        -0.2497127801179886,
        -0.3214248716831207,
        0.18979373574256897,
        0.021397709846496582,
        0.21511441469192505,
        -0.0076162442564964294,
        0.2867095470428467,
        -0.2902873158454895,
        -0.43317216634750366,
        -0.1553039401769638,
        -0.2930465042591095,
        0.2271180897951126,
        0.23651467263698578,
        0.49038389325141907,
        0.05139975994825363,
        0.3083568811416626,
        0.10616204142570496,
        -0.2584802806377411,
        0.28219178318977356,
        -0.331005722284317,
        -0.4198337197303772,
        0.3324989378452301,
        -0.48098111152648926,
        0.41837918758392334,
        -0.2765071988105774,
        0.1633962094783783,
        0.1958412528038025,
        -0.22672978043556213,
        -0.13030394911766052,
        0.20687934756278992,
        0.16129335761070251,
        0.1899925172328949,
        -0.09595503658056259,
        0.47318077087402344,
        -0.25358739495277405,
        -0.2935003340244293,
        0.33561402559280396,
        -0.286665678024292,
        0.2827203571796417,
        0.39812639355659485,
        -0.11463209986686707,
        -0.09956211596727371,
        -0.2772456407546997,
        0.03749591484665871,
        -0.009848973713815212,
        0.20200350880622864,
        -0.08400555700063705,
        -0.49678102135658264,
        0.4183686375617981,
        -0.30425435304641724,
        0.4151754677295685,
        0.1825655698776245,
        -0.27614837884902954,
        0.17102187871932983,
        0.27571189403533936,
        0.27111804485321045,
        0.024186670780181885,
        -0.2196381688117981,
        0.09071942418813705,
        -0.2162274718284607,
        0.22976598143577576,
        0.2897219657897949,
        0.17808690667152405,
        -0.49712052941322327,
        -0.23343302309513092,
        -0.4656219482421875,
        0.30843889713287354,
        0.3889037072658539,
        -0.04603642597794533,
        -0.15657822787761688,
        0.16078156232833862,
        0.4135148227214813,
        -0.13993357121944427,
        -0.027221804484725,
        -0.2659868896007538,
        0.4815770387649536,
        -0.18870927393436432,
        0.46647152304649353,
        0.29982832074165344,
        0.3322211802005768,
        0.03209303319454193,
        -0.3715686798095703,
        -0.21565896272659302,
        0.03977629169821739,
        0.47689682245254517,
        0.3000020682811737,
        -0.35930514335632324,
        0.006716622970998287,
        0.032904282212257385,
        0.3413659632205963,
        -0.24889004230499268,
        -0.12078506499528885,
        0.36025628447532654,
        -0.1319359689950943,
        0.2543785870075226,
        0.12157323211431503,
        -0.4119900166988373,
        0.15064018964767456,
        0.3203447163105011,
        -0.3838002383708954,
        -0.11601061373949051,
        0.476097971200943,
        0.4365687370300293,
        -0.3177239000797272,
        0.07580581307411194,
        0.17511321604251862,
        0.30858319997787476,
        0.39562827348709106,
        -0.36714261770248413,
        -0.3355737328529358,
        -0.44308409094810486,
        0.1593116819858551,
        -0.12058201432228088,
        0.01277158036828041,
        -0.4868980050086975,
        -0.04499495029449463,
        -0.4651992917060852,
        0.1497953087091446,
        -0.19429363310337067,
        0.022325744852423668,
        -0.30147090554237366,
        -0.15230919420719147,
        0.4002472460269928,
        -0.31629231572151184,
        0.15040834248065948,
        -0.242606058716774,
        -0.3313240706920624,
        -0.04436563327908516,
        -0.2961665391921997,
        -0.33170199394226074,
        0.11174291372299194,
        -0.47585558891296387,
        0.15663394331932068,
        -0.17139334976673126,
        -0.08543851226568222,
        -0.32178181409835815,
        -0.02900288626551628,
        0.47336816787719727,
        -0.41844186186790466,
        0.431574285030365,
        0.3112929165363312,
        -0.30584055185317993,
        -0.4129865765571594,
        0.4051048159599304,
        -0.018337570130825043,
        0.19979797303676605,
        0.019043050706386566,
        0.42164191603660583,
        0.22983722388744354,
        0.18933825194835663,
        -0.306598424911499,
        -0.48429352045059204,
        0.26501747965812683,
        -0.21572978794574738,
        -0.21813654899597168,
        -0.11798063665628433,
        0.1585475206375122,
        0.07768009603023529,
        0.09585317224264145,
        0.18744471669197083,
        -0.2769157290458679,
        0.22728678584098816,
        -0.3111669719219208,
        0.27051496505737305,
        -0.09492869675159454,
        -0.0033364645205438137,
        -0.33527445793151855,
        0.4340824484825134,
        0.32088398933410645,
        -0.1482294648885727,
        -0.23947717249393463,
        0.45338577032089233,
        0.4599757492542267,
        0.19829431176185608,
        0.3433041572570801,
        0.21958065032958984,
        0.11301778256893158,
        0.3956889510154724,
        0.4386494755744934,
        0.3947601616382599,
        0.45915651321411133,
        0.3718182444572449,
        -0.23958703875541687,
        -0.3411095440387726,
        -0.4361127018928528,
        0.40139925479888916,
        -0.03178786486387253,
        -0.318552166223526,
        0.3374004065990448,
        0.2654849588871002,
        -0.13710157573223114,
        -0.1654631495475769,
        -0.30420953035354614,
        -0.00628618011251092,
        -0.16820085048675537,
        0.4628238379955292,
        -0.419389009475708,
        -0.4648017883300781,
        0.4180885851383209,
        -0.3942859470844269,
        0.4308704137802124,
        0.3794333338737488,
        0.16510625183582306,
        0.3833751976490021,
        -0.45853522419929504,
        -0.33869802951812744,
        -0.46613481640815735,
        -0.1646837592124939,
        0.015145815908908844,
        0.22518548369407654,
        0.04070396348834038,
        -0.4196208119392395,
        -0.27296966314315796,
        -0.004108038265258074,
        -0.2561744451522827,
        -0.001973905134946108,
        0.46706146001815796,
        -0.47611328959465027,
        0.30315619707107544,
        -0.04091751202940941,
        -0.14637839794158936,
        0.30785226821899414,
        0.3359604477882385,
        0.224591463804245,
        -0.20253141224384308,
        -0.008484311401844025,
        0.27977707982063293,
        0.393447607755661,
        -0.11744537204504013,
        -0.33223074674606323,
        0.35537421703338623,
        -0.3171818256378174,
        0.1821252703666687,
        -0.420184850692749,
        0.12917828559875488,
        0.3058115541934967,
        0.0027899497654289007,
        0.3299234211444855,
        0.3888050615787506,
        -0.43187016248703003,
        -0.3221208155155182,
        -0.15868636965751648,
        -0.46900439262390137,
        -0.4906047284603119,
        0.41125649213790894,
        0.12917470932006836,
        -0.0045578028075397015,
        0.12819036841392517,
        -0.1241447776556015,
        -0.27780014276504517,
        -0.022837800905108452,
        -0.056823864579200745,
        0.36594220995903015,
        -0.4349391460418701,
        -0.011052197776734829,
        -0.007044652476906776,
        0.3126288652420044,
        -0.20836085081100464,
        0.12988896667957306,
        -0.2507791221141815,
        0.3304542005062103,
        -0.15638434886932373,
        -0.38069209456443787,
        -0.08008814603090286,
        0.39537176489830017,
        -0.409900426864624,
        -0.49253982305526733,
        -0.017289290204644203,
        0.2707754075527191,
        -0.4858666956424713,
        0.047303277999162674,
        0.3873293101787567,
        0.2612285017967224,
        0.3781757950782776,
        0.10296746343374252,
        -0.30310913920402527,
        0.2261415272951126,
        -0.23732323944568634,
        0.07279722392559052,
        0.43810591101646423,
        0.45420071482658386,
        -0.48867857456207275,
        0.4020995497703552,
        -0.0866549089550972,
        -0.15919676423072815,
        0.11041457951068878,
        0.2186843603849411,
        -0.17612142860889435,
        0.44230011105537415,
        -0.2555265724658966,
        -0.43677613139152527,
        0.18259938061237335,
        -0.33284616470336914,
        -0.004204514902085066,
        -0.012643532827496529,
        0.008510302752256393,
        -0.32726389169692993,
        0.2929076850414276,
        0.4808887839317322,
        0.10786744207143784,
        0.13508149981498718,
        -0.292725533246994,
        -0.25669941306114197,
        -0.26553845405578613,
        -0.1461959034204483,
        0.4794202446937561,
        0.4121547043323517,
        -0.05165926739573479,
        0.05116945132613182,
        -0.14834299683570862,
        0.46058687567710876,
        0.01827268861234188,
        0.0017359780613332987,
        0.47466063499450684,
        -0.13042177259922028,
        0.039668627083301544,
        -0.3009144067764282,
        -0.2626210153102875,
        0.4466898739337921,
        -0.28328874707221985,
        -0.36164161562919617,
        -0.029893435537815094,
        0.21028463542461395,
        0.280657559633255,
        -0.2770085036754608
      ]
    },
    {
      "name": "dense_Dense10/bias",
      "shape": [
        16
      ],
      "dtype": "float32",
      "values": [
        0,
        0,
        0,
        0,
        0,
        0,
        0,
        0,
        0,
        0,
        0,
        0,
        0,
        0,
        0,
        0
      ]
    }
  ]
}
