{
  "version": 1,
  "createdAt": 1762625957161,
  "backend": "webgl",
  "config": {
    "inputSize": 19,
    "outputSize": 16,
    "hiddenLayers": [
      56
    ],
    "activation": "relu",
    "outputActivation": "tanh",
    "backend": "webgl",
    "seed": 1762625949713
  },
  "metadata": {
    "label": "17",
    "notes": "",
    "correlations": [
      {
        "id": "rms-deltaposx",
        "featureKey": "bandBass",
        "targetId": "deltaPosX",
        "targetIndex": 0,
        "axis": "x",
        "group": "deltaPos",
        "featureIndex": 4,
        "baseIndex": null,
        "strength": 0.65,
        "polarity": "direct",
        "source": "audio"
      },
      {
        "id": "tempoproxy-rotationspeed",
        "featureKey": "tempoProxy",
        "targetId": "rotationSpeed",
        "targetIndex": 9,
        "axis": null,
        "group": "rotationSpeed",
        "featureIndex": 10,
        "baseIndex": null,
        "strength": 0.65,
        "polarity": "direct",
        "source": "audio"
      },
      {
        "id": "bandbass-wobblestrength",
        "featureKey": "bandBass",
        "targetId": "wobbleStrength",
        "targetIndex": 10,
        "axis": null,
        "group": "wobbleStrength",
        "featureIndex": 4,
        "baseIndex": null,
        "strength": 0.6,
        "polarity": "direct",
        "source": "audio"
      },
      {
        "id": "bandhigh-wobblefrequency",
        "featureKey": "bandHigh",
        "targetId": "wobbleFrequency",
        "targetIndex": 11,
        "axis": null,
        "group": "wobbleFrequency",
        "featureIndex": 7,
        "baseIndex": null,
        "strength": 0.6,
        "polarity": "direct",
        "source": "audio"
      },
      {
        "id": "speccentroid-colormix",
        "featureKey": "specCentroid",
        "targetId": "colorMix",
        "targetIndex": 12,
        "axis": null,
        "group": "colorMix",
        "featureIndex": 1,
        "baseIndex": null,
        "strength": 0.55,
        "polarity": "direct",
        "source": "audio"
      },
      {
        "id": "rms-alphascale",
        "featureKey": "rms",
        "targetId": "alphaScale",
        "targetIndex": 13,
        "axis": null,
        "group": "alphaScale",
        "featureIndex": 0,
        "baseIndex": null,
        "strength": 0.5,
        "polarity": "direct",
        "source": "audio"
      },
      {
        "id": "peak-pointscale",
        "featureKey": "peak",
        "targetId": "pointScale",
        "targetIndex": 14,
        "axis": null,
        "group": "pointScale",
        "featureIndex": 8,
        "baseIndex": null,
        "strength": 0.55,
        "polarity": "direct",
        "source": "audio"
      },
      {
        "id": "bandlowmid-camerazoom",
        "featureKey": "bandLowMid",
        "targetId": "cameraZoom",
        "targetIndex": 15,
        "axis": null,
        "group": "cameraZoom",
        "featureIndex": 5,
        "baseIndex": null,
        "strength": 0.6,
        "polarity": "direct",
        "source": "audio"
      }
    ],
    "training": {
      "status": "idle",
      "epoch": 0,
      "epochs": 24,
      "loss": null,
      "best": null,
      "metadata": null
    }
  },
  "weights": [
    {
      "name": "dense_Dense25/kernel",
      "shape": [
        19,
        56
      ],
      "dtype": "float32",
      "values": [
        -0.09780988097190857,
        -0.3433936536312103,
        0.015636367723345757,
        0.03974524140357971,
        0.41999343037605286,
        -0.3619142472743988,
        -0.3013037443161011,
        -0.3410519063472748,
        0.042297277599573135,
        0.3229997456073761,
        -0.4648345708847046,
        -0.36547550559043884,
        -0.1625923067331314,
        -0.0927470251917839,
        0.20235534012317657,
        -0.40054452419281006,
        -0.30216577649116516,
        0.3063613176345825,
        0.4781147837638855,
        0.2998761236667633,
        0.2533673644065857,
        -0.4460863173007965,
        -0.4070154130458832,
        0.03968166559934616,
        0.4636821448802948,
        -0.32854655385017395,
        -0.27670618891716003,
        -0.31463003158569336,
        0.2433665543794632,
        -0.4474310576915741,
        -0.4469621181488037,
        -0.030778983607888222,
        -0.2224450558423996,
        -0.3866161108016968,
        0.4765572249889374,
        0.2373054176568985,
        -0.30992209911346436,
        -0.3448280394077301,
        0.2523480951786041,
        -0.15884847939014435,
        0.2265218198299408,
        0.14625971019268036,
        0.33552321791648865,
        -0.14173650741577148,
        -0.48567846417427063,
        0.4580543041229248,
        0.3835453391075134,
        -0.04568539559841156,
        0.2514983117580414,
        0.3710191547870636,
        -0.35473379492759705,
        -0.3025045692920685,
        0.14887556433677673,
        -0.01190551370382309,
        -0.35230377316474915,
        -0.059007029980421066,
        -0.03646194934844971,
        -0.284775972366333,
        -0.4051092863082886,
        -0.2365194708108902,
        0.47308337688446045,
        -0.390678733587265,
        -0.3527701795101166,
        -0.3448925018310547,
        0.13408511877059937,
        0.10922899842262268,
        0.36418843269348145,
        -0.3517681658267975,
        -0.36276352405548096,
        -0.2739417254924774,
        -0.02392089180648327,
        -0.3360807001590729,
        -0.20546647906303406,
        0.1289188712835312,
        -0.4711223244667053,
        0.28905194997787476,
        -0.2559739649295807,
        0.20336191356182098,
        0.3359968066215515,
        -0.14371800422668457,
        -0.2786726951599121,
        0.04053155705332756,
        -0.17249561846256256,
        0.34903979301452637,
        0.3831362724304199,
        0.4407668113708496,
        0.25498154759407043,
        -0.2507973313331604,
        0.039850059896707535,
        0.35601723194122314,
        -0.4716397225856781,
        -0.058011360466480255,
        -0.4673798084259033,
        -0.03485751897096634,
        0.17455807328224182,
        0.15730713307857513,
        -0.3451330363750458,
        0.4672505557537079,
        -0.257354199886322,
        0.2905026078224182,
        0.47552159428596497,
        -0.06378006190061569,
        -0.4362126588821411,
        -0.48328134417533875,
        0.13899031281471252,
        -0.40891215205192566,
        -0.11277547478675842,
        -0.42939844727516174,
        0.4057323932647705,
        0.4260418117046356,
        0.4306475520133972,
        -0.28901374340057373,
        -0.3057299554347992,
        0.21744471788406372,
        -0.4343113303184509,
        0.29697707295417786,
        -0.1413041204214096,
        0.4944273829460144,
        -0.1462603360414505,
        -0.2004670351743698,
        -0.3927605450153351,
        0.18866783380508423,
        0.34044015407562256,
        -0.2768784463405609,
        -0.016299467533826828,
        -0.12155792117118835,
        0.25206291675567627,
        0.3991096615791321,
        -0.28065305948257446,
        -0.3492998778820038,
        0.34889888763427734,
        0.11478079855442047,
        -0.264698326587677,
        -0.46537119150161743,
        -0.009748995304107666,
        -0.351592093706131,
        0.43776047229766846,
        -0.3787720203399658,
        0.2868662476539612,
        -0.1112365648150444,
        -0.3381611406803131,
        -0.3690512776374817,
        0.27000799775123596,
        -0.02117614448070526,
        -0.042305584996938705,
        0.2516542077064514,
        0.14973552525043488,
        -0.008342240005731583,
        -0.2565991282463074,
        -0.34897059202194214,
        0.04577307030558586,
        0.2503894865512848,
        -0.4878326952457428,
        -0.2589775621891022,
        0.4145524501800537,
        0.08662543445825577,
        0.44979918003082275,
        0.04616166278719902,
        0.14436818659305573,
        -0.48772385716438293,
        -0.4687558710575104,
        0.12337232381105423,
        -0.22205573320388794,
        -0.07890879362821579,
        0.3610970675945282,
        -0.4377702474594116,
        0.2826346755027771,
        -0.3074735105037689,
        -0.29785650968551636,
        -0.3103896379470825,
        0.4440514147281647,
        -0.31631821393966675,
        -0.08156751096248627,
        0.23766303062438965,
        0.4609883427619934,
        0.22033235430717468,
        0.27755188941955566,
        0.167892724275589,
        -0.2562492787837982,
        0.33194753527641296,
        -0.014613337814807892,
        -0.0024327184073626995,
        0.44105058908462524,
        0.1721375286579132,
        -0.368460476398468,
        -0.40223923325538635,
        -0.420036256313324,
        -0.30060529708862305,
        -0.26997798681259155,
        -0.21361033618450165,
        0.24580775201320648,
        -0.49697554111480713,
        0.2769964635372162,
        0.07539565116167068,
        -0.43370556831359863,
        -0.38328805565834045,
        0.47796058654785156,
        0.4981374442577362,
        -0.25320884585380554,
        -0.022954672574996948,
        -0.3239477872848511,
        -0.46986183524131775,
        0.11026909947395325,
        0.1831495761871338,
        -0.36249247193336487,
        0.14945627748966217,
        -0.19747234880924225,
        -0.3770466148853302,
        -0.42649781703948975,
        0.13509926199913025,
        -0.38829389214515686,
        -0.45042985677719116,
        -0.10982562601566315,
        0.3681076169013977,
        0.32683590054512024,
        0.43063241243362427,
        0.23474909365177155,
        -0.28485792875289917,
        -0.48225492238998413,
        0.3726118505001068,
        0.04030106961727142,
        -0.21811802685260773,
        0.4827598035335541,
        0.2869431674480438,
        -0.15718190371990204,
        0.2537812888622284,
        -0.47142457962036133,
        0.19900745153427124,
        -0.14689059555530548,
        -0.03543846681714058,
        -0.2472224235534668,
        -0.1121792197227478,
        -0.4766879975795746,
        -0.05622173845767975,
        -0.4327865540981293,
        -0.18105660378932953,
        0.4162834882736206,
        -0.24134211242198944,
        -0.041485633701086044,
        -0.22948148846626282,
        0.43550196290016174,
        0.02732807584106922,
        -0.4249868094921112,
        -0.1087157279253006,
        0.47016671299934387,
        -0.0034683735575526953,
        -0.06371038407087326,
        0.05454268679022789,
        0.4150729179382324,
        -0.11842883378267288,
        -0.3860103189945221,
        -0.28649958968162537,
        -0.36653172969818115,
        -0.2325555831193924,
        0.3013513386249542,
        -0.04050329700112343,
        -0.3257942795753479,
        0.2316933125257492,
        -0.27329787611961365,
        -0.003381011774763465,
        -0.22847512364387512,
        0.48310649394989014,
        0.1440228521823883,
        -0.4939984381198883,
        0.3572462201118469,
        -0.19231027364730835,
        -0.37444713711738586,
        0.1163644939661026,
        0.32708612084388733,
        -0.20947235822677612,
        -0.483222097158432,
        0.08068498969078064,
        0.45917564630508423,
        -0.20098179578781128,
        -0.1361449658870697,
        -0.3397621512413025,
        -0.3653016984462738,
        -0.10652150958776474,
        0.24755293130874634,
        -0.25967851281166077,
        0.45724695920944214,
        0.35078439116477966,
        0.2716422975063324,
        -0.44587498903274536,
        0.31215670704841614,
        -0.3668188750743866,
        0.46811941266059875,
        0.11240654438734055,
        0.351911723613739,
        -0.2002110481262207,
        -0.08402375131845474,
        0.2859659492969513,
        -0.2204928696155548,
        -0.35649898648262024,
        -0.44955697655677795,
        -0.49904999136924744,
        -0.16543248295783997,
        0.08495469391345978,
        -0.39662715792655945,
        -0.04539593309164047,
        -0.4541715979576111,
        0.18096846342086792,
        0.09790246933698654,
        -0.0009481930173933506,
        -0.311908483505249,
        -0.3814767897129059,
        -0.2772035300731659,
        0.051712602376937866,
        0.2447834014892578,
        0.2846450209617615,
        0.09408360719680786,
        -0.48429274559020996,
        -0.3779948353767395,
        -0.05900534987449646,
        0.3798978924751282,
        0.2746580243110657,
        0.11148826032876968,
        0.22767964005470276,
        0.4123646020889282,
        0.19810603559017181,
        -0.37190890312194824,
        -0.1332288533449173,
        0.325717031955719,
        -0.14201423525810242,
        0.3339938819408417,
        0.45984339714050293,
        -0.4970349669456482,
        -0.38958969712257385,
        0.3555118441581726,
        0.26219528913497925,
        -0.031770188361406326,
        0.4577368199825287,
        -0.09552442282438278,
        0.23584412038326263,
        0.20898935198783875,
        0.38687747716903687,
        -0.23774071037769318,
        0.2664119005203247,
        0.009099694900214672,
        0.2723541557788849,
        -0.46163493394851685,
        0.27662762999534607,
        -0.4300958514213562,
        0.374610960483551,
        0.14621248841285706,
        -0.2693418264389038,
        -0.0964251458644867,
        -0.2609056532382965,
        0.11378494650125504,
        0.4063894748687744,
        -0.4652480185031891,
        0.035727359354496,
        0.06781899183988571,
        0.06958656758069992,
        -0.26422518491744995,
        -0.1441611498594284,
        -0.025965522974729538,
        0.2972608506679535,
        -0.08467699587345123,
        -0.499362051486969,
        0.3750251829624176,
        0.29244253039360046,
        -0.14375588297843933,
        0.3069455921649933,
        0.1783931851387024,
        -0.408496230840683,
        0.3857468068599701,
        0.1539902687072754,
        0.34573304653167725,
        0.08536524325609207,
        0.03698304668068886,
        -0.3037258982658386,
        0.27975577116012573,
        0.18160022795200348,
        0.05445070564746857,
        0.06643225252628326,
        0.11908604204654694,
        0.2188677042722702,
        0.2890508472919464,
        0.01017604861408472,
        0.23370280861854553,
        0.022119982168078423,
        -0.37995561957359314,
        -0.0981404259800911,
        0.018713364377617836,
        0.014902947470545769,
        -0.33898913860321045,
        -0.39753785729408264,
        -0.4136030375957489,
        0.12172175943851471,
        0.31475967168807983,
        -0.25510478019714355,
        -0.022228702902793884,
        -0.39963722229003906,
        -0.11084596812725067,
        -0.42081764340400696,
        0.2133881002664566,
        0.24963416159152985,
        0.4160715639591217,
        -0.13802215456962585,
        -0.44617846608161926,
        0.4845220744609833,
        0.47616228461265564,
        -0.2711872458457947,
        0.2950885593891144,
        -0.402487576007843,
        0.16274282336235046,
        -0.23042263090610504,
        0.2971856892108917,
        0.2363622933626175,
        0.04828989505767822,
        0.20032855868339539,
        -0.41258105635643005,
        0.027680156752467155,
        0.0205790214240551,
        0.36051681637763977,
        -0.10602884739637375,
        -0.11400264501571655,
        0.015038919635117054,
        -0.07045923918485641,
        -0.3704341948032379,
        -0.00849834643304348,
        -0.29672151803970337,
        0.3743802309036255,
        -0.47179776430130005,
        -0.3243555724620819,
        0.2641271650791168,
        0.3818904757499695,
        0.2503686547279358,
        -0.3350854814052582,
        0.031198231503367424,
        -0.18228791654109955,
        0.1576303243637085,
        0.43831077218055725,
        0.48868855834007263,
        -0.26290151476860046,
        -0.07303886860609055,
        0.060596764087677,
        -0.043435677886009216,
        0.05061410740017891,
        -0.44231748580932617,
        0.2458241730928421,
        0.4426717460155487,
        0.47075653076171875,
        0.4388127624988556,
        0.47878748178482056,
        -0.2637370824813843,
        -0.08305403590202332,
        -0.43869584798812866,
        0.21645446121692657,
        -0.06584198772907257,
        -0.32364609837532043,
        -0.3954768776893616,
        0.33243826031684875,
        0.21472269296646118,
        0.11281470954418182,
        -0.18077917397022247,
        0.3728350102901459,
        -0.34852567315101624,
        0.23693950474262238,
        0.23850378394126892,
        0.11142214387655258,
        -0.09700985252857208,
        -0.1981119066476822,
        -0.099992536008358,
        0.41374772787094116,
        0.40258264541625977,
        -0.28057199716567993,
        -0.11164597421884537,
        -0.45131513476371765,
        -0.34234100580215454,
        -0.06694430112838745,
        -0.30872705578804016,
        0.1795607954263687,
        -0.3158610761165619,
        0.4489954710006714,
        0.37193092703819275,
        -0.34554341435432434,
        0.41760414838790894,
        0.2162034809589386,
        -0.09876395016908646,
        0.12048317492008209,
        -0.37609660625457764,
        0.46648508310317993,
        0.3003970980644226,
        -0.33933448791503906,
        0.4078941345214844,
        0.2935740053653717,
        -0.26464924216270447,
        0.24952077865600586,
        -0.14788749814033508,
        0.29591265320777893,
        0.3784259557723999,
        -0.2583577334880829,
        0.4345264136791229,
        0.4764055013656616,
        -0.11965344846248627,
        0.36427921056747437,
        0.3040371835231781,
        0.18459586799144745,
        -0.4038946032524109,
        0.05138203874230385,
        -0.0906706377863884,
        0.3172220289707184,
        -0.32089829444885254,
        -0.23652338981628418,
        -0.03819034621119499,
        -0.39363569021224976,
        0.457918256521225,
        -0.41499555110931396,
        0.2436550110578537,
        -0.3123874068260193,
        0.15015962719917297,
        0.33589038252830505,
        0.29181212186813354,
        -0.26402440667152405,
        0.41098880767822266,
        -0.4057616889476776,
        0.2709975242614746,
        0.22563615441322327,
        0.04223174601793289,
        -0.03706422448158264,
        0.3851391673088074,
        -0.4345853924751282,
        0.019424648955464363,
        0.1141970232129097,
        0.21937589347362518,
        0.35334840416908264,
        -0.056693993508815765,
        0.18400134146213531,
        0.3259870409965515,
        -0.3669862151145935,
        0.3952193558216095,
        0.20634110271930695,
        0.3316071331501007,
        0.1953672468662262,
        0.10208266228437424,
        0.39859598875045776,
        -0.25500595569610596,
        0.07166549563407898,
        -0.06539986282587051,
        -0.37543076276779175,
        0.3525598347187042,
        0.10244113206863403,
        0.38085076212882996,
        -0.07204927504062653,
        -0.13595488667488098,
        0.30267179012298584,
        -0.0692717507481575,
        0.4638166129589081,
        0.129851296544075,
        -0.4887412488460541,
        -0.07548551261425018,
        0.03603453189134598,
        -0.27324628829956055,
        -0.4499054253101349,
        0.23099642992019653,
        0.39097753167152405,
        0.24138328433036804,
        0.13683627545833588,
        -0.17013899981975555,
        -0.31152158975601196,
        0.07757551223039627,
        -0.36080288887023926,
        0.2868669927120209,
        -0.030647149309515953,
        -0.3885224163532257,
        0.20347289741039276,
        0.22716160118579865,
        0.38762080669403076,
        -0.14351317286491394,
        0.05786728486418724,
        -0.20753616094589233,
        0.24326230585575104,
        0.4705066382884979,
        0.27991893887519836,
        -0.06298580765724182,
        0.05814097076654434,
        0.36596664786338806,
        0.43350741267204285,
        -0.07978200167417526,
        0.08490928262472153,
        0.004737695679068565,
        -0.14623215794563293,
        -0.43669143319129944,
        -0.45114967226982117,
        0.12780749797821045,
        0.1402716040611267,
        -0.2590658962726593,
        0.15507939457893372,
        -0.4527614116668701,
        -0.33677202463150024,
        0.11819398403167725,
        -0.39485061168670654,
        -0.47986429929733276,
        0.13982756435871124,
        0.06805425882339478,
        0.11060226708650589,
        -0.22673843801021576,
        -0.06122628226876259,
        0.009272223338484764,
        0.04055611044168472,
        -0.2801722586154938,
        0.14465215802192688,
        -0.25405487418174744,
        -0.251307874917984,
        0.10840881615877151,
        -0.06805476546287537,
        -0.3311249017715454,
        0.11037761718034744,
        0.00504925986751914,
        0.23838484287261963,
        0.12939071655273438,
        0.22915728390216827,
        0.02681523934006691,
        -0.3150768280029297,
        0.3255992829799652,
        -0.2011948674917221,
        -0.003592554247006774,
        0.18552786111831665,
        -0.04614038020372391,
        -0.3264271318912506,
        0.3067344129085541,
        -0.019349081441760063,
        0.26832419633865356,
        -0.32364991307258606,
        -0.29393887519836426,
        0.36903658509254456,
        0.22520191967487335,
        -0.023174108937382698,
        0.3202376961708069,
        0.10923709720373154,
        0.12884849309921265,
        -0.3257068693637848,
        -0.43025141954421997,
        -0.45134884119033813,
        -0.192657932639122,
        0.36284875869750977,
        0.18116235733032227,
        0.14325538277626038,
        -0.35875916481018066,
        0.2440652847290039,
        -0.4467885494232178,
        0.3678347170352936,
        0.46474507451057434,
        -0.36897459626197815,
        0.4592108130455017,
        -0.04599229246377945,
        0.33371806144714355,
        0.22783257067203522,
        -0.2697145342826843,
        -0.2596927881240845,
        -0.4985921382904053,
        -0.42039912939071655,
        0.43012210726737976,
        0.21860851347446442,
        -0.2233649343252182,
        0.1738744080066681,
        0.10660411417484283,
        0.17787297070026398,
        0.4818224310874939,
        0.3284536898136139,
        0.03263099491596222,
        -0.4063754975795746,
        -0.4239679276943207,
        0.25856950879096985,
        0.17938345670700073,
        0.1360430270433426,
        0.04984215274453163,
        0.43485960364341736,
        -0.09278325736522675,
        -0.2062438428401947,
        0.2853449881076813,
        -0.08504084497690201,
        0.334029883146286,
        -0.2928153872489929,
        0.25633180141448975,
        -0.04177183285355568,
        -0.08141593635082245,
        -0.41004228591918945,
        0.4056703448295593,
        0.25496524572372437,
        -0.43618687987327576,
        -0.06754831969738007,
        0.2530153691768646,
        -0.49032458662986755,
        0.29334959387779236,
        -0.16410477459430695,
        -0.02525220438838005,
        0.46677759289741516,
        0.05327169969677925,
        -0.4958581328392029,
        0.20860859751701355,
        0.16563989222049713,
        -0.1913122981786728,
        -0.1119561418890953,
        -0.150870680809021,
        -0.2676219642162323,
        0.16894656419754028,
        0.01437520794570446,
        0.4771686792373657,
        0.20906880497932434,
        -0.2531278729438782,
        -0.3816521167755127,
        0.4812639653682709,
        -0.1540670394897461,
        -0.4824408292770386,
        0.4627586305141449,
        0.38521552085876465,
        -0.08178558945655823,
        0.018171435222029686,
        -0.20146359503269196,
        0.0679897889494896,
        0.08280003815889359,
        -0.10391927510499954,
        0.09772288799285889,
        -0.20632578432559967,
        0.3887004852294922,
        0.01121634989976883,
        -0.05106595158576965,
        0.10459490120410919,
        -0.4437052011489868,
        0.46434006094932556,
        -0.22960469126701355,
        -0.1155935674905777,
        -0.23481252789497375,
        -0.11857545375823975,
        -0.01572873257100582,
        -0.031106557697057724,
        -0.03803731128573418,
        0.1682586669921875,
        0.3124619126319885,
        -0.32302504777908325,
        0.404316782951355,
        -0.47086793184280396,
        0.2407299429178238,
        -0.25710418820381165,
        0.2732706367969513,
        0.12491393834352493,
        -0.134574756026268,
        -0.48132434487342834,
        -0.13161851465702057,
        0.18926231563091278,
        0.20151938498020172,
        -0.4315185248851776,
        0.44662728905677795,
        -0.2059846669435501,
        -0.002315540798008442,
        0.07820367813110352,
        0.42501792311668396,
        -0.27529603242874146,
        -0.14394013583660126,
        0.06981541216373444,
        0.10634014755487442,
        0.20952925086021423,
        -0.3585088849067688,
        0.19724704325199127,
        -0.4625486433506012,
        -0.13449111580848694,
        -0.3926045298576355,
        0.2438342273235321,
        0.13314370810985565,
        0.03739318624138832,
        0.17994406819343567,
        -0.42422857880592346,
        0.047959085553884506,
        0.02283479832112789,
        -0.039039917290210724,
        0.0947597399353981,
        0.15547946095466614,
        -0.4118453562259674,
        0.1620592474937439,
        -0.10180956870317459,
        0.16886620223522186,
        0.44922947883605957,
        0.14120665192604065,
        0.12677903473377228,
        -0.1305239498615265,
        0.34896916151046753,
        -0.031126197427511215,
        0.01877581514418125,
        -0.48596349358558655,
        0.2309783697128296,
        0.22646670043468475,
        -0.21206514537334442,
        0.3638196289539337,
        -0.4070735573768616,
        0.28197717666625977,
        0.3074938952922821,
        0.06902050971984863,
        0.47009724378585815,
        0.20212118327617645,
        -0.007728847675025463,
        -0.26936689019203186,
        -0.45667892694473267,
        0.04160678759217262,
        -0.28577667474746704,
        -0.4680863618850708,
        0.3771786093711853,
        0.3732725977897644,
        0.29755544662475586,
        0.4976210296154022,
        -0.4929623603820801,
        -0.3959670960903168,
        -0.42834195494651794,
        -0.27951547503471375,
        -0.2072598934173584,
        0.2695402503013611,
        -0.4447883367538452,
        0.12584777176380157,
        -0.10853631049394608,
        0.3377944231033325,
        0.11627711355686188,
        0.2257165163755417,
        0.01632094383239746,
        -0.2579650282859802,
        0.46305137872695923,
        -0.47652292251586914,
        0.3112892806529999,
        0.315561980009079,
        0.059165891259908676,
        -0.22659067809581757,
        -0.24750873446464539,
        -0.31202584505081177,
        0.0965476781129837,
        0.08413022756576538,
        -0.43369823694229126,
        -0.11587786674499512,
        0.059988971799612045,
        -0.1468222588300705,
        0.32691970467567444,
        0.27560803294181824,
        -0.1750262975692749,
        -0.023418746888637543,
        0.49085021018981934,
        0.1742521971464157,
        0.43632185459136963,
        0.4128294587135315,
        -0.3027733564376831,
        -0.18913401663303375,
        0.20492905378341675,
        0.4482375383377075,
        -0.0862942487001419,
        -0.388008177280426,
        0.13432635366916656,
        -0.4155951142311096,
        -0.017698265612125397,
        0.2503437101840973,
        0.02487579733133316,
        -0.38351956009864807,
        -0.3277563750743866,
        0.18968072533607483,
        -0.4913114607334137,
        -0.039923377335071564,
        -0.40650784969329834,
        -0.20039315521717072,
        -0.29158052802085876,
        0.3250774145126343,
        -0.1489667147397995,
        -0.20292912423610687,
        -0.3705168664455414,
        0.42378610372543335,
        -0.45716819167137146,
        0.48868730664253235,
        -0.4538308084011078,
        0.16901563107967377,
        0.43086034059524536,
        -0.1987788826227188,
        -0.3280375897884369,
        0.2732751965522766,
        0.3259822726249695,
        -0.22147777676582336,
        0.06379512697458267,
        0.24971753358840942,
        0.4448855519294739,
        0.3801085948944092,
        -0.07235807925462723,
        -0.00920277088880539,
        -0.011925622820854187,
        0.012589576654136181,
        0.12668316066265106,
        -0.09706537425518036,
        -0.150239035487175,
        0.4504488408565521,
        0.27845045924186707,
        0.18934579193592072,
        0.3719766438007355,
        -0.1589319407939911,
        0.05204411968588829,
        -0.13514861464500427,
        -0.23651979863643646,
        -0.49181321263313293,
        -0.09976968169212341,
        -0.026156477630138397,
        0.2941296100616455,
        -0.15626685321331024,
        0.09099408984184265,
        -0.041666485369205475,
        0.16407746076583862,
        -0.21567188203334808,
        -0.24160736799240112,
        -0.17651303112506866,
        0.27043211460113525,
        -0.3885718286037445,
        0.46265143156051636,
        0.334046870470047,
        0.039073146879673004,
        -0.251994788646698,
        0.43237805366516113,
        -0.07977958023548126,
        -0.11967570334672928,
        -0.20155006647109985,
        -0.07707411795854568,
        -0.36339783668518066,
        0.01096171885728836,
        -0.2240493893623352,
        -0.06657949090003967,
        -0.040777537971735,
        -0.42731866240501404,
        -0.26109325885772705,
        0.11195240914821625,
        -0.39897042512893677,
        0.12600362300872803,
        0.028156697750091553,
        -0.10513122379779816,
        0.10327649861574173,
        -0.3506218492984772,
        0.4324440062046051,
        0.15540242195129395,
        -0.3217760920524597,
        -0.24685047566890717,
        -0.2428380697965622,
        -0.4021444320678711,
        -0.09173079580068588,
        0.4168080985546112,
        0.013613269664347172,
        0.2900499105453491,
        0.07708648592233658,
        0.04570695012807846,
        -0.30756863951683044,
        0.09389489889144897,
        0.4416879713535309,
        0.422604501247406,
        0.22521115839481354,
        -0.20715287327766418,
        0.036389321088790894,
        0.44599205255508423,
        -0.03176542744040489,
        0.3238024413585663,
        0.3847114145755768,
        0.19260068237781525,
        -0.1651642769575119,
        0.4066646099090576,
        0.09278793632984161,
        -0.04275383800268173,
        -0.468616247177124,
        -0.13855841755867004,
        0.40434861183166504,
        0.005943248048424721,
        -0.18895472586154938,
        0.3009551167488098,
        0.129358172416687,
        -0.06142498925328255,
        0.45618385076522827,
        -0.3919615149497986,
        0.09380076825618744,
        -0.05028476193547249,
        0.009784575551748276,
        0.33981025218963623,
        0.43258023262023926,
        -0.20093250274658203,
        0.35879603028297424,
        -0.33535435795783997,
        -0.25719720125198364,
        -0.23717427253723145,
        -0.23500043153762817,
        0.3042246699333191,
        0.04772671312093735,
        -0.0767458900809288,
        0.20449061691761017,
        0.0563582107424736,
        0.2971527874469757,
        -0.4532369375228882,
        0.035798244178295135,
        0.3609147369861603,
        -0.03684331104159355,
        0.001729627838358283,
        0.35199087858200073,
        0.09756451845169067,
        -0.2427322417497635,
        -0.17043618857860565,
        -0.24631431698799133,
        -0.23625916242599487,
        0.02790088951587677,
        0.37530800700187683,
        0.1316259503364563,
        -0.410738468170166,
        -0.11093562841415405,
        -0.025515945628285408,
        0.4136575758457184,
        -0.2946290373802185,
        -0.14778251945972443,
        0.2931915521621704,
        0.3987700939178467,
        0.31108784675598145,
        -0.10462859272956848,
        0.10569539666175842,
        0.4463536739349365,
        -0.23980331420898438,
        -0.39236021041870117,
        -0.2723463177680969,
        0.04976804181933403,
        0.06005185842514038,
        -0.16654878854751587,
        -0.22558817267417908,
        -0.18965376913547516,
        0.06069199740886688,
        -0.012436692602932453,
        -0.2150171399116516,
        -0.2520545721054077,
        -0.07100624591112137,
        -0.23916620016098022,
        -0.17397919297218323,
        -0.44037550687789917,
        -0.36419153213500977,
        0.33637887239456177,
        0.4128932058811188,
        -0.21302829682826996,
        0.17175160348415375,
        -0.4780506491661072,
        -0.29622700810432434,
        0.36739668250083923,
        -0.3970279395580292,
        0.06476523727178574,
        0.21118269860744476,
        -0.1040278822183609,
        0.49081510305404663,
        -0.030705386772751808,
        0.2223760187625885,
        -0.008437203243374825,
        0.41745954751968384,
        0.36834704875946045,
        0.4165100157260895,
        -0.33314207196235657,
        0.027843112125992775,
        -0.38049593567848206,
        0.05944202095270157,
        -0.2616886496543884,
        -0.15081147849559784,
        0.2517566680908203,
        -0.1579301357269287,
        -0.18407592177391052,
        0.07832080870866776,
        0.1604384034872055,
        -0.39138659834861755,
        -0.1428135484457016,
        0.23234017193317413,
        -0.4826016128063202,
        -0.39490950107574463,
        -0.2461448609828949,
        -0.38074982166290283,
        -0.08907521516084671,
        -0.1986221820116043,
        -0.18146651983261108
      ]
    },
    {
      "name": "dense_Dense25/bias",
      "shape": [
        56
      ],
      "dtype": "float32",
      "values": [
        0,
        0,
        0,
        0,
        0,
        0,
        0,
        0,
        0,
        0,
        0,
        0,
        0,
        0,
        0,
        0,
        0,
        0,
        0,
        0,
        0,
        0,
        0,
        0,
        0,
        0,
        0,
        0,
        0,
        0,
        0,
        0,
        0,
        0,
        0,
        0,
        0,
        0,
        0,
        0,
        0,
        0,
        0,
        0,
        0,
        0,
        0,
        0,
        0,
        0,
        0,
        0,
        0,
        0,
        0,
        0
      ]
    },
    {
      "name": "dense_Dense26/kernel",
      "shape": [
        56,
        16
      ],
      "dtype": "float32",
      "values": [
        -0.09780988097190857,
        -0.3433936536312103,
        0.015636367723345757,
        0.03974524140357971,
        0.41999343037605286,
        -0.3619142472743988,
        -0.3013037443161011,
        -0.3410519063472748,
        0.042297277599573135,
        0.3229997456073761,
        -0.4648345708847046,
        -0.36547550559043884,
        -0.1625923067331314,
        -0.0927470251917839,
        0.20235534012317657,
        -0.40054452419281006,
        -0.30216577649116516,
        0.3063613176345825,
        0.4781147837638855,
        0.2998761236667633,
        0.2533673644065857,
        -0.4460863173007965,
        -0.4070154130458832,
        0.03968166559934616,
        0.4636821448802948,
        -0.32854655385017395,
        -0.27670618891716003,
        -0.31463003158569336,
        0.2433665543794632,
        -0.4474310576915741,
        -0.4469621181488037,
        -0.030778983607888222,
        -0.2224450558423996,
        -0.3866161108016968,
        0.4765572249889374,
        0.2373054176568985,
        -0.30992209911346436,
        -0.3448280394077301,
        0.2523480951786041,
        -0.15884847939014435,
        0.2265218198299408,
        0.14625971019268036,
        0.33552321791648865,
        -0.14173650741577148,
        -0.48567846417427063,
        0.4580543041229248,
        0.3835453391075134,
        -0.04568539559841156,
        0.2514983117580414,
        0.3710191547870636,
        -0.35473379492759705,
        -0.3025045692920685,
        0.14887556433677673,
        -0.01190551370382309,
        -0.35230377316474915,
        -0.059007029980421066,
        -0.03646194934844971,
        -0.284775972366333,
        -0.4051092863082886,
        -0.2365194708108902,
        0.47308337688446045,
        -0.390678733587265,
        -0.3527701795101166,
        -0.3448925018310547,
        0.13408511877059937,
        0.10922899842262268,
        0.36418843269348145,
        -0.3517681658267975,
        -0.36276352405548096,
        -0.2739417254924774,
        -0.02392089180648327,
        -0.3360807001590729,
        -0.20546647906303406,
        0.1289188712835312,
        -0.4711223244667053,
        0.28905194997787476,
        -0.2559739649295807,
        0.20336191356182098,
        0.3359968066215515,
        -0.14371800422668457,
        -0.2786726951599121,
        0.04053155705332756,
        -0.17249561846256256,
        0.34903979301452637,
        0.3831362724304199,
        0.4407668113708496,
        0.25498154759407043,
        -0.2507973313331604,
        0.039850059896707535,
        0.35601723194122314,
        -0.4716397225856781,
        -0.058011360466480255,
        -0.4673798084259033,
        -0.03485751897096634,
        0.17455807328224182,
        0.15730713307857513,
        -0.3451330363750458,
        0.4672505557537079,
        -0.257354199886322,
        0.2905026078224182,
        0.47552159428596497,
        -0.06378006190061569,
        -0.4362126588821411,
        -0.48328134417533875,
        0.13899031281471252,
        -0.40891215205192566,
        -0.11277547478675842,
        -0.42939844727516174,
        0.4057323932647705,
        0.4260418117046356,
        0.4306475520133972,
        -0.28901374340057373,
        -0.3057299554347992,
        0.21744471788406372,
        -0.4343113303184509,
        0.29697707295417786,
        -0.1413041204214096,
        0.4944273829460144,
        -0.1462603360414505,
        -0.2004670351743698,
        -0.3927605450153351,
        0.18866783380508423,
        0.34044015407562256,
        -0.2768784463405609,
        -0.016299467533826828,
        -0.12155792117118835,
        0.25206291675567627,
        0.3991096615791321,
        -0.28065305948257446,
        -0.3492998778820038,
        0.34889888763427734,
        0.11478079855442047,
        -0.264698326587677,
        -0.46537119150161743,
        -0.009748995304107666,
        -0.351592093706131,
        0.43776047229766846,
        -0.3787720203399658,
        0.2868662476539612,
        -0.1112365648150444,
        -0.3381611406803131,
        -0.3690512776374817,
        0.27000799775123596,
        -0.02117614448070526,
        -0.042305584996938705,
        0.2516542077064514,
        0.14973552525043488,
        -0.008342240005731583,
        -0.2565991282463074,
        -0.34897059202194214,
        0.04577307030558586,
        0.2503894865512848,
        -0.4878326952457428,
        -0.2589775621891022,
        0.4145524501800537,
        0.08662543445825577,
        0.44979918003082275,
        0.04616166278719902,
        0.14436818659305573,
        -0.48772385716438293,
        -0.4687558710575104,
        0.12337232381105423,
        -0.22205573320388794,
        -0.07890879362821579,
        0.3610970675945282,
        -0.4377702474594116,
        0.2826346755027771,
        -0.3074735105037689,
        -0.29785650968551636,
        -0.3103896379470825,
        0.4440514147281647,
        -0.31631821393966675,
        -0.08156751096248627,
        0.23766303062438965,
        0.4609883427619934,
        0.22033235430717468,
        0.27755188941955566,
        0.167892724275589,
        -0.2562492787837982,
        0.33194753527641296,
        -0.014613337814807892,
        -0.0024327184073626995,
        0.44105058908462524,
        0.1721375286579132,
        -0.368460476398468,
        -0.40223923325538635,
        -0.420036256313324,
        -0.30060529708862305,
        -0.26997798681259155,
        -0.21361033618450165,
        0.24580775201320648,
        -0.49697554111480713,
        0.2769964635372162,
        0.07539565116167068,
        -0.43370556831359863,
        -0.38328805565834045,
        0.47796058654785156,
        0.4981374442577362,
        -0.25320884585380554,
        -0.022954672574996948,
        -0.3239477872848511,
        -0.46986183524131775,
        0.11026909947395325,
        0.1831495761871338,
        -0.36249247193336487,
        0.14945627748966217,
        -0.19747234880924225,
        -0.3770466148853302,
        -0.42649781703948975,
        0.13509926199913025,
        -0.38829389214515686,
        -0.45042985677719116,
        -0.10982562601566315,
        0.3681076169013977,
        0.32683590054512024,
        0.43063241243362427,
        0.23474909365177155,
        -0.28485792875289917,
        -0.48225492238998413,
        0.3726118505001068,
        0.04030106961727142,
        -0.21811802685260773,
        0.4827598035335541,
        0.2869431674480438,
        -0.15718190371990204,
        0.2537812888622284,
        -0.47142457962036133,
        0.19900745153427124,
        -0.14689059555530548,
        -0.03543846681714058,
        -0.2472224235534668,
        -0.1121792197227478,
        -0.4766879975795746,
        -0.05622173845767975,
        -0.4327865540981293,
        -0.18105660378932953,
        0.4162834882736206,
        -0.24134211242198944,
        -0.041485633701086044,
        -0.22948148846626282,
        0.43550196290016174,
        0.02732807584106922,
        -0.4249868094921112,
        -0.1087157279253006,
        0.47016671299934387,
        -0.0034683735575526953,
        -0.06371038407087326,
        0.05454268679022789,
        0.4150729179382324,
        -0.11842883378267288,
        -0.3860103189945221,
        -0.28649958968162537,
        -0.36653172969818115,
        -0.2325555831193924,
        0.3013513386249542,
        -0.04050329700112343,
        -0.3257942795753479,
        0.2316933125257492,
        -0.27329787611961365,
        -0.003381011774763465,
        -0.22847512364387512,
        0.48310649394989014,
        0.1440228521823883,
        -0.4939984381198883,
        0.3572462201118469,
        -0.19231027364730835,
        -0.37444713711738586,
        0.1163644939661026,
        0.32708612084388733,
        -0.20947235822677612,
        -0.483222097158432,
        0.08068498969078064,
        0.45917564630508423,
        -0.20098179578781128,
        -0.1361449658870697,
        -0.3397621512413025,
        -0.3653016984462738,
        -0.10652150958776474,
        0.24755293130874634,
        -0.25967851281166077,
        0.45724695920944214,
        0.35078439116477966,
        0.2716422975063324,
        -0.44587498903274536,
        0.31215670704841614,
        -0.3668188750743866,
        0.46811941266059875,
        0.11240654438734055,
        0.351911723613739,
        -0.2002110481262207,
        -0.08402375131845474,
        0.2859659492969513,
        -0.2204928696155548,
        -0.35649898648262024,
        -0.44955697655677795,
        -0.49904999136924744,
        -0.16543248295783997,
        0.08495469391345978,
        -0.39662715792655945,
        -0.04539593309164047,
        -0.4541715979576111,
        0.18096846342086792,
        0.09790246933698654,
        -0.0009481930173933506,
        -0.311908483505249,
        -0.3814767897129059,
        -0.2772035300731659,
        0.051712602376937866,
        0.2447834014892578,
        0.2846450209617615,
        0.09408360719680786,
        -0.48429274559020996,
        -0.3779948353767395,
        -0.05900534987449646,
        0.3798978924751282,
        0.2746580243110657,
        0.11148826032876968,
        0.22767964005470276,
        0.4123646020889282,
        0.19810603559017181,
        -0.37190890312194824,
        -0.1332288533449173,
        0.325717031955719,
        -0.14201423525810242,
        0.3339938819408417,
        0.45984339714050293,
        -0.4970349669456482,
        -0.38958969712257385,
        0.3555118441581726,
        0.26219528913497925,
        -0.031770188361406326,
        0.4577368199825287,
        -0.09552442282438278,
        0.23584412038326263,
        0.20898935198783875,
        0.38687747716903687,
        -0.23774071037769318,
        0.2664119005203247,
        0.009099694900214672,
        0.2723541557788849,
        -0.46163493394851685,
        0.27662762999534607,
        -0.4300958514213562,
        0.374610960483551,
        0.14621248841285706,
        -0.2693418264389038,
        -0.0964251458644867,
        -0.2609056532382965,
        0.11378494650125504,
        0.4063894748687744,
        -0.4652480185031891,
        0.035727359354496,
        0.06781899183988571,
        0.06958656758069992,
        -0.26422518491744995,
        -0.1441611498594284,
        -0.025965522974729538,
        0.2972608506679535,
        -0.08467699587345123,
        -0.499362051486969,
        0.3750251829624176,
        0.29244253039360046,
        -0.14375588297843933,
        0.3069455921649933,
        0.1783931851387024,
        -0.408496230840683,
        0.3857468068599701,
        0.1539902687072754,
        0.34573304653167725,
        0.08536524325609207,
        0.03698304668068886,
        -0.3037258982658386,
        0.27975577116012573,
        0.18160022795200348,
        0.05445070564746857,
        0.06643225252628326,
        0.11908604204654694,
        0.2188677042722702,
        0.2890508472919464,
        0.01017604861408472,
        0.23370280861854553,
        0.022119982168078423,
        -0.37995561957359314,
        -0.0981404259800911,
        0.018713364377617836,
        0.014902947470545769,
        -0.33898913860321045,
        -0.39753785729408264,
        -0.4136030375957489,
        0.12172175943851471,
        0.31475967168807983,
        -0.25510478019714355,
        -0.022228702902793884,
        -0.39963722229003906,
        -0.11084596812725067,
        -0.42081764340400696,
        0.2133881002664566,
        0.24963416159152985,
        0.4160715639591217,
        -0.13802215456962585,
        -0.44617846608161926,
        0.4845220744609833,
        0.47616228461265564,
        -0.2711872458457947,
        0.2950885593891144,
        -0.402487576007843,
        0.16274282336235046,
        -0.23042263090610504,
        0.2971856892108917,
        0.2363622933626175,
        0.04828989505767822,
        0.20032855868339539,
        -0.41258105635643005,
        0.027680156752467155,
        0.0205790214240551,
        0.36051681637763977,
        -0.10602884739637375,
        -0.11400264501571655,
        0.015038919635117054,
        -0.07045923918485641,
        -0.3704341948032379,
        -0.00849834643304348,
        -0.29672151803970337,
        0.3743802309036255,
        -0.47179776430130005,
        -0.3243555724620819,
        0.2641271650791168,
        0.3818904757499695,
        0.2503686547279358,
        -0.3350854814052582,
        0.031198231503367424,
        -0.18228791654109955,
        0.1576303243637085,
        0.43831077218055725,
        0.48868855834007263,
        -0.26290151476860046,
        -0.07303886860609055,
        0.060596764087677,
        -0.043435677886009216,
        0.05061410740017891,
        -0.44231748580932617,
        0.2458241730928421,
        0.4426717460155487,
        0.47075653076171875,
        0.4388127624988556,
        0.47878748178482056,
        -0.2637370824813843,
        -0.08305403590202332,
        -0.43869584798812866,
        0.21645446121692657,
        -0.06584198772907257,
        -0.32364609837532043,
        -0.3954768776893616,
        0.33243826031684875,
        0.21472269296646118,
        0.11281470954418182,
        -0.18077917397022247,
        0.3728350102901459,
        -0.34852567315101624,
        0.23693950474262238,
        0.23850378394126892,
        0.11142214387655258,
        -0.09700985252857208,
        -0.1981119066476822,
        -0.099992536008358,
        0.41374772787094116,
        0.40258264541625977,
        -0.28057199716567993,
        -0.11164597421884537,
        -0.45131513476371765,
        -0.34234100580215454,
        -0.06694430112838745,
        -0.30872705578804016,
        0.1795607954263687,
        -0.3158610761165619,
        0.4489954710006714,
        0.37193092703819275,
        -0.34554341435432434,
        0.41760414838790894,
        0.2162034809589386,
        -0.09876395016908646,
        0.12048317492008209,
        -0.37609660625457764,
        0.46648508310317993,
        0.3003970980644226,
        -0.33933448791503906,
        0.4078941345214844,
        0.2935740053653717,
        -0.26464924216270447,
        0.24952077865600586,
        -0.14788749814033508,
        0.29591265320777893,
        0.3784259557723999,
        -0.2583577334880829,
        0.4345264136791229,
        0.4764055013656616,
        -0.11965344846248627,
        0.36427921056747437,
        0.3040371835231781,
        0.18459586799144745,
        -0.4038946032524109,
        0.05138203874230385,
        -0.0906706377863884,
        0.3172220289707184,
        -0.32089829444885254,
        -0.23652338981628418,
        -0.03819034621119499,
        -0.39363569021224976,
        0.457918256521225,
        -0.41499555110931396,
        0.2436550110578537,
        -0.3123874068260193,
        0.15015962719917297,
        0.33589038252830505,
        0.29181212186813354,
        -0.26402440667152405,
        0.41098880767822266,
        -0.4057616889476776,
        0.2709975242614746,
        0.22563615441322327,
        0.04223174601793289,
        -0.03706422448158264,
        0.3851391673088074,
        -0.4345853924751282,
        0.019424648955464363,
        0.1141970232129097,
        0.21937589347362518,
        0.35334840416908264,
        -0.056693993508815765,
        0.18400134146213531,
        0.3259870409965515,
        -0.3669862151145935,
        0.3952193558216095,
        0.20634110271930695,
        0.3316071331501007,
        0.1953672468662262,
        0.10208266228437424,
        0.39859598875045776,
        -0.25500595569610596,
        0.07166549563407898,
        -0.06539986282587051,
        -0.37543076276779175,
        0.3525598347187042,
        0.10244113206863403,
        0.38085076212882996,
        -0.07204927504062653,
        -0.13595488667488098,
        0.30267179012298584,
        -0.0692717507481575,
        0.4638166129589081,
        0.129851296544075,
        -0.4887412488460541,
        -0.07548551261425018,
        0.03603453189134598,
        -0.27324628829956055,
        -0.4499054253101349,
        0.23099642992019653,
        0.39097753167152405,
        0.24138328433036804,
        0.13683627545833588,
        -0.17013899981975555,
        -0.31152158975601196,
        0.07757551223039627,
        -0.36080288887023926,
        0.2868669927120209,
        -0.030647149309515953,
        -0.3885224163532257,
        0.20347289741039276,
        0.22716160118579865,
        0.38762080669403076,
        -0.14351317286491394,
        0.05786728486418724,
        -0.20753616094589233,
        0.24326230585575104,
        0.4705066382884979,
        0.27991893887519836,
        -0.06298580765724182,
        0.05814097076654434,
        0.36596664786338806,
        0.43350741267204285,
        -0.07978200167417526,
        0.08490928262472153,
        0.004737695679068565,
        -0.14623215794563293,
        -0.43669143319129944,
        -0.45114967226982117,
        0.12780749797821045,
        0.1402716040611267,
        -0.2590658962726593,
        0.15507939457893372,
        -0.4527614116668701,
        -0.33677202463150024,
        0.11819398403167725,
        -0.39485061168670654,
        -0.47986429929733276,
        0.13982756435871124,
        0.06805425882339478,
        0.11060226708650589,
        -0.22673843801021576,
        -0.06122628226876259,
        0.009272223338484764,
        0.04055611044168472,
        -0.2801722586154938,
        0.14465215802192688,
        -0.25405487418174744,
        -0.251307874917984,
        0.10840881615877151,
        -0.06805476546287537,
        -0.3311249017715454,
        0.11037761718034744,
        0.00504925986751914,
        0.23838484287261963,
        0.12939071655273438,
        0.22915728390216827,
        0.02681523934006691,
        -0.3150768280029297,
        0.3255992829799652,
        -0.2011948674917221,
        -0.003592554247006774,
        0.18552786111831665,
        -0.04614038020372391,
        -0.3264271318912506,
        0.3067344129085541,
        -0.019349081441760063,
        0.26832419633865356,
        -0.32364991307258606,
        -0.29393887519836426,
        0.36903658509254456,
        0.22520191967487335,
        -0.023174108937382698,
        0.3202376961708069,
        0.10923709720373154,
        0.12884849309921265,
        -0.3257068693637848,
        -0.43025141954421997,
        -0.45134884119033813,
        -0.192657932639122,
        0.36284875869750977,
        0.18116235733032227,
        0.14325538277626038,
        -0.35875916481018066,
        0.2440652847290039,
        -0.4467885494232178,
        0.3678347170352936,
        0.46474507451057434,
        -0.36897459626197815,
        0.4592108130455017,
        -0.04599229246377945,
        0.33371806144714355,
        0.22783257067203522,
        -0.2697145342826843,
        -0.2596927881240845,
        -0.4985921382904053,
        -0.42039912939071655,
        0.43012210726737976,
        0.21860851347446442,
        -0.2233649343252182,
        0.1738744080066681,
        0.10660411417484283,
        0.17787297070026398,
        0.4818224310874939,
        0.3284536898136139,
        0.03263099491596222,
        -0.4063754975795746,
        -0.4239679276943207,
        0.25856950879096985,
        0.17938345670700073,
        0.1360430270433426,
        0.04984215274453163,
        0.43485960364341736,
        -0.09278325736522675,
        -0.2062438428401947,
        0.2853449881076813,
        -0.08504084497690201,
        0.334029883146286,
        -0.2928153872489929,
        0.25633180141448975,
        -0.04177183285355568,
        -0.08141593635082245,
        -0.41004228591918945,
        0.4056703448295593,
        0.25496524572372437,
        -0.43618687987327576,
        -0.06754831969738007,
        0.2530153691768646,
        -0.49032458662986755,
        0.29334959387779236,
        -0.16410477459430695,
        -0.02525220438838005,
        0.46677759289741516,
        0.05327169969677925,
        -0.4958581328392029,
        0.20860859751701355,
        0.16563989222049713,
        -0.1913122981786728,
        -0.1119561418890953,
        -0.150870680809021,
        -0.2676219642162323,
        0.16894656419754028,
        0.01437520794570446,
        0.4771686792373657,
        0.20906880497932434,
        -0.2531278729438782,
        -0.3816521167755127,
        0.4812639653682709,
        -0.1540670394897461,
        -0.4824408292770386,
        0.4627586305141449,
        0.38521552085876465,
        -0.08178558945655823,
        0.018171435222029686,
        -0.20146359503269196,
        0.0679897889494896,
        0.08280003815889359,
        -0.10391927510499954,
        0.09772288799285889,
        -0.20632578432559967,
        0.3887004852294922,
        0.01121634989976883,
        -0.05106595158576965,
        0.10459490120410919,
        -0.4437052011489868,
        0.46434006094932556,
        -0.22960469126701355,
        -0.1155935674905777,
        -0.23481252789497375,
        -0.11857545375823975,
        -0.01572873257100582,
        -0.031106557697057724,
        -0.03803731128573418,
        0.1682586669921875,
        0.3124619126319885,
        -0.32302504777908325,
        0.404316782951355,
        -0.47086793184280396,
        0.2407299429178238,
        -0.25710418820381165,
        0.2732706367969513,
        0.12491393834352493,
        -0.134574756026268,
        -0.48132434487342834,
        -0.13161851465702057,
        0.18926231563091278,
        0.20151938498020172,
        -0.4315185248851776,
        0.44662728905677795,
        -0.2059846669435501,
        -0.002315540798008442,
        0.07820367813110352,
        0.42501792311668396,
        -0.27529603242874146,
        -0.14394013583660126,
        0.06981541216373444,
        0.10634014755487442,
        0.20952925086021423,
        -0.3585088849067688,
        0.19724704325199127,
        -0.4625486433506012,
        -0.13449111580848694,
        -0.3926045298576355,
        0.2438342273235321,
        0.13314370810985565,
        0.03739318624138832,
        0.17994406819343567,
        -0.42422857880592346,
        0.047959085553884506,
        0.02283479832112789,
        -0.039039917290210724,
        0.0947597399353981,
        0.15547946095466614,
        -0.4118453562259674,
        0.1620592474937439,
        -0.10180956870317459,
        0.16886620223522186,
        0.44922947883605957,
        0.14120665192604065,
        0.12677903473377228,
        -0.1305239498615265,
        0.34896916151046753,
        -0.031126197427511215,
        0.01877581514418125,
        -0.48596349358558655,
        0.2309783697128296,
        0.22646670043468475,
        -0.21206514537334442,
        0.3638196289539337,
        -0.4070735573768616,
        0.28197717666625977,
        0.3074938952922821,
        0.06902050971984863,
        0.47009724378585815,
        0.20212118327617645,
        -0.007728847675025463,
        -0.26936689019203186,
        -0.45667892694473267,
        0.04160678759217262,
        -0.28577667474746704,
        -0.4680863618850708,
        0.3771786093711853,
        0.3732725977897644,
        0.29755544662475586,
        0.4976210296154022,
        -0.4929623603820801,
        -0.3959670960903168,
        -0.42834195494651794,
        -0.27951547503471375,
        -0.2072598934173584,
        0.2695402503013611,
        -0.4447883367538452,
        0.12584777176380157,
        -0.10853631049394608,
        0.3377944231033325,
        0.11627711355686188,
        0.2257165163755417,
        0.01632094383239746,
        -0.2579650282859802,
        0.46305137872695923,
        -0.47652292251586914,
        0.3112892806529999,
        0.315561980009079,
        0.059165891259908676,
        -0.22659067809581757,
        -0.24750873446464539,
        -0.31202584505081177,
        0.0965476781129837,
        0.08413022756576538,
        -0.43369823694229126,
        -0.11587786674499512,
        0.059988971799612045,
        -0.1468222588300705,
        0.32691970467567444,
        0.27560803294181824,
        -0.1750262975692749,
        -0.023418746888637543,
        0.49085021018981934,
        0.1742521971464157,
        0.43632185459136963,
        0.4128294587135315,
        -0.3027733564376831,
        -0.18913401663303375,
        0.20492905378341675,
        0.4482375383377075,
        -0.0862942487001419,
        -0.388008177280426,
        0.13432635366916656,
        -0.4155951142311096,
        -0.017698265612125397,
        0.2503437101840973,
        0.02487579733133316,
        -0.38351956009864807,
        -0.3277563750743866,
        0.18968072533607483,
        -0.4913114607334137,
        -0.039923377335071564,
        -0.40650784969329834,
        -0.20039315521717072,
        -0.29158052802085876,
        0.3250774145126343,
        -0.1489667147397995,
        -0.20292912423610687,
        -0.3705168664455414,
        0.42378610372543335,
        -0.45716819167137146,
        0.48868730664253235,
        -0.4538308084011078,
        0.16901563107967377,
        0.43086034059524536,
        -0.1987788826227188,
        -0.3280375897884369,
        0.2732751965522766,
        0.3259822726249695,
        -0.22147777676582336,
        0.06379512697458267,
        0.24971753358840942,
        0.4448855519294739,
        0.3801085948944092,
        -0.07235807925462723,
        -0.00920277088880539,
        -0.011925622820854187,
        0.012589576654136181,
        0.12668316066265106,
        -0.09706537425518036,
        -0.150239035487175,
        0.4504488408565521,
        0.27845045924186707,
        0.18934579193592072,
        0.3719766438007355,
        -0.1589319407939911,
        0.05204411968588829,
        -0.13514861464500427,
        -0.23651979863643646,
        -0.49181321263313293,
        -0.09976968169212341,
        -0.026156477630138397,
        0.2941296100616455,
        -0.15626685321331024
      ]
    },
    {
      "name": "dense_Dense26/bias",
      "shape": [
        16
      ],
      "dtype": "float32",
      "values": [
        0,
        0,
        0,
        0,
        0,
        0,
        0,
        0,
        0,
        0,
        0,
        0,
        0,
        0,
        0,
        0
      ]
    }
  ]
}
