{
  "version": 1,
  "createdAt": 1762626416448,
  "backend": "webgl",
  "config": {
    "inputSize": 19,
    "outputSize": 16,
    "hiddenLayers": [
      56
    ],
    "activation": "relu",
    "outputActivation": "tanh",
    "backend": "webgl",
    "seed": 1762626404598
  },
  "metadata": {
    "label": "20",
    "notes": "",
    "correlations": [
      {
        "id": "rms-deltaposx",
        "featureKey": "bandBass",
        "targetId": "deltaPosX",
        "targetIndex": 0,
        "axis": "x",
        "group": "deltaPos",
        "featureIndex": 4,
        "baseIndex": null,
        "strength": 0.65,
        "polarity": "direct",
        "source": "audio"
      },
      {
        "id": "tempoproxy-rotationspeed",
        "featureKey": "tempoProxy",
        "targetId": "rotationSpeed",
        "targetIndex": 9,
        "axis": null,
        "group": "rotationSpeed",
        "featureIndex": 10,
        "baseIndex": null,
        "strength": 0.65,
        "polarity": "direct",
        "source": "audio"
      },
      {
        "id": "bandbass-wobblestrength",
        "featureKey": "bandBass",
        "targetId": "wobbleStrength",
        "targetIndex": 10,
        "axis": null,
        "group": "wobbleStrength",
        "featureIndex": 4,
        "baseIndex": null,
        "strength": 0.6,
        "polarity": "direct",
        "source": "audio"
      },
      {
        "id": "bandhigh-wobblefrequency",
        "featureKey": "bandHigh",
        "targetId": "wobbleFrequency",
        "targetIndex": 11,
        "axis": null,
        "group": "wobbleFrequency",
        "featureIndex": 7,
        "baseIndex": null,
        "strength": 0.6,
        "polarity": "direct",
        "source": "audio"
      },
      {
        "id": "speccentroid-colormix",
        "featureKey": "specCentroid",
        "targetId": "colorMix",
        "targetIndex": 12,
        "axis": null,
        "group": "colorMix",
        "featureIndex": 1,
        "baseIndex": null,
        "strength": 0.55,
        "polarity": "direct",
        "source": "audio"
      },
      {
        "id": "rms-alphascale",
        "featureKey": "rms",
        "targetId": "alphaScale",
        "targetIndex": 13,
        "axis": null,
        "group": "alphaScale",
        "featureIndex": 0,
        "baseIndex": null,
        "strength": 0.5,
        "polarity": "direct",
        "source": "audio"
      },
      {
        "id": "peak-pointscale",
        "featureKey": "peak",
        "targetId": "pointScale",
        "targetIndex": 14,
        "axis": null,
        "group": "pointScale",
        "featureIndex": 8,
        "baseIndex": null,
        "strength": 0.55,
        "polarity": "direct",
        "source": "audio"
      },
      {
        "id": "bandlowmid-camerazoom",
        "featureKey": "bandLowMid",
        "targetId": "cameraZoom",
        "targetIndex": 15,
        "axis": null,
        "group": "cameraZoom",
        "featureIndex": 5,
        "baseIndex": null,
        "strength": 0.6,
        "polarity": "direct",
        "source": "audio"
      }
    ],
    "training": {
      "status": "idle",
      "epoch": 0,
      "epochs": 24,
      "loss": null,
      "best": null,
      "metadata": null
    }
  },
  "weights": [
    {
      "name": "dense_Dense7/kernel",
      "shape": [
        19,
        56
      ],
      "dtype": "float32",
      "values": [
        0.2305183857679367,
        0.08064782619476318,
        0.38137543201446533,
        0.23667441308498383,
        0.1393769532442093,
        -0.2749089002609253,
        0.44093185663223267,
        0.2573425769805908,
        -0.19737538695335388,
        0.259505033493042,
        -0.19946180284023285,
        -0.05905789136886597,
        -0.12675239145755768,
        -0.09130503982305527,
        0.21324947476387024,
        -0.23584820330142975,
        -0.17519071698188782,
        -0.09480427950620651,
        -0.2958618700504303,
        0.2625903785228729,
        -0.3218929171562195,
        -0.21996910870075226,
        0.25784972310066223,
        0.1908298134803772,
        0.02915002591907978,
        -0.4911329448223114,
        0.06745841354131699,
        0.3313997983932495,
        0.1811174899339676,
        -0.3440495729446411,
        -0.2733701169490814,
        0.4025239050388336,
        -0.4990156888961792,
        0.41371864080429077,
        -0.31190505623817444,
        0.343412309885025,
        0.02465381845831871,
        0.20883207023143768,
        -0.4029148817062378,
        -0.11042892932891846,
        0.3149772584438324,
        -0.46432802081108093,
        -0.4474733769893646,
        -0.27755311131477356,
        0.3857437074184418,
        0.25418561697006226,
        0.10779516398906708,
        -0.41647666692733765,
        -0.4571799635887146,
        -0.43403077125549316,
        0.15142081677913666,
        -0.4462030529975891,
        0.3170197606086731,
        -0.32392072677612305,
        0.3224552869796753,
        -0.10832302272319794,
        -0.23096635937690735,
        0.02486877143383026,
        0.3463447690010071,
        -0.2588929533958435,
        0.493318110704422,
        0.2562509775161743,
        0.42710110545158386,
        0.3760102093219757,
        -0.4894011616706848,
        0.35869380831718445,
        -0.359417587518692,
        0.4323429763317108,
        -0.06483598053455353,
        0.12737131118774414,
        0.4000591039657593,
        -0.4611392915248871,
        -0.18906070291996002,
        0.204011470079422,
        0.0913844183087349,
        0.27406007051467896,
        0.3337809443473816,
        0.2146437168121338,
        -0.2961266040802002,
        0.24103078246116638,
        0.1574203222990036,
        0.036576371639966965,
        0.3761296272277832,
        0.4863610565662384,
        -0.4362271726131439,
        0.3815554678440094,
        -0.2733370363712311,
        0.21828603744506836,
        0.32694369554519653,
        -0.41911211609840393,
        -0.3962041139602661,
        0.1730683147907257,
        -0.21778136491775513,
        0.009196722880005836,
        0.44618406891822815,
        -0.00818236730992794,
        0.22487245500087738,
        -0.013659902848303318,
        0.44188302755355835,
        -0.013568853959441185,
        0.4143323004245758,
        -0.2439129650592804,
        -0.144642174243927,
        -0.42071524262428284,
        0.12038169801235199,
        -0.20818570256233215,
        -0.4374402165412903,
        0.05107848718762398,
        -0.33052366971969604,
        -0.019866080954670906,
        -0.2470288872718811,
        -0.19481848180294037,
        0.3303805887699127,
        -0.24964067339897156,
        0.07881231606006622,
        -0.07797225564718246,
        -0.16027119755744934,
        -0.09323147684335709,
        0.19237424433231354,
        -0.4832863509654999,
        0.40132832527160645,
        0.48197904229164124,
        0.405393123626709,
        -0.049346957355737686,
        0.16637477278709412,
        0.0813366025686264,
        -0.018147682771086693,
        -0.03786390274763107,
        -0.1866934448480606,
        -0.4012475311756134,
        0.38747748732566833,
        -0.30516043305397034,
        0.036232851445674896,
        0.039257392287254333,
        -0.4372764825820923,
        0.04185088351368904,
        0.2944684624671936,
        0.4272652268409729,
        -0.06128875911235809,
        -0.290083646774292,
        -0.38537368178367615,
        0.04406554996967316,
        -0.2754596471786499,
        0.37770989537239075,
        0.22438983619213104,
        -0.14508312940597534,
        -0.23792091012001038,
        -0.4742944538593292,
        0.478872150182724,
        0.3553902804851532,
        0.23220472037792206,
        -0.35169634222984314,
        0.18743132054805756,
        0.4354201853275299,
        0.18411044776439667,
        -0.34881392121315,
        -0.1333230584859848,
        -0.41740691661834717,
        0.21018175780773163,
        0.2981630265712738,
        0.39454299211502075,
        0.3544544577598572,
        0.41702836751937866,
        0.4923412501811981,
        -0.21981504559516907,
        -0.2180449366569519,
        0.17621827125549316,
        0.27199867367744446,
        -0.29945874214172363,
        -0.0009320732206106186,
        0.014661426655948162,
        0.44077128171920776,
        0.4393985867500305,
        0.41203227639198303,
        0.3817466199398041,
        0.20303048193454742,
        -0.24387115240097046,
        0.1271073967218399,
        0.4853464663028717,
        -0.4164034128189087,
        -0.2268003225326538,
        -0.4329441785812378,
        0.3610668480396271,
        -0.3958851993083954,
        0.0679805800318718,
        0.4742145538330078,
        0.10772997885942459,
        -0.16264203190803528,
        -0.3684215545654297,
        0.2310829609632492,
        -0.4244740903377533,
        0.09407167881727219,
        0.13637226819992065,
        0.43802908062934875,
        -0.005805548280477524,
        -0.43333733081817627,
        -0.313913494348526,
        -0.11074300855398178,
        -0.2615415155887604,
        0.30187976360321045,
        -0.40239617228507996,
        -0.4548758864402771,
        0.486492395401001,
        0.4452294409275055,
        -0.15393047034740448,
        0.4489402174949646,
        0.2918054461479187,
        0.01516639906913042,
        -0.12981553375720978,
        -0.345040500164032,
        -0.3683188259601593,
        -0.21786458790302277,
        -0.1577763557434082,
        -0.036320943385362625,
        -0.061407797038555145,
        -0.18563134968280792,
        -0.2981259822845459,
        0.056061889976263046,
        0.21936744451522827,
        0.09255631268024445,
        0.2331513911485672,
        -0.4989117980003357,
        0.40144050121307373,
        -0.47071677446365356,
        -0.3880235254764557,
        -0.4221635162830353,
        0.46087950468063354,
        -0.11297891288995743,
        0.338168740272522,
        -0.4580543637275696,
        -0.09796229749917984,
        -0.08040761202573776,
        -0.3991304337978363,
        0.23073656857013702,
        0.29957690834999084,
        0.1895660012960434,
        -0.3797934651374817,
        -0.26048383116722107,
        -0.34312883019447327,
        0.1572292149066925,
        -0.15517716109752655,
        0.3661104738712311,
        -0.244520366191864,
        0.39582422375679016,
        -0.08067239820957184,
        -0.3484093248844147,
        0.357867956161499,
        0.4670915901660919,
        0.4780522584915161,
        -0.3948006331920624,
        -0.015940792858600616,
        -0.2647790312767029,
        -0.4245087802410126,
        -0.3820347487926483,
        -0.14358185231685638,
        -0.14190787076950073,
        0.22156785428524017,
        -0.411680668592453,
        -0.04793581739068031,
        -0.041961248964071274,
        -0.3688945174217224,
        -0.4285171926021576,
        0.21442419290542603,
        -0.15784139931201935,
        -0.28238028287887573,
        0.014686275273561478,
        -0.2223716825246811,
        0.3789001703262329,
        0.38574591279029846,
        -0.296562522649765,
        0.4017420709133148,
        0.167464941740036,
        0.25237876176834106,
        0.36018624901771545,
        0.21102029085159302,
        0.28069132566452026,
        -0.4109693467617035,
        0.28565236926078796,
        -0.0647311806678772,
        0.48834988474845886,
        -0.36007240414619446,
        -0.254800409078598,
        -0.3347156345844269,
        -0.46580970287323,
        -0.45378369092941284,
        -0.29846301674842834,
        0.26481640338897705,
        0.3223297894001007,
        0.12436079233884811,
        0.320675253868103,
        -0.4130106270313263,
        -0.11724668741226196,
        -0.14454545080661774,
        -0.15155842900276184,
        0.2574910521507263,
        0.09118872880935669,
        0.4827011823654175,
        0.3440440893173218,
        -0.09663203358650208,
        -0.38376545906066895,
        0.05976404994726181,
        -0.3365057706832886,
        0.1943022608757019,
        -0.18324974179267883,
        0.4343452453613281,
        0.19353337585926056,
        -0.32094529271125793,
        0.4582255482673645,
        -0.03305613622069359,
        0.2873215675354004,
        0.45880743861198425,
        0.4987061321735382,
        0.00519153568893671,
        -0.4417147636413574,
        0.18875530362129211,
        -0.18148376047611237,
        0.16351103782653809,
        -0.05422643572092056,
        0.4934399127960205,
        0.049680646508932114,
        -0.1308707296848297,
        0.1513679176568985,
        -0.02124590426683426,
        -0.31410759687423706,
        0.037664733827114105,
        0.2403104305267334,
        0.31064167618751526,
        0.02726193517446518,
        -0.3360116183757782,
        0.2331247627735138,
        0.12770816683769226,
        -0.027593011036515236,
        -0.14693234860897064,
        0.37104532122612,
        0.3818072974681854,
        -0.4202550947666168,
        -0.1585598587989807,
        0.01627434231340885,
        0.028456009924411774,
        0.004826446063816547,
        0.047787364572286606,
        -0.2981452941894531,
        0.1825888305902481,
        -0.0862555280327797,
        -0.32862234115600586,
        -0.07308278232812881,
        -0.4270405173301697,
        -0.3101886808872223,
        0.20964239537715912,
        0.3698731064796448,
        0.24166233837604523,
        0.22054366767406464,
        -0.015771280974149704,
        0.3746371567249298,
        -0.24997976422309875,
        0.17495940625667572,
        -0.33187609910964966,
        -0.4207119047641754,
        -0.07697796076536179,
        -0.015112792141735554,
        -0.43012213706970215,
        -0.10240370035171509,
        0.4942764639854431,
        -0.2583370804786682,
        0.42906907200813293,
        -0.06803033500909805,
        0.06686799228191376,
        -0.42537015676498413,
        0.09320738911628723,
        -0.3041510581970215,
        0.2128652036190033,
        0.20240817964076996,
        -0.21590127050876617,
        0.16075383126735687,
        -0.14843124151229858,
        0.4949713349342346,
        -0.01747041940689087,
        0.43357419967651367,
        0.3321307897567749,
        0.1899067461490631,
        -0.27289992570877075,
        -0.2695443630218506,
        0.34142979979515076,
        -0.13467854261398315,
        0.49867093563079834,
        -0.11243905127048492,
        0.09360527247190475,
        -0.425612211227417,
        0.09572600573301315,
        0.44502755999565125,
        -0.0927724540233612,
        0.2445066273212433,
        0.028123728930950165,
        -0.47811776399612427,
        -0.3921111524105072,
        -0.3099190294742584,
        0.23800310492515564,
        0.021293895319104195,
        0.26921403408050537,
        -0.4171939194202423,
        0.14275775849819183,
        -0.4091840982437134,
        -0.060846686363220215,
        -0.3032712936401367,
        -0.42457133531570435,
        -0.2987648546695709,
        -0.039333418011665344,
        0.051964327692985535,
        -0.2515263259410858,
        -0.3144274950027466,
        -0.3824422359466553,
        -0.28136223554611206,
        0.21130284667015076,
        -0.10852479189634323,
        -0.23273015022277832,
        0.2784217596054077,
        0.3131491243839264,
        -0.45069921016693115,
        -0.1734466254711151,
        -0.07239966839551926,
        -0.04875433072447777,
        0.28545817732810974,
        0.03259088471531868,
        -0.4564319849014282,
        0.4524051547050476,
        0.3629755973815918,
        0.04956518113613129,
        0.2907271981239319,
        -0.08984851837158203,
        0.46632665395736694,
        0.36375629901885986,
        0.3367278575897217,
        0.03632337972521782,
        -0.14628484845161438,
        0.11974175274372101,
        0.3975655734539032,
        -0.10214825719594955,
        -0.4749906361103058,
        -0.36604151129722595,
        -0.2805309593677521,
        0.050356678664684296,
        0.2832930386066437,
        -0.4855158030986786,
        -0.0029916162602603436,
        -0.23224081099033356,
        0.18618007004261017,
        -0.38123592734336853,
        0.05673905834555626,
        0.48883628845214844,
        0.03776875138282776,
        -0.3697613477706909,
        0.04045591875910759,
        -0.4085797965526581,
        -0.22961696982383728,
        0.1794687956571579,
        -0.4460713565349579,
        0.18554218113422394,
        -0.06369280070066452,
        -0.25308549404144287,
        0.27245861291885376,
        -0.34611788392066956,
        -0.4767969250679016,
        0.07734514772891998,
        0.34891918301582336,
        -0.05370411276817322,
        0.12259189039468765,
        -0.04182373732328415,
        0.38660910725593567,
        -0.01393143367022276,
        -0.1598079353570938,
        -0.33179107308387756,
        0.4699542224407196,
        0.4886733591556549,
        -0.16714131832122803,
        -0.408845454454422,
        0.22654949128627777,
        -0.31257954239845276,
        -0.09296451508998871,
        -0.26023900508880615,
        0.4223131537437439,
        -0.19993005692958832,
        -0.06872463971376419,
        -0.3446047902107239,
        0.4863630533218384,
        -0.13800111413002014,
        0.1794704645872116,
        -0.047035396099090576,
        0.48033058643341064,
        0.43689095973968506,
        -0.06463442742824554,
        0.20084652304649353,
        0.16574639081954956,
        0.1181226447224617,
        0.4183954894542694,
        -0.3713623285293579,
        -0.07357411831617355,
        0.30009177327156067,
        0.04466656595468521,
        -0.4922761023044586,
        -0.3388553857803345,
        0.3302755355834961,
        0.1297801434993744,
        -0.16752630472183228,
        0.20371274650096893,
        0.20412926375865936,
        0.45707759261131287,
        -0.47932952642440796,
        -0.2822263240814209,
        0.30982187390327454,
        -0.3230627775192261,
        0.38305386900901794,
        -0.4566519260406494,
        0.3208107352256775,
        0.4242682456970215,
        0.05171816796064377,
        0.21962693333625793,
        0.03975506126880646,
        -0.26584383845329285,
        0.26386818289756775,
        0.2335387021303177,
        -0.33138978481292725,
        -0.020600266754627228,
        -0.351008802652359,
        0.19152694940567017,
        -0.3212722837924957,
        0.30413246154785156,
        0.25258439779281616,
        0.39261817932128906,
        0.3261054754257202,
        0.40244346857070923,
        0.4812469780445099,
        -0.045675430446863174,
        0.43459317088127136,
        -0.04531950131058693,
        0.4858914315700531,
        0.03871912136673927,
        -0.03789462149143219,
        0.47020718455314636,
        0.42818552255630493,
        0.13352163136005402,
        -0.3383462727069855,
        -0.47641029953956604,
        0.04902635142207146,
        -0.2796439528465271,
        -0.34588199853897095,
        0.4262385964393616,
        -0.18008866906166077,
        -0.26623380184173584,
        0.29993873834609985,
        -0.4793204069137573,
        0.009767288342118263,
        -0.4152357578277588,
        -0.2542591392993927,
        -0.35828229784965515,
        -0.3181677758693695,
        -0.303090900182724,
        -0.2558051347732544,
        -0.13043060898780823,
        0.25126028060913086,
        -0.00983203575015068,
        0.2564362585544586,
        -0.2279408723115921,
        -0.06808455288410187,
        0.058704402297735214,
        -0.02028755098581314,
        -0.304516464471817,
        0.41411900520324707,
        -0.23453231155872345,
        0.486028254032135,
        0.4318256676197052,
        0.056705866008996964,
        -0.3432782292366028,
        0.39151668548583984,
        0.1988919973373413,
        -0.11870216578245163,
        -0.4309237599372864,
        0.2661578059196472,
        -0.08289066702127457,
        0.052030254155397415,
        0.05678955838084221,
        -0.3451736271381378,
        -0.49248650670051575,
        0.2543969750404358,
        0.3838735520839691,
        -0.013046021573245525,
        -0.33727386593818665,
        -0.11384321749210358,
        0.43242600560188293,
        -0.1904328465461731,
        0.08843526989221573,
        0.09665817767381668,
        0.2327110916376114,
        -0.33647117018699646,
        0.021683014929294586,
        -0.40081164240837097,
        -0.23424386978149414,
        0.04120432585477829,
        -0.2699663043022156,
        0.38698941469192505,
        -0.4249440133571625,
        -0.060727767646312714,
        0.13737189769744873,
        -0.47413137555122375,
        0.43333157896995544,
        0.42770788073539734,
        0.30655190348625183,
        0.2407446801662445,
        0.47466808557510376,
        -0.09681505709886551,
        -0.02291903831064701,
        0.2743609845638275,
        -0.1555585265159607,
        -0.35368970036506653,
        0.15413035452365875,
        -0.2673172652721405,
        -0.16127419471740723,
        0.0465538315474987,
        -0.22488996386528015,
        -0.3898942470550537,
        -0.18968386948108673,
        0.39477288722991943,
        0.01682484894990921,
        -0.1697709709405899,
        0.38134676218032837,
        -0.48884451389312744,
        0.40954652428627014,
        -0.2512270212173462,
        -0.24392172694206238,
        0.47521206736564636,
        -0.23937205970287323,
        -0.1856972724199295,
        0.11492522060871124,
        0.062455080449581146,
        0.34683576226234436,
        0.07122685760259628,
        0.4803679585456848,
        0.19698961079120636,
        -0.12053458392620087,
        0.35526174306869507,
        0.15349014103412628,
        0.1627766191959381,
        0.29138439893722534,
        -0.03155902400612831,
        -0.0688394084572792,
        -0.05560143291950226,
        -0.08697574585676193,
        -0.1888030618429184,
        -0.12339235097169876,
        0.14494629204273224,
        0.16247104108333588,
        -0.25149455666542053,
        0.3267783224582672,
        -0.24693433940410614,
        0.19046245515346527,
        0.30126121640205383,
        -0.4996911883354187,
        -0.301129013299942,
        -0.27320486307144165,
        0.3975876271724701,
        -0.19458049535751343,
        0.074447862803936,
        -0.21249115467071533,
        -0.15521395206451416,
        0.051021113991737366,
        0.21206746995449066,
        0.4344308078289032,
        -0.2518795132637024,
        -0.4220924377441406,
        0.397914320230484,
        -0.0015873657539486885,
        -0.029593760147690773,
        0.12014346569776535,
        -0.19568094611167908,
        -0.463612824678421,
        -0.24180930852890015,
        0.11159787327051163,
        0.3336896598339081,
        0.2319105863571167,
        0.4680713713169098,
        0.3105991780757904,
        0.21711646020412445,
        0.35145729780197144,
        0.3240218758583069,
        0.2707095742225647,
        -0.22285647690296173,
        -0.2315368354320526,
        -0.27602750062942505,
        -0.30542245507240295,
        -0.46748632192611694,
        0.13519561290740967,
        0.46066299080848694,
        0.36014261841773987,
        0.4156278669834137,
        -0.3261549770832062,
        0.34866049885749817,
        0.4837600886821747,
        -0.4545685052871704,
        -0.11248549073934555,
        0.4427335262298584,
        -0.21189026534557343,
        -0.042751412838697433,
        -0.31311726570129395,
        0.047515008598566055,
        0.47822877764701843,
        -0.3018234372138977,
        0.24467411637306213,
        -0.01995261386036873,
        0.3524356484413147,
        -0.08944299072027206,
        0.334573358297348,
        0.1255890280008316,
        -0.4409210681915283,
        -0.2928224503993988,
        -0.08578495681285858,
        0.3244514763355255,
        0.12078292667865753,
        -0.1611821949481964,
        0.35586869716644287,
        0.284272700548172,
        0.033295080065727234,
        -0.12279462814331055,
        -0.11787138879299164,
        0.2849465608596802,
        -0.027111360803246498,
        -0.38872990012168884,
        0.32323816418647766,
        -0.1792168766260147,
        0.3607027530670166,
        -0.46648988127708435,
        -0.004312264733016491,
        -0.034154534339904785,
        -0.4463842809200287,
        0.299409419298172,
        0.04467621073126793,
        0.246799498796463,
        0.40963155031204224,
        -0.49195095896720886,
        0.4454404413700104,
        0.35097670555114746,
        0.17543083429336548,
        -0.3879874050617218,
        -0.4419092535972595,
        -0.017470071092247963,
        0.3934001326560974,
        0.40193748474121094,
        -0.08151403069496155,
        0.05445968732237816,
        0.11177673935890198,
        0.07430346310138702,
        0.0032131073530763388,
        -0.409959077835083,
        0.025451837107539177,
        -0.3390694260597229,
        -0.3934108316898346,
        0.05515962466597557,
        0.14746984839439392,
        -0.45798641443252563,
        0.024663614109158516,
        -0.31983479857444763,
        -0.2728537917137146,
        0.3757111430168152,
        0.0454421304166317,
        0.3802163898944855,
        0.06009926274418831,
        -0.4673510193824768,
        0.44880104064941406,
        -0.040179334580898285,
        0.3848516047000885,
        -0.22210228443145752,
        0.33871960639953613,
        -0.37125080823898315,
        0.1944810152053833,
        0.12823130190372467,
        0.3603341281414032,
        0.08499182760715485,
        -0.39832621812820435,
        -0.06963256746530533,
        0.22854134440422058,
        0.3243495523929596,
        -0.19227005541324615,
        -8.164206519722939e-06,
        0.15380555391311646,
        0.4525059461593628,
        -0.07642289996147156,
        -0.3096452057361603,
        0.10646512359380722,
        -0.11174467206001282,
        0.013673495501279831,
        -0.39866766333580017,
        0.48519840836524963,
        0.015671884641051292,
        0.18705803155899048,
        -0.06484807282686234,
        -0.07294049113988876,
        -0.12031988054513931,
        0.2431090921163559,
        -0.18157939612865448,
        0.2475324124097824,
        0.44438713788986206,
        0.44603079557418823,
        0.44868946075439453,
        0.46030691266059875,
        0.38966500759124756,
        0.3530616760253906,
        -0.13193637132644653,
        -0.48781612515449524,
        -0.41300272941589355,
        -0.2739793658256531,
        -0.20182892680168152,
        0.3655472993850708,
        0.06890318542718887,
        -0.2457505166530609,
        -0.02672623097896576,
        -0.4102017283439636,
        -0.3573196828365326,
        0.3730852007865906,
        0.04641794413328171,
        0.23787009716033936,
        -0.43292850255966187,
        -0.41732582449913025,
        0.38605639338493347,
        -0.14126704633235931,
        0.04684804379940033,
        -0.39086946845054626,
        0.34859588742256165,
        0.19858121871948242,
        0.16981491446495056,
        -0.2592361569404602,
        0.22848543524742126,
        0.49285978078842163,
        -0.44843563437461853,
        0.04302975535392761,
        -0.2460067868232727,
        -0.44042328000068665,
        -0.28941214084625244,
        -0.3883458077907562,
        -0.4947107434272766,
        0.28987544775009155,
        -0.2077392339706421,
        -0.256858229637146,
        -0.20882786810398102,
        -0.4846794307231903,
        0.2798554599285126,
        0.4869052767753601,
        -0.43033748865127563,
        -0.39931216835975647,
        0.04516102746129036,
        0.35381442308425903,
        0.12278996407985687,
        -0.4316848814487457,
        0.042455047369003296,
        0.27224984765052795,
        0.09285259991884232,
        -0.3671428859233856,
        0.42808693647384644,
        0.11426075547933578,
        -0.35802727937698364,
        0.3361668884754181,
        0.25570401549339294,
        0.16751541197299957,
        -0.2021111398935318,
        0.4682939052581787,
        -0.24058812856674194,
        0.46314629912376404,
        -0.19684965908527374,
        0.4756494164466858,
        -0.16616660356521606,
        -0.40997448563575745,
        -0.15638311207294464,
        0.45829156041145325,
        0.39161181449890137,
        -0.012700316496193409,
        -0.4923742413520813,
        -0.45351865887641907,
        -0.4763745665550232,
        -0.15923914313316345,
        -0.3082859218120575,
        0.3687551021575928,
        0.198881596326828,
        0.12834297120571136,
        -0.45408979058265686,
        0.49832555651664734,
        0.16136811673641205,
        0.07459453493356705,
        0.17116427421569824,
        -0.16634032130241394,
        -0.16560697555541992,
        -0.13712988793849945,
        0.09458320587873459,
        -0.0241651963442564,
        -0.21080100536346436,
        -0.07474030554294586,
        0.13268625736236572,
        0.41127121448516846,
        0.259760320186615,
        -0.24620775878429413,
        -0.063060462474823,
        -0.20657728612422943,
        0.2631431221961975,
        0.28329718112945557,
        -0.11477677524089813,
        0.40396130084991455,
        0.4549269676208496,
        0.4195323884487152,
        0.19254310429096222,
        0.006573644001036882,
        0.2752266824245453,
        -0.3246701955795288,
        -0.30949804186820984,
        -0.14815445244312286,
        0.17226268351078033,
        -0.18834573030471802,
        0.36933907866477966,
        0.36234408617019653,
        -0.2736874520778656,
        0.05101795122027397,
        0.009814370423555374,
        -0.3325728178024292,
        0.1399916261434555,
        0.12069369852542877,
        -0.26022323966026306,
        -0.06815233081579208,
        -0.3562072813510895,
        -0.10228835046291351,
        -0.06906246393918991,
        -0.03862561658024788,
        -0.3068998456001282,
        0.2640003561973572,
        0.1536845713853836,
        0.29946354031562805,
        0.42505940794944763,
        -0.34960201382637024,
        -0.3553295433521271,
        -0.18021062016487122,
        -0.20712126791477203,
        -0.11214834451675415,
        0.4528423547744751,
        0.07650776207447052,
        0.1470179557800293,
        -0.26922598481178284,
        -0.3849612772464752,
        -0.49802151322364807,
        0.41703343391418457,
        0.007866707630455494,
        -0.22081556916236877,
        0.38493984937667847,
        0.31292805075645447,
        -0.45748087763786316,
        0.185188427567482,
        -0.4834388494491577,
        0.16861024498939514,
        0.33893051743507385,
        0.423386812210083,
        -0.23382456600666046,
        0.29423996806144714,
        0.38547077775001526,
        0.40880513191223145,
        -0.21121028065681458,
        -0.318191796541214,
        -0.24420900642871857,
        0.34703782200813293,
        -0.3680630326271057,
        -0.06973407417535782,
        -0.17344608902931213,
        -0.014029520563781261,
        0.4850462079048157,
        0.4115822911262512,
        0.30779653787612915,
        -0.4306115210056305,
        -0.4471711814403534,
        0.213910773396492,
        0.1268068104982376,
        0.3411199450492859,
        0.10498104989528656,
        0.0628594309091568,
        -0.19265392422676086,
        0.4513265788555145,
        0.24285899102687836,
        -0.47331658005714417,
        0.28883036971092224,
        0.348309725522995,
        -0.3929955065250397,
        -0.12116628140211105,
        0.17568649351596832,
        0.29795145988464355,
        -0.1269184798002243,
        -0.26895129680633545,
        -0.07879741489887238,
        0.34896478056907654,
        -0.04274691268801689,
        0.24816688895225525,
        0.35120081901550293,
        -0.11172939836978912,
        -0.4631540775299072,
        0.3253791332244873,
        0.43918171525001526,
        -0.13625146448612213,
        -0.28738465905189514,
        -0.3919982314109802,
        0.11720012128353119,
        0.04465947300195694,
        0.20502233505249023,
        0.345507949590683,
        0.4933159351348877,
        -0.2727709710597992,
        -0.08482080698013306,
        -0.16787055134773254,
        -0.39724382758140564,
        0.48540157079696655,
        0.40269479155540466,
        0.3310321271419525,
        -0.13650479912757874,
        0.14279499650001526,
        -0.26734045147895813,
        0.24324527382850647,
        -0.4312356114387512,
        0.3032539486885071,
        0.3140806257724762,
        -0.22125118970870972,
        -0.1930447369813919,
        0.2888363003730774,
        0.3895362913608551,
        0.10877368599176407,
        0.24335366487503052,
        0.29395291209220886,
        0.27935734391212463,
        0.008263055235147476,
        0.3808146119117737,
        -0.2656444311141968,
        0.328481525182724,
        -0.2862280309200287,
        -0.23623839020729065,
        -0.20814530551433563,
        0.26758402585983276,
        -0.42528069019317627,
        0.14781181514263153,
        0.19122552871704102,
        0.29311197996139526,
        -0.03788051754236221,
        -0.21433639526367188,
        0.4689579904079437,
        -0.36598455905914307,
        -0.35348790884017944,
        -0.15389911830425262,
        0.4369819164276123,
        -0.0926843136548996,
        -0.3939434587955475,
        0.40035736560821533,
        -0.12856850028038025,
        -0.49714332818984985,
        0.09742696583271027,
        0.12422945350408554,
        -0.36050185561180115,
        0.04333674535155296,
        0.171649768948555,
        0.23664510250091553,
        -0.171760693192482,
        0.3542603850364685,
        0.1127280667424202,
        -0.368085652589798,
        -0.18084876239299774,
        0.42267006635665894,
        -0.3357057273387909,
        -0.3303026556968689
      ]
    },
    {
      "name": "dense_Dense7/bias",
      "shape": [
        56
      ],
      "dtype": "float32",
      "values": [
        0,
        0,
        0,
        0,
        0,
        0,
        0,
        0,
        0,
        0,
        0,
        0,
        0,
        0,
        0,
        0,
        0,
        0,
        0,
        0,
        0,
        0,
        0,
        0,
        0,
        0,
        0,
        0,
        0,
        0,
        0,
        0,
        0,
        0,
        0,
        0,
        0,
        0,
        0,
        0,
        0,
        0,
        0,
        0,
        0,
        0,
        0,
        0,
        0,
        0,
        0,
        0,
        0,
        0,
        0,
        0
      ]
    },
    {
      "name": "dense_Dense8/kernel",
      "shape": [
        56,
        16
      ],
      "dtype": "float32",
      "values": [
        0.2305183857679367,
        0.08064782619476318,
        0.38137543201446533,
        0.23667441308498383,
        0.1393769532442093,
        -0.2749089002609253,
        0.44093185663223267,
        0.2573425769805908,
        -0.19737538695335388,
        0.259505033493042,
        -0.19946180284023285,
        -0.05905789136886597,
        -0.12675239145755768,
        -0.09130503982305527,
        0.21324947476387024,
        -0.23584820330142975,
        -0.17519071698188782,
        -0.09480427950620651,
        -0.2958618700504303,
        0.2625903785228729,
        -0.3218929171562195,
        -0.21996910870075226,
        0.25784972310066223,
        0.1908298134803772,
        0.02915002591907978,
        -0.4911329448223114,
        0.06745841354131699,
        0.3313997983932495,
        0.1811174899339676,
        -0.3440495729446411,
        -0.2733701169490814,
        0.4025239050388336,
        -0.4990156888961792,
        0.41371864080429077,
        -0.31190505623817444,
        0.343412309885025,
        0.02465381845831871,
        0.20883207023143768,
        -0.4029148817062378,
        -0.11042892932891846,
        0.3149772584438324,
        -0.46432802081108093,
        -0.4474733769893646,
        -0.27755311131477356,
        0.3857437074184418,
        0.25418561697006226,
        0.10779516398906708,
        -0.41647666692733765,
        -0.4571799635887146,
        -0.43403077125549316,
        0.15142081677913666,
        -0.4462030529975891,
        0.3170197606086731,
        -0.32392072677612305,
        0.3224552869796753,
        -0.10832302272319794,
        -0.23096635937690735,
        0.02486877143383026,
        0.3463447690010071,
        -0.2588929533958435,
        0.493318110704422,
        0.2562509775161743,
        0.42710110545158386,
        0.3760102093219757,
        -0.4894011616706848,
        0.35869380831718445,
        -0.359417587518692,
        0.4323429763317108,
        -0.06483598053455353,
        0.12737131118774414,
        0.4000591039657593,
        -0.4611392915248871,
        -0.18906070291996002,
        0.204011470079422,
        0.0913844183087349,
        0.27406007051467896,
        0.3337809443473816,
        0.2146437168121338,
        -0.2961266040802002,
        0.24103078246116638,
        0.1574203222990036,
        0.036576371639966965,
        0.3761296272277832,
        0.4863610565662384,
        -0.4362271726131439,
        0.3815554678440094,
        -0.2733370363712311,
        0.21828603744506836,
        0.32694369554519653,
        -0.41911211609840393,
        -0.3962041139602661,
        0.1730683147907257,
        -0.21778136491775513,
        0.009196722880005836,
        0.44618406891822815,
        -0.00818236730992794,
        0.22487245500087738,
        -0.013659902848303318,
        0.44188302755355835,
        -0.013568853959441185,
        0.4143323004245758,
        -0.2439129650592804,
        -0.144642174243927,
        -0.42071524262428284,
        0.12038169801235199,
        -0.20818570256233215,
        -0.4374402165412903,
        0.05107848718762398,
        -0.33052366971969604,
        -0.019866080954670906,
        -0.2470288872718811,
        -0.19481848180294037,
        0.3303805887699127,
        -0.24964067339897156,
        0.07881231606006622,
        -0.07797225564718246,
        -0.16027119755744934,
        -0.09323147684335709,
        0.19237424433231354,
        -0.4832863509654999,
        0.40132832527160645,
        0.48197904229164124,
        0.405393123626709,
        -0.049346957355737686,
        0.16637477278709412,
        0.0813366025686264,
        -0.018147682771086693,
        -0.03786390274763107,
        -0.1866934448480606,
        -0.4012475311756134,
        0.38747748732566833,
        -0.30516043305397034,
        0.036232851445674896,
        0.039257392287254333,
        -0.4372764825820923,
        0.04185088351368904,
        0.2944684624671936,
        0.4272652268409729,
        -0.06128875911235809,
        -0.290083646774292,
        -0.38537368178367615,
        0.04406554996967316,
        -0.2754596471786499,
        0.37770989537239075,
        0.22438983619213104,
        -0.14508312940597534,
        -0.23792091012001038,
        -0.4742944538593292,
        0.478872150182724,
        0.3553902804851532,
        0.23220472037792206,
        -0.35169634222984314,
        0.18743132054805756,
        0.4354201853275299,
        0.18411044776439667,
        -0.34881392121315,
        -0.1333230584859848,
        -0.41740691661834717,
        0.21018175780773163,
        0.2981630265712738,
        0.39454299211502075,
        0.3544544577598572,
        0.41702836751937866,
        0.4923412501811981,
        -0.21981504559516907,
        -0.2180449366569519,
        0.17621827125549316,
        0.27199867367744446,
        -0.29945874214172363,
        -0.0009320732206106186,
        0.014661426655948162,
        0.44077128171920776,
        0.4393985867500305,
        0.41203227639198303,
        0.3817466199398041,
        0.20303048193454742,
        -0.24387115240097046,
        0.1271073967218399,
        0.4853464663028717,
        -0.4164034128189087,
        -0.2268003225326538,
        -0.4329441785812378,
        0.3610668480396271,
        -0.3958851993083954,
        0.0679805800318718,
        0.4742145538330078,
        0.10772997885942459,
        -0.16264203190803528,
        -0.3684215545654297,
        0.2310829609632492,
        -0.4244740903377533,
        0.09407167881727219,
        0.13637226819992065,
        0.43802908062934875,
        -0.005805548280477524,
        -0.43333733081817627,
        -0.313913494348526,
        -0.11074300855398178,
        -0.2615415155887604,
        0.30187976360321045,
        -0.40239617228507996,
        -0.4548758864402771,
        0.486492395401001,
        0.4452294409275055,
        -0.15393047034740448,
        0.4489402174949646,
        0.2918054461479187,
        0.01516639906913042,
        -0.12981553375720978,
        -0.345040500164032,
        -0.3683188259601593,
        -0.21786458790302277,
        -0.1577763557434082,
        -0.036320943385362625,
        -0.061407797038555145,
        -0.18563134968280792,
        -0.2981259822845459,
        0.056061889976263046,
        0.21936744451522827,
        0.09255631268024445,
        0.2331513911485672,
        -0.4989117980003357,
        0.40144050121307373,
        -0.47071677446365356,
        -0.3880235254764557,
        -0.4221635162830353,
        0.46087950468063354,
        -0.11297891288995743,
        0.338168740272522,
        -0.4580543637275696,
        -0.09796229749917984,
        -0.08040761202573776,
        -0.3991304337978363,
        0.23073656857013702,
        0.29957690834999084,
        0.1895660012960434,
        -0.3797934651374817,
        -0.26048383116722107,
        -0.34312883019447327,
        0.1572292149066925,
        -0.15517716109752655,
        0.3661104738712311,
        -0.244520366191864,
        0.39582422375679016,
        -0.08067239820957184,
        -0.3484093248844147,
        0.357867956161499,
        0.4670915901660919,
        0.4780522584915161,
        -0.3948006331920624,
        -0.015940792858600616,
        -0.2647790312767029,
        -0.4245087802410126,
        -0.3820347487926483,
        -0.14358185231685638,
        -0.14190787076950073,
        0.22156785428524017,
        -0.411680668592453,
        -0.04793581739068031,
        -0.041961248964071274,
        -0.3688945174217224,
        -0.4285171926021576,
        0.21442419290542603,
        -0.15784139931201935,
        -0.28238028287887573,
        0.014686275273561478,
        -0.2223716825246811,
        0.3789001703262329,
        0.38574591279029846,
        -0.296562522649765,
        0.4017420709133148,
        0.167464941740036,
        0.25237876176834106,
        0.36018624901771545,
        0.21102029085159302,
        0.28069132566452026,
        -0.4109693467617035,
        0.28565236926078796,
        -0.0647311806678772,
        0.48834988474845886,
        -0.36007240414619446,
        -0.254800409078598,
        -0.3347156345844269,
        -0.46580970287323,
        -0.45378369092941284,
        -0.29846301674842834,
        0.26481640338897705,
        0.3223297894001007,
        0.12436079233884811,
        0.320675253868103,
        -0.4130106270313263,
        -0.11724668741226196,
        -0.14454545080661774,
        -0.15155842900276184,
        0.2574910521507263,
        0.09118872880935669,
        0.4827011823654175,
        0.3440440893173218,
        -0.09663203358650208,
        -0.38376545906066895,
        0.05976404994726181,
        -0.3365057706832886,
        0.1943022608757019,
        -0.18324974179267883,
        0.4343452453613281,
        0.19353337585926056,
        -0.32094529271125793,
        0.4582255482673645,
        -0.03305613622069359,
        0.2873215675354004,
        0.45880743861198425,
        0.4987061321735382,
        0.00519153568893671,
        -0.4417147636413574,
        0.18875530362129211,
        -0.18148376047611237,
        0.16351103782653809,
        -0.05422643572092056,
        0.4934399127960205,
        0.049680646508932114,
        -0.1308707296848297,
        0.1513679176568985,
        -0.02124590426683426,
        -0.31410759687423706,
        0.037664733827114105,
        0.2403104305267334,
        0.31064167618751526,
        0.02726193517446518,
        -0.3360116183757782,
        0.2331247627735138,
        0.12770816683769226,
        -0.027593011036515236,
        -0.14693234860897064,
        0.37104532122612,
        0.3818072974681854,
        -0.4202550947666168,
        -0.1585598587989807,
        0.01627434231340885,
        0.028456009924411774,
        0.004826446063816547,
        0.047787364572286606,
        -0.2981452941894531,
        0.1825888305902481,
        -0.0862555280327797,
        -0.32862234115600586,
        -0.07308278232812881,
        -0.4270405173301697,
        -0.3101886808872223,
        0.20964239537715912,
        0.3698731064796448,
        0.24166233837604523,
        0.22054366767406464,
        -0.015771280974149704,
        0.3746371567249298,
        -0.24997976422309875,
        0.17495940625667572,
        -0.33187609910964966,
        -0.4207119047641754,
        -0.07697796076536179,
        -0.015112792141735554,
        -0.43012213706970215,
        -0.10240370035171509,
        0.4942764639854431,
        -0.2583370804786682,
        0.42906907200813293,
        -0.06803033500909805,
        0.06686799228191376,
        -0.42537015676498413,
        0.09320738911628723,
        -0.3041510581970215,
        0.2128652036190033,
        0.20240817964076996,
        -0.21590127050876617,
        0.16075383126735687,
        -0.14843124151229858,
        0.4949713349342346,
        -0.01747041940689087,
        0.43357419967651367,
        0.3321307897567749,
        0.1899067461490631,
        -0.27289992570877075,
        -0.2695443630218506,
        0.34142979979515076,
        -0.13467854261398315,
        0.49867093563079834,
        -0.11243905127048492,
        0.09360527247190475,
        -0.425612211227417,
        0.09572600573301315,
        0.44502755999565125,
        -0.0927724540233612,
        0.2445066273212433,
        0.028123728930950165,
        -0.47811776399612427,
        -0.3921111524105072,
        -0.3099190294742584,
        0.23800310492515564,
        0.021293895319104195,
        0.26921403408050537,
        -0.4171939194202423,
        0.14275775849819183,
        -0.4091840982437134,
        -0.060846686363220215,
        -0.3032712936401367,
        -0.42457133531570435,
        -0.2987648546695709,
        -0.039333418011665344,
        0.051964327692985535,
        -0.2515263259410858,
        -0.3144274950027466,
        -0.3824422359466553,
        -0.28136223554611206,
        0.21130284667015076,
        -0.10852479189634323,
        -0.23273015022277832,
        0.2784217596054077,
        0.3131491243839264,
        -0.45069921016693115,
        -0.1734466254711151,
        -0.07239966839551926,
        -0.04875433072447777,
        0.28545817732810974,
        0.03259088471531868,
        -0.4564319849014282,
        0.4524051547050476,
        0.3629755973815918,
        0.04956518113613129,
        0.2907271981239319,
        -0.08984851837158203,
        0.46632665395736694,
        0.36375629901885986,
        0.3367278575897217,
        0.03632337972521782,
        -0.14628484845161438,
        0.11974175274372101,
        0.3975655734539032,
        -0.10214825719594955,
        -0.4749906361103058,
        -0.36604151129722595,
        -0.2805309593677521,
        0.050356678664684296,
        0.2832930386066437,
        -0.4855158030986786,
        -0.0029916162602603436,
        -0.23224081099033356,
        0.18618007004261017,
        -0.38123592734336853,
        0.05673905834555626,
        0.48883628845214844,
        0.03776875138282776,
        -0.3697613477706909,
        0.04045591875910759,
        -0.4085797965526581,
        -0.22961696982383728,
        0.1794687956571579,
        -0.4460713565349579,
        0.18554218113422394,
        -0.06369280070066452,
        -0.25308549404144287,
        0.27245861291885376,
        -0.34611788392066956,
        -0.4767969250679016,
        0.07734514772891998,
        0.34891918301582336,
        -0.05370411276817322,
        0.12259189039468765,
        -0.04182373732328415,
        0.38660910725593567,
        -0.01393143367022276,
        -0.1598079353570938,
        -0.33179107308387756,
        0.4699542224407196,
        0.4886733591556549,
        -0.16714131832122803,
        -0.408845454454422,
        0.22654949128627777,
        -0.31257954239845276,
        -0.09296451508998871,
        -0.26023900508880615,
        0.4223131537437439,
        -0.19993005692958832,
        -0.06872463971376419,
        -0.3446047902107239,
        0.4863630533218384,
        -0.13800111413002014,
        0.1794704645872116,
        -0.047035396099090576,
        0.48033058643341064,
        0.43689095973968506,
        -0.06463442742824554,
        0.20084652304649353,
        0.16574639081954956,
        0.1181226447224617,
        0.4183954894542694,
        -0.3713623285293579,
        -0.07357411831617355,
        0.30009177327156067,
        0.04466656595468521,
        -0.4922761023044586,
        -0.3388553857803345,
        0.3302755355834961,
        0.1297801434993744,
        -0.16752630472183228,
        0.20371274650096893,
        0.20412926375865936,
        0.45707759261131287,
        -0.47932952642440796,
        -0.2822263240814209,
        0.30982187390327454,
        -0.3230627775192261,
        0.38305386900901794,
        -0.4566519260406494,
        0.3208107352256775,
        0.4242682456970215,
        0.05171816796064377,
        0.21962693333625793,
        0.03975506126880646,
        -0.26584383845329285,
        0.26386818289756775,
        0.2335387021303177,
        -0.33138978481292725,
        -0.020600266754627228,
        -0.351008802652359,
        0.19152694940567017,
        -0.3212722837924957,
        0.30413246154785156,
        0.25258439779281616,
        0.39261817932128906,
        0.3261054754257202,
        0.40244346857070923,
        0.4812469780445099,
        -0.045675430446863174,
        0.43459317088127136,
        -0.04531950131058693,
        0.4858914315700531,
        0.03871912136673927,
        -0.03789462149143219,
        0.47020718455314636,
        0.42818552255630493,
        0.13352163136005402,
        -0.3383462727069855,
        -0.47641029953956604,
        0.04902635142207146,
        -0.2796439528465271,
        -0.34588199853897095,
        0.4262385964393616,
        -0.18008866906166077,
        -0.26623380184173584,
        0.29993873834609985,
        -0.4793204069137573,
        0.009767288342118263,
        -0.4152357578277588,
        -0.2542591392993927,
        -0.35828229784965515,
        -0.3181677758693695,
        -0.303090900182724,
        -0.2558051347732544,
        -0.13043060898780823,
        0.25126028060913086,
        -0.00983203575015068,
        0.2564362585544586,
        -0.2279408723115921,
        -0.06808455288410187,
        0.058704402297735214,
        -0.02028755098581314,
        -0.304516464471817,
        0.41411900520324707,
        -0.23453231155872345,
        0.486028254032135,
        0.4318256676197052,
        0.056705866008996964,
        -0.3432782292366028,
        0.39151668548583984,
        0.1988919973373413,
        -0.11870216578245163,
        -0.4309237599372864,
        0.2661578059196472,
        -0.08289066702127457,
        0.052030254155397415,
        0.05678955838084221,
        -0.3451736271381378,
        -0.49248650670051575,
        0.2543969750404358,
        0.3838735520839691,
        -0.013046021573245525,
        -0.33727386593818665,
        -0.11384321749210358,
        0.43242600560188293,
        -0.1904328465461731,
        0.08843526989221573,
        0.09665817767381668,
        0.2327110916376114,
        -0.33647117018699646,
        0.021683014929294586,
        -0.40081164240837097,
        -0.23424386978149414,
        0.04120432585477829,
        -0.2699663043022156,
        0.38698941469192505,
        -0.4249440133571625,
        -0.060727767646312714,
        0.13737189769744873,
        -0.47413137555122375,
        0.43333157896995544,
        0.42770788073539734,
        0.30655190348625183,
        0.2407446801662445,
        0.47466808557510376,
        -0.09681505709886551,
        -0.02291903831064701,
        0.2743609845638275,
        -0.1555585265159607,
        -0.35368970036506653,
        0.15413035452365875,
        -0.2673172652721405,
        -0.16127419471740723,
        0.0465538315474987,
        -0.22488996386528015,
        -0.3898942470550537,
        -0.18968386948108673,
        0.39477288722991943,
        0.01682484894990921,
        -0.1697709709405899,
        0.38134676218032837,
        -0.48884451389312744,
        0.40954652428627014,
        -0.2512270212173462,
        -0.24392172694206238,
        0.47521206736564636,
        -0.23937205970287323,
        -0.1856972724199295,
        0.11492522060871124,
        0.062455080449581146,
        0.34683576226234436,
        0.07122685760259628,
        0.4803679585456848,
        0.19698961079120636,
        -0.12053458392620087,
        0.35526174306869507,
        0.15349014103412628,
        0.1627766191959381,
        0.29138439893722534,
        -0.03155902400612831,
        -0.0688394084572792,
        -0.05560143291950226,
        -0.08697574585676193,
        -0.1888030618429184,
        -0.12339235097169876,
        0.14494629204273224,
        0.16247104108333588,
        -0.25149455666542053,
        0.3267783224582672,
        -0.24693433940410614,
        0.19046245515346527,
        0.30126121640205383,
        -0.4996911883354187,
        -0.301129013299942,
        -0.27320486307144165,
        0.3975876271724701,
        -0.19458049535751343,
        0.074447862803936,
        -0.21249115467071533,
        -0.15521395206451416,
        0.051021113991737366,
        0.21206746995449066,
        0.4344308078289032,
        -0.2518795132637024,
        -0.4220924377441406,
        0.397914320230484,
        -0.0015873657539486885,
        -0.029593760147690773,
        0.12014346569776535,
        -0.19568094611167908,
        -0.463612824678421,
        -0.24180930852890015,
        0.11159787327051163,
        0.3336896598339081,
        0.2319105863571167,
        0.4680713713169098,
        0.3105991780757904,
        0.21711646020412445,
        0.35145729780197144,
        0.3240218758583069,
        0.2707095742225647,
        -0.22285647690296173,
        -0.2315368354320526,
        -0.27602750062942505,
        -0.30542245507240295,
        -0.46748632192611694,
        0.13519561290740967,
        0.46066299080848694,
        0.36014261841773987,
        0.4156278669834137,
        -0.3261549770832062,
        0.34866049885749817,
        0.4837600886821747,
        -0.4545685052871704,
        -0.11248549073934555,
        0.4427335262298584,
        -0.21189026534557343,
        -0.042751412838697433,
        -0.31311726570129395,
        0.047515008598566055,
        0.47822877764701843,
        -0.3018234372138977,
        0.24467411637306213,
        -0.01995261386036873,
        0.3524356484413147,
        -0.08944299072027206,
        0.334573358297348,
        0.1255890280008316,
        -0.4409210681915283,
        -0.2928224503993988,
        -0.08578495681285858,
        0.3244514763355255,
        0.12078292667865753,
        -0.1611821949481964,
        0.35586869716644287,
        0.284272700548172,
        0.033295080065727234,
        -0.12279462814331055,
        -0.11787138879299164,
        0.2849465608596802,
        -0.027111360803246498,
        -0.38872990012168884,
        0.32323816418647766,
        -0.1792168766260147,
        0.3607027530670166,
        -0.46648988127708435,
        -0.004312264733016491,
        -0.034154534339904785,
        -0.4463842809200287,
        0.299409419298172,
        0.04467621073126793,
        0.246799498796463,
        0.40963155031204224,
        -0.49195095896720886,
        0.4454404413700104,
        0.35097670555114746,
        0.17543083429336548,
        -0.3879874050617218,
        -0.4419092535972595,
        -0.017470071092247963,
        0.3934001326560974,
        0.40193748474121094,
        -0.08151403069496155,
        0.05445968732237816,
        0.11177673935890198,
        0.07430346310138702,
        0.0032131073530763388,
        -0.409959077835083,
        0.025451837107539177,
        -0.3390694260597229,
        -0.3934108316898346,
        0.05515962466597557,
        0.14746984839439392,
        -0.45798641443252563,
        0.024663614109158516,
        -0.31983479857444763,
        -0.2728537917137146,
        0.3757111430168152,
        0.0454421304166317,
        0.3802163898944855,
        0.06009926274418831,
        -0.4673510193824768,
        0.44880104064941406,
        -0.040179334580898285,
        0.3848516047000885,
        -0.22210228443145752,
        0.33871960639953613,
        -0.37125080823898315,
        0.1944810152053833,
        0.12823130190372467,
        0.3603341281414032,
        0.08499182760715485,
        -0.39832621812820435,
        -0.06963256746530533,
        0.22854134440422058,
        0.3243495523929596,
        -0.19227005541324615,
        -8.164206519722939e-06,
        0.15380555391311646,
        0.4525059461593628,
        -0.07642289996147156,
        -0.3096452057361603,
        0.10646512359380722,
        -0.11174467206001282,
        0.013673495501279831,
        -0.39866766333580017,
        0.48519840836524963,
        0.015671884641051292,
        0.18705803155899048,
        -0.06484807282686234,
        -0.07294049113988876,
        -0.12031988054513931,
        0.2431090921163559,
        -0.18157939612865448,
        0.2475324124097824,
        0.44438713788986206,
        0.44603079557418823,
        0.44868946075439453,
        0.46030691266059875,
        0.38966500759124756,
        0.3530616760253906,
        -0.13193637132644653,
        -0.48781612515449524,
        -0.41300272941589355,
        -0.2739793658256531,
        -0.20182892680168152,
        0.3655472993850708,
        0.06890318542718887,
        -0.2457505166530609,
        -0.02672623097896576,
        -0.4102017283439636,
        -0.3573196828365326,
        0.3730852007865906,
        0.04641794413328171,
        0.23787009716033936,
        -0.43292850255966187,
        -0.41732582449913025,
        0.38605639338493347,
        -0.14126704633235931,
        0.04684804379940033,
        -0.39086946845054626,
        0.34859588742256165,
        0.19858121871948242,
        0.16981491446495056,
        -0.2592361569404602,
        0.22848543524742126,
        0.49285978078842163,
        -0.44843563437461853,
        0.04302975535392761,
        -0.2460067868232727,
        -0.44042328000068665,
        -0.28941214084625244,
        -0.3883458077907562,
        -0.4947107434272766,
        0.28987544775009155,
        -0.2077392339706421,
        -0.256858229637146,
        -0.20882786810398102,
        -0.4846794307231903,
        0.2798554599285126,
        0.4869052767753601,
        -0.43033748865127563,
        -0.39931216835975647,
        0.04516102746129036,
        0.35381442308425903,
        0.12278996407985687,
        -0.4316848814487457,
        0.042455047369003296,
        0.27224984765052795,
        0.09285259991884232,
        -0.3671428859233856,
        0.42808693647384644,
        0.11426075547933578,
        -0.35802727937698364,
        0.3361668884754181,
        0.25570401549339294,
        0.16751541197299957,
        -0.2021111398935318,
        0.4682939052581787,
        -0.24058812856674194,
        0.46314629912376404,
        -0.19684965908527374,
        0.4756494164466858,
        -0.16616660356521606,
        -0.40997448563575745,
        -0.15638311207294464,
        0.45829156041145325,
        0.39161181449890137,
        -0.012700316496193409,
        -0.4923742413520813,
        -0.45351865887641907,
        -0.4763745665550232,
        -0.15923914313316345,
        -0.3082859218120575,
        0.3687551021575928,
        0.198881596326828,
        0.12834297120571136,
        -0.45408979058265686,
        0.49832555651664734,
        0.16136811673641205,
        0.07459453493356705,
        0.17116427421569824,
        -0.16634032130241394,
        -0.16560697555541992,
        -0.13712988793849945,
        0.09458320587873459,
        -0.0241651963442564,
        -0.21080100536346436,
        -0.07474030554294586,
        0.13268625736236572,
        0.41127121448516846,
        0.259760320186615,
        -0.24620775878429413
      ]
    },
    {
      "name": "dense_Dense8/bias",
      "shape": [
        16
      ],
      "dtype": "float32",
      "values": [
        0,
        0,
        0,
        0,
        0,
        0,
        0,
        0,
        0,
        0,
        0,
        0,
        0,
        0,
        0,
        0
      ]
    }
  ]
}
