{
  "version": 1,
  "createdAt": 1762642526627,
  "backend": "webgl",
  "config": {
    "inputSize": 19,
    "outputSize": 16,
    "hiddenLayers": [
      16
    ],
    "activation": "relu",
    "outputActivation": "tanh",
    "backend": "webgl",
    "seed": 1762630620605
  },
  "metadata": {
    "label": "22",
    "notes": "",
    "correlations": [
      {
        "id": "rms-deltaposx",
        "featureKey": "bandBass",
        "targetId": "deltaPosX",
        "targetIndex": 0,
        "axis": "x",
        "group": "deltaPos",
        "featureIndex": 4,
        "baseIndex": null,
        "strength": 0.65,
        "polarity": "direct",
        "source": "audio"
      },
      {
        "id": "tempoproxy-rotationspeed",
        "featureKey": "tempoProxy",
        "targetId": "rotationSpeed",
        "targetIndex": 9,
        "axis": null,
        "group": "rotationSpeed",
        "featureIndex": 10,
        "baseIndex": null,
        "strength": 0.65,
        "polarity": "direct",
        "source": "audio"
      },
      {
        "id": "bandbass-wobblestrength",
        "featureKey": "bandBass",
        "targetId": "wobbleStrength",
        "targetIndex": 10,
        "axis": null,
        "group": "wobbleStrength",
        "featureIndex": 4,
        "baseIndex": null,
        "strength": 0.6,
        "polarity": "direct",
        "source": "audio"
      },
      {
        "id": "bandhigh-wobblefrequency",
        "featureKey": "bandHigh",
        "targetId": "wobbleFrequency",
        "targetIndex": 11,
        "axis": null,
        "group": "wobbleFrequency",
        "featureIndex": 7,
        "baseIndex": null,
        "strength": 0.6,
        "polarity": "direct",
        "source": "audio"
      },
      {
        "id": "speccentroid-colormix",
        "featureKey": "specCentroid",
        "targetId": "colorMix",
        "targetIndex": 12,
        "axis": null,
        "group": "colorMix",
        "featureIndex": 1,
        "baseIndex": null,
        "strength": 0.55,
        "polarity": "direct",
        "source": "audio"
      },
      {
        "id": "rms-alphascale",
        "featureKey": "rms",
        "targetId": "alphaScale",
        "targetIndex": 13,
        "axis": null,
        "group": "alphaScale",
        "featureIndex": 0,
        "baseIndex": null,
        "strength": 0.5,
        "polarity": "direct",
        "source": "audio"
      },
      {
        "id": "peak-pointscale",
        "featureKey": "peak",
        "targetId": "pointScale",
        "targetIndex": 14,
        "axis": null,
        "group": "pointScale",
        "featureIndex": 8,
        "baseIndex": null,
        "strength": 0.55,
        "polarity": "direct",
        "source": "audio"
      },
      {
        "id": "bandlowmid-camerazoom",
        "featureKey": "bandLowMid",
        "targetId": "cameraZoom",
        "targetIndex": 15,
        "axis": null,
        "group": "cameraZoom",
        "featureIndex": 5,
        "baseIndex": null,
        "strength": 0.6,
        "polarity": "direct",
        "source": "audio"
      }
    ],
    "training": {
      "status": "completed",
      "epoch": 101,
      "epochs": 101,
      "loss": 0.000173287553479895,
      "best": null,
      "metadata": {
        "status": "completed",
        "epochs": 101,
        "loss": 0.000173287553479895,
        "sampleCount": 512,
        "batchSize": 8,
        "learningRate": 0.0015,
        "noise": 0.04,
        "seed": 1762630561947,
        "createdAt": 1762630610999,
        "correlations": [
          {
            "id": "rms-deltaposx",
            "featureKey": "bandBass",
            "targetId": "deltaPosX",
            "strength": 0.65,
            "polarity": "direct",
            "achieved": 0.9989486580622077
          },
          {
            "id": "tempoproxy-rotationspeed",
            "featureKey": "tempoProxy",
            "targetId": "rotationSpeed",
            "strength": 0.65,
            "polarity": "direct",
            "achieved": 0.9991565208584392
          },
          {
            "id": "bandbass-wobblestrength",
            "featureKey": "bandBass",
            "targetId": "wobbleStrength",
            "strength": 0.6,
            "polarity": "direct",
            "achieved": 0.9988991309053775
          },
          {
            "id": "bandhigh-wobblefrequency",
            "featureKey": "bandHigh",
            "targetId": "wobbleFrequency",
            "strength": 0.6,
            "polarity": "direct",
            "achieved": 0.9992814366049494
          },
          {
            "id": "speccentroid-colormix",
            "featureKey": "specCentroid",
            "targetId": "colorMix",
            "strength": 0.55,
            "polarity": "direct",
            "achieved": 0.9993505879339578
          },
          {
            "id": "rms-alphascale",
            "featureKey": "rms",
            "targetId": "alphaScale",
            "strength": 0.5,
            "polarity": "direct",
            "achieved": 0.9995401006080802
          },
          {
            "id": "peak-pointscale",
            "featureKey": "peak",
            "targetId": "pointScale",
            "strength": 0.55,
            "polarity": "direct",
            "achieved": 0.999318236385467
          },
          {
            "id": "bandlowmid-camerazoom",
            "featureKey": "bandLowMid",
            "targetId": "cameraZoom",
            "strength": 0.6,
            "polarity": "direct",
            "achieved": 0.9993569538817302
          }
        ]
      }
    }
  },
  "weights": [
    {
      "name": "dense_Dense29/kernel",
      "shape": [
        19,
        16
      ],
      "dtype": "float32",
      "values": [
        0.20450983941555023,
        -0.3917733430862427,
        0.3815538287162781,
        -0.2560209333896637,
        -0.4051644504070282,
        -0.1428929567337036,
        -0.38717082142829895,
        0.21085801720619202,
        -0.46793439984321594,
        0.4152824282646179,
        -0.13405796885490417,
        0.14753058552742004,
        -0.0921083316206932,
        0.10943111032247543,
        -0.2792837619781494,
        -0.38417139649391174,
        0.3778754472732544,
        0.17122267186641693,
        0.11477640271186829,
        0.0008006962016224861,
        0.025892488658428192,
        -0.1926632970571518,
        -0.2322981357574463,
        -0.2611580789089203,
        -0.07109419256448746,
        0.15100614726543427,
        -0.4311595559120178,
        -0.3798811137676239,
        0.3426860272884369,
        -0.16153112053871155,
        -0.13389337062835693,
        0.45023709535598755,
        0.1997249573469162,
        0.4150310456752777,
        0.47975954413414,
        -0.48314613103866577,
        0.1431138515472412,
        -0.2371351420879364,
        -0.2689615488052368,
        -0.48275938630104065,
        -0.11114847660064697,
        -0.4551134705543518,
        -0.36963075399398804,
        -0.4835701286792755,
        -0.0813254788517952,
        -0.11378030478954315,
        -0.13885611295700073,
        0.45820891857147217,
        -0.33003076910972595,
        0.14770478010177612,
        -0.3857860565185547,
        -0.22253327071666718,
        0.07376009970903397,
        -0.17479091882705688,
        -0.27897387742996216,
        0.49548646807670593,
        -0.498489111661911,
        0.3878515064716339,
        -0.20071876049041748,
        -0.25388067960739136,
        0.33276256918907166,
        -0.19580699503421783,
        0.2907603085041046,
        0.18754282593727112,
        0.4579891562461853,
        -0.3716607689857483,
        -0.11509726941585541,
        -0.02472752518951893,
        -0.16796699166297913,
        0.05574082210659981,
        -0.0563594326376915,
        -0.32485342025756836,
        -0.3199930787086487,
        0.4158697724342346,
        -0.11404591798782349,
        -0.01865570805966854,
        0.41311734914779663,
        0.11010489612817764,
        -0.006849256344139576,
        0.3368866741657257,
        -0.30618366599082947,
        -0.17090627551078796,
        0.29676553606987,
        0.3122241199016571,
        -0.24571865797042847,
        0.36585092544555664,
        0.16092494130134583,
        0.28745386004447937,
        0.07565979659557343,
        -0.13040265440940857,
        -0.27582865953445435,
        -0.018325142562389374,
        -0.2871258556842804,
        0.038059912621974945,
        0.4157841205596924,
        0.3762128949165344,
        -0.40231961011886597,
        0.29019734263420105,
        -0.43380871415138245,
        -0.3987376391887665,
        0.09664254635572433,
        -0.19935017824172974,
        -0.2036808878183365,
        0.31760525703430176,
        0.3864922523498535,
        0.11844892799854279,
        -0.4464367628097534,
        0.24377408623695374,
        0.39189767837524414,
        0.42549368739128113,
        0.3869626522064209,
        0.496220201253891,
        0.21948163211345673,
        0.1831410676240921,
        -0.4774465560913086,
        0.3327443599700928,
        -0.012767365202307701,
        0.18072833120822906,
        0.0803544670343399,
        0.28190815448760986,
        0.4339892864227295,
        -0.4601602554321289,
        0.08624396473169327,
        -0.06989332288503647,
        -0.14384891092777252,
        0.23480986058712006,
        0.4017605483531952,
        0.00021344306878745556,
        0.46459701657295227,
        0.05094768851995468,
        0.4462861120700836,
        0.23841723799705505,
        0.17127695679664612,
        0.4345104694366455,
        -0.20091526210308075,
        -0.4452821612358093,
        0.06991977989673615,
        -0.20281189680099487,
        0.4418376684188843,
        -0.057573940604925156,
        -0.27030038833618164,
        -0.11553119122982025,
        0.09749674052000046,
        0.14531545341014862,
        0.4509231448173523,
        -0.007663286756724119,
        0.4806602895259857,
        0.40874502062797546,
        0.17101454734802246,
        -0.2172732651233673,
        0.02570486254990101,
        -0.2983739972114563,
        -0.24586354196071625,
        0.29167571663856506,
        0.317433625459671,
        0.2343599796295166,
        0.28345704078674316,
        -0.4745025038719177,
        0.48600533604621887,
        -0.20804817974567413,
        0.08495725691318512,
        -0.29318416118621826,
        0.3153061270713806,
        -0.08942617475986481,
        -0.43517446517944336,
        -0.4367976784706116,
        -0.27629947662353516,
        0.12627944350242615,
        -0.07300295680761337,
        0.21664351224899292,
        -0.0021640334744006395,
        0.17019186913967133,
        0.020498912781476974,
        -0.3764633536338806,
        -0.0473211295902729,
        0.3262447118759155,
        -0.44201788306236267,
        0.2808590829372406,
        0.16994184255599976,
        0.1472647488117218,
        -0.17690804600715637,
        -0.0013357957359403372,
        -0.3028639554977417,
        0.21872392296791077,
        -0.0022999816574156284,
        -0.07538042217493057,
        0.47543373703956604,
        0.2690160870552063,
        0.36889782547950745,
        -0.24471955001354218,
        -0.4719008505344391,
        0.09133758395910263,
        0.03970840573310852,
        -0.21178573369979858,
        0.2484053373336792,
        -0.3535487949848175,
        -0.3063182532787323,
        0.29443761706352234,
        -0.47490063309669495,
        -0.18931442499160767,
        0.2195693701505661,
        0.2882922887802124,
        -0.4408937692642212,
        -0.1391143500804901,
        0.3769434690475464,
        0.40114283561706543,
        -0.0020072124898433685,
        -0.3372211158275604,
        -0.004408666398376226,
        -0.3634862005710602,
        0.15788410604000092,
        -0.3384975492954254,
        0.11102798581123352,
        -0.45453909039497375,
        0.3014337718486786,
        0.4638318717479706,
        0.34004878997802734,
        -0.3785499930381775,
        -0.14822573959827423,
        0.2915233373641968,
        0.043761853128671646,
        0.2579285800457001,
        -0.43113651871681213,
        0.002510655205696821,
        0.46094509959220886,
        0.05664573237299919,
        0.3843773305416107,
        -0.2550243139266968,
        0.42202192544937134,
        -0.39662712812423706,
        0.18924641609191895,
        0.4914594292640686,
        0.22204041481018066,
        0.1860194206237793,
        -0.2909848690032959,
        0.3887540102005005,
        0.4747987389564514,
        -0.3005701005458832,
        0.03609461709856987,
        -0.4478070139884949,
        -0.12799003720283508,
        -0.08962845057249069,
        0.39701715111732483,
        0.03393857926130295,
        -0.3605978488922119,
        -0.4681781232357025,
        0.25350239872932434,
        -0.4955531656742096,
        0.34788042306900024,
        0.48918136954307556,
        -0.3294786810874939,
        0.28457966446876526,
        -0.16264641284942627,
        -0.4458875060081482,
        -0.06585421413183212,
        0.43466606736183167,
        0.32246482372283936,
        -0.2493841052055359,
        0.4767671823501587,
        -0.007370959501713514,
        0.4785115420818329,
        -0.1980351060628891,
        -0.3858855068683624,
        0.4065304100513458,
        0.06290218979120255,
        -0.20574744045734406,
        -0.164918914437294,
        -0.32230985164642334,
        -0.3552396893501282,
        0.160050630569458,
        0.12781739234924316,
        -0.209446981549263,
        0.13120421767234802,
        -0.1618325561285019,
        -0.4659690260887146,
        -0.14608050882816315,
        -0.2831256687641144,
        0.0343204066157341,
        0.31742972135543823,
        0.28513437509536743,
        -0.09551206976175308,
        0.3608565032482147,
        0.17228321731090546,
        0.22591497004032135,
        -0.4763803780078888,
        0.3036101758480072,
        -0.4249905049800873,
        0.25161033868789673,
        -0.133406862616539,
        0.3103821873664856,
        -0.004221649840474129,
        0.007545618340373039,
        0.49743252992630005,
        -0.16754302382469177,
        -0.28967171907424927,
        0.28798866271972656,
        0.4791370928287506,
        0.3334011733531952,
        0.2918199896812439,
        -0.18500594794750214,
        -0.10707483440637589,
        0.06060180440545082,
        0.35319259762763977,
        0.0937725156545639
      ]
    },
    {
      "name": "dense_Dense29/bias",
      "shape": [
        16
      ],
      "dtype": "float32",
      "values": [
        0,
        0,
        0,
        0,
        0,
        0,
        0,
        0,
        0,
        0,
        0,
        0,
        0,
        0,
        0,
        0
      ]
    },
    {
      "name": "dense_Dense30/kernel",
      "shape": [
        16,
        16
      ],
      "dtype": "float32",
      "values": [
        0.20450983941555023,
        -0.3917733430862427,
        0.3815538287162781,
        -0.2560209333896637,
        -0.4051644504070282,
        -0.1428929567337036,
        -0.38717082142829895,
        0.21085801720619202,
        -0.46793439984321594,
        0.4152824282646179,
        -0.13405796885490417,
        0.14753058552742004,
        -0.0921083316206932,
        0.10943111032247543,
        -0.2792837619781494,
        -0.38417139649391174,
        0.3778754472732544,
        0.17122267186641693,
        0.11477640271186829,
        0.0008006962016224861,
        0.025892488658428192,
        -0.1926632970571518,
        -0.2322981357574463,
        -0.2611580789089203,
        -0.07109419256448746,
        0.15100614726543427,
        -0.4311595559120178,
        -0.3798811137676239,
        0.3426860272884369,
        -0.16153112053871155,
        -0.13389337062835693,
        0.45023709535598755,
        0.1997249573469162,
        0.4150310456752777,
        0.47975954413414,
        -0.48314613103866577,
        0.1431138515472412,
        -0.2371351420879364,
        -0.2689615488052368,
        -0.48275938630104065,
        -0.11114847660064697,
        -0.4551134705543518,
        -0.36963075399398804,
        -0.4835701286792755,
        -0.0813254788517952,
        -0.11378030478954315,
        -0.13885611295700073,
        0.45820891857147217,
        -0.33003076910972595,
        0.14770478010177612,
        -0.3857860565185547,
        -0.22253327071666718,
        0.07376009970903397,
        -0.17479091882705688,
        -0.27897387742996216,
        0.49548646807670593,
        -0.498489111661911,
        0.3878515064716339,
        -0.20071876049041748,
        -0.25388067960739136,
        0.33276256918907166,
        -0.19580699503421783,
        0.2907603085041046,
        0.18754282593727112,
        0.4579891562461853,
        -0.3716607689857483,
        -0.11509726941585541,
        -0.02472752518951893,
        -0.16796699166297913,
        0.05574082210659981,
        -0.0563594326376915,
        -0.32485342025756836,
        -0.3199930787086487,
        0.4158697724342346,
        -0.11404591798782349,
        -0.01865570805966854,
        0.41311734914779663,
        0.11010489612817764,
        -0.006849256344139576,
        0.3368866741657257,
        -0.30618366599082947,
        -0.17090627551078796,
        0.29676553606987,
        0.3122241199016571,
        -0.24571865797042847,
        0.36585092544555664,
        0.16092494130134583,
        0.28745386004447937,
        0.07565979659557343,
        -0.13040265440940857,
        -0.27582865953445435,
        -0.018325142562389374,
        -0.2871258556842804,
        0.038059912621974945,
        0.4157841205596924,
        0.3762128949165344,
        -0.40231961011886597,
        0.29019734263420105,
        -0.43380871415138245,
        -0.3987376391887665,
        0.09664254635572433,
        -0.19935017824172974,
        -0.2036808878183365,
        0.31760525703430176,
        0.3864922523498535,
        0.11844892799854279,
        -0.4464367628097534,
        0.24377408623695374,
        0.39189767837524414,
        0.42549368739128113,
        0.3869626522064209,
        0.496220201253891,
        0.21948163211345673,
        0.1831410676240921,
        -0.4774465560913086,
        0.3327443599700928,
        -0.012767365202307701,
        0.18072833120822906,
        0.0803544670343399,
        0.28190815448760986,
        0.4339892864227295,
        -0.4601602554321289,
        0.08624396473169327,
        -0.06989332288503647,
        -0.14384891092777252,
        0.23480986058712006,
        0.4017605483531952,
        0.00021344306878745556,
        0.46459701657295227,
        0.05094768851995468,
        0.4462861120700836,
        0.23841723799705505,
        0.17127695679664612,
        0.4345104694366455,
        -0.20091526210308075,
        -0.4452821612358093,
        0.06991977989673615,
        -0.20281189680099487,
        0.4418376684188843,
        -0.057573940604925156,
        -0.27030038833618164,
        -0.11553119122982025,
        0.09749674052000046,
        0.14531545341014862,
        0.4509231448173523,
        -0.007663286756724119,
        0.4806602895259857,
        0.40874502062797546,
        0.17101454734802246,
        -0.2172732651233673,
        0.02570486254990101,
        -0.2983739972114563,
        -0.24586354196071625,
        0.29167571663856506,
        0.317433625459671,
        0.2343599796295166,
        0.28345704078674316,
        -0.4745025038719177,
        0.48600533604621887,
        -0.20804817974567413,
        0.08495725691318512,
        -0.29318416118621826,
        0.3153061270713806,
        -0.08942617475986481,
        -0.43517446517944336,
        -0.4367976784706116,
        -0.27629947662353516,
        0.12627944350242615,
        -0.07300295680761337,
        0.21664351224899292,
        -0.0021640334744006395,
        0.17019186913967133,
        0.020498912781476974,
        -0.3764633536338806,
        -0.0473211295902729,
        0.3262447118759155,
        -0.44201788306236267,
        0.2808590829372406,
        0.16994184255599976,
        0.1472647488117218,
        -0.17690804600715637,
        -0.0013357957359403372,
        -0.3028639554977417,
        0.21872392296791077,
        -0.0022999816574156284,
        -0.07538042217493057,
        0.47543373703956604,
        0.2690160870552063,
        0.36889782547950745,
        -0.24471955001354218,
        -0.4719008505344391,
        0.09133758395910263,
        0.03970840573310852,
        -0.21178573369979858,
        0.2484053373336792,
        -0.3535487949848175,
        -0.3063182532787323,
        0.29443761706352234,
        -0.47490063309669495,
        -0.18931442499160767,
        0.2195693701505661,
        0.2882922887802124,
        -0.4408937692642212,
        -0.1391143500804901,
        0.3769434690475464,
        0.40114283561706543,
        -0.0020072124898433685,
        -0.3372211158275604,
        -0.004408666398376226,
        -0.3634862005710602,
        0.15788410604000092,
        -0.3384975492954254,
        0.11102798581123352,
        -0.45453909039497375,
        0.3014337718486786,
        0.4638318717479706,
        0.34004878997802734,
        -0.3785499930381775,
        -0.14822573959827423,
        0.2915233373641968,
        0.043761853128671646,
        0.2579285800457001,
        -0.43113651871681213,
        0.002510655205696821,
        0.46094509959220886,
        0.05664573237299919,
        0.3843773305416107,
        -0.2550243139266968,
        0.42202192544937134,
        -0.39662712812423706,
        0.18924641609191895,
        0.4914594292640686,
        0.22204041481018066,
        0.1860194206237793,
        -0.2909848690032959,
        0.3887540102005005,
        0.4747987389564514,
        -0.3005701005458832,
        0.03609461709856987,
        -0.4478070139884949,
        -0.12799003720283508,
        -0.08962845057249069,
        0.39701715111732483,
        0.03393857926130295,
        -0.3605978488922119,
        -0.4681781232357025,
        0.25350239872932434,
        -0.4955531656742096,
        0.34788042306900024,
        0.48918136954307556,
        -0.3294786810874939,
        0.28457966446876526,
        -0.16264641284942627,
        -0.4458875060081482,
        -0.06585421413183212,
        0.43466606736183167
      ]
    },
    {
      "name": "dense_Dense30/bias",
      "shape": [
        16
      ],
      "dtype": "float32",
      "values": [
        0,
        0,
        0,
        0,
        0,
        0,
        0,
        0,
        0,
        0,
        0,
        0,
        0,
        0,
        0,
        0
      ]
    }
  ]
}
