{
  "version": 1,
  "createdAt": 1762643635254,
  "backend": "webgl",
  "config": {
    "inputSize": 19,
    "outputSize": 16,
    "hiddenLayers": [
      20
    ],
    "activation": "relu",
    "outputActivation": "tanh",
    "backend": "webgl",
    "seed": 1762643625456
  },
  "metadata": {
    "label": "23",
    "notes": "",
    "correlations": [
      {
        "id": "rms-deltaposx",
        "featureKey": "bandBass",
        "targetId": "deltaPosX",
        "targetIndex": 0,
        "axis": "x",
        "group": "deltaPos",
        "featureIndex": 4,
        "baseIndex": null,
        "strength": 0.65,
        "polarity": "direct",
        "source": "audio"
      },
      {
        "id": "tempoproxy-rotationspeed",
        "featureKey": "tempoProxy",
        "targetId": "rotationSpeed",
        "targetIndex": 9,
        "axis": null,
        "group": "rotationSpeed",
        "featureIndex": 10,
        "baseIndex": null,
        "strength": 0.65,
        "polarity": "direct",
        "source": "audio"
      },
      {
        "id": "bandbass-wobblestrength",
        "featureKey": "bandBass",
        "targetId": "wobbleStrength",
        "targetIndex": 10,
        "axis": null,
        "group": "wobbleStrength",
        "featureIndex": 4,
        "baseIndex": null,
        "strength": 0.6,
        "polarity": "direct",
        "source": "audio"
      },
      {
        "id": "bandhigh-wobblefrequency",
        "featureKey": "bandHigh",
        "targetId": "wobbleFrequency",
        "targetIndex": 11,
        "axis": null,
        "group": "wobbleFrequency",
        "featureIndex": 7,
        "baseIndex": null,
        "strength": 0.6,
        "polarity": "direct",
        "source": "audio"
      },
      {
        "id": "speccentroid-colormix",
        "featureKey": "specCentroid",
        "targetId": "colorMix",
        "targetIndex": 12,
        "axis": null,
        "group": "colorMix",
        "featureIndex": 1,
        "baseIndex": null,
        "strength": 0.55,
        "polarity": "direct",
        "source": "audio"
      },
      {
        "id": "rms-alphascale",
        "featureKey": "rms",
        "targetId": "alphaScale",
        "targetIndex": 13,
        "axis": null,
        "group": "alphaScale",
        "featureIndex": 0,
        "baseIndex": null,
        "strength": 0.5,
        "polarity": "direct",
        "source": "audio"
      },
      {
        "id": "peak-pointscale",
        "featureKey": "peak",
        "targetId": "pointScale",
        "targetIndex": 14,
        "axis": null,
        "group": "pointScale",
        "featureIndex": 8,
        "baseIndex": null,
        "strength": 0.55,
        "polarity": "direct",
        "source": "audio"
      },
      {
        "id": "bandlowmid-camerazoom",
        "featureKey": "bandLowMid",
        "targetId": "cameraZoom",
        "targetIndex": 15,
        "axis": null,
        "group": "cameraZoom",
        "featureIndex": 5,
        "baseIndex": null,
        "strength": 0.6,
        "polarity": "direct",
        "source": "audio"
      }
    ],
    "training": {
      "status": "completed",
      "epoch": 101,
      "epochs": 101,
      "loss": 0.000173287553479895,
      "best": null,
      "metadata": {
        "status": "completed",
        "epochs": 101,
        "loss": 0.000173287553479895,
        "sampleCount": 512,
        "batchSize": 8,
        "learningRate": 0.0015,
        "noise": 0.04,
        "seed": 1762630561947,
        "createdAt": 1762630610999,
        "correlations": [
          {
            "id": "rms-deltaposx",
            "featureKey": "bandBass",
            "targetId": "deltaPosX",
            "strength": 0.65,
            "polarity": "direct",
            "achieved": 0.9989486580622077
          },
          {
            "id": "tempoproxy-rotationspeed",
            "featureKey": "tempoProxy",
            "targetId": "rotationSpeed",
            "strength": 0.65,
            "polarity": "direct",
            "achieved": 0.9991565208584392
          },
          {
            "id": "bandbass-wobblestrength",
            "featureKey": "bandBass",
            "targetId": "wobbleStrength",
            "strength": 0.6,
            "polarity": "direct",
            "achieved": 0.9988991309053775
          },
          {
            "id": "bandhigh-wobblefrequency",
            "featureKey": "bandHigh",
            "targetId": "wobbleFrequency",
            "strength": 0.6,
            "polarity": "direct",
            "achieved": 0.9992814366049494
          },
          {
            "id": "speccentroid-colormix",
            "featureKey": "specCentroid",
            "targetId": "colorMix",
            "strength": 0.55,
            "polarity": "direct",
            "achieved": 0.9993505879339578
          },
          {
            "id": "rms-alphascale",
            "featureKey": "rms",
            "targetId": "alphaScale",
            "strength": 0.5,
            "polarity": "direct",
            "achieved": 0.9995401006080802
          },
          {
            "id": "peak-pointscale",
            "featureKey": "peak",
            "targetId": "pointScale",
            "strength": 0.55,
            "polarity": "direct",
            "achieved": 0.999318236385467
          },
          {
            "id": "bandlowmid-camerazoom",
            "featureKey": "bandLowMid",
            "targetId": "cameraZoom",
            "strength": 0.6,
            "polarity": "direct",
            "achieved": 0.9993569538817302
          }
        ]
      }
    }
  },
  "weights": [
    {
      "name": "dense_Dense85/kernel",
      "shape": [
        19,
        20
      ],
      "dtype": "float32",
      "values": [
        0.295734703540802,
        -0.3437259793281555,
        -0.4875323176383972,
        0.24692049622535706,
        0.3264846205711365,
        0.3961002230644226,
        -0.47090357542037964,
        -0.06454331427812576,
        -0.33243221044540405,
        -0.26610738039016724,
        -0.3142932057380676,
        -0.20230962336063385,
        0.40315479040145874,
        0.0643041804432869,
        0.3056900203227997,
        0.30616137385368347,
        0.13844901323318481,
        0.14093391597270966,
        0.07997826486825943,
        0.36961856484413147,
        -0.13971476256847382,
        -0.33784109354019165,
        -0.3661196827888489,
        0.1556205302476883,
        0.3707222640514374,
        -0.1881169080734253,
        -0.01944110542535782,
        0.12260168045759201,
        0.34380823373794556,
        0.22584109008312225,
        0.4609276354312897,
        -0.3079952895641327,
        0.04489324241876602,
        0.24314923584461212,
        0.013240469619631767,
        0.4587210416793823,
        0.4184471666812897,
        0.2839706540107727,
        -0.17885282635688782,
        0.4429568350315094,
        0.07429081946611404,
        0.4423125386238098,
        -0.19766117632389069,
        -0.42128151655197144,
        0.18255211412906647,
        0.16212503612041473,
        0.15745295584201813,
        0.1307360976934433,
        0.05849822238087654,
        -0.26046907901763916,
        -0.27952340245246887,
        0.1636696755886078,
        -0.29635733366012573,
        -0.05230061709880829,
        -0.11162620782852173,
        0.4559656083583832,
        -0.009861763566732407,
        0.2768327593803406,
        0.45854321122169495,
        -0.2483324110507965,
        0.19039225578308105,
        -0.1329231709241867,
        0.25477588176727295,
        -0.1226436197757721,
        -0.2728755474090576,
        0.17122958600521088,
        -0.17347362637519836,
        -0.13887135684490204,
        0.46797803044319153,
        -0.19573993980884552,
        0.2624782621860504,
        0.07982712984085083,
        -0.2856464684009552,
        -0.2270892709493637,
        -0.4581865072250366,
        -0.2737574279308319,
        0.22255714237689972,
        0.23916520178318024,
        0.293551504611969,
        0.1998082548379898,
        0.271636426448822,
        -0.20217005908489227,
        -0.26955142617225647,
        0.3203459084033966,
        0.21870052814483643,
        -0.27144649624824524,
        -0.011198767460882664,
        -0.44804713129997253,
        -0.06203225255012512,
        0.22182518243789673,
        0.11930103600025177,
        -0.07964038848876953,
        0.21759243309497833,
        -0.30634090304374695,
        0.06360730528831482,
        -0.16894099116325378,
        0.40174204111099243,
        -0.4726617634296417,
        0.426666796207428,
        0.308626651763916,
        0.19594305753707886,
        -0.08952117711305618,
        -0.4811687767505646,
        0.1471615731716156,
        0.01788533292710781,
        -0.3851648271083832,
        -0.12252268195152283,
        -0.3402934968471527,
        0.19625020027160645,
        -0.22525544464588165,
        -0.17410492897033691,
        -0.4219193458557129,
        -0.08628053218126297,
        0.33525022864341736,
        0.04005141928792,
        0.2798309028148651,
        0.4751058518886566,
        0.11148172616958618,
        0.24947568774223328,
        -0.04633180424571037,
        -0.4693855047225952,
        0.08612322807312012,
        -0.4073617160320282,
        -0.054276399314403534,
        -0.2939324676990509,
        0.37032783031463623,
        0.36499854922294617,
        0.3732885718345642,
        0.10549996048212051,
        0.18533805012702942,
        -0.0912601426243782,
        -0.16675785183906555,
        0.3072734773159027,
        -0.27361196279525757,
        -0.22918574512004852,
        0.15976198017597198,
        -0.4284800887107849,
        0.16419106721878052,
        0.4012471139431,
        0.34968629479408264,
        0.43383729457855225,
        0.11394528299570084,
        -0.4983513355255127,
        -0.02332407794892788,
        0.4001826047897339,
        -0.09658022224903107,
        0.448923796415329,
        -0.4418581426143646,
        0.0443626306951046,
        0.4974309504032135,
        0.29005128145217896,
        -0.39438918232917786,
        -0.04744035750627518,
        -0.4028790295124054,
        0.18255804479122162,
        -0.10090863704681396,
        -0.463405042886734,
        -0.47516462206840515,
        -0.447656512260437,
        -0.03692832216620445,
        0.1299823522567749,
        0.16088427603244781,
        0.2826390862464905,
        0.16823147237300873,
        -0.1646910160779953,
        -0.06396062672138214,
        -0.4929240345954895,
        -0.13773000240325928,
        0.4564134180545807,
        -0.14529886841773987,
        -0.4454672932624817,
        0.11232065409421921,
        0.20991340279579163,
        0.22175055742263794,
        0.2664795219898224,
        0.07433151453733444,
        0.130106583237648,
        -0.06894709169864655,
        -0.29904741048812866,
        -0.002881658263504505,
        -0.4300095736980438,
        -0.20206616818904877,
        -0.38871076703071594,
        0.18409399688243866,
        -0.4910796284675598,
        0.4254276156425476,
        0.18165139853954315,
        -0.296344131231308,
        -0.01620665192604065,
        0.14030057191848755,
        0.0463394969701767,
        -0.4631807506084442,
        0.163766548037529,
        0.4994150400161743,
        0.05584227666258812,
        0.4914836287498474,
        -0.04962923750281334,
        -0.11287504434585571,
        0.3391743302345276,
        -0.4472443163394928,
        0.15972179174423218,
        0.2619759142398834,
        0.3765054941177368,
        0.31904783844947815,
        0.05665099620819092,
        -0.3961721360683441,
        -0.06809966266155243,
        0.43345677852630615,
        -0.07076285779476166,
        0.09753277897834778,
        0.10299032181501389,
        -0.3604523539543152,
        0.3654725253582001,
        -0.4323091506958008,
        -0.19016504287719727,
        -0.41295135021209717,
        0.34560614824295044,
        0.3721223771572113,
        -0.12373151630163193,
        0.30078211426734924,
        -0.30716952681541443,
        0.3402690589427948,
        -0.39278173446655273,
        0.22193339467048645,
        0.05521285533905029,
        0.38468343019485474,
        -0.4616095721721649,
        0.3618800938129425,
        -0.14275923371315002,
        0.4048142731189728,
        -0.4785425066947937,
        0.21227023005485535,
        0.3361962139606476,
        -0.18432988226413727,
        -0.30972883105278015,
        0.08389945328235626,
        0.43661612272262573,
        0.08795937150716782,
        0.3608647584915161,
        0.29404187202453613,
        0.25182899832725525,
        -0.2078411728143692,
        0.4378388226032257,
        0.38529977202415466,
        0.2877618968486786,
        -0.2593446373939514,
        0.026904571801424026,
        0.036787666380405426,
        -0.3868502676486969,
        -0.34676364064216614,
        -0.4815361499786377,
        -0.10817403346300125,
        -0.3734869360923767,
        0.19572052359580994,
        -0.022786548361182213,
        0.14065058529376984,
        -0.3245549499988556,
        -0.23191481828689575,
        0.24347470700740814,
        0.21168632805347443,
        -0.09313127398490906,
        0.19428181648254395,
        0.37793752551078796,
        -0.0020049435552209616,
        0.42746585607528687,
        -0.1414799839258194,
        0.3822946548461914,
        0.26766592264175415,
        -0.044828977435827255,
        0.4092554450035095,
        0.48368513584136963,
        -0.03472605720162392,
        -0.37390953302383423,
        -0.2784392237663269,
        -0.37410610914230347,
        0.26088404655456543,
        -0.3307320177555084,
        0.0915675088763237,
        0.23218972980976105,
        0.02371138520538807,
        0.16937200725078583,
        0.07946072518825531,
        -0.3411168158054352,
        0.11073900014162064,
        0.14820203185081482,
        -0.23375128209590912,
        0.01597757451236248,
        0.16363176703453064,
        -0.2844671905040741,
        0.3166441321372986,
        -0.40979740023612976,
        0.31924349069595337,
        0.21746549010276794,
        -0.22939176857471466,
        0.1342187225818634,
        0.28750309348106384,
        0.23043255507946014,
        0.12747612595558167,
        -0.3109015226364136,
        -0.2732376754283905,
        0.04671327769756317,
        0.24260790646076202,
        0.42043572664260864,
        0.3159954845905304,
        0.1693548858165741,
        -0.2212154120206833,
        0.45792680978775024,
        0.27321094274520874,
        0.2263953983783722,
        -0.42926257848739624,
        -0.35301876068115234,
        0.44748029112815857,
        -0.34031108021736145,
        0.18028713762760162,
        0.2058376967906952,
        0.04567478969693184,
        -0.3809480369091034,
        0.1614268571138382,
        0.1727646440267563,
        0.25510409474372864,
        -0.28752028942108154,
        0.2534666657447815,
        -0.3197157084941864,
        0.3224514424800873,
        -0.24490372836589813,
        0.1356009542942047,
        0.015220393426716328,
        -0.20126992464065552,
        0.2586861252784729,
        -0.43120381236076355,
        -0.031446509063243866,
        0.01775668002665043,
        0.31432390213012695,
        0.25867193937301636,
        -0.435804545879364,
        0.1355016827583313,
        0.3447536826133728,
        0.20657794177532196,
        -0.38308385014533997,
        0.23559530079364777,
        0.4945783019065857,
        -0.10968910157680511,
        0.32038766145706177,
        0.2929386794567108,
        -0.0012746546417474747,
        0.3202205002307892,
        -0.014534407295286655,
        -0.11697404831647873,
        -0.3026479482650757,
        0.26725873351097107,
        -0.4865671992301941,
        -0.24193473160266876,
        -0.19762679934501648,
        0.10004986822605133,
        -0.1142241582274437,
        0.08891041576862335,
        0.20209074020385742,
        0.2903575599193573,
        -0.49937930703163147,
        -0.11427599936723709,
        0.19417908787727356,
        -0.21061953902244568,
        -0.14288416504859924,
        -0.43639665842056274,
        -0.054305244237184525,
        -0.07734722644090652,
        -0.29439809918403625,
        0.03230595961213112,
        -0.4824535548686981,
        0.46173158288002014,
        0.40369629859924316,
        0.3520961105823517,
        -0.18351401388645172,
        -0.0894007608294487,
        -0.0390215627849102,
        -0.07684243470430374,
        -0.11198244988918304,
        -0.019439920783042908,
        0.37035101652145386,
        0.14557228982448578
      ]
    },
    {
      "name": "dense_Dense85/bias",
      "shape": [
        20
      ],
      "dtype": "float32",
      "values": [
        0,
        0,
        0,
        0,
        0,
        0,
        0,
        0,
        0,
        0,
        0,
        0,
        0,
        0,
        0,
        0,
        0,
        0,
        0,
        0
      ]
    },
    {
      "name": "dense_Dense86/kernel",
      "shape": [
        20,
        16
      ],
      "dtype": "float32",
      "values": [
        0.295734703540802,
        -0.3437259793281555,
        -0.4875323176383972,
        0.24692049622535706,
        0.3264846205711365,
        0.3961002230644226,
        -0.47090357542037964,
        -0.06454331427812576,
        -0.33243221044540405,
        -0.26610738039016724,
        -0.3142932057380676,
        -0.20230962336063385,
        0.40315479040145874,
        0.0643041804432869,
        0.3056900203227997,
        0.30616137385368347,
        0.13844901323318481,
        0.14093391597270966,
        0.07997826486825943,
        0.36961856484413147,
        -0.13971476256847382,
        -0.33784109354019165,
        -0.3661196827888489,
        0.1556205302476883,
        0.3707222640514374,
        -0.1881169080734253,
        -0.01944110542535782,
        0.12260168045759201,
        0.34380823373794556,
        0.22584109008312225,
        0.4609276354312897,
        -0.3079952895641327,
        0.04489324241876602,
        0.24314923584461212,
        0.013240469619631767,
        0.4587210416793823,
        0.4184471666812897,
        0.2839706540107727,
        -0.17885282635688782,
        0.4429568350315094,
        0.07429081946611404,
        0.4423125386238098,
        -0.19766117632389069,
        -0.42128151655197144,
        0.18255211412906647,
        0.16212503612041473,
        0.15745295584201813,
        0.1307360976934433,
        0.05849822238087654,
        -0.26046907901763916,
        -0.27952340245246887,
        0.1636696755886078,
        -0.29635733366012573,
        -0.05230061709880829,
        -0.11162620782852173,
        0.4559656083583832,
        -0.009861763566732407,
        0.2768327593803406,
        0.45854321122169495,
        -0.2483324110507965,
        0.19039225578308105,
        -0.1329231709241867,
        0.25477588176727295,
        -0.1226436197757721,
        -0.2728755474090576,
        0.17122958600521088,
        -0.17347362637519836,
        -0.13887135684490204,
        0.46797803044319153,
        -0.19573993980884552,
        0.2624782621860504,
        0.07982712984085083,
        -0.2856464684009552,
        -0.2270892709493637,
        -0.4581865072250366,
        -0.2737574279308319,
        0.22255714237689972,
        0.23916520178318024,
        0.293551504611969,
        0.1998082548379898,
        0.271636426448822,
        -0.20217005908489227,
        -0.26955142617225647,
        0.3203459084033966,
        0.21870052814483643,
        -0.27144649624824524,
        -0.011198767460882664,
        -0.44804713129997253,
        -0.06203225255012512,
        0.22182518243789673,
        0.11930103600025177,
        -0.07964038848876953,
        0.21759243309497833,
        -0.30634090304374695,
        0.06360730528831482,
        -0.16894099116325378,
        0.40174204111099243,
        -0.4726617634296417,
        0.426666796207428,
        0.308626651763916,
        0.19594305753707886,
        -0.08952117711305618,
        -0.4811687767505646,
        0.1471615731716156,
        0.01788533292710781,
        -0.3851648271083832,
        -0.12252268195152283,
        -0.3402934968471527,
        0.19625020027160645,
        -0.22525544464588165,
        -0.17410492897033691,
        -0.4219193458557129,
        -0.08628053218126297,
        0.33525022864341736,
        0.04005141928792,
        0.2798309028148651,
        0.4751058518886566,
        0.11148172616958618,
        0.24947568774223328,
        -0.04633180424571037,
        -0.4693855047225952,
        0.08612322807312012,
        -0.4073617160320282,
        -0.054276399314403534,
        -0.2939324676990509,
        0.37032783031463623,
        0.36499854922294617,
        0.3732885718345642,
        0.10549996048212051,
        0.18533805012702942,
        -0.0912601426243782,
        -0.16675785183906555,
        0.3072734773159027,
        -0.27361196279525757,
        -0.22918574512004852,
        0.15976198017597198,
        -0.4284800887107849,
        0.16419106721878052,
        0.4012471139431,
        0.34968629479408264,
        0.43383729457855225,
        0.11394528299570084,
        -0.4983513355255127,
        -0.02332407794892788,
        0.4001826047897339,
        -0.09658022224903107,
        0.448923796415329,
        -0.4418581426143646,
        0.0443626306951046,
        0.4974309504032135,
        0.29005128145217896,
        -0.39438918232917786,
        -0.04744035750627518,
        -0.4028790295124054,
        0.18255804479122162,
        -0.10090863704681396,
        -0.463405042886734,
        -0.47516462206840515,
        -0.447656512260437,
        -0.03692832216620445,
        0.1299823522567749,
        0.16088427603244781,
        0.2826390862464905,
        0.16823147237300873,
        -0.1646910160779953,
        -0.06396062672138214,
        -0.4929240345954895,
        -0.13773000240325928,
        0.4564134180545807,
        -0.14529886841773987,
        -0.4454672932624817,
        0.11232065409421921,
        0.20991340279579163,
        0.22175055742263794,
        0.2664795219898224,
        0.07433151453733444,
        0.130106583237648,
        -0.06894709169864655,
        -0.29904741048812866,
        -0.002881658263504505,
        -0.4300095736980438,
        -0.20206616818904877,
        -0.38871076703071594,
        0.18409399688243866,
        -0.4910796284675598,
        0.4254276156425476,
        0.18165139853954315,
        -0.296344131231308,
        -0.01620665192604065,
        0.14030057191848755,
        0.0463394969701767,
        -0.4631807506084442,
        0.163766548037529,
        0.4994150400161743,
        0.05584227666258812,
        0.4914836287498474,
        -0.04962923750281334,
        -0.11287504434585571,
        0.3391743302345276,
        -0.4472443163394928,
        0.15972179174423218,
        0.2619759142398834,
        0.3765054941177368,
        0.31904783844947815,
        0.05665099620819092,
        -0.3961721360683441,
        -0.06809966266155243,
        0.43345677852630615,
        -0.07076285779476166,
        0.09753277897834778,
        0.10299032181501389,
        -0.3604523539543152,
        0.3654725253582001,
        -0.4323091506958008,
        -0.19016504287719727,
        -0.41295135021209717,
        0.34560614824295044,
        0.3721223771572113,
        -0.12373151630163193,
        0.30078211426734924,
        -0.30716952681541443,
        0.3402690589427948,
        -0.39278173446655273,
        0.22193339467048645,
        0.05521285533905029,
        0.38468343019485474,
        -0.4616095721721649,
        0.3618800938129425,
        -0.14275923371315002,
        0.4048142731189728,
        -0.4785425066947937,
        0.21227023005485535,
        0.3361962139606476,
        -0.18432988226413727,
        -0.30972883105278015,
        0.08389945328235626,
        0.43661612272262573,
        0.08795937150716782,
        0.3608647584915161,
        0.29404187202453613,
        0.25182899832725525,
        -0.2078411728143692,
        0.4378388226032257,
        0.38529977202415466,
        0.2877618968486786,
        -0.2593446373939514,
        0.026904571801424026,
        0.036787666380405426,
        -0.3868502676486969,
        -0.34676364064216614,
        -0.4815361499786377,
        -0.10817403346300125,
        -0.3734869360923767,
        0.19572052359580994,
        -0.022786548361182213,
        0.14065058529376984,
        -0.3245549499988556,
        -0.23191481828689575,
        0.24347470700740814,
        0.21168632805347443,
        -0.09313127398490906,
        0.19428181648254395,
        0.37793752551078796,
        -0.0020049435552209616,
        0.42746585607528687,
        -0.1414799839258194,
        0.3822946548461914,
        0.26766592264175415,
        -0.044828977435827255,
        0.4092554450035095,
        0.48368513584136963,
        -0.03472605720162392,
        -0.37390953302383423,
        -0.2784392237663269,
        -0.37410610914230347,
        0.26088404655456543,
        -0.3307320177555084,
        0.0915675088763237,
        0.23218972980976105,
        0.02371138520538807,
        0.16937200725078583,
        0.07946072518825531,
        -0.3411168158054352,
        0.11073900014162064,
        0.14820203185081482,
        -0.23375128209590912,
        0.01597757451236248,
        0.16363176703453064,
        -0.2844671905040741,
        0.3166441321372986,
        -0.40979740023612976,
        0.31924349069595337,
        0.21746549010276794,
        -0.22939176857471466,
        0.1342187225818634,
        0.28750309348106384,
        0.23043255507946014,
        0.12747612595558167,
        -0.3109015226364136,
        -0.2732376754283905,
        0.04671327769756317,
        0.24260790646076202,
        0.42043572664260864,
        0.3159954845905304,
        0.1693548858165741,
        -0.2212154120206833,
        0.45792680978775024,
        0.27321094274520874,
        0.2263953983783722,
        -0.42926257848739624,
        -0.35301876068115234,
        0.44748029112815857,
        -0.34031108021736145,
        0.18028713762760162,
        0.2058376967906952,
        0.04567478969693184,
        -0.3809480369091034,
        0.1614268571138382,
        0.1727646440267563,
        0.25510409474372864
      ]
    },
    {
      "name": "dense_Dense86/bias",
      "shape": [
        16
      ],
      "dtype": "float32",
      "values": [
        0,
        0,
        0,
        0,
        0,
        0,
        0,
        0,
        0,
        0,
        0,
        0,
        0,
        0,
        0,
        0
      ]
    }
  ]
}
