{
  "version": 1,
  "createdAt": 1762643785169,
  "backend": "webgl",
  "config": {
    "inputSize": 19,
    "outputSize": 16,
    "hiddenLayers": [
      56
    ],
    "activation": "relu",
    "outputActivation": "tanh",
    "backend": "webgl",
    "seed": 1762643763520
  },
  "metadata": {
    "label": "24",
    "notes": "",
    "correlations": [
      {
        "id": "rms-deltaposx",
        "featureKey": "bandBass",
        "targetId": "deltaPosX",
        "targetIndex": 0,
        "axis": "x",
        "group": "deltaPos",
        "featureIndex": 4,
        "baseIndex": null,
        "strength": 0.65,
        "polarity": "direct",
        "source": "audio"
      },
      {
        "id": "tempoproxy-rotationspeed",
        "featureKey": "tempoProxy",
        "targetId": "rotationSpeed",
        "targetIndex": 9,
        "axis": null,
        "group": "rotationSpeed",
        "featureIndex": 10,
        "baseIndex": null,
        "strength": 0.65,
        "polarity": "direct",
        "source": "audio"
      },
      {
        "id": "bandbass-wobblestrength",
        "featureKey": "bandBass",
        "targetId": "wobbleStrength",
        "targetIndex": 10,
        "axis": null,
        "group": "wobbleStrength",
        "featureIndex": 4,
        "baseIndex": null,
        "strength": 0.6,
        "polarity": "direct",
        "source": "audio"
      },
      {
        "id": "bandhigh-wobblefrequency",
        "featureKey": "bandHigh",
        "targetId": "wobbleFrequency",
        "targetIndex": 11,
        "axis": null,
        "group": "wobbleFrequency",
        "featureIndex": 7,
        "baseIndex": null,
        "strength": 0.6,
        "polarity": "direct",
        "source": "audio"
      },
      {
        "id": "speccentroid-colormix",
        "featureKey": "specCentroid",
        "targetId": "colorMix",
        "targetIndex": 12,
        "axis": null,
        "group": "colorMix",
        "featureIndex": 1,
        "baseIndex": null,
        "strength": 0.55,
        "polarity": "direct",
        "source": "audio"
      },
      {
        "id": "rms-alphascale",
        "featureKey": "rms",
        "targetId": "alphaScale",
        "targetIndex": 13,
        "axis": null,
        "group": "alphaScale",
        "featureIndex": 0,
        "baseIndex": null,
        "strength": 0.5,
        "polarity": "direct",
        "source": "audio"
      },
      {
        "id": "peak-pointscale",
        "featureKey": "peak",
        "targetId": "pointScale",
        "targetIndex": 14,
        "axis": null,
        "group": "pointScale",
        "featureIndex": 8,
        "baseIndex": null,
        "strength": 0.55,
        "polarity": "direct",
        "source": "audio"
      },
      {
        "id": "bandlowmid-camerazoom",
        "featureKey": "bandLowMid",
        "targetId": "cameraZoom",
        "targetIndex": 15,
        "axis": null,
        "group": "cameraZoom",
        "featureIndex": 5,
        "baseIndex": null,
        "strength": 0.6,
        "polarity": "direct",
        "source": "audio"
      }
    ],
    "training": {
      "status": "idle",
      "epoch": 0,
      "epochs": 24,
      "loss": null,
      "best": null,
      "metadata": null
    }
  },
  "weights": [
    {
      "name": "dense_Dense5/kernel",
      "shape": [
        19,
        56
      ],
      "dtype": "float32",
      "values": [
        -0.1328580677509308,
        -0.08442778140306473,
        -0.48470640182495117,
        -0.10158926993608475,
        -0.4473922848701477,
        0.21532849967479706,
        -0.07215442508459091,
        -0.1672104150056839,
        0.499444842338562,
        -0.014051122590899467,
        0.1886122226715088,
        0.3399661183357239,
        0.1254558116197586,
        -0.3238168954849243,
        0.3838460147380829,
        0.27802255749702454,
        -0.07490946352481842,
        0.27940961718559265,
        -0.17640304565429688,
        0.446949303150177,
        0.0632014200091362,
        -0.48962974548339844,
        -0.4170646369457245,
        -0.44020935893058777,
        0.34610605239868164,
        0.36614641547203064,
        -0.08517871797084808,
        -0.09676069021224976,
        0.10129565745592117,
        -0.13438698649406433,
        -0.4287298619747162,
        -0.052138179540634155,
        -0.05882864445447922,
        -0.10397586226463318,
        -0.2462725043296814,
        -0.2834310233592987,
        0.03700048848986626,
        -0.16669879853725433,
        -0.39870256185531616,
        -0.3351500630378723,
        0.277864933013916,
        0.1431659609079361,
        0.030074991285800934,
        0.10732869058847427,
        -0.482086718082428,
        0.02355026826262474,
        -0.1295580416917801,
        -0.37721845507621765,
        -0.339458703994751,
        0.3392098546028137,
        0.1568222939968109,
        -0.08261099457740784,
        -0.43933725357055664,
        -0.374859094619751,
        -0.37581902742385864,
        0.09521506726741791,
        0.07825127989053726,
        0.2531841993331909,
        -0.4596473276615143,
        0.4237518608570099,
        -0.07466322183609009,
        -0.2856687605381012,
        -0.0883072167634964,
        -0.499390184879303,
        0.08347996324300766,
        0.17423543334007263,
        0.011828740127384663,
        -0.04780508577823639,
        -0.3770298361778259,
        0.4540126621723175,
        0.014541173353791237,
        -0.29030001163482666,
        -0.4219086170196533,
        -0.11424284428358078,
        0.14548185467720032,
        0.49935266375541687,
        0.20464560389518738,
        -0.46465402841567993,
        -0.4792979955673218,
        -0.2849155366420746,
        0.48719093203544617,
        -0.39669114351272583,
        -0.4457014203071594,
        -0.42798465490341187,
        0.3318069577217102,
        -0.47691550850868225,
        -0.3907010853290558,
        0.36694619059562683,
        -0.0944284200668335,
        0.3467837870121002,
        -0.05481443926692009,
        -0.16423697769641876,
        0.490270733833313,
        -0.017547445371747017,
        -0.468062162399292,
        0.38176393508911133,
        0.08085333555936813,
        -0.05358383432030678,
        0.3057345449924469,
        -0.007199533749371767,
        -0.03540302813053131,
        0.30937179923057556,
        0.17482039332389832,
        -0.35265493392944336,
        0.1356070339679718,
        0.14283882081508636,
        0.19331036508083344,
        -0.04923345893621445,
        0.23987442255020142,
        0.4848974347114563,
        0.37606075406074524,
        -0.29175806045532227,
        0.39310771226882935,
        0.35806143283843994,
        0.48696380853652954,
        0.43348461389541626,
        0.22853584587574005,
        -0.49826663732528687,
        0.3399011790752411,
        0.48371630907058716,
        0.09367625415325165,
        -0.4547443091869354,
        -0.08994093537330627,
        -0.09734305739402771,
        0.05452973395586014,
        0.028002770617604256,
        0.46302711963653564,
        -0.48549818992614746,
        -0.31162410974502563,
        -0.4167924225330353,
        0.05783402547240257,
        -0.1519898623228073,
        -0.2955227792263031,
        -0.0943194180727005,
        0.07760664820671082,
        0.0073494622483849525,
        -0.17563357949256897,
        0.08494103699922562,
        0.4226360321044922,
        -0.03215423971414566,
        -0.014154011383652687,
        0.024884790182113647,
        -0.05843015015125275,
        -0.08150165528059006,
        -0.0011376729235053062,
        0.22283238172531128,
        -0.0390734001994133,
        0.39914774894714355,
        -0.09285953640937805,
        -0.4507766664028168,
        0.021573415026068687,
        0.3652571439743042,
        -0.05602684244513512,
        -0.2052053064107895,
        0.08518428355455399,
        0.07122927904129028,
        -0.429471492767334,
        -0.2243427038192749,
        -0.05880838632583618,
        -0.3511410653591156,
        0.05915246531367302,
        0.08771605044603348,
        -0.32029393315315247,
        -0.39653128385543823,
        0.3098762035369873,
        -0.30172720551490784,
        -0.29063960909843445,
        0.16325423121452332,
        -0.4085274934768677,
        -0.1719193309545517,
        -0.06885179877281189,
        -0.05026739835739136,
        -0.18425187468528748,
        -0.10104262083768845,
        -0.24964889883995056,
        -0.39257290959358215,
        0.31228646636009216,
        -0.3592904806137085,
        0.19255951046943665,
        -0.4740346074104309,
        0.04121709614992142,
        -0.024343661963939667,
        -0.2562881410121918,
        0.2877345681190491,
        -0.1534770131111145,
        -0.2824349105358124,
        -0.1701652854681015,
        0.4863649308681488,
        0.1482454389333725,
        -0.34206828474998474,
        -0.1149313822388649,
        -0.0681014358997345,
        -0.3686264753341675,
        0.045967161655426025,
        0.3867476284503937,
        -0.481350302696228,
        -0.2953072190284729,
        0.39387038350105286,
        -0.053661447018384933,
        -0.08022148907184601,
        -0.3555385172367096,
        -0.37737977504730225,
        -0.39934635162353516,
        -0.2026391625404358,
        -0.2303929328918457,
        -0.4210357069969177,
        0.015012150630354881,
        0.15930582582950592,
        0.31105488538742065,
        -0.0007162175606936216,
        0.2926059365272522,
        -0.45126914978027344,
        -0.06818745285272598,
        0.003325004829093814,
        -0.15766124427318573,
        0.4706572890281677,
        -0.29001399874687195,
        -0.39976024627685547,
        0.11913041025400162,
        0.43352368474006653,
        -0.10656308382749557,
        -0.1804729551076889,
        0.05062352493405342,
        0.49397778511047363,
        -0.25849494338035583,
        0.13776415586471558,
        0.20219983160495758,
        -0.11754201352596283,
        -0.12159565836191177,
        0.05291495472192764,
        -0.4646444320678711,
        -0.21571722626686096,
        -0.013914113864302635,
        -0.42325571179389954,
        0.4487605690956116,
        -0.3035575747489929,
        -0.13258326053619385,
        0.10704595595598221,
        0.1505465805530548,
        -0.3140060305595398,
        0.4940137565135956,
        0.09121808409690857,
        -0.23362582921981812,
        0.44169890880584717,
        0.29538148641586304,
        0.09230946749448776,
        -0.33400651812553406,
        0.44706395268440247,
        0.08607703447341919,
        -0.08947097510099411,
        0.3882957398891449,
        0.08423116058111191,
        0.01890915259718895,
        -0.4847660958766937,
        0.17702333629131317,
        0.1203397586941719,
        0.33700522780418396,
        -0.09271351993083954,
        0.32604706287384033,
        0.2896691560745239,
        -0.21906398236751556,
        -0.2521292567253113,
        0.3189547657966614,
        0.24451829493045807,
        -0.3775049149990082,
        0.24405479431152344,
        0.003749870229512453,
        0.02765282243490219,
        -0.4710994064807892,
        0.37517935037612915,
        -0.27740275859832764,
        0.12485581636428833,
        -0.26017245650291443,
        -0.43352261185646057,
        0.295966774225235,
        0.1654718965291977,
        0.19874995946884155,
        -0.33330100774765015,
        0.47598105669021606,
        0.15803156793117523,
        -0.41396287083625793,
        -0.46822431683540344,
        0.0028792396187782288,
        0.12925031781196594,
        -0.21550151705741882,
        0.32989245653152466,
        -0.006432137917727232,
        -0.3695380687713623,
        -0.07246130704879761,
        0.2898820638656616,
        -0.21106262505054474,
        0.10668428242206573,
        -0.38081082701683044,
        0.19456151127815247,
        0.006915714126080275,
        0.2223978042602539,
        0.45419931411743164,
        0.1777172088623047,
        -0.08810097724199295,
        0.01949997991323471,
        0.2479272186756134,
        -0.4361984431743622,
        -0.08033967018127441,
        0.2492493987083435,
        0.34241336584091187,
        0.4077627956867218,
        -0.25085362792015076,
        0.16849792003631592,
        -0.4163374602794647,
        -0.25146108865737915,
        -0.18962576985359192,
        0.35315898060798645,
        0.1576206237077713,
        0.3337762951850891,
        0.07917214930057526,
        0.4349140226840973,
        -0.48972606658935547,
        -0.45073401927948,
        0.1468719244003296,
        -0.13730460405349731,
        0.15249726176261902,
        0.047052763402462006,
        0.33608415722846985,
        0.22270752489566803,
        0.3962821364402771,
        -0.24338151514530182,
        -0.2597975432872772,
        0.14173990488052368,
        -0.26121553778648376,
        0.30115723609924316,
        -0.2825956642627716,
        0.36436548829078674,
        0.22270865738391876,
        -0.08153190463781357,
        0.06031195446848869,
        0.12017375230789185,
        -0.313080757856369,
        -0.16463768482208252,
        0.11468136310577393,
        0.061923157423734665,
        0.3927774727344513,
        0.009373529814183712,
        -0.10765603184700012,
        -0.3111545741558075,
        0.04144878685474396,
        0.44204264879226685,
        -0.03288865461945534,
        -0.09935896843671799,
        -0.34806713461875916,
        -0.18927882611751556,
        -0.09656351059675217,
        0.18489336967468262,
        0.0289013609290123,
        -0.003128766780719161,
        0.18353645503520966,
        0.2125447392463684,
        -0.2503628730773926,
        0.0045933797955513,
        -0.1182306632399559,
        0.22992537915706635,
        -0.30706924200057983,
        0.14132213592529297,
        -0.0994524210691452,
        -0.003374371910467744,
        -0.09520546346902847,
        0.43678566813468933,
        0.03230662643909454,
        -0.46357202529907227,
        -0.03441942483186722,
        -0.1992383450269699,
        -0.3232693076133728,
        -0.009370170533657074,
        0.2996809184551239,
        0.2976383864879608,
        -0.015012776479125023,
        0.27443361282348633,
        0.07840563356876373,
        -0.3074195683002472,
        0.021430818364024162,
        0.28136926889419556,
        0.22286881506443024,
        -0.464414119720459,
        -0.034792616963386536,
        0.10098309814929962,
        0.34656190872192383,
        0.4064386487007141,
        0.18665646016597748,
        0.3947499394416809,
        -0.07962397485971451,
        -0.07323043793439865,
        0.370379239320755,
        0.39658910036087036,
        0.3646170198917389,
        -0.3136886656284332,
        0.2443235069513321,
        0.20706483721733093,
        -0.4284464120864868,
        -0.411978155374527,
        -0.10522811859846115,
        -0.22215084731578827,
        0.4382023513317108,
        -0.242071270942688,
        -0.3608395755290985,
        0.13245539367198944,
        0.2815816402435303,
        -0.11272357404232025,
        -0.12156659364700317,
        0.1543612778186798,
        -0.025253666564822197,
        -0.43499860167503357,
        0.06506370007991791,
        0.44546470046043396,
        -0.012705896981060505,
        -0.22642289102077484,
        0.3374725580215454,
        -0.14870813488960266,
        0.053320497274398804,
        -0.226339191198349,
        0.2721864581108093,
        0.23079560697078705,
        0.12657451629638672,
        -0.17858333885669708,
        0.09732779860496521,
        0.1901775747537613,
        0.11718428879976273,
        -0.3736792206764221,
        -0.16255874931812286,
        0.23141194880008698,
        -0.015084921382367611,
        -0.20811554789543152,
        0.2597755789756775,
        -0.2090321034193039,
        0.4042387008666992,
        -0.252040833234787,
        0.30645012855529785,
        0.4253658652305603,
        -0.41062214970588684,
        0.04640600085258484,
        -0.18756318092346191,
        -0.27486616373062134,
        -0.396304190158844,
        -0.4536905288696289,
        0.2371496856212616,
        -0.28966307640075684,
        0.21492905914783478,
        -0.4735642671585083,
        0.4387100636959076,
        0.0175462793558836,
        -0.46257510781288147,
        0.07795771956443787,
        0.48120182752609253,
        -0.15661948919296265,
        0.41440221667289734,
        0.4886654019355774,
        -0.41861629486083984,
        -0.13496841490268707,
        -0.3630526661872864,
        -0.17324192821979523,
        -0.21348793804645538,
        -0.13203145563602448,
        0.42559295892715454,
        0.2892756462097168,
        -0.1514354944229126,
        -0.13860951364040375,
        0.2233262062072754,
        -0.3998577892780304,
        -0.058974575251340866,
        -0.18989385664463043,
        -0.1753753125667572,
        0.4764966368675232,
        -0.40253451466560364,
        0.15918418765068054,
        -0.04641798138618469,
        0.12146884948015213,
        -0.14049607515335083,
        0.3421003818511963,
        -0.013025309890508652,
        -0.06740003824234009,
        -0.47439318895339966,
        -0.24525697529315948,
        0.4531089663505554,
        -0.29270362854003906,
        -0.05404574051499367,
        0.4107164442539215,
        -0.3414766192436218,
        -0.17903108894824982,
        -0.4621700048446655,
        0.1948113590478897,
        -0.4009614586830139,
        0.16855613887310028,
        0.04793393611907959,
        0.3714770972728729,
        -0.4052213728427887,
        0.4895617663860321,
        0.015210429206490517,
        0.1567949652671814,
        0.48158007860183716,
        -0.2725830376148224,
        0.4728863537311554,
        -0.32273149490356445,
        -0.34046846628189087,
        -0.47105830907821655,
        0.23235413432121277,
        -0.11738908290863037,
        0.05833469331264496,
        -0.03277640789747238,
        0.4178317189216614,
        0.12025909870862961,
        -0.415201336145401,
        0.12724007666110992,
        -0.3854071795940399,
        -0.3194067180156708,
        0.31746262311935425,
        0.3408324420452118,
        0.4746811091899872,
        0.18124480545520782,
        0.40380823612213135,
        -0.4639485478401184,
        -0.3090367317199707,
        0.035559117794036865,
        0.11112245917320251,
        -0.3058043420314789,
        -0.15891441702842712,
        0.06282542645931244,
        -0.302474707365036,
        0.4092366397380829,
        0.11331403255462646,
        0.13164667785167694,
        0.32379329204559326,
        0.050668321549892426,
        0.31714773178100586,
        -0.345974326133728,
        -0.16558949649333954,
        -0.4424821138381958,
        -0.38486310839653015,
        -0.4619297683238983,
        0.18425029516220093,
        0.2977476716041565,
        -0.29866424202919006,
        0.11677724868059158,
        -0.3531973361968994,
        0.19609594345092773,
        -0.1595538854598999,
        -0.34470006823539734,
        -0.08027373254299164,
        -0.14077840745449066,
        -0.11364998668432236,
        0.32310816645622253,
        0.39524969458580017,
        0.2605465054512024,
        -0.3391276001930237,
        -0.3324313461780548,
        0.23596040904521942,
        0.4634283483028412,
        -0.39227306842803955,
        0.007732473313808441,
        -0.17606785893440247,
        0.36699235439300537,
        -0.45671090483665466,
        -0.4074513912200928,
        -0.47041305899620056,
        -0.36907926201820374,
        -0.22825108468532562,
        -0.29052072763442993,
        0.4015190005302429,
        0.13003063201904297,
        -0.4889661967754364,
        -0.17674601078033447,
        0.1284157782793045,
        0.2539035379886627,
        0.14150984585285187,
        0.4536307454109192,
        -0.43694499135017395,
        -0.4788840711116791,
        -0.2239421159029007,
        -0.18819424510002136,
        0.38726580142974854,
        -0.06919871270656586,
        -0.4366152584552765,
        0.27083349227905273,
        0.26736727356910706,
        -0.49750036001205444,
        -0.12156998366117477,
        -0.1687808632850647,
        -0.1561155468225479,
        0.47510215640068054,
        0.3699275553226471,
        -0.35780009627342224,
        0.22675110399723053,
        -0.09471563249826431,
        0.34780949354171753,
        0.4495609402656555,
        0.08317992091178894,
        -0.10584548860788345,
        0.17062531411647797,
        0.3636494576931,
        0.44979870319366455,
        -0.42916181683540344,
        0.4005412757396698,
        0.4936119616031647,
        0.4075457751750946,
        -0.2538236081600189,
        0.043830178678035736,
        -0.3920685052871704,
        -0.38185611367225647,
        -0.09121515601873398,
        0.21760351955890656,
        -0.16112065315246582,
        -0.17133136093616486,
        0.014576718211174011,
        -0.2546386420726776,
        -0.3616490960121155,
        0.23294955492019653,
        -0.10175371915102005,
        -0.36120614409446716,
        0.3853720426559448,
        -0.042144399136304855,
        0.11440747231245041,
        0.2042233794927597,
        0.13107910752296448,
        0.12925513088703156,
        -0.4120069444179535,
        0.18882010877132416,
        0.061332810670137405,
        0.21536998450756073,
        -0.49744078516960144,
        0.09765173494815826,
        0.2539418041706085,
        0.4241901636123657,
        0.18015846610069275,
        -0.42032334208488464,
        -0.30416086316108704,
        0.4675084948539734,
        0.33414900302886963,
        0.2929353415966034,
        0.007581210229545832,
        0.10357539355754852,
        -0.03995587304234505,
        0.15536947548389435,
        0.3386964797973633,
        -0.2591184973716736,
        -0.14739228785037994,
        -0.2333739548921585,
        -0.34311461448669434,
        -0.46816372871398926,
        -0.07520491629838943,
        0.11973237246274948,
        -0.4962422847747803,
        0.4699380397796631,
        -0.09901351481676102,
        0.2957057058811188,
        -0.2908133566379547,
        0.46502357721328735,
        -0.3933813273906708,
        0.4190337657928467,
        0.44086775183677673,
        0.253773957490921,
        0.35910913348197937,
        0.16114279627799988,
        -0.4724155366420746,
        -0.3078969120979309,
        -0.43209055066108704,
        0.22068257629871368,
        -0.18541419506072998,
        -0.4369736909866333,
        0.27885696291923523,
        0.45049628615379333,
        -0.23482929170131683,
        0.0888671725988388,
        -0.402529239654541,
        -0.09563600271940231,
        0.036851637065410614,
        0.13619303703308105,
        0.005494466982781887,
        0.3176007866859436,
        -0.34704864025115967,
        0.44173523783683777,
        0.22279003262519836,
        -0.48116207122802734,
        -0.37898555397987366,
        0.30982083082199097,
        -0.3594802916049957,
        0.017823347821831703,
        0.30262476205825806,
        0.0007940083742141724,
        0.008022148162126541,
        -0.2548010051250458,
        -0.22072729468345642,
        0.4377165734767914,
        0.2879936099052429,
        0.19047395884990692,
        0.048861462622880936,
        -0.3026338815689087,
        -0.23393140733242035,
        -0.45884469151496887,
        0.1538114696741104,
        -0.06454521417617798,
        -0.4291841983795166,
        0.060358770191669464,
        -0.2839938700199127,
        -0.4340871274471283,
        -0.24467556178569794,
        0.37471118569374084,
        0.41010192036628723,
        0.039992284029722214,
        -0.49303126335144043,
        0.1910059005022049,
        0.4228798449039459,
        -0.447115033864975,
        0.40387284755706787,
        -0.0037815335672348738,
        -0.2345639020204544,
        0.22872403264045715,
        0.39735114574432373,
        0.004523448646068573,
        0.10070635378360748,
        0.15446239709854126,
        0.42252662777900696,
        0.3300623297691345,
        -0.433207631111145,
        0.15647485852241516,
        0.2374422699213028,
        0.033327508717775345,
        -0.08433650434017181,
        -0.4832814037799835,
        0.11882706731557846,
        0.4840151369571686,
        -0.21487361192703247,
        0.3224170506000519,
        -0.07579761743545532,
        -0.03506419062614441,
        0.09545780718326569,
        -0.24600359797477722,
        0.37061551213264465,
        0.2803773880004883,
        0.28939157724380493,
        -0.14069469273090363,
        0.27063098549842834,
        -0.2864893078804016,
        0.4959234595298767,
        0.3240519165992737,
        -0.23877722024917603,
        -0.17527829110622406,
        -0.3493553102016449,
        0.2610345184803009,
        0.08913508802652359,
        -0.19541269540786743,
        -0.033875953406095505,
        0.4316253066062927,
        0.17378874123096466,
        -0.2685670256614685,
        0.3283206522464752,
        0.3215482234954834,
        -0.2583284378051758,
        0.3061807453632355,
        -0.17255084216594696,
        0.19088858366012573,
        -0.4011175334453583,
        -0.08371346443891525,
        0.014676708728075027,
        -0.1020125299692154,
        -0.35381534695625305,
        0.3765700161457062,
        -0.38689562678337097,
        -0.005570279899984598,
        -0.4752327799797058,
        0.014134365133941174,
        -0.014624642208218575,
        -0.42618313431739807,
        -0.010146548971533775,
        -0.4722403585910797,
        -0.274384081363678,
        0.08200468122959137,
        -0.3784363865852356,
        -0.45236387848854065,
        0.18906526267528534,
        -0.33024120330810547,
        0.04478442668914795,
        0.26724010705947876,
        -0.37065762281417847,
        -0.1435396820306778,
        -0.1494780033826828,
        0.037472330033779144,
        -0.19107601046562195,
        -0.027674725279211998,
        -0.4104747772216797,
        -0.02106962352991104,
        0.4649551510810852,
        -0.06790708005428314,
        -0.045759882777929306,
        0.3498872220516205,
        -0.09800872206687927,
        -0.15670430660247803,
        -0.24491693079471588,
        0.13305065035820007,
        0.15373310446739197,
        0.18572969734668732,
        -0.056488268077373505,
        0.15476837754249573,
        0.49384382367134094,
        -0.06421913951635361,
        -0.42632338404655457,
        -0.0030510060023516417,
        -0.25919681787490845,
        0.3543086051940918,
        0.39689213037490845,
        -0.20386889576911926,
        -0.2856912612915039,
        0.05277032032608986,
        -0.1265098750591278,
        0.041878592222929,
        0.45916691422462463,
        0.019989358261227608,
        -0.10598152130842209,
        0.4265397787094116,
        -0.47723475098609924,
        -0.0849427804350853,
        0.21496395766735077,
        0.21235327422618866,
        0.3608666658401489,
        0.0112894456833601,
        0.3778354525566101,
        -0.22413977980613708,
        0.4457859396934509,
        0.33723118901252747,
        0.489202618598938,
        0.24799585342407227,
        -0.06531256437301636,
        0.24861252307891846,
        -0.19189223647117615,
        -0.30159837007522583,
        -0.3418620824813843,
        -0.27159982919692993,
        0.1020611971616745,
        -0.06862563639879227,
        0.20834435522556305,
        0.1858382523059845,
        -0.060607314109802246,
        0.18682168424129486,
        -0.4639270007610321,
        0.37699568271636963,
        -0.4833642244338989,
        0.19677264988422394,
        -0.0994223803281784,
        -0.449454665184021,
        0.359353244304657,
        0.2692500948905945,
        0.09522522985935211,
        0.24792683124542236,
        -0.011068576946854591,
        -0.18922361731529236,
        0.4160332679748535,
        -0.46782630681991577,
        0.4971833825111389,
        0.4399128556251526,
        0.26843351125717163,
        0.17591677606105804,
        -0.12236639857292175,
        0.028782043606042862,
        0.3860418200492859,
        -0.32537153363227844,
        -0.35588398575782776,
        0.12524259090423584,
        0.2272673398256302,
        0.1696675568819046,
        0.28766652941703796,
        0.2268400490283966,
        0.27936309576034546,
        -0.4687245488166809,
        -0.4912097752094269,
        -0.2709248661994934,
        0.4616091251373291,
        0.4784669578075409,
        -0.030331293120980263,
        -0.3266454339027405,
        0.1403769552707672,
        -0.11610975861549377,
        -0.3421300947666168,
        -0.09043996036052704,
        0.3013980984687805,
        0.33775046467781067,
        0.25036734342575073,
        0.03501451015472412,
        0.04555250704288483,
        0.12800253927707672,
        -0.28122007846832275,
        0.39713025093078613,
        0.110334612429142,
        0.1292603760957718,
        0.09765727818012238,
        0.1846875548362732,
        0.03240587189793587,
        -0.23191413283348083,
        -0.31693869829177856,
        0.3853371739387512,
        0.34027665853500366,
        -0.361792653799057,
        0.25345727801322937,
        -0.058586400002241135,
        0.3538947105407715,
        0.0973997637629509,
        0.40027865767478943,
        -0.017428262159228325,
        0.1473282128572464,
        0.43304526805877686,
        0.36614298820495605,
        0.42533358931541443,
        0.3551945090293884,
        -0.0750594437122345,
        0.30582499504089355,
        -0.2914237380027771,
        -0.25693535804748535,
        0.49821022152900696,
        -0.26479291915893555,
        0.004697395488619804,
        -0.0513400100171566,
        -0.1800796240568161,
        0.25620394945144653,
        0.234981507062912,
        0.4266699552536011,
        0.2034633308649063,
        0.4731318950653076,
        -0.4635734558105469,
        -0.1704077273607254,
        0.10910816490650177,
        -0.3351351320743561,
        -0.45378828048706055,
        -0.11177259683609009,
        0.29995471239089966,
        -0.2953232526779175,
        0.08027084916830063,
        -0.04802923649549484,
        0.392318457365036,
        -0.3631647825241089,
        0.17901037633419037,
        -0.3881244659423828,
        0.3861595690250397,
        0.08412490785121918,
        -0.27630653977394104,
        0.4221554100513458,
        -0.05656544864177704,
        0.4433363378047943,
        -0.2743226885795593,
        0.4995824694633484,
        -0.40213847160339355,
        -0.06423930823802948,
        0.15991082787513733,
        0.47429680824279785,
        -0.44726601243019104,
        -0.26107192039489746,
        -0.2760675847530365,
        -0.013071095570921898,
        -0.2338530719280243,
        0.29756098985671997,
        -0.012672815471887589,
        -0.1994333565235138,
        0.1582435965538025,
        0.04530760645866394,
        0.4152928292751312,
        0.47722458839416504,
        0.1574731469154358,
        -0.31137529015541077,
        -0.45916396379470825,
        -0.009373108856379986,
        0.3217097222805023,
        -0.2734556496143341,
        -0.1605023592710495,
        -0.42571887373924255,
        -0.494285523891449,
        0.0034319995902478695,
        -0.1801908314228058,
        0.09093553572893143,
        -0.4958062767982483,
        -0.17263618111610413,
        0.30878928303718567,
        0.2679537236690521,
        0.424437552690506,
        -0.27025607228279114,
        0.4341784119606018,
        0.16591787338256836,
        -0.12863536179065704,
        0.4966047704219818,
        0.30349794030189514,
        0.2593628466129303,
        -0.11633338034152985,
        0.1376064121723175,
        0.4718157947063446,
        -0.42862340807914734,
        -0.050262514501810074,
        0.3236652612686157,
        -0.4191330671310425,
        -0.03699628263711929,
        -0.1061393991112709,
        -0.07484375685453415,
        0.12901157140731812,
        -0.31272318959236145,
        -0.11762966215610504,
        -0.3543851673603058,
        -0.014866471290588379,
        0.20337671041488647,
        0.1523999273777008,
        -0.29107287526130676,
        -0.34689924120903015,
        -0.3786710500717163,
        -0.3477140963077545,
        0.04587739706039429,
        -0.11305050551891327,
        -0.39384782314300537,
        -0.043606847524642944,
        0.1495697945356369,
        -0.47650250792503357,
        0.21710209548473358,
        0.0015720552764832973,
        -0.2590513229370117,
        0.2177010029554367,
        0.1724756807088852,
        0.14580464363098145,
        -0.10150190442800522,
        -0.15101617574691772,
        -0.33430877327919006,
        -0.3430223762989044,
        -0.3172720670700073,
        -0.2778029143810272,
        0.02042822539806366,
        0.37439119815826416,
        -0.40215206146240234,
        0.4715906083583832,
        0.21063710749149323,
        0.05305272340774536,
        0.28466087579727173,
        -0.2233123779296875,
        0.1486039161682129,
        -0.1872500479221344,
        0.12249565124511719,
        -0.25033310055732727,
        -0.4973129630088806,
        -0.3217819929122925,
        -0.4816574454307556,
        -0.18753935396671295,
        0.24143320322036743,
        -0.49741655588150024,
        0.3824703097343445,
        0.09464985877275467,
        0.1479305773973465,
        -0.1901472806930542,
        0.33492234349250793,
        0.36672738194465637,
        -0.4599340260028839,
        -0.34280088543891907,
        0.3206608295440674,
        0.03277955204248428,
        0.31048887968063354,
        -0.3230436146259308,
        -0.012093741446733475,
        -0.3484732210636139,
        0.35591423511505127,
        0.2597942650318146,
        -0.1857256293296814,
        0.1095055341720581,
        -0.17604832351207733,
        0.015180587768554688,
        0.04468216747045517,
        0.45754536986351013,
        0.30909040570259094
      ]
    },
    {
      "name": "dense_Dense5/bias",
      "shape": [
        56
      ],
      "dtype": "float32",
      "values": [
        0,
        0,
        0,
        0,
        0,
        0,
        0,
        0,
        0,
        0,
        0,
        0,
        0,
        0,
        0,
        0,
        0,
        0,
        0,
        0,
        0,
        0,
        0,
        0,
        0,
        0,
        0,
        0,
        0,
        0,
        0,
        0,
        0,
        0,
        0,
        0,
        0,
        0,
        0,
        0,
        0,
        0,
        0,
        0,
        0,
        0,
        0,
        0,
        0,
        0,
        0,
        0,
        0,
        0,
        0,
        0
      ]
    },
    {
      "name": "dense_Dense6/kernel",
      "shape": [
        56,
        16
      ],
      "dtype": "float32",
      "values": [
        -0.1328580677509308,
        -0.08442778140306473,
        -0.48470640182495117,
        -0.10158926993608475,
        -0.4473922848701477,
        0.21532849967479706,
        -0.07215442508459091,
        -0.1672104150056839,
        0.499444842338562,
        -0.014051122590899467,
        0.1886122226715088,
        0.3399661183357239,
        0.1254558116197586,
        -0.3238168954849243,
        0.3838460147380829,
        0.27802255749702454,
        -0.07490946352481842,
        0.27940961718559265,
        -0.17640304565429688,
        0.446949303150177,
        0.0632014200091362,
        -0.48962974548339844,
        -0.4170646369457245,
        -0.44020935893058777,
        0.34610605239868164,
        0.36614641547203064,
        -0.08517871797084808,
        -0.09676069021224976,
        0.10129565745592117,
        -0.13438698649406433,
        -0.4287298619747162,
        -0.052138179540634155,
        -0.05882864445447922,
        -0.10397586226463318,
        -0.2462725043296814,
        -0.2834310233592987,
        0.03700048848986626,
        -0.16669879853725433,
        -0.39870256185531616,
        -0.3351500630378723,
        0.277864933013916,
        0.1431659609079361,
        0.030074991285800934,
        0.10732869058847427,
        -0.482086718082428,
        0.02355026826262474,
        -0.1295580416917801,
        -0.37721845507621765,
        -0.339458703994751,
        0.3392098546028137,
        0.1568222939968109,
        -0.08261099457740784,
        -0.43933725357055664,
        -0.374859094619751,
        -0.37581902742385864,
        0.09521506726741791,
        0.07825127989053726,
        0.2531841993331909,
        -0.4596473276615143,
        0.4237518608570099,
        -0.07466322183609009,
        -0.2856687605381012,
        -0.0883072167634964,
        -0.499390184879303,
        0.08347996324300766,
        0.17423543334007263,
        0.011828740127384663,
        -0.04780508577823639,
        -0.3770298361778259,
        0.4540126621723175,
        0.014541173353791237,
        -0.29030001163482666,
        -0.4219086170196533,
        -0.11424284428358078,
        0.14548185467720032,
        0.49935266375541687,
        0.20464560389518738,
        -0.46465402841567993,
        -0.4792979955673218,
        -0.2849155366420746,
        0.48719093203544617,
        -0.39669114351272583,
        -0.4457014203071594,
        -0.42798465490341187,
        0.3318069577217102,
        -0.47691550850868225,
        -0.3907010853290558,
        0.36694619059562683,
        -0.0944284200668335,
        0.3467837870121002,
        -0.05481443926692009,
        -0.16423697769641876,
        0.490270733833313,
        -0.017547445371747017,
        -0.468062162399292,
        0.38176393508911133,
        0.08085333555936813,
        -0.05358383432030678,
        0.3057345449924469,
        -0.007199533749371767,
        -0.03540302813053131,
        0.30937179923057556,
        0.17482039332389832,
        -0.35265493392944336,
        0.1356070339679718,
        0.14283882081508636,
        0.19331036508083344,
        -0.04923345893621445,
        0.23987442255020142,
        0.4848974347114563,
        0.37606075406074524,
        -0.29175806045532227,
        0.39310771226882935,
        0.35806143283843994,
        0.48696380853652954,
        0.43348461389541626,
        0.22853584587574005,
        -0.49826663732528687,
        0.3399011790752411,
        0.48371630907058716,
        0.09367625415325165,
        -0.4547443091869354,
        -0.08994093537330627,
        -0.09734305739402771,
        0.05452973395586014,
        0.028002770617604256,
        0.46302711963653564,
        -0.48549818992614746,
        -0.31162410974502563,
        -0.4167924225330353,
        0.05783402547240257,
        -0.1519898623228073,
        -0.2955227792263031,
        -0.0943194180727005,
        0.07760664820671082,
        0.0073494622483849525,
        -0.17563357949256897,
        0.08494103699922562,
        0.4226360321044922,
        -0.03215423971414566,
        -0.014154011383652687,
        0.024884790182113647,
        -0.05843015015125275,
        -0.08150165528059006,
        -0.0011376729235053062,
        0.22283238172531128,
        -0.0390734001994133,
        0.39914774894714355,
        -0.09285953640937805,
        -0.4507766664028168,
        0.021573415026068687,
        0.3652571439743042,
        -0.05602684244513512,
        -0.2052053064107895,
        0.08518428355455399,
        0.07122927904129028,
        -0.429471492767334,
        -0.2243427038192749,
        -0.05880838632583618,
        -0.3511410653591156,
        0.05915246531367302,
        0.08771605044603348,
        -0.32029393315315247,
        -0.39653128385543823,
        0.3098762035369873,
        -0.30172720551490784,
        -0.29063960909843445,
        0.16325423121452332,
        -0.4085274934768677,
        -0.1719193309545517,
        -0.06885179877281189,
        -0.05026739835739136,
        -0.18425187468528748,
        -0.10104262083768845,
        -0.24964889883995056,
        -0.39257290959358215,
        0.31228646636009216,
        -0.3592904806137085,
        0.19255951046943665,
        -0.4740346074104309,
        0.04121709614992142,
        -0.024343661963939667,
        -0.2562881410121918,
        0.2877345681190491,
        -0.1534770131111145,
        -0.2824349105358124,
        -0.1701652854681015,
        0.4863649308681488,
        0.1482454389333725,
        -0.34206828474998474,
        -0.1149313822388649,
        -0.0681014358997345,
        -0.3686264753341675,
        0.045967161655426025,
        0.3867476284503937,
        -0.481350302696228,
        -0.2953072190284729,
        0.39387038350105286,
        -0.053661447018384933,
        -0.08022148907184601,
        -0.3555385172367096,
        -0.37737977504730225,
        -0.39934635162353516,
        -0.2026391625404358,
        -0.2303929328918457,
        -0.4210357069969177,
        0.015012150630354881,
        0.15930582582950592,
        0.31105488538742065,
        -0.0007162175606936216,
        0.2926059365272522,
        -0.45126914978027344,
        -0.06818745285272598,
        0.003325004829093814,
        -0.15766124427318573,
        0.4706572890281677,
        -0.29001399874687195,
        -0.39976024627685547,
        0.11913041025400162,
        0.43352368474006653,
        -0.10656308382749557,
        -0.1804729551076889,
        0.05062352493405342,
        0.49397778511047363,
        -0.25849494338035583,
        0.13776415586471558,
        0.20219983160495758,
        -0.11754201352596283,
        -0.12159565836191177,
        0.05291495472192764,
        -0.4646444320678711,
        -0.21571722626686096,
        -0.013914113864302635,
        -0.42325571179389954,
        0.4487605690956116,
        -0.3035575747489929,
        -0.13258326053619385,
        0.10704595595598221,
        0.1505465805530548,
        -0.3140060305595398,
        0.4940137565135956,
        0.09121808409690857,
        -0.23362582921981812,
        0.44169890880584717,
        0.29538148641586304,
        0.09230946749448776,
        -0.33400651812553406,
        0.44706395268440247,
        0.08607703447341919,
        -0.08947097510099411,
        0.3882957398891449,
        0.08423116058111191,
        0.01890915259718895,
        -0.4847660958766937,
        0.17702333629131317,
        0.1203397586941719,
        0.33700522780418396,
        -0.09271351993083954,
        0.32604706287384033,
        0.2896691560745239,
        -0.21906398236751556,
        -0.2521292567253113,
        0.3189547657966614,
        0.24451829493045807,
        -0.3775049149990082,
        0.24405479431152344,
        0.003749870229512453,
        0.02765282243490219,
        -0.4710994064807892,
        0.37517935037612915,
        -0.27740275859832764,
        0.12485581636428833,
        -0.26017245650291443,
        -0.43352261185646057,
        0.295966774225235,
        0.1654718965291977,
        0.19874995946884155,
        -0.33330100774765015,
        0.47598105669021606,
        0.15803156793117523,
        -0.41396287083625793,
        -0.46822431683540344,
        0.0028792396187782288,
        0.12925031781196594,
        -0.21550151705741882,
        0.32989245653152466,
        -0.006432137917727232,
        -0.3695380687713623,
        -0.07246130704879761,
        0.2898820638656616,
        -0.21106262505054474,
        0.10668428242206573,
        -0.38081082701683044,
        0.19456151127815247,
        0.006915714126080275,
        0.2223978042602539,
        0.45419931411743164,
        0.1777172088623047,
        -0.08810097724199295,
        0.01949997991323471,
        0.2479272186756134,
        -0.4361984431743622,
        -0.08033967018127441,
        0.2492493987083435,
        0.34241336584091187,
        0.4077627956867218,
        -0.25085362792015076,
        0.16849792003631592,
        -0.4163374602794647,
        -0.25146108865737915,
        -0.18962576985359192,
        0.35315898060798645,
        0.1576206237077713,
        0.3337762951850891,
        0.07917214930057526,
        0.4349140226840973,
        -0.48972606658935547,
        -0.45073401927948,
        0.1468719244003296,
        -0.13730460405349731,
        0.15249726176261902,
        0.047052763402462006,
        0.33608415722846985,
        0.22270752489566803,
        0.3962821364402771,
        -0.24338151514530182,
        -0.2597975432872772,
        0.14173990488052368,
        -0.26121553778648376,
        0.30115723609924316,
        -0.2825956642627716,
        0.36436548829078674,
        0.22270865738391876,
        -0.08153190463781357,
        0.06031195446848869,
        0.12017375230789185,
        -0.313080757856369,
        -0.16463768482208252,
        0.11468136310577393,
        0.061923157423734665,
        0.3927774727344513,
        0.009373529814183712,
        -0.10765603184700012,
        -0.3111545741558075,
        0.04144878685474396,
        0.44204264879226685,
        -0.03288865461945534,
        -0.09935896843671799,
        -0.34806713461875916,
        -0.18927882611751556,
        -0.09656351059675217,
        0.18489336967468262,
        0.0289013609290123,
        -0.003128766780719161,
        0.18353645503520966,
        0.2125447392463684,
        -0.2503628730773926,
        0.0045933797955513,
        -0.1182306632399559,
        0.22992537915706635,
        -0.30706924200057983,
        0.14132213592529297,
        -0.0994524210691452,
        -0.003374371910467744,
        -0.09520546346902847,
        0.43678566813468933,
        0.03230662643909454,
        -0.46357202529907227,
        -0.03441942483186722,
        -0.1992383450269699,
        -0.3232693076133728,
        -0.009370170533657074,
        0.2996809184551239,
        0.2976383864879608,
        -0.015012776479125023,
        0.27443361282348633,
        0.07840563356876373,
        -0.3074195683002472,
        0.021430818364024162,
        0.28136926889419556,
        0.22286881506443024,
        -0.464414119720459,
        -0.034792616963386536,
        0.10098309814929962,
        0.34656190872192383,
        0.4064386487007141,
        0.18665646016597748,
        0.3947499394416809,
        -0.07962397485971451,
        -0.07323043793439865,
        0.370379239320755,
        0.39658910036087036,
        0.3646170198917389,
        -0.3136886656284332,
        0.2443235069513321,
        0.20706483721733093,
        -0.4284464120864868,
        -0.411978155374527,
        -0.10522811859846115,
        -0.22215084731578827,
        0.4382023513317108,
        -0.242071270942688,
        -0.3608395755290985,
        0.13245539367198944,
        0.2815816402435303,
        -0.11272357404232025,
        -0.12156659364700317,
        0.1543612778186798,
        -0.025253666564822197,
        -0.43499860167503357,
        0.06506370007991791,
        0.44546470046043396,
        -0.012705896981060505,
        -0.22642289102077484,
        0.3374725580215454,
        -0.14870813488960266,
        0.053320497274398804,
        -0.226339191198349,
        0.2721864581108093,
        0.23079560697078705,
        0.12657451629638672,
        -0.17858333885669708,
        0.09732779860496521,
        0.1901775747537613,
        0.11718428879976273,
        -0.3736792206764221,
        -0.16255874931812286,
        0.23141194880008698,
        -0.015084921382367611,
        -0.20811554789543152,
        0.2597755789756775,
        -0.2090321034193039,
        0.4042387008666992,
        -0.252040833234787,
        0.30645012855529785,
        0.4253658652305603,
        -0.41062214970588684,
        0.04640600085258484,
        -0.18756318092346191,
        -0.27486616373062134,
        -0.396304190158844,
        -0.4536905288696289,
        0.2371496856212616,
        -0.28966307640075684,
        0.21492905914783478,
        -0.4735642671585083,
        0.4387100636959076,
        0.0175462793558836,
        -0.46257510781288147,
        0.07795771956443787,
        0.48120182752609253,
        -0.15661948919296265,
        0.41440221667289734,
        0.4886654019355774,
        -0.41861629486083984,
        -0.13496841490268707,
        -0.3630526661872864,
        -0.17324192821979523,
        -0.21348793804645538,
        -0.13203145563602448,
        0.42559295892715454,
        0.2892756462097168,
        -0.1514354944229126,
        -0.13860951364040375,
        0.2233262062072754,
        -0.3998577892780304,
        -0.058974575251340866,
        -0.18989385664463043,
        -0.1753753125667572,
        0.4764966368675232,
        -0.40253451466560364,
        0.15918418765068054,
        -0.04641798138618469,
        0.12146884948015213,
        -0.14049607515335083,
        0.3421003818511963,
        -0.013025309890508652,
        -0.06740003824234009,
        -0.47439318895339966,
        -0.24525697529315948,
        0.4531089663505554,
        -0.29270362854003906,
        -0.05404574051499367,
        0.4107164442539215,
        -0.3414766192436218,
        -0.17903108894824982,
        -0.4621700048446655,
        0.1948113590478897,
        -0.4009614586830139,
        0.16855613887310028,
        0.04793393611907959,
        0.3714770972728729,
        -0.4052213728427887,
        0.4895617663860321,
        0.015210429206490517,
        0.1567949652671814,
        0.48158007860183716,
        -0.2725830376148224,
        0.4728863537311554,
        -0.32273149490356445,
        -0.34046846628189087,
        -0.47105830907821655,
        0.23235413432121277,
        -0.11738908290863037,
        0.05833469331264496,
        -0.03277640789747238,
        0.4178317189216614,
        0.12025909870862961,
        -0.415201336145401,
        0.12724007666110992,
        -0.3854071795940399,
        -0.3194067180156708,
        0.31746262311935425,
        0.3408324420452118,
        0.4746811091899872,
        0.18124480545520782,
        0.40380823612213135,
        -0.4639485478401184,
        -0.3090367317199707,
        0.035559117794036865,
        0.11112245917320251,
        -0.3058043420314789,
        -0.15891441702842712,
        0.06282542645931244,
        -0.302474707365036,
        0.4092366397380829,
        0.11331403255462646,
        0.13164667785167694,
        0.32379329204559326,
        0.050668321549892426,
        0.31714773178100586,
        -0.345974326133728,
        -0.16558949649333954,
        -0.4424821138381958,
        -0.38486310839653015,
        -0.4619297683238983,
        0.18425029516220093,
        0.2977476716041565,
        -0.29866424202919006,
        0.11677724868059158,
        -0.3531973361968994,
        0.19609594345092773,
        -0.1595538854598999,
        -0.34470006823539734,
        -0.08027373254299164,
        -0.14077840745449066,
        -0.11364998668432236,
        0.32310816645622253,
        0.39524969458580017,
        0.2605465054512024,
        -0.3391276001930237,
        -0.3324313461780548,
        0.23596040904521942,
        0.4634283483028412,
        -0.39227306842803955,
        0.007732473313808441,
        -0.17606785893440247,
        0.36699235439300537,
        -0.45671090483665466,
        -0.4074513912200928,
        -0.47041305899620056,
        -0.36907926201820374,
        -0.22825108468532562,
        -0.29052072763442993,
        0.4015190005302429,
        0.13003063201904297,
        -0.4889661967754364,
        -0.17674601078033447,
        0.1284157782793045,
        0.2539035379886627,
        0.14150984585285187,
        0.4536307454109192,
        -0.43694499135017395,
        -0.4788840711116791,
        -0.2239421159029007,
        -0.18819424510002136,
        0.38726580142974854,
        -0.06919871270656586,
        -0.4366152584552765,
        0.27083349227905273,
        0.26736727356910706,
        -0.49750036001205444,
        -0.12156998366117477,
        -0.1687808632850647,
        -0.1561155468225479,
        0.47510215640068054,
        0.3699275553226471,
        -0.35780009627342224,
        0.22675110399723053,
        -0.09471563249826431,
        0.34780949354171753,
        0.4495609402656555,
        0.08317992091178894,
        -0.10584548860788345,
        0.17062531411647797,
        0.3636494576931,
        0.44979870319366455,
        -0.42916181683540344,
        0.4005412757396698,
        0.4936119616031647,
        0.4075457751750946,
        -0.2538236081600189,
        0.043830178678035736,
        -0.3920685052871704,
        -0.38185611367225647,
        -0.09121515601873398,
        0.21760351955890656,
        -0.16112065315246582,
        -0.17133136093616486,
        0.014576718211174011,
        -0.2546386420726776,
        -0.3616490960121155,
        0.23294955492019653,
        -0.10175371915102005,
        -0.36120614409446716,
        0.3853720426559448,
        -0.042144399136304855,
        0.11440747231245041,
        0.2042233794927597,
        0.13107910752296448,
        0.12925513088703156,
        -0.4120069444179535,
        0.18882010877132416,
        0.061332810670137405,
        0.21536998450756073,
        -0.49744078516960144,
        0.09765173494815826,
        0.2539418041706085,
        0.4241901636123657,
        0.18015846610069275,
        -0.42032334208488464,
        -0.30416086316108704,
        0.4675084948539734,
        0.33414900302886963,
        0.2929353415966034,
        0.007581210229545832,
        0.10357539355754852,
        -0.03995587304234505,
        0.15536947548389435,
        0.3386964797973633,
        -0.2591184973716736,
        -0.14739228785037994,
        -0.2333739548921585,
        -0.34311461448669434,
        -0.46816372871398926,
        -0.07520491629838943,
        0.11973237246274948,
        -0.4962422847747803,
        0.4699380397796631,
        -0.09901351481676102,
        0.2957057058811188,
        -0.2908133566379547,
        0.46502357721328735,
        -0.3933813273906708,
        0.4190337657928467,
        0.44086775183677673,
        0.253773957490921,
        0.35910913348197937,
        0.16114279627799988,
        -0.4724155366420746,
        -0.3078969120979309,
        -0.43209055066108704,
        0.22068257629871368,
        -0.18541419506072998,
        -0.4369736909866333,
        0.27885696291923523,
        0.45049628615379333,
        -0.23482929170131683,
        0.0888671725988388,
        -0.402529239654541,
        -0.09563600271940231,
        0.036851637065410614,
        0.13619303703308105,
        0.005494466982781887,
        0.3176007866859436,
        -0.34704864025115967,
        0.44173523783683777,
        0.22279003262519836,
        -0.48116207122802734,
        -0.37898555397987366,
        0.30982083082199097,
        -0.3594802916049957,
        0.017823347821831703,
        0.30262476205825806,
        0.0007940083742141724,
        0.008022148162126541,
        -0.2548010051250458,
        -0.22072729468345642,
        0.4377165734767914,
        0.2879936099052429,
        0.19047395884990692,
        0.048861462622880936,
        -0.3026338815689087,
        -0.23393140733242035,
        -0.45884469151496887,
        0.1538114696741104,
        -0.06454521417617798,
        -0.4291841983795166,
        0.060358770191669464,
        -0.2839938700199127,
        -0.4340871274471283,
        -0.24467556178569794,
        0.37471118569374084,
        0.41010192036628723,
        0.039992284029722214,
        -0.49303126335144043,
        0.1910059005022049,
        0.4228798449039459,
        -0.447115033864975,
        0.40387284755706787,
        -0.0037815335672348738,
        -0.2345639020204544,
        0.22872403264045715,
        0.39735114574432373,
        0.004523448646068573,
        0.10070635378360748,
        0.15446239709854126,
        0.42252662777900696,
        0.3300623297691345,
        -0.433207631111145,
        0.15647485852241516,
        0.2374422699213028,
        0.033327508717775345,
        -0.08433650434017181,
        -0.4832814037799835,
        0.11882706731557846,
        0.4840151369571686,
        -0.21487361192703247,
        0.3224170506000519,
        -0.07579761743545532,
        -0.03506419062614441,
        0.09545780718326569,
        -0.24600359797477722,
        0.37061551213264465,
        0.2803773880004883,
        0.28939157724380493,
        -0.14069469273090363,
        0.27063098549842834,
        -0.2864893078804016,
        0.4959234595298767,
        0.3240519165992737,
        -0.23877722024917603,
        -0.17527829110622406,
        -0.3493553102016449,
        0.2610345184803009,
        0.08913508802652359,
        -0.19541269540786743,
        -0.033875953406095505,
        0.4316253066062927,
        0.17378874123096466,
        -0.2685670256614685,
        0.3283206522464752,
        0.3215482234954834,
        -0.2583284378051758,
        0.3061807453632355,
        -0.17255084216594696,
        0.19088858366012573,
        -0.4011175334453583,
        -0.08371346443891525,
        0.014676708728075027,
        -0.1020125299692154,
        -0.35381534695625305,
        0.3765700161457062,
        -0.38689562678337097,
        -0.005570279899984598,
        -0.4752327799797058,
        0.014134365133941174,
        -0.014624642208218575,
        -0.42618313431739807,
        -0.010146548971533775,
        -0.4722403585910797,
        -0.274384081363678,
        0.08200468122959137,
        -0.3784363865852356,
        -0.45236387848854065,
        0.18906526267528534,
        -0.33024120330810547,
        0.04478442668914795,
        0.26724010705947876,
        -0.37065762281417847,
        -0.1435396820306778,
        -0.1494780033826828,
        0.037472330033779144,
        -0.19107601046562195,
        -0.027674725279211998,
        -0.4104747772216797,
        -0.02106962352991104,
        0.4649551510810852,
        -0.06790708005428314,
        -0.045759882777929306,
        0.3498872220516205,
        -0.09800872206687927,
        -0.15670430660247803,
        -0.24491693079471588,
        0.13305065035820007,
        0.15373310446739197,
        0.18572969734668732,
        -0.056488268077373505,
        0.15476837754249573,
        0.49384382367134094,
        -0.06421913951635361,
        -0.42632338404655457,
        -0.0030510060023516417,
        -0.25919681787490845,
        0.3543086051940918,
        0.39689213037490845,
        -0.20386889576911926,
        -0.2856912612915039,
        0.05277032032608986,
        -0.1265098750591278,
        0.041878592222929,
        0.45916691422462463,
        0.019989358261227608,
        -0.10598152130842209,
        0.4265397787094116,
        -0.47723475098609924,
        -0.0849427804350853,
        0.21496395766735077,
        0.21235327422618866,
        0.3608666658401489,
        0.0112894456833601,
        0.3778354525566101,
        -0.22413977980613708,
        0.4457859396934509,
        0.33723118901252747,
        0.489202618598938,
        0.24799585342407227,
        -0.06531256437301636,
        0.24861252307891846,
        -0.19189223647117615,
        -0.30159837007522583,
        -0.3418620824813843,
        -0.27159982919692993,
        0.1020611971616745,
        -0.06862563639879227,
        0.20834435522556305,
        0.1858382523059845,
        -0.060607314109802246,
        0.18682168424129486,
        -0.4639270007610321,
        0.37699568271636963,
        -0.4833642244338989,
        0.19677264988422394,
        -0.0994223803281784,
        -0.449454665184021,
        0.359353244304657,
        0.2692500948905945,
        0.09522522985935211,
        0.24792683124542236,
        -0.011068576946854591,
        -0.18922361731529236,
        0.4160332679748535,
        -0.46782630681991577,
        0.4971833825111389,
        0.4399128556251526,
        0.26843351125717163,
        0.17591677606105804,
        -0.12236639857292175,
        0.028782043606042862,
        0.3860418200492859,
        -0.32537153363227844,
        -0.35588398575782776,
        0.12524259090423584,
        0.2272673398256302,
        0.1696675568819046,
        0.28766652941703796,
        0.2268400490283966,
        0.27936309576034546,
        -0.4687245488166809,
        -0.4912097752094269,
        -0.2709248661994934,
        0.4616091251373291,
        0.4784669578075409,
        -0.030331293120980263,
        -0.3266454339027405,
        0.1403769552707672,
        -0.11610975861549377,
        -0.3421300947666168,
        -0.09043996036052704,
        0.3013980984687805,
        0.33775046467781067,
        0.25036734342575073,
        0.03501451015472412,
        0.04555250704288483,
        0.12800253927707672,
        -0.28122007846832275,
        0.39713025093078613,
        0.110334612429142,
        0.1292603760957718,
        0.09765727818012238,
        0.1846875548362732,
        0.03240587189793587,
        -0.23191413283348083,
        -0.31693869829177856,
        0.3853371739387512,
        0.34027665853500366
      ]
    },
    {
      "name": "dense_Dense6/bias",
      "shape": [
        16
      ],
      "dtype": "float32",
      "values": [
        0,
        0,
        0,
        0,
        0,
        0,
        0,
        0,
        0,
        0,
        0,
        0,
        0,
        0,
        0,
        0
      ]
    }
  ]
}
