{
  "version": 1,
  "createdAt": 1762643897502,
  "backend": "webgl",
  "config": {
    "inputSize": 19,
    "outputSize": 16,
    "hiddenLayers": [
      28
    ],
    "activation": "relu",
    "outputActivation": "tanh",
    "backend": "webgl",
    "seed": 1762643885750
  },
  "metadata": {
    "label": "25",
    "notes": "",
    "correlations": [
      {
        "id": "rms-deltaposx",
        "featureKey": "bandBass",
        "targetId": "deltaPosX",
        "targetIndex": 0,
        "axis": "x",
        "group": "deltaPos",
        "featureIndex": 4,
        "baseIndex": null,
        "strength": 0.65,
        "polarity": "direct",
        "source": "audio"
      },
      {
        "id": "tempoproxy-rotationspeed",
        "featureKey": "tempoProxy",
        "targetId": "rotationSpeed",
        "targetIndex": 9,
        "axis": null,
        "group": "rotationSpeed",
        "featureIndex": 10,
        "baseIndex": null,
        "strength": 0.65,
        "polarity": "direct",
        "source": "audio"
      },
      {
        "id": "bandbass-wobblestrength",
        "featureKey": "bandBass",
        "targetId": "wobbleStrength",
        "targetIndex": 10,
        "axis": null,
        "group": "wobbleStrength",
        "featureIndex": 4,
        "baseIndex": null,
        "strength": 0.6,
        "polarity": "direct",
        "source": "audio"
      },
      {
        "id": "bandhigh-wobblefrequency",
        "featureKey": "bandHigh",
        "targetId": "wobbleFrequency",
        "targetIndex": 11,
        "axis": null,
        "group": "wobbleFrequency",
        "featureIndex": 7,
        "baseIndex": null,
        "strength": 0.6,
        "polarity": "direct",
        "source": "audio"
      },
      {
        "id": "speccentroid-colormix",
        "featureKey": "specCentroid",
        "targetId": "colorMix",
        "targetIndex": 12,
        "axis": null,
        "group": "colorMix",
        "featureIndex": 1,
        "baseIndex": null,
        "strength": 0.55,
        "polarity": "direct",
        "source": "audio"
      },
      {
        "id": "rms-alphascale",
        "featureKey": "rms",
        "targetId": "alphaScale",
        "targetIndex": 13,
        "axis": null,
        "group": "alphaScale",
        "featureIndex": 0,
        "baseIndex": null,
        "strength": 0.5,
        "polarity": "direct",
        "source": "audio"
      },
      {
        "id": "peak-pointscale",
        "featureKey": "peak",
        "targetId": "pointScale",
        "targetIndex": 14,
        "axis": null,
        "group": "pointScale",
        "featureIndex": 8,
        "baseIndex": null,
        "strength": 0.55,
        "polarity": "direct",
        "source": "audio"
      },
      {
        "id": "bandlowmid-camerazoom",
        "featureKey": "bandLowMid",
        "targetId": "cameraZoom",
        "targetIndex": 15,
        "axis": null,
        "group": "cameraZoom",
        "featureIndex": 5,
        "baseIndex": null,
        "strength": 0.6,
        "polarity": "direct",
        "source": "audio"
      }
    ],
    "training": {
      "status": "idle",
      "epoch": 0,
      "epochs": 24,
      "loss": null,
      "best": null,
      "metadata": null
    }
  },
  "weights": [
    {
      "name": "dense_Dense39/kernel",
      "shape": [
        19,
        28
      ],
      "dtype": "float32",
      "values": [
        -0.22628360986709595,
        0.43015703558921814,
        0.2399994134902954,
        0.3815605044364929,
        0.23238308727741241,
        0.13173842430114746,
        -0.1740315556526184,
        -0.4586189091205597,
        0.22057951986789703,
        -0.17703808844089508,
        -0.18460732698440552,
        -0.26339593529701233,
        0.23008249700069427,
        0.11145496368408203,
        -0.1964321732521057,
        -0.47983673214912415,
        -0.4474502503871918,
        -0.20874100923538208,
        -0.19809794425964355,
        -0.4108177125453949,
        0.15495654940605164,
        -0.38199546933174133,
        -0.3570956885814667,
        0.165008544921875,
        0.3710494339466095,
        -0.23871752619743347,
        0.3016304671764374,
        0.44976258277893066,
        0.10875014215707779,
        0.05519266799092293,
        -0.016865583136677742,
        0.04294980317354202,
        0.14058931171894073,
        0.2888239622116089,
        0.47969940304756165,
        0.08276893198490143,
        0.458938330411911,
        -0.009210897609591484,
        -0.273394912481308,
        0.2810613811016083,
        0.127801775932312,
        -0.4801013767719269,
        -0.03673873841762543,
        0.17139770090579987,
        0.21721597015857697,
        -0.17953640222549438,
        0.1091325432062149,
        0.4056474268436432,
        -0.3487442135810852,
        -0.10997366160154343,
        -0.00831860676407814,
        0.012517470866441727,
        -0.19901792705059052,
        0.4788305163383484,
        0.031459055840969086,
        0.33210447430610657,
        -0.39411410689353943,
        -0.010936165228486061,
        -0.3301820158958435,
        -0.43943244218826294,
        0.48986223340034485,
        0.3982379138469696,
        -0.04311647266149521,
        -0.06939113885164261,
        -0.06614288687705994,
        -0.09142779558897018,
        -0.20767103135585785,
        -0.04545092210173607,
        0.055812377482652664,
        0.1728188395500183,
        0.07791441679000854,
        0.3432117998600006,
        -0.38716670870780945,
        -0.17074808478355408,
        0.21583567559719086,
        0.028072675690054893,
        -0.3503316640853882,
        0.3085518181324005,
        -0.09683071821928024,
        -0.3479028344154358,
        0.014938531443476677,
        0.09669028967618942,
        -0.1476784646511078,
        0.014556975103914738,
        0.18495477735996246,
        -0.04995672404766083,
        -0.062492046505212784,
        -0.3892839252948761,
        -0.43150976300239563,
        0.2005070447921753,
        -0.43903279304504395,
        0.36500027775764465,
        0.3527474105358124,
        -0.1031048372387886,
        -0.1737746298313141,
        0.27066683769226074,
        -0.10359898954629898,
        0.19359160959720612,
        0.2944027781486511,
        0.31055769324302673,
        -0.2327696979045868,
        0.3099329471588135,
        -0.41180598735809326,
        -0.1689947545528412,
        -0.14559762179851532,
        -0.48998212814331055,
        -0.01937519945204258,
        0.3473011255264282,
        0.26677507162094116,
        0.07622421532869339,
        -0.43255889415740967,
        0.14200779795646667,
        -0.46443167328834534,
        -0.08126875013113022,
        0.05097769945859909,
        -0.37066563963890076,
        0.10886581242084503,
        -0.05888717621564865,
        0.27442073822021484,
        -0.018962901085615158,
        0.2825150191783905,
        0.12404198944568634,
        0.4588613212108612,
        0.41197964549064636,
        0.05778629332780838,
        0.22560012340545654,
        -0.33455148339271545,
        0.06766900420188904,
        0.006077357567846775,
        0.05946736037731171,
        0.12787340581417084,
        -0.3611306846141815,
        0.25189968943595886,
        0.012189161032438278,
        -0.04661883786320686,
        0.21847574412822723,
        0.3249588906764984,
        0.218405082821846,
        0.39888134598731995,
        -0.2881125211715698,
        -0.4032648801803589,
        -0.1903037130832672,
        -0.3652661144733429,
        0.4518226087093353,
        0.3392223119735718,
        0.1292860060930252,
        -0.20511922240257263,
        -0.4021092653274536,
        -0.33637893199920654,
        -0.3712514042854309,
        -0.4497224986553192,
        -0.31627610325813293,
        0.08601950109004974,
        -0.13580812513828278,
        -0.43231824040412903,
        -0.26056602597236633,
        0.43166425824165344,
        0.2818388342857361,
        -0.04443393647670746,
        -0.18685515224933624,
        0.09942129254341125,
        0.24251356720924377,
        0.4652252495288849,
        0.45598870515823364,
        -0.16693909466266632,
        0.3062548041343689,
        -0.26217636466026306,
        -0.32396453619003296,
        0.4924270212650299,
        -0.31903594732284546,
        0.12504591047763824,
        -0.46728935837745667,
        -0.0030412261839956045,
        -0.08751337975263596,
        0.3457581698894501,
        -0.1472783386707306,
        -0.3959224224090576,
        0.27437126636505127,
        -0.1122240498661995,
        0.23509643971920013,
        -0.3460788428783417,
        -0.19370399415493011,
        -0.10604538023471832,
        -0.011299189180135727,
        0.16657476127147675,
        0.342697411775589,
        0.1764083057641983,
        0.2619721293449402,
        0.2900124192237854,
        0.48098278045654297,
        0.12882430851459503,
        0.27716395258903503,
        0.31991419196128845,
        -0.06483404338359833,
        -0.08362230658531189,
        -0.013671735301613808,
        -0.40937355160713196,
        0.3200531303882599,
        -0.33455175161361694,
        0.3199708163738251,
        -0.3674747943878174,
        0.4970310628414154,
        0.45161885023117065,
        0.36459091305732727,
        -0.4329969584941864,
        -0.41968968510627747,
        -0.4520641267299652,
        -0.3316647410392761,
        -0.2903444766998291,
        0.04158277437090874,
        0.1054026335477829,
        0.14337114989757538,
        0.1551394760608673,
        0.25832101702690125,
        -0.31256553530693054,
        -0.20650827884674072,
        0.2892152965068817,
        -0.2915804088115692,
        0.24094651639461517,
        0.004427235573530197,
        0.029607200995087624,
        0.11853167414665222,
        0.17894862592220306,
        -0.4224981963634491,
        0.474099338054657,
        -0.08251544833183289,
        0.31730207800865173,
        -0.33071696758270264,
        0.47064104676246643,
        0.4315411150455475,
        0.48573535680770874,
        0.1490117311477661,
        0.2092735320329666,
        -0.01327527966350317,
        -0.24827177822589874,
        -0.3057540953159332,
        -0.09233467280864716,
        0.060456421226263046,
        -0.18225796520709991,
        0.1915518194437027,
        0.008635811507701874,
        0.12244517356157303,
        0.2562241554260254,
        0.00048294197767972946,
        0.10257884860038757,
        0.41754135489463806,
        0.14064353704452515,
        -0.07652661204338074,
        -0.21331310272216797,
        0.4954521656036377,
        -0.050358790904283524,
        -0.0007624810095876455,
        0.086960569024086,
        -0.4129984378814697,
        0.1652025580406189,
        0.12518106400966644,
        0.33486300706863403,
        0.12015786021947861,
        -0.4075409173965454,
        -0.4617915749549866,
        -0.13641080260276794,
        -0.47564637660980225,
        -0.2548533082008362,
        -0.14352570474147797,
        0.4769633710384369,
        -0.12064801901578903,
        0.0536765530705452,
        0.19299204647541046,
        -0.10234437882900238,
        -0.028514333069324493,
        -0.3096065819263458,
        0.49835601449012756,
        0.3110348582267761,
        -0.18706129491329193,
        -0.13921208679676056,
        -0.3582262098789215,
        0.29861584305763245,
        -0.43716806173324585,
        0.07951781153678894,
        -0.4663136899471283,
        0.2489841878414154,
        -0.44757339358329773,
        0.10745986551046371,
        0.025513894855976105,
        0.04861951246857643,
        0.24907095730304718,
        -0.14412949979305267,
        0.4686961770057678,
        -0.4745924174785614,
        0.11657316237688065,
        0.21922039985656738,
        -0.017309648916125298,
        -0.0330507829785347,
        -0.06614711880683899,
        0.4650619626045227,
        -0.3049623668193817,
        0.10728038102388382,
        -0.23314268887043,
        -0.20190364122390747,
        -0.16712461411952972,
        -0.34177151322364807,
        0.48500096797943115,
        -0.3742431104183197,
        0.3886244297027588,
        -0.09045326709747314,
        0.492358535528183,
        0.03744317591190338,
        0.41637226939201355,
        0.3233720362186432,
        -0.3905475437641144,
        -0.49967053532600403,
        -0.42637544870376587,
        -0.4564453363418579,
        -0.377811461687088,
        0.47213491797447205,
        0.14583705365657806,
        -0.16207963228225708,
        -0.19662626087665558,
        0.45444968342781067,
        -0.08015970140695572,
        -0.1676841676235199,
        -0.3018990755081177,
        -0.16404429078102112,
        0.2672085165977478,
        0.12073910981416702,
        -0.44694238901138306,
        -0.25220635533332825,
        -0.371635764837265,
        -0.15029999613761902,
        0.3394748568534851,
        0.1449752002954483,
        -0.32138383388519287,
        -0.1687084436416626,
        -0.2141854166984558,
        0.028676362708210945,
        -0.1500362604856491,
        0.4259546101093292,
        -0.4027031660079956,
        0.292288601398468,
        0.28123587369918823,
        0.3603101074695587,
        0.2131509929895401,
        -0.08967380225658417,
        -0.3330729901790619,
        -0.06975538283586502,
        -0.2270878255367279,
        -0.45395731925964355,
        -0.0781441405415535,
        0.23669075965881348,
        0.15612003207206726,
        -0.3256247937679291,
        -0.3628036081790924,
        -0.2406771034002304,
        0.4642886519432068,
        -0.199986070394516,
        0.3900318443775177,
        0.26493707299232483,
        0.32935771346092224,
        -0.20969681441783905,
        -0.30560386180877686,
        0.46071311831474304,
        -0.0430871807038784,
        0.03790055960416794,
        -0.49768948554992676,
        0.17534257471561432,
        0.2878384292125702,
        0.2658047676086426,
        0.3656887412071228,
        0.06995870918035507,
        -0.36279425024986267,
        -0.19587719440460205,
        0.369802862405777,
        0.41842010617256165,
        -0.36775949597358704,
        0.07096175104379654,
        -0.21049761772155762,
        -0.07619256526231766,
        0.3704388737678528,
        -0.04145237058401108,
        -0.33600175380706787,
        0.39861729741096497,
        -0.3964800536632538,
        -0.3545760214328766,
        0.4844452440738678,
        -0.15470147132873535,
        -0.062115296721458435,
        -0.4325987696647644,
        0.3692038655281067,
        0.22597096860408783,
        -0.4485166370868683,
        0.1929212212562561,
        -0.3043936491012573,
        0.11640477180480957,
        -0.44869372248649597,
        0.40125781297683716,
        -0.231619730591774,
        -0.2799417972564697,
        0.47998809814453125,
        0.12366673350334167,
        -0.15833912789821625,
        -0.17817388474941254,
        0.1671714335680008,
        -0.3045741319656372,
        -0.44498300552368164,
        0.2810405194759369,
        -0.12031061947345734,
        0.21721549332141876,
        0.29701998829841614,
        -0.38732045888900757,
        0.4105691611766815,
        -0.4044502377510071,
        0.42210400104522705,
        0.47463929653167725,
        0.1344410479068756,
        0.20237670838832855,
        0.03770941123366356,
        0.13655555248260498,
        0.02746657282114029,
        0.47262343764305115,
        -0.08488195389509201,
        0.1542450487613678,
        -0.3833068609237671,
        -0.4017675220966339,
        -0.052913598716259,
        0.4215298891067505,
        0.3755751848220825,
        -0.14714443683624268,
        0.3496081233024597,
        -0.3091810643672943,
        -0.04083232581615448,
        -0.03194384276866913,
        -0.19574126601219177,
        -0.48504483699798584,
        0.013852792792022228,
        -0.0763864815235138,
        0.28090664744377136,
        0.041182998567819595,
        0.05739688128232956,
        0.296923965215683,
        -0.0351392962038517,
        -0.448263943195343,
        -0.27985966205596924,
        0.2746065855026245,
        -0.33055785298347473,
        -0.37683993577957153,
        -0.1501546949148178,
        0.3077037036418915,
        -0.07956665754318237,
        -0.4187789559364319,
        0.07689215242862701,
        0.2744283974170685,
        -0.3671913146972656,
        -0.3819647431373596,
        0.13318201899528503,
        0.3290170431137085,
        -0.3713253140449524,
        -0.30757516622543335,
        -0.09240446239709854,
        0.48017212748527527,
        -0.23593482375144958,
        0.2198479175567627,
        -0.27656421065330505,
        -0.48077431321144104,
        0.4829420745372772,
        -0.4798901379108429,
        -0.28655752539634705,
        -0.4948756992816925,
        0.054290078580379486,
        0.0846673995256424,
        -0.29854297637939453,
        0.24810926616191864,
        -0.3697236180305481,
        -0.14446142315864563,
        0.02574271894991398,
        -0.3500174283981323,
        -0.16122061014175415,
        0.4741208255290985,
        -0.07346735149621964,
        -0.31911224126815796,
        -0.38070619106292725,
        -0.17665481567382812,
        0.41242173314094543,
        0.056047551333904266,
        -0.08830715715885162,
        0.3719027042388916,
        0.24807782471179962,
        0.30004724860191345,
        0.21081897616386414,
        0.25800997018814087,
        -0.4886881411075592,
        0.19043904542922974,
        -0.31089136004447937,
        -0.19924581050872803,
        -0.27373090386390686,
        -0.46971994638442993,
        -0.2970406115055084,
        -0.2314455509185791,
        0.4436095952987671,
        0.2514650821685791,
        0.47500497102737427,
        0.13627587258815765,
        0.16226059198379517,
        -0.059020400047302246,
        -0.06479077786207199,
        -0.4129507541656494,
        -0.36826401948928833,
        0.08434610068798065,
        0.07921375334262848,
        -0.40587207674980164,
        -0.4072129428386688,
        -0.43070557713508606,
        0.16135206818580627,
        -0.45204639434814453,
        0.4324888586997986,
        0.28880879282951355,
        0.1432950645685196,
        -0.43313267827033997,
        -0.27417370676994324,
        -0.45503079891204834,
        -0.190530464053154,
        -0.4134390354156494,
        -0.19577647745609283,
        0.0458502471446991,
        -0.20801205933094025,
        0.2932783365249634,
        0.16767063736915588,
        -0.12527413666248322,
        0.3891410231590271,
        0.44076651334762573,
        -0.2559734880924225,
        -0.46658316254615784,
        0.45837777853012085
      ]
    },
    {
      "name": "dense_Dense39/bias",
      "shape": [
        28
      ],
      "dtype": "float32",
      "values": [
        0,
        0,
        0,
        0,
        0,
        0,
        0,
        0,
        0,
        0,
        0,
        0,
        0,
        0,
        0,
        0,
        0,
        0,
        0,
        0,
        0,
        0,
        0,
        0,
        0,
        0,
        0,
        0
      ]
    },
    {
      "name": "dense_Dense40/kernel",
      "shape": [
        28,
        16
      ],
      "dtype": "float32",
      "values": [
        -0.22628360986709595,
        0.43015703558921814,
        0.2399994134902954,
        0.3815605044364929,
        0.23238308727741241,
        0.13173842430114746,
        -0.1740315556526184,
        -0.4586189091205597,
        0.22057951986789703,
        -0.17703808844089508,
        -0.18460732698440552,
        -0.26339593529701233,
        0.23008249700069427,
        0.11145496368408203,
        -0.1964321732521057,
        -0.47983673214912415,
        -0.4474502503871918,
        -0.20874100923538208,
        -0.19809794425964355,
        -0.4108177125453949,
        0.15495654940605164,
        -0.38199546933174133,
        -0.3570956885814667,
        0.165008544921875,
        0.3710494339466095,
        -0.23871752619743347,
        0.3016304671764374,
        0.44976258277893066,
        0.10875014215707779,
        0.05519266799092293,
        -0.016865583136677742,
        0.04294980317354202,
        0.14058931171894073,
        0.2888239622116089,
        0.47969940304756165,
        0.08276893198490143,
        0.458938330411911,
        -0.009210897609591484,
        -0.273394912481308,
        0.2810613811016083,
        0.127801775932312,
        -0.4801013767719269,
        -0.03673873841762543,
        0.17139770090579987,
        0.21721597015857697,
        -0.17953640222549438,
        0.1091325432062149,
        0.4056474268436432,
        -0.3487442135810852,
        -0.10997366160154343,
        -0.00831860676407814,
        0.012517470866441727,
        -0.19901792705059052,
        0.4788305163383484,
        0.031459055840969086,
        0.33210447430610657,
        -0.39411410689353943,
        -0.010936165228486061,
        -0.3301820158958435,
        -0.43943244218826294,
        0.48986223340034485,
        0.3982379138469696,
        -0.04311647266149521,
        -0.06939113885164261,
        -0.06614288687705994,
        -0.09142779558897018,
        -0.20767103135585785,
        -0.04545092210173607,
        0.055812377482652664,
        0.1728188395500183,
        0.07791441679000854,
        0.3432117998600006,
        -0.38716670870780945,
        -0.17074808478355408,
        0.21583567559719086,
        0.028072675690054893,
        -0.3503316640853882,
        0.3085518181324005,
        -0.09683071821928024,
        -0.3479028344154358,
        0.014938531443476677,
        0.09669028967618942,
        -0.1476784646511078,
        0.014556975103914738,
        0.18495477735996246,
        -0.04995672404766083,
        -0.062492046505212784,
        -0.3892839252948761,
        -0.43150976300239563,
        0.2005070447921753,
        -0.43903279304504395,
        0.36500027775764465,
        0.3527474105358124,
        -0.1031048372387886,
        -0.1737746298313141,
        0.27066683769226074,
        -0.10359898954629898,
        0.19359160959720612,
        0.2944027781486511,
        0.31055769324302673,
        -0.2327696979045868,
        0.3099329471588135,
        -0.41180598735809326,
        -0.1689947545528412,
        -0.14559762179851532,
        -0.48998212814331055,
        -0.01937519945204258,
        0.3473011255264282,
        0.26677507162094116,
        0.07622421532869339,
        -0.43255889415740967,
        0.14200779795646667,
        -0.46443167328834534,
        -0.08126875013113022,
        0.05097769945859909,
        -0.37066563963890076,
        0.10886581242084503,
        -0.05888717621564865,
        0.27442073822021484,
        -0.018962901085615158,
        0.2825150191783905,
        0.12404198944568634,
        0.4588613212108612,
        0.41197964549064636,
        0.05778629332780838,
        0.22560012340545654,
        -0.33455148339271545,
        0.06766900420188904,
        0.006077357567846775,
        0.05946736037731171,
        0.12787340581417084,
        -0.3611306846141815,
        0.25189968943595886,
        0.012189161032438278,
        -0.04661883786320686,
        0.21847574412822723,
        0.3249588906764984,
        0.218405082821846,
        0.39888134598731995,
        -0.2881125211715698,
        -0.4032648801803589,
        -0.1903037130832672,
        -0.3652661144733429,
        0.4518226087093353,
        0.3392223119735718,
        0.1292860060930252,
        -0.20511922240257263,
        -0.4021092653274536,
        -0.33637893199920654,
        -0.3712514042854309,
        -0.4497224986553192,
        -0.31627610325813293,
        0.08601950109004974,
        -0.13580812513828278,
        -0.43231824040412903,
        -0.26056602597236633,
        0.43166425824165344,
        0.2818388342857361,
        -0.04443393647670746,
        -0.18685515224933624,
        0.09942129254341125,
        0.24251356720924377,
        0.4652252495288849,
        0.45598870515823364,
        -0.16693909466266632,
        0.3062548041343689,
        -0.26217636466026306,
        -0.32396453619003296,
        0.4924270212650299,
        -0.31903594732284546,
        0.12504591047763824,
        -0.46728935837745667,
        -0.0030412261839956045,
        -0.08751337975263596,
        0.3457581698894501,
        -0.1472783386707306,
        -0.3959224224090576,
        0.27437126636505127,
        -0.1122240498661995,
        0.23509643971920013,
        -0.3460788428783417,
        -0.19370399415493011,
        -0.10604538023471832,
        -0.011299189180135727,
        0.16657476127147675,
        0.342697411775589,
        0.1764083057641983,
        0.2619721293449402,
        0.2900124192237854,
        0.48098278045654297,
        0.12882430851459503,
        0.27716395258903503,
        0.31991419196128845,
        -0.06483404338359833,
        -0.08362230658531189,
        -0.013671735301613808,
        -0.40937355160713196,
        0.3200531303882599,
        -0.33455175161361694,
        0.3199708163738251,
        -0.3674747943878174,
        0.4970310628414154,
        0.45161885023117065,
        0.36459091305732727,
        -0.4329969584941864,
        -0.41968968510627747,
        -0.4520641267299652,
        -0.3316647410392761,
        -0.2903444766998291,
        0.04158277437090874,
        0.1054026335477829,
        0.14337114989757538,
        0.1551394760608673,
        0.25832101702690125,
        -0.31256553530693054,
        -0.20650827884674072,
        0.2892152965068817,
        -0.2915804088115692,
        0.24094651639461517,
        0.004427235573530197,
        0.029607200995087624,
        0.11853167414665222,
        0.17894862592220306,
        -0.4224981963634491,
        0.474099338054657,
        -0.08251544833183289,
        0.31730207800865173,
        -0.33071696758270264,
        0.47064104676246643,
        0.4315411150455475,
        0.48573535680770874,
        0.1490117311477661,
        0.2092735320329666,
        -0.01327527966350317,
        -0.24827177822589874,
        -0.3057540953159332,
        -0.09233467280864716,
        0.060456421226263046,
        -0.18225796520709991,
        0.1915518194437027,
        0.008635811507701874,
        0.12244517356157303,
        0.2562241554260254,
        0.00048294197767972946,
        0.10257884860038757,
        0.41754135489463806,
        0.14064353704452515,
        -0.07652661204338074,
        -0.21331310272216797,
        0.4954521656036377,
        -0.050358790904283524,
        -0.0007624810095876455,
        0.086960569024086,
        -0.4129984378814697,
        0.1652025580406189,
        0.12518106400966644,
        0.33486300706863403,
        0.12015786021947861,
        -0.4075409173965454,
        -0.4617915749549866,
        -0.13641080260276794,
        -0.47564637660980225,
        -0.2548533082008362,
        -0.14352570474147797,
        0.4769633710384369,
        -0.12064801901578903,
        0.0536765530705452,
        0.19299204647541046,
        -0.10234437882900238,
        -0.028514333069324493,
        -0.3096065819263458,
        0.49835601449012756,
        0.3110348582267761,
        -0.18706129491329193,
        -0.13921208679676056,
        -0.3582262098789215,
        0.29861584305763245,
        -0.43716806173324585,
        0.07951781153678894,
        -0.4663136899471283,
        0.2489841878414154,
        -0.44757339358329773,
        0.10745986551046371,
        0.025513894855976105,
        0.04861951246857643,
        0.24907095730304718,
        -0.14412949979305267,
        0.4686961770057678,
        -0.4745924174785614,
        0.11657316237688065,
        0.21922039985656738,
        -0.017309648916125298,
        -0.0330507829785347,
        -0.06614711880683899,
        0.4650619626045227,
        -0.3049623668193817,
        0.10728038102388382,
        -0.23314268887043,
        -0.20190364122390747,
        -0.16712461411952972,
        -0.34177151322364807,
        0.48500096797943115,
        -0.3742431104183197,
        0.3886244297027588,
        -0.09045326709747314,
        0.492358535528183,
        0.03744317591190338,
        0.41637226939201355,
        0.3233720362186432,
        -0.3905475437641144,
        -0.49967053532600403,
        -0.42637544870376587,
        -0.4564453363418579,
        -0.377811461687088,
        0.47213491797447205,
        0.14583705365657806,
        -0.16207963228225708,
        -0.19662626087665558,
        0.45444968342781067,
        -0.08015970140695572,
        -0.1676841676235199,
        -0.3018990755081177,
        -0.16404429078102112,
        0.2672085165977478,
        0.12073910981416702,
        -0.44694238901138306,
        -0.25220635533332825,
        -0.371635764837265,
        -0.15029999613761902,
        0.3394748568534851,
        0.1449752002954483,
        -0.32138383388519287,
        -0.1687084436416626,
        -0.2141854166984558,
        0.028676362708210945,
        -0.1500362604856491,
        0.4259546101093292,
        -0.4027031660079956,
        0.292288601398468,
        0.28123587369918823,
        0.3603101074695587,
        0.2131509929895401,
        -0.08967380225658417,
        -0.3330729901790619,
        -0.06975538283586502,
        -0.2270878255367279,
        -0.45395731925964355,
        -0.0781441405415535,
        0.23669075965881348,
        0.15612003207206726,
        -0.3256247937679291,
        -0.3628036081790924,
        -0.2406771034002304,
        0.4642886519432068,
        -0.199986070394516,
        0.3900318443775177,
        0.26493707299232483,
        0.32935771346092224,
        -0.20969681441783905,
        -0.30560386180877686,
        0.46071311831474304,
        -0.0430871807038784,
        0.03790055960416794,
        -0.49768948554992676,
        0.17534257471561432,
        0.2878384292125702,
        0.2658047676086426,
        0.3656887412071228,
        0.06995870918035507,
        -0.36279425024986267,
        -0.19587719440460205,
        0.369802862405777,
        0.41842010617256165,
        -0.36775949597358704,
        0.07096175104379654,
        -0.21049761772155762,
        -0.07619256526231766,
        0.3704388737678528,
        -0.04145237058401108,
        -0.33600175380706787,
        0.39861729741096497,
        -0.3964800536632538,
        -0.3545760214328766,
        0.4844452440738678,
        -0.15470147132873535,
        -0.062115296721458435,
        -0.4325987696647644,
        0.3692038655281067,
        0.22597096860408783,
        -0.4485166370868683,
        0.1929212212562561,
        -0.3043936491012573,
        0.11640477180480957,
        -0.44869372248649597,
        0.40125781297683716,
        -0.231619730591774,
        -0.2799417972564697,
        0.47998809814453125,
        0.12366673350334167,
        -0.15833912789821625,
        -0.17817388474941254,
        0.1671714335680008,
        -0.3045741319656372,
        -0.44498300552368164,
        0.2810405194759369,
        -0.12031061947345734,
        0.21721549332141876,
        0.29701998829841614,
        -0.38732045888900757,
        0.4105691611766815,
        -0.4044502377510071,
        0.42210400104522705,
        0.47463929653167725,
        0.1344410479068756,
        0.20237670838832855,
        0.03770941123366356,
        0.13655555248260498,
        0.02746657282114029,
        0.47262343764305115,
        -0.08488195389509201,
        0.1542450487613678,
        -0.3833068609237671,
        -0.4017675220966339,
        -0.052913598716259,
        0.4215298891067505,
        0.3755751848220825,
        -0.14714443683624268,
        0.3496081233024597,
        -0.3091810643672943,
        -0.04083232581615448,
        -0.03194384276866913,
        -0.19574126601219177,
        -0.48504483699798584,
        0.013852792792022228,
        -0.0763864815235138,
        0.28090664744377136,
        0.041182998567819595,
        0.05739688128232956,
        0.296923965215683,
        -0.0351392962038517,
        -0.448263943195343,
        -0.27985966205596924,
        0.2746065855026245,
        -0.33055785298347473,
        -0.37683993577957153,
        -0.1501546949148178,
        0.3077037036418915,
        -0.07956665754318237
      ]
    },
    {
      "name": "dense_Dense40/bias",
      "shape": [
        16
      ],
      "dtype": "float32",
      "values": [
        0,
        0,
        0,
        0,
        0,
        0,
        0,
        0,
        0,
        0,
        0,
        0,
        0,
        0,
        0,
        0
      ]
    }
  ]
}
