{
  "version": 1,
  "createdAt": 1762643959336,
  "backend": "webgl",
  "config": {
    "inputSize": 19,
    "outputSize": 16,
    "hiddenLayers": [
      28
    ],
    "activation": "relu",
    "outputActivation": "tanh",
    "backend": "webgl",
    "seed": 1762643885750
  },
  "metadata": {
    "label": "26",
    "notes": "",
    "correlations": [
      {
        "id": "rms-deltaposx",
        "featureKey": "bandBass",
        "targetId": "deltaPosX",
        "targetIndex": 0,
        "axis": "x",
        "group": "deltaPos",
        "featureIndex": 4,
        "baseIndex": null,
        "strength": 0.65,
        "polarity": "direct",
        "source": "audio"
      },
      {
        "id": "tempoproxy-rotationspeed",
        "featureKey": "tempoProxy",
        "targetId": "rotationSpeed",
        "targetIndex": 9,
        "axis": null,
        "group": "rotationSpeed",
        "featureIndex": 10,
        "baseIndex": null,
        "strength": 0.65,
        "polarity": "direct",
        "source": "audio"
      },
      {
        "id": "bandbass-wobblestrength",
        "featureKey": "bandBass",
        "targetId": "wobbleStrength",
        "targetIndex": 10,
        "axis": null,
        "group": "wobbleStrength",
        "featureIndex": 4,
        "baseIndex": null,
        "strength": 0.6,
        "polarity": "direct",
        "source": "audio"
      },
      {
        "id": "bandhigh-wobblefrequency",
        "featureKey": "bandHigh",
        "targetId": "wobbleFrequency",
        "targetIndex": 11,
        "axis": null,
        "group": "wobbleFrequency",
        "featureIndex": 7,
        "baseIndex": null,
        "strength": 0.6,
        "polarity": "direct",
        "source": "audio"
      },
      {
        "id": "speccentroid-colormix",
        "featureKey": "specCentroid",
        "targetId": "colorMix",
        "targetIndex": 12,
        "axis": null,
        "group": "colorMix",
        "featureIndex": 1,
        "baseIndex": null,
        "strength": 0.55,
        "polarity": "direct",
        "source": "audio"
      },
      {
        "id": "rms-alphascale",
        "featureKey": "rms",
        "targetId": "alphaScale",
        "targetIndex": 13,
        "axis": null,
        "group": "alphaScale",
        "featureIndex": 0,
        "baseIndex": null,
        "strength": 0.5,
        "polarity": "direct",
        "source": "audio"
      },
      {
        "id": "peak-pointscale",
        "featureKey": "peak",
        "targetId": "pointScale",
        "targetIndex": 14,
        "axis": null,
        "group": "pointScale",
        "featureIndex": 8,
        "baseIndex": null,
        "strength": 0.55,
        "polarity": "direct",
        "source": "audio"
      },
      {
        "id": "bandlowmid-camerazoom",
        "featureKey": "bandLowMid",
        "targetId": "cameraZoom",
        "targetIndex": 15,
        "axis": null,
        "group": "cameraZoom",
        "featureIndex": 5,
        "baseIndex": null,
        "strength": 0.6,
        "polarity": "direct",
        "source": "audio"
      }
    ],
    "training": {
      "status": "completed",
      "epoch": 93,
      "epochs": 93,
      "loss": 0.00016009436512831599,
      "best": null,
      "metadata": {
        "status": "completed",
        "epochs": 93,
        "loss": 0.00016009436512831599,
        "sampleCount": 512,
        "batchSize": 8,
        "learningRate": 0.0015,
        "noise": 0.04,
        "seed": 1762643885750,
        "createdAt": 1762643922167,
        "correlations": [
          {
            "id": "rms-deltaposx",
            "featureKey": "bandBass",
            "targetId": "deltaPosX",
            "strength": 0.65,
            "polarity": "direct",
            "achieved": 0.9992609121724912
          },
          {
            "id": "tempoproxy-rotationspeed",
            "featureKey": "tempoProxy",
            "targetId": "rotationSpeed",
            "strength": 0.65,
            "polarity": "direct",
            "achieved": 0.9991609524527487
          },
          {
            "id": "bandbass-wobblestrength",
            "featureKey": "bandBass",
            "targetId": "wobbleStrength",
            "strength": 0.6,
            "polarity": "direct",
            "achieved": 0.9994102926296534
          },
          {
            "id": "bandhigh-wobblefrequency",
            "featureKey": "bandHigh",
            "targetId": "wobbleFrequency",
            "strength": 0.6,
            "polarity": "direct",
            "achieved": 0.9993017946377011
          },
          {
            "id": "speccentroid-colormix",
            "featureKey": "specCentroid",
            "targetId": "colorMix",
            "strength": 0.55,
            "polarity": "direct",
            "achieved": 0.9995345516795994
          },
          {
            "id": "rms-alphascale",
            "featureKey": "rms",
            "targetId": "alphaScale",
            "strength": 0.5,
            "polarity": "direct",
            "achieved": 0.9996489035575389
          },
          {
            "id": "peak-pointscale",
            "featureKey": "peak",
            "targetId": "pointScale",
            "strength": 0.55,
            "polarity": "direct",
            "achieved": 0.9994873169721055
          },
          {
            "id": "bandlowmid-camerazoom",
            "featureKey": "bandLowMid",
            "targetId": "cameraZoom",
            "strength": 0.6,
            "polarity": "direct",
            "achieved": 0.9993836896724544
          }
        ]
      }
    }
  },
  "weights": [
    {
      "name": "dense_Dense39/kernel",
      "shape": [
        19,
        28
      ],
      "dtype": "float32",
      "values": [
        -0.022330474108457565,
        -0.13603807985782623,
        0.06875967979431152,
        -0.06629394739866257,
        0.17444469034671783,
        -0.025819608941674232,
        -0.021977990865707397,
        -0.015775058418512344,
        -0.02372361160814762,
        0.015805451199412346,
        0.04330570995807648,
        0.0018612488638609648,
        0.300136923789978,
        -0.08791368454694748,
        -0.061177808791399,
        -0.025459058582782745,
        0.031047411262989044,
        -0.025883477181196213,
        0.08149608969688416,
        0.030285734683275223,
        -0.04780811443924904,
        0.1596049815416336,
        -0.22991670668125153,
        0.005451158154755831,
        -0.02590802125632763,
        0.010570649057626724,
        -0.07197796553373337,
        -0.06054465100169182,
        -0.04555104300379753,
        0.12283431738615036,
        -0.060388289391994476,
        -0.020351143553853035,
        0.007870735600590706,
        -0.023918114602565765,
        -0.08179626613855362,
        -0.058342136442661285,
        -0.023061618208885193,
        -0.07907591015100479,
        -0.07620463520288467,
        -0.07088684290647507,
        0.07481952756643295,
        0.07549680769443512,
        -0.09292009472846985,
        -0.10993637144565582,
        -0.045441076159477234,
        -0.05355431139469147,
        0.10141123831272125,
        -0.2303260713815689,
        0.13476964831352234,
        0.06835916638374329,
        -0.10932926833629608,
        0.14981549978256226,
        0.007208447437733412,
        -0.04497567564249039,
        0.09505853801965714,
        -0.06694511324167252,
        0.022084375843405724,
        -0.18420103192329407,
        -0.0404970608651638,
        -0.09465502947568893,
        -0.0033233673311769962,
        0.027974769473075867,
        0.014471180737018585,
        0.025468679144978523,
        0.048456236720085144,
        0.00023266597418114543,
        -0.015501409769058228,
        0.01539645716547966,
        -0.05181353539228439,
        0.1299864500761032,
        0.03993501886725426,
        0.026157157495617867,
        -0.011442705057561398,
        0.012970995157957077,
        0.1267509013414383,
        -0.10665827244520187,
        -0.18872690200805664,
        0.1494349241256714,
        0.05620131641626358,
        0.06206726282835007,
        -0.05200834572315216,
        0.004223446827381849,
        -0.004747550003230572,
        0.2471913844347,
        0.09530194103717804,
        -0.1275480091571808,
        0.24365048110485077,
        -0.037287648767232895,
        -0.11943796277046204,
        0.07512763142585754,
        0.11616717278957367,
        0.1588335782289505,
        0.17642131447792053,
        0.23587486147880554,
        0.2836031913757324,
        0.20415674149990082,
        -0.27103421092033386,
        -0.3930658996105194,
        0.09962981194257736,
        0.21617461740970612,
        0.17687907814979553,
        0.050921205431222916,
        -0.10402023047208786,
        -0.23489026725292206,
        -0.33798879384994507,
        -0.1856505274772644,
        -0.2136484980583191,
        -0.09688177704811096,
        -0.00806506909430027,
        0.16086067259311676,
        -0.1779394894838333,
        -0.3182111978530884,
        0.03294757008552551,
        -0.24401973187923431,
        0.11202951520681381,
        -0.1287655532360077,
        -0.200173482298851,
        -0.001311371335759759,
        0.04399249330163002,
        0.06347810477018356,
        0.06925488263368607,
        0.08025621622800827,
        0.12437683343887329,
        0.10436772555112839,
        0.14652717113494873,
        -0.36362701654434204,
        -0.014613938517868519,
        0.06815507262945175,
        0.08818790316581726,
        0.004817950073629618,
        0.17997616529464722,
        -0.02480124682188034,
        0.06980293244123459,
        0.1272854059934616,
        -0.09794818609952927,
        -0.062333546578884125,
        -0.08715660125017166,
        0.059262435883283615,
        -0.16566987335681915,
        0.06411180645227432,
        -0.013333475217223167,
        0.12640884518623352,
        -0.1421678364276886,
        -0.05463118851184845,
        0.09187959134578705,
        0.027927212417125702,
        -0.10232733935117722,
        -0.008707246743142605,
        0.13663949072360992,
        -0.08935177326202393,
        -0.1026548370718956,
        -0.028589166700839996,
        -0.27337145805358887,
        -0.13985919952392578,
        -0.09269122034311295,
        -0.10463305562734604,
        -0.04713955894112587,
        -0.07387885451316833,
        -0.07287033647298813,
        0.16742420196533203,
        -0.05674181133508682,
        -0.09966161102056503,
        0.00014883738185744733,
        -0.16656917333602905,
        0.21557575464248657,
        -0.03394767642021179,
        0.21862199902534485,
        0.1503777951002121,
        0.005785673391073942,
        0.08933485299348831,
        -0.016155268996953964,
        0.014734894968569279,
        0.0071138544008135796,
        0.012050464749336243,
        0.005018019117414951,
        0.0004525771364569664,
        0.001965311588719487,
        -0.002546575153246522,
        -0.010484240017831326,
        -0.011732986196875572,
        0.31363645195961,
        -0.18489255011081696,
        0.027887994423508644,
        0.008095230907201767,
        -0.01263589970767498,
        0.010633385740220547,
        0.0391356535255909,
        -0.05179154872894287,
        0.01781238429248333,
        0.053307171911001205,
        0.10704416036605835,
        -0.2635956108570099,
        -0.01858128234744072,
        -0.0014644692419096828,
        -0.168145090341568,
        -0.18441142141819,
        -0.14273786544799805,
        -0.2535459101200104,
        0.2794455289840698,
        -0.009941907599568367,
        0.08518360555171967,
        -0.39592859148979187,
        -0.21969465911388397,
        0.03605669364333153,
        -0.07949607819318771,
        -0.06409307569265366,
        -0.3645888864994049,
        -0.12886036932468414,
        -0.22681428492069244,
        0.15196159482002258,
        -0.39245468378067017,
        -0.20329046249389648,
        -0.11685647815465927,
        0.09556178748607635,
        -0.004334155935794115,
        0.2569819390773773,
        0.1558445692062378,
        -0.19720201194286346,
        -0.05765093117952347,
        -0.08965928107500076,
        -0.10251948982477188,
        0.08253168314695358,
        -0.12893663346767426,
        0.012564314529299736,
        -0.06413306295871735,
        0.022271502763032913,
        0.08847178518772125,
        0.006570970639586449,
        -0.21359212696552277,
        0.0705246552824974,
        0.23020297288894653,
        -0.326736718416214,
        0.6344932913780212,
        -0.29899924993515015,
        -0.2521541714668274,
        -0.2571120858192444,
        -0.010800233110785484,
        0.30190762877464294,
        -0.00367919635027647,
        0.28382882475852966,
        0.4195003807544708,
        0.6284438967704773,
        -0.13877025246620178,
        0.12541624903678894,
        0.027152206748723984,
        -0.0752260759472847,
        -0.15201054513454437,
        -0.006896768230944872,
        -0.0647636279463768,
        -0.040129851549863815,
        -0.17644080519676208,
        -0.051281895488500595,
        0.107177734375,
        0.05294959247112274,
        -0.43652111291885376,
        -0.2433360069990158,
        -0.2184218019247055,
        -0.30558887124061584,
        -0.33974531292915344,
        -0.3234269917011261,
        -0.13208355009555817,
        0.5012118816375732,
        0.09174034744501114,
        0.12736499309539795,
        -0.15631838142871857,
        0.265129029750824,
        0.4808386564254761,
        0.19052112102508545,
        0.4252069592475891,
        -0.04375346004962921,
        -0.11843493580818176,
        0.05307570844888687,
        0.22512982785701752,
        0.16390535235404968,
        0.2768002450466156,
        -0.08168729394674301,
        -0.3748042583465576,
        -0.35163724422454834,
        0.06977660208940506,
        0.19275665283203125,
        0.008490187115967274,
        -0.2062082290649414,
        -0.13460128009319305,
        -0.07049620151519775,
        0.1236213967204094,
        0.10437989979982376,
        -0.11413294821977615,
        0.04673480615019798,
        0.27201223373413086,
        -0.0503915399312973,
        -0.049469299614429474,
        0.00864788331091404,
        -0.15561382472515106,
        0.050623077899217606,
        -0.06597263365983963,
        -0.07257180660963058,
        -0.032375767827034,
        -0.08328685164451599,
        -0.2795446217060089,
        0.12437771260738373,
        0.022733623161911964,
        -0.03780651465058327,
        -0.22229111194610596,
        -0.07890790700912476,
        0.1705215573310852,
        0.00860489159822464,
        -0.266997754573822,
        0.1197206974029541,
        -0.025745920836925507,
        -0.2247353345155716,
        0.0521550215780735,
        -0.014523058198392391,
        -0.24761421978473663,
        0.007050176616758108,
        0.11908195912837982,
        -0.0770876407623291,
        -0.3279232978820801,
        0.01868257112801075,
        0.0047546750865876675,
        -0.15438582003116608,
        -0.13364891707897186,
        -0.16664759814739227,
        0.2562485337257385,
        0.0716743916273117,
        -0.08182695508003235,
        0.12740467488765717,
        -0.018799908459186554,
        -0.42716583609580994,
        0.05708949640393257,
        -0.18137088418006897,
        -0.2625521421432495,
        -0.1013798862695694,
        0.21004433929920197,
        -0.04350302740931511,
        0.14511772990226746,
        -0.19912254810333252,
        0.8066361546516418,
        -0.24865008890628815,
        0.3148694336414337,
        -0.23678423464298248,
        0.08157864212989807,
        0.2882193624973297,
        0.4917598068714142,
        -0.6669468879699707,
        0.145638570189476,
        0.6462514996528625,
        0.006777814589440823,
        0.24883060157299042,
        0.0902135968208313,
        0.06495245546102524,
        0.034454356878995895,
        -0.10668855905532837,
        -0.26133376359939575,
        -0.11823143810033798,
        0.05202775076031685,
        0.005158933345228434,
        -0.02443075180053711,
        -0.07262130081653595,
        -0.4911106526851654,
        -0.21897515654563904,
        -0.17894424498081207,
        0.21924640238285065,
        -0.11917676031589508,
        -0.0016319541027769446,
        0.027976233512163162,
        0.030745884403586388,
        0.3453998565673828,
        -0.3952450156211853,
        0.1474042534828186,
        0.6410170793533325,
        -0.20086687803268433,
        0.1337999403476715,
        0.03182348608970642,
        -0.055631279945373535,
        -0.3346576988697052,
        0.13538457453250885,
        -0.20289015769958496,
        -0.35833895206451416,
        -0.20317915081977844,
        0.4166024327278137,
        -0.02619873732328415,
        0.03049471229314804,
        0.17848409712314606,
        -0.07669863104820251,
        0.41099274158477783,
        -0.016321612522006035,
        0.11629464477300644,
        0.05222763121128082,
        -0.2528255879878998,
        -0.8126280307769775,
        0.11939208209514618,
        -0.2519896328449249,
        0.047217920422554016,
        -0.15919193625450134,
        -0.061539340764284134,
        -0.3643170893192291,
        -0.09976113587617874,
        0.006911779288202524,
        0.14465026557445526,
        0.012019753456115723,
        -0.12464921176433563,
        0.0013386367354542017,
        -0.04184699058532715,
        -0.012658548541367054,
        -0.0886608138680458,
        -0.25072604417800903,
        0.23006948828697205,
        0.11980845034122467,
        -0.0553453303873539,
        0.1312813013792038,
        -0.027986668050289154,
        -0.027890732511878014,
        -0.05246696621179581,
        -0.05741580203175545,
        -0.035266127437353134,
        -0.05628559738397598,
        -0.18525971472263336,
        -0.02620520628988743,
        -0.22867393493652344,
        -0.14921951293945312,
        0.64284348487854,
        -0.1541627198457718,
        0.356446772813797,
        -0.07261335849761963,
        -0.2925368845462799,
        0.23071235418319702,
        -0.17574374377727509,
        0.4752921164035797,
        -0.11626844853162766,
        -0.39585205912590027,
        -0.030648918822407722,
        -0.22208671271800995,
        -0.20743034780025482,
        -0.258561909198761,
        0.5412965416908264,
        -0.22385329008102417,
        0.5934453010559082,
        0.13489048182964325,
        -0.3177068531513214,
        -0.2002275288105011,
        0.05671076104044914,
        -0.00713464105501771,
        -0.07734288275241852,
        -0.029003672301769257,
        0.025218015536665916,
        0.3855225145816803,
        0.25021880865097046,
        0.24004444479942322,
        -0.09036590158939362,
        -0.20391272008419037,
        -0.23605838418006897,
        -0.0972638949751854,
        -0.0528232604265213,
        0.38419684767723083,
        0.6507599353790283,
        0.15539366006851196,
        0.007862631231546402,
        0.12684032320976257,
        0.2350860834121704,
        -0.07933065295219421,
        -0.17779231071472168,
        -0.055215347558259964,
        -0.07103181630373001,
        0.29055213928222656,
        0.5162434577941895,
        -0.5210176706314087,
        -0.007282769773155451,
        0.01764247938990593,
        -0.06924412399530411,
        0.1475875973701477,
        0.04393093287944794,
        -0.10252033919095993,
        -0.10777104645967484,
        0.22154954075813293,
        0.2739516496658325,
        -0.13641156256198883,
        0.08757991343736649,
        -0.01159574557095766,
        0.09891825169324875,
        0.14217284321784973,
        -0.1342543214559555,
        -0.08043777942657471,
        0.18880338966846466,
        0.07816997915506363,
        -0.08306422829627991,
        0.10225973278284073,
        0.0804918110370636,
        0.184494286775589,
        -0.06500720977783203,
        0.07330159097909927,
        0.10386593639850616,
        0.2040371149778366,
        0.09887881577014923,
        0.11956298351287842,
        -0.1279340237379074,
        0.09057804197072983,
        -0.19782935082912445,
        -0.28693294525146484,
        0.02924416773021221,
        -0.24320590496063232,
        -0.3301483988761902,
        0.05650034174323082,
        -0.1348455846309662,
        -0.39160439372062683,
        0.3420875668525696,
        0.07380866259336472,
        -0.1285630613565445,
        0.22937461733818054,
        0.23411288857460022,
        -0.12511226534843445,
        -0.33592352271080017,
        0.10002769529819489,
        -0.1693848967552185,
        -0.19785481691360474,
        0.15780173242092133,
        -0.32280611991882324,
        -0.2969013750553131,
        -0.2860848307609558,
        -0.3778843581676483,
        1.041149616241455,
        -0.18535228073596954,
        -0.016256282106041908,
        0.02046733908355236,
        -0.08444400876760483,
        -0.2659512162208557,
        -0.4783075451850891,
        0.13255314528942108,
        -0.011478359811007977,
        -0.3217793405056,
        0.3664466440677643,
        -0.2780407965183258,
        0.11354324221611023
      ]
    },
    {
      "name": "dense_Dense39/bias",
      "shape": [
        28
      ],
      "dtype": "float32",
      "values": [
        -0.3949905037879944,
        -0.08548383414745331,
        -0.005729507189244032,
        -0.08732812851667404,
        -0.07074380666017532,
        -0.18478575348854065,
        0.12166079133749008,
        0.47548621892929077,
        0.08497960865497589,
        0.15009163320064545,
        0.16572800278663635,
        0.3005349040031433,
        -0.0680248960852623,
        0,
        0.181814506649971,
        -0.28709882497787476,
        -0.27056410908699036,
        0.3015131652355194,
        -0.17934241890907288,
        -0.16511699557304382,
        -0.04556984081864357,
        -0.04559053108096123,
        -0.09577406942844391,
        -0.1299905627965927,
        -0.05363960564136505,
        0.30248594284057617,
        -0.10057399421930313,
        -0.03839675709605217
      ]
    },
    {
      "name": "dense_Dense40/kernel",
      "shape": [
        28,
        16
      ],
      "dtype": "float32",
      "values": [
        0.6808847188949585,
        -0.021235888823866844,
        0.13130125403404236,
        0.031004201620817184,
        -0.03563091158866882,
        -0.03499510511755943,
        -0.05536264181137085,
        -0.0012308381265029311,
        0.028497956693172455,
        0.43009284138679504,
        0.7745348811149597,
        0.5976685881614685,
        0.18955086171627045,
        -0.16574658453464508,
        -0.04409947246313095,
        0.14087003469467163,
        -0.17323273420333862,
        0.09049239009618759,
        -0.18487101793289185,
        0.08501867204904556,
        0.007223101332783699,
        0.008848113007843494,
        0.04283615201711655,
        -0.0018165650544688106,
        -0.03243660926818848,
        0.1439053863286972,
        -0.10437146574258804,
        -0.1764177829027176,
        0.12700887024402618,
        0.04222710430622101,
        -0.08085015416145325,
        0.16125625371932983,
        0.17737922072410583,
        0.06405305862426758,
        -0.06437679380178452,
        -0.07972582429647446,
        0.05085910111665726,
        -0.05519162863492966,
        0.1120225340127945,
        -0.05075342208147049,
        -0.095015749335289,
        -0.15843826532363892,
        -0.004703214392066002,
        0.2200619876384735,
        -0.3629639744758606,
        0.13499759137630463,
        -0.30922871828079224,
        0.3240933120250702,
        -0.10509005934000015,
        0.012120251543819904,
        0.09974654018878937,
        -0.05009980499744415,
        -0.013795130886137486,
        -0.010900024324655533,
        0.020200805738568306,
        -0.017105180770158768,
        -0.022697843611240387,
        0.2192583531141281,
        0.05489000305533409,
        0.08124065399169922,
        -0.2070184350013733,
        -0.010639750398695469,
        0.06916361302137375,
        -0.18937711417675018,
        0.14628182351589203,
        0.1000223159790039,
        0.07735377550125122,
        0.08699540048837662,
        0.019764959812164307,
        -0.00986428651958704,
        0.09888585656881332,
        -0.008006337098777294,
        0.005096933804452419,
        0.10172627866268158,
        0.005087581463158131,
        -0.33206984400749207,
        -0.05810781195759773,
        -0.08028311282396317,
        -0.17425450682640076,
        0.10032720118761063,
        0.1285916566848755,
        -0.06088598072528839,
        -0.04708320274949074,
        0.054946452379226685,
        -0.01600930280983448,
        0.11284937709569931,
        -0.07998871803283691,
        0.053809113800525665,
        0.06511576473712921,
        -0.060603294521570206,
        0.23519988358020782,
        0.04250933974981308,
        -0.16325964033603668,
        -0.05831630527973175,
        0.255586177110672,
        0.46792036294937134,
        0.20992296934127808,
        0.007996407337486744,
        0.07965578883886337,
        -0.0024233993608504534,
        -0.011607627384364605,
        -0.050276536494493484,
        -0.004009818192571402,
        -0.017435098066926003,
        -0.0070984759368002415,
        -0.322784960269928,
        0.24169041216373444,
        -0.19722223281860352,
        -0.4348297417163849,
        0.13651861250400543,
        0.5938915610313416,
        -0.11211518198251724,
        -0.538212776184082,
        -0.01585851050913334,
        0.07678434252738953,
        0.08523993194103241,
        -0.08507309854030609,
        -0.07592228055000305,
        -0.020866846665740013,
        0.036683280020952225,
        0.10240192711353302,
        -0.1353553682565689,
        -0.564863383769989,
        0.23298747837543488,
        -0.45488789677619934,
        -0.457582950592041,
        0.09104206413030624,
        0.12017649412155151,
        0.038693372160196304,
        0.036943670362234116,
        0.018493972718715668,
        -0.04277979955077171,
        0.01721341349184513,
        -0.06414466351270676,
        0.06623020023107529,
        -0.040916893631219864,
        -0.062023188918828964,
        -0.1042068749666214,
        0.006167320068925619,
        -0.14103154838085175,
        -0.023202525451779366,
        0.3618508577346802,
        -0.12539172172546387,
        -0.1201171725988388,
        0.3280804753303528,
        -0.032009001821279526,
        -0.008015447296202183,
        0.1370139867067337,
        -0.11702053248882294,
        -0.051380060613155365,
        -0.014870028011500835,
        0.08334100246429443,
        0.17039813101291656,
        -0.21862539649009705,
        0.08759251236915588,
        -0.31500372290611267,
        0.1436164230108261,
        -0.13912490010261536,
        0.03639528900384903,
        -0.05883774161338806,
        -0.309516966342926,
        -0.05671154707670212,
        0.16805477440357208,
        0.011444134637713432,
        -0.006363906431943178,
        0.04062220826745033,
        -0.101679727435112,
        -0.01673055812716484,
        -0.022162137553095818,
        0.27566203474998474,
        0.1807394176721573,
        -0.22021178901195526,
        0.27822670340538025,
        -0.19567646086215973,
        0.009635798633098602,
        -0.2299593687057495,
        -0.02899726666510105,
        0.00788995623588562,
        -0.08757168799638748,
        -0.07803171128034592,
        0.08965008705854416,
        0.11211039870977402,
        -0.028830399736762047,
        -0.017826881259679794,
        -0.06792235374450684,
        -0.31622034311294556,
        0.011053030379116535,
        -0.16916267573833466,
        0.10298085957765579,
        -0.28616946935653687,
        -0.3273873031139374,
        0.16013391315937042,
        0.020282812416553497,
        -0.04828905686736107,
        0.19341957569122314,
        0.13295893371105194,
        0.1620759218931198,
        0.12106819450855255,
        0.1801992803812027,
        0.007418949156999588,
        0.1559818834066391,
        -0.022171054035425186,
        -0.18936960399150848,
        -0.05712438002228737,
        0.12082532793283463,
        -0.24842990934848785,
        0.37916499376296997,
        0.28263384103775024,
        -0.4007762372493744,
        -0.22089146077632904,
        -0.0011223324108868837,
        -0.09190656244754791,
        -0.2840743064880371,
        -0.00495793204754591,
        0.27367934584617615,
        0.4261775016784668,
        0.11435738950967789,
        0.17268429696559906,
        -0.03884699195623398,
        0.3865438401699066,
        -0.17933975160121918,
        -0.11258439719676971,
        0.006378783378750086,
        -0.018225204199552536,
        -0.12333527952432632,
        0.06098588556051254,
        -0.07986297458410263,
        -0.10793405026197433,
        0.08104448020458221,
        -0.01772778108716011,
        0.11185993254184723,
        -0.06513876467943192,
        -0.1371050477027893,
        -0.2966146469116211,
        -0.19031739234924316,
        0.2465045154094696,
        0.3199041783809662,
        -0.057780854403972626,
        -0.18883991241455078,
        -0.14122702181339264,
        -0.08530319482088089,
        0.03882548213005066,
        -0.06416166573762894,
        -0.0606832355260849,
        0.04695799574255943,
        -0.00845386367291212,
        0.06406988948583603,
        -0.03128154203295708,
        -0.06776971369981766,
        0.6803670525550842,
        -0.1801871806383133,
        -0.22189059853553772,
        0.1271393597126007,
        0.16369052231311798,
        0.10214413702487946,
        0.27129054069519043,
        -0.16765493154525757,
        -0.012587016448378563,
        -0.012717824429273605,
        0.022557925432920456,
        -0.011134720407426357,
        0.022814078256487846,
        -0.029877198860049248,
        0.02240581065416336,
        0.03902143985033035,
        -0.2004004269838333,
        -0.18155786395072937,
        0.46703770756721497,
        0.49983933568000793,
        0.3885747194290161,
        0.4915713369846344,
        0.0776788741350174,
        -0.19167068600654602,
        -0.09655006974935532,
        0.07564569264650345,
        0.14650802314281464,
        -0.10025260597467422,
        0.06605292111635208,
        -0.15540847182273865,
        0.0941774919629097,
        0.17722059786319733,
        -0.059589285403490067,
        -0.016212137416005135,
        -0.15229526162147522,
        -0.1558014154434204,
        0.39804381132125854,
        -0.5298018455505371,
        -0.13392095267772675,
        0.1616498976945877,
        0.0031690369360148907,
        -0.053802765905857086,
        0.02556450664997101,
        0.012357423081994057,
        0.11913592368364334,
        0.023216569796204567,
        0.01101045310497284,
        0.01678422838449478,
        0.03459712862968445,
        0.001217010198161006,
        -0.008058598265051842,
        0.07869526743888855,
        -0.017904935404658318,
        -0.06591060012578964,
        0.13445252180099487,
        0.023381395265460014,
        -0.0739012062549591,
        -0.052077773958444595,
        -0.07732189446687698,
        -0.16031327843666077,
        -0.13153281807899475,
        0.28631892800331116,
        -0.09208333492279053,
        -0.06504810601472855,
        0.2498580366373062,
        -0.11463290452957153,
        0.12983672320842743,
        0.15866340696811676,
        0.2854071855545044,
        -0.02637111395597458,
        0.21709387004375458,
        -0.0001923425297718495,
        -0.1040300577878952,
        0.0347013995051384,
        0.06679204851388931,
        -0.01999155804514885,
        0.1236724779009819,
        0.0873948335647583,
        -0.052527785301208496,
        -0.037139035761356354,
        -0.3846556544303894,
        -0.12968546152114868,
        -0.12783968448638916,
        0.2396433800458908,
        -0.016996337100863457,
        -0.0438912995159626,
        0.38615280389785767,
        0.00797487236559391,
        -0.006175534334033728,
        0.017699003219604492,
        -0.023527080193161964,
        0.0041352626867592335,
        -0.09600232541561127,
        -0.029962193220853806,
        0.0026619145646691322,
        0.020175384357571602,
        -0.16099026799201965,
        -0.06407483667135239,
        -0.06168745085597038,
        0.08393875509500504,
        0.03496088460087776,
        0.008463411591947079,
        -0.003581339493393898,
        -0.3363470137119293,
        0.025016527622938156,
        -0.14013183116912842,
        -0.048191435635089874,
        0.28499025106430054,
        -0.25547873973846436,
        0.19685715436935425,
        0.03320774435997009,
        -0.019711339846253395,
        -0.03563873842358589,
        0.12041053920984268,
        0.18691745400428772,
        0.026996945962309837,
        -0.1683722585439682,
        -0.08855045586824417,
        -0.03711733594536781,
        -0.15830720961093903,
        -0.064920574426651,
        -0.005889748223125935,
        -0.18712563812732697,
        0.17739088833332062,
        -0.08285979181528091,
        0.2056376039981842,
        -0.11584655940532684,
        0.0032717573922127485,
        0.0065656318329274654,
        -0.04188485071063042,
        0.23878522217273712,
        0.0006317662773653865,
        0.051209691911935806,
        0.04720158129930496,
        0.14848360419273376,
        -0.14165805280208588,
        -0.10348737984895706,
        0.08843903988599777,
        -0.07771426439285278,
        0.10120270401239395,
        0.023766428232192993,
        -0.01158696599304676,
        -0.035669710487127304,
        -0.06325667351484299,
        -0.343117356300354,
        -0.15289703011512756,
        0.1382659524679184,
        -0.15471899509429932,
        -0.06560811400413513,
        -0.15222851932048798,
        -0.17365999519824982,
        0.14723053574562073,
        0.0033684258814901114,
        -0.15923582017421722,
        -0.0023063081316649914,
        0.023254388943314552,
        0.07015909254550934,
        0.02064308524131775,
        0.03097793459892273,
        0.01990094780921936,
        0.22573214769363403,
        -0.06253203004598618,
        0.11938541382551193,
        -0.38520243763923645,
        0.05464678257703781,
        -0.0625922679901123,
        -0.7421756982803345,
        0.11209423094987869,
        -0.07440163940191269,
        0.14510086178779602,
        -0.17260068655014038,
        0.1533740609884262,
        0.03063567727804184,
        -0.0694696307182312,
        0.1384367048740387,
        -0.007823781110346317,
        0.2739529013633728,
        0.2761206328868866,
        -0.14684845507144928,
        -0.21270452439785004,
        0.11168968677520752,
        0.20450833439826965,
        -0.14745645225048065,
        -0.0752459391951561,
        0.2899356484413147,
        0.14567507803440094,
        -0.15178486704826355,
        -0.1335080862045288,
        0.09379517287015915,
        -0.02091897837817669,
        0.1744266003370285,
        -0.14705157279968262,
        -0.05914085730910301,
        -0.18459303677082062,
        0.17597538232803345,
        -0.047695014625787735,
        0.17958033084869385,
        0.09384816139936447,
        -0.2642659544944763
      ]
    },
    {
      "name": "dense_Dense40/bias",
      "shape": [
        16
      ],
      "dtype": "float32",
      "values": [
        -0.2032083123922348,
        0.022410688921809196,
        0.012012605555355549,
        -0.048259053379297256,
        0.033376485109329224,
        -0.014393474906682968,
        0.02412138693034649,
        -0.03429354727268219,
        -0.060560934245586395,
        -0.2059488445520401,
        -0.15805436670780182,
        -0.3160739243030548,
        -0.09144667536020279,
        -0.26262882351875305,
        -0.18876302242279053,
        -0.12793201208114624
      ]
    }
  ]
}
