{
  "version": 1,
  "createdAt": 1762596413439,
  "backend": "webgl",
  "config": {
    "inputSize": 19,
    "outputSize": 16,
    "hiddenLayers": [
      32
    ],
    "activation": "relu",
    "outputActivation": "tanh",
    "backend": "webgl",
    "seed": 1762596390528
  },
  "metadata": {
    "label": "28",
    "notes": "",
    "correlations": [
      {
        "id": "rms-deltaposx",
        "featureKey": "rms",
        "targetId": "deltaPosX",
        "targetIndex": 0,
        "axis": "x",
        "group": "deltaPos",
        "featureIndex": 0,
        "strength": 0.65,
        "polarity": "direct"
      },
      {
        "id": "speccentroid-deltaposy",
        "featureKey": "rms",
        "targetId": "deltaPosY",
        "targetIndex": 1,
        "axis": "y",
        "group": "deltaPos",
        "featureIndex": 0,
        "strength": 0.65,
        "polarity": "direct"
      },
      {
        "id": "specrolloff-deltaposz",
        "featureKey": "specRolloff",
        "targetId": "deltaPosZ",
        "targetIndex": 2,
        "axis": "z",
        "group": "deltaPos",
        "featureIndex": 2,
        "strength": 0.65,
        "polarity": "direct"
      },
      {
        "id": "bandbass-sizedelta",
        "featureKey": "bandBass",
        "targetId": "sizeDelta",
        "targetIndex": 3,
        "axis": null,
        "group": "size",
        "featureIndex": 4,
        "strength": 0.65,
        "polarity": "direct"
      },
      {
        "id": "bandmid-colorr",
        "featureKey": "bandMid",
        "targetId": "colorR",
        "targetIndex": 4,
        "axis": "r",
        "group": "color",
        "featureIndex": 6,
        "strength": 0.65,
        "polarity": "direct"
      },
      {
        "id": "bandhigh-colorg",
        "featureKey": "bandHigh",
        "targetId": "colorG",
        "targetIndex": 5,
        "axis": "g",
        "group": "color",
        "featureIndex": 7,
        "strength": 0.65,
        "polarity": "direct"
      },
      {
        "id": "peak-colorb",
        "featureKey": "peak",
        "targetId": "colorB",
        "targetIndex": 6,
        "axis": "b",
        "group": "color",
        "featureIndex": 8,
        "strength": 0.65,
        "polarity": "direct"
      },
      {
        "id": "zerocrossrate-flickerrate",
        "featureKey": "zeroCrossRate",
        "targetId": "flickerRate",
        "targetIndex": 7,
        "axis": null,
        "group": "flickerRate",
        "featureIndex": 9,
        "strength": 0.65,
        "polarity": "direct"
      },
      {
        "id": "tempoproxy-flickerdepth",
        "featureKey": "tempoProxy",
        "targetId": "flickerDepth",
        "targetIndex": 8,
        "axis": null,
        "group": "flickerDepth",
        "featureIndex": 10,
        "strength": 0.65,
        "polarity": "direct"
      },
      {
        "id": "rms-rotationspeed",
        "featureKey": "rms",
        "targetId": "rotationSpeed",
        "targetIndex": 9,
        "axis": null,
        "group": "rotationSpeed",
        "featureIndex": 0,
        "strength": 0.65,
        "polarity": "direct"
      },
      {
        "id": "speccentroid-wobblestrength",
        "featureKey": "specCentroid",
        "targetId": "wobbleStrength",
        "targetIndex": 10,
        "axis": null,
        "group": "wobbleStrength",
        "featureIndex": 1,
        "strength": 0.65,
        "polarity": "direct"
      },
      {
        "id": "specrolloff-wobblefrequency",
        "featureKey": "specRolloff",
        "targetId": "wobbleFrequency",
        "targetIndex": 11,
        "axis": null,
        "group": "wobbleFrequency",
        "featureIndex": 2,
        "strength": 0.65,
        "polarity": "direct"
      },
      {
        "id": "bandbass-colormix",
        "featureKey": "bandBass",
        "targetId": "colorMix",
        "targetIndex": 12,
        "axis": null,
        "group": "colorMix",
        "featureIndex": 4,
        "strength": 0.65,
        "polarity": "direct"
      },
      {
        "id": "bandmid-alphascale",
        "featureKey": "bandMid",
        "targetId": "alphaScale",
        "targetIndex": 13,
        "axis": null,
        "group": "alphaScale",
        "featureIndex": 6,
        "strength": 0.65,
        "polarity": "direct"
      },
      {
        "id": "bandhigh-pointscale",
        "featureKey": "bandHigh",
        "targetId": "pointScale",
        "targetIndex": 14,
        "axis": null,
        "group": "pointScale",
        "featureIndex": 7,
        "strength": 0.65,
        "polarity": "direct"
      },
      {
        "id": "bandlowmid-camerazoom",
        "featureKey": "bandLowMid",
        "targetId": "cameraZoom",
        "targetIndex": 15,
        "axis": null,
        "group": "cameraZoom",
        "featureIndex": 5,
        "strength": 0.65,
        "polarity": "direct"
      }
    ],
    "training": {
      "status": "idle",
      "epoch": 0,
      "epochs": 24,
      "loss": null,
      "best": null,
      "metadata": null
    }
  },
  "weights": [
    {
      "name": "dense_Dense13/kernel",
      "shape": [
        19,
        32
      ],
      "dtype": "float32",
      "values": [
        0.0112898675724864,
        -0.08023146539926529,
        -0.1076931357383728,
        0.3280232846736908,
        -0.2564502954483032,
        -0.16302524507045746,
        0.3177245259284973,
        -0.41282007098197937,
        0.03808368742465973,
        0.03615053370594978,
        0.431670606136322,
        0.3283586800098419,
        -0.13015879690647125,
        0.048424601554870605,
        -0.19452010095119476,
        -0.20517230033874512,
        -0.21075227856636047,
        0.18203456699848175,
        -0.3742455244064331,
        0.3139813244342804,
        -0.39092403650283813,
        0.48295313119888306,
        -0.4228113293647766,
        0.023051727563142776,
        -0.41942206025123596,
        0.32508453726768494,
        -0.1090349555015564,
        0.45183295011520386,
        0.4779793620109558,
        0.2297545224428177,
        0.3923775553703308,
        0.29910364747047424,
        -0.48531293869018555,
        0.1813347190618515,
        -0.12161103636026382,
        -0.4469779431819916,
        -0.24464596807956696,
        -0.38127976655960083,
        0.4933190643787384,
        -0.036801211535930634,
        0.3821653425693512,
        0.4252367615699768,
        0.15459692478179932,
        -0.06286001950502396,
        -0.23210878670215607,
        -0.041908737272024155,
        -0.4641227126121521,
        0.19947701692581177,
        0.05275953188538551,
        -0.140938401222229,
        -0.07619291543960571,
        -0.10173715651035309,
        -0.2577858567237854,
        -0.07230832427740097,
        -0.40507376194000244,
        0.036934126168489456,
        0.08952169865369797,
        -0.07570715248584747,
        -0.1383068561553955,
        0.07212883234024048,
        -0.0309702567756176,
        -0.005816425662487745,
        0.4716184735298157,
        0.4028797447681427,
        0.13747215270996094,
        -0.37915804982185364,
        -0.04081859812140465,
        0.12327978014945984,
        0.2570800185203552,
        0.2302507907152176,
        -0.20954830944538116,
        -0.41560453176498413,
        -0.48108744621276855,
        -0.42921334505081177,
        0.3675349950790405,
        -0.2604849636554718,
        -0.3484436273574829,
        -0.46162745356559753,
        -0.4797400236129761,
        -0.30061963200569153,
        0.0429711788892746,
        0.06796981394290924,
        0.24428816139698029,
        0.1932508796453476,
        0.3090601861476898,
        -0.36043813824653625,
        0.0848049446940422,
        0.32977843284606934,
        -0.49392169713974,
        0.32880887389183044,
        0.4127916097640991,
        0.09867551177740097,
        0.4617462158203125,
        0.029772000387310982,
        -0.44736790657043457,
        0.37294983863830566,
        0.2780734896659851,
        -0.18433596193790436,
        0.41928625106811523,
        0.33679670095443726,
        -0.29255688190460205,
        0.4906355142593384,
        0.09137244522571564,
        -0.39713847637176514,
        0.37602391839027405,
        0.16605892777442932,
        -0.3252917528152466,
        0.28538304567337036,
        0.3320057988166809,
        0.056972768157720566,
        0.3025103211402893,
        0.26231667399406433,
        0.4647088348865509,
        0.3693128824234009,
        -0.21003693342208862,
        0.11040257662534714,
        0.2183220535516739,
        -0.4287877380847931,
        0.3375462591648102,
        -0.06478502601385117,
        -0.1792130023241043,
        -0.06976514309644699,
        0.10656332969665527,
        0.09475676715373993,
        -0.4973938763141632,
        0.01754690147936344,
        -0.05731688812375069,
        -0.4175952970981598,
        -0.21750932931900024,
        -0.23928022384643555,
        0.3978934586048126,
        -0.0013843078631907701,
        0.14957664906978607,
        0.4633277356624603,
        -0.47187739610671997,
        0.35341349244117737,
        0.3761325776576996,
        -0.14058324694633484,
        0.460974782705307,
        -0.45338690280914307,
        -0.38799697160720825,
        -0.16094504296779633,
        0.2598012387752533,
        0.3930742144584656,
        0.0669434443116188,
        0.4063577353954315,
        0.3591737151145935,
        -0.47383061051368713,
        -0.3094971477985382,
        -0.2760348916053772,
        0.44237205386161804,
        -0.30714643001556396,
        -0.36987367272377014,
        -0.36585482954978943,
        -0.4527333974838257,
        -0.22076325118541718,
        -0.2477802336215973,
        0.1970445215702057,
        -0.021540217101573944,
        0.19908994436264038,
        0.009097399190068245,
        -0.3583056628704071,
        0.3001616895198822,
        0.4762589633464813,
        -0.08741872012615204,
        -0.08191042393445969,
        -0.17339226603507996,
        -0.39948752522468567,
        -0.0370069220662117,
        -0.041317664086818695,
        0.30264565348625183,
        -0.12384968996047974,
        0.3606846034526825,
        0.4819425642490387,
        0.16262762248516083,
        -0.031145580112934113,
        -0.1364375501871109,
        0.27230146527290344,
        -0.30971914529800415,
        -0.10811245441436768,
        0.3768739402294159,
        0.36919906735420227,
        -0.2215631753206253,
        0.24334630370140076,
        0.19087059795856476,
        -0.16391822695732117,
        -0.3732317388057709,
        0.39918041229248047,
        0.24256066977977753,
        -0.06952624768018723,
        0.3004298508167267,
        0.3679293394088745,
        0.1828591227531433,
        -0.20023994147777557,
        0.38029152154922485,
        0.2599300146102905,
        0.3201269507408142,
        -0.40642839670181274,
        -0.26468273997306824,
        0.03935353457927704,
        -0.47851860523223877,
        0.2463161051273346,
        0.3888024687767029,
        -0.1941986083984375,
        0.3596479594707489,
        0.38592520356178284,
        -0.37874308228492737,
        -0.31518757343292236,
        0.18146052956581116,
        0.21656298637390137,
        0.38207337260246277,
        -0.06859554350376129,
        -0.39680206775665283,
        -0.43119320273399353,
        -0.11651108413934708,
        0.29419875144958496,
        0.4865208864212036,
        -0.12310165166854858,
        -0.4004850685596466,
        0.09190778434276581,
        -0.21657490730285645,
        -0.18180251121520996,
        -0.0972255989909172,
        0.4699602425098419,
        -0.22553962469100952,
        0.1396632194519043,
        0.19963805377483368,
        -0.4843166768550873,
        0.05141475424170494,
        -0.2483540028333664,
        0.3789260983467102,
        0.10223301500082016,
        0.07775317877531052,
        -0.4158855378627777,
        -0.43392568826675415,
        -0.41811931133270264,
        -0.3966124653816223,
        0.11271735280752182,
        0.3559184968471527,
        -0.09702949225902557,
        0.01018532644957304,
        -0.011328628286719322,
        0.3307446539402008,
        0.025738906115293503,
        -0.4000055491924286,
        0.41307783126831055,
        -0.4992603361606598,
        -0.20567727088928223,
        -0.2994960844516754,
        -0.4093019962310791,
        0.3939248025417328,
        0.32270586490631104,
        0.003917761147022247,
        0.46695882081985474,
        0.14816522598266602,
        -0.45759153366088867,
        0.28029224276542664,
        0.17434601485729218,
        -0.327266126871109,
        0.1630104035139084,
        -0.060839977115392685,
        0.4001418650150299,
        -0.09079941362142563,
        -0.271005779504776,
        0.34814396500587463,
        0.4101136326789856,
        -0.23065343499183655,
        0.4793485105037689,
        -0.31448599696159363,
        0.2705903947353363,
        0.053415697067976,
        -0.1718258261680603,
        0.39206331968307495,
        0.3526528477668762,
        0.394718199968338,
        -0.07625256478786469,
        0.4629466235637665,
        -0.003911255858838558,
        0.16694538295269012,
        0.23245055973529816,
        0.06468863040208817,
        0.4628944396972656,
        -0.3365430533885956,
        0.26110130548477173,
        0.042288050055503845,
        0.425796240568161,
        -0.3337225019931793,
        0.3385096788406372,
        0.05084870755672455,
        0.005461323074996471,
        0.05303949490189552,
        0.13877259194850922,
        0.11660352349281311,
        0.47729724645614624,
        0.1803298443555832,
        0.4795340597629547,
        -0.4371475577354431,
        -0.060310009866952896,
        0.13230688869953156,
        0.11557984352111816,
        0.2317894995212555,
        0.251995712518692,
        0.31642255187034607,
        -0.03540610894560814,
        0.057084280997514725,
        -0.2277473509311676,
        0.1996537297964096,
        -0.2923263907432556,
        -0.23231706023216248,
        -0.4828437268733978,
        -0.25394323468208313,
        -0.4229587912559509,
        0.2242526412010193,
        0.4475020468235016,
        -0.13374483585357666,
        -0.4278254210948944,
        -0.24596452713012695,
        0.09937742352485657,
        -0.3581770360469818,
        0.007343193516135216,
        -0.2992682158946991,
        -0.0460074320435524,
        0.3104989528656006,
        -0.05112479627132416,
        0.06191960722208023,
        -0.26443514227867126,
        0.3826465606689453,
        0.4655489921569824,
        0.164653941988945,
        0.457450807094574,
        0.4152001440525055,
        -0.40805888175964355,
        -0.044644858688116074,
        -0.17130495607852936,
        0.1066589504480362,
        0.07392421364784241,
        -0.12096141278743744,
        0.017694268375635147,
        -0.22749841213226318,
        0.3966681659221649,
        0.020534543320536613,
        0.4368232488632202,
        -0.3783820867538452,
        -0.14888089895248413,
        -0.4339155852794647,
        0.250446617603302,
        -0.08870087563991547,
        0.22565670311450958,
        -0.11736451834440231,
        -0.21045713126659393,
        0.36591601371765137,
        -0.20440596342086792,
        -0.34388598799705505,
        0.19298243522644043,
        -0.4976508915424347,
        -0.3322162628173828,
        -0.40234941244125366,
        -0.02740737609565258,
        0.4829341769218445,
        0.2549906075000763,
        -0.3352207839488983,
        -0.038452230393886566,
        0.2978115379810333,
        0.13017961382865906,
        -0.18464858829975128,
        0.24865677952766418,
        -0.24573148787021637,
        -0.1950937807559967,
        0.223672017455101,
        0.4348592460155487,
        0.25229907035827637,
        0.1019173189997673,
        -0.4708777070045471,
        -0.415066659450531,
        0.24540568888187408,
        -0.19100508093833923,
        0.39578670263290405,
        0.12044250220060349,
        0.3277702033519745,
        -0.11642104387283325,
        0.24065358936786652,
        -0.055919941514730453,
        0.20900097489356995,
        0.4307636320590973,
        -0.331163227558136,
        -0.4159892797470093,
        0.005636774934828281,
        0.07686581462621689,
        -0.4263423979282379,
        0.09881582111120224,
        -0.464114785194397,
        -0.4114161729812622,
        0.022854097187519073,
        0.40390145778656006,
        -0.10580290853977203,
        -0.4799436628818512,
        0.030316906049847603,
        -0.49521899223327637,
        0.14389030635356903,
        0.021601971238851547,
        -0.3618205189704895,
        -0.41230565309524536,
        -0.4736793637275696,
        0.06060725450515747,
        0.41661980748176575,
        -0.24182601273059845,
        0.4947837293148041,
        0.23193039000034332,
        0.2883095443248749,
        -0.026828117668628693,
        -0.339304655790329,
        0.47857263684272766,
        0.26122361421585083,
        0.12251293659210205,
        0.17215143144130707,
        -0.4856986701488495,
        -0.16783170402050018,
        -0.3381524384021759,
        -0.3008580207824707,
        -0.3229488432407379,
        0.1701066792011261,
        -0.3988724648952484,
        -0.3900732696056366,
        -0.22190028429031372,
        -0.20619668066501617,
        -0.43916553258895874,
        -0.27553024888038635,
        -0.013457085937261581,
        0.24472424387931824,
        0.21111558377742767,
        -0.36517640948295593,
        -0.22604556381702423,
        -0.41548365354537964,
        -0.22934816777706146,
        0.27813899517059326,
        0.16265252232551575,
        0.4399150609970093,
        0.39127933979034424,
        0.36634135246276855,
        0.48690348863601685,
        0.10262059420347214,
        -0.16914893686771393,
        0.3289240300655365,
        0.23216280341148376,
        0.49443739652633667,
        0.35870322585105896,
        -0.22952750325202942,
        -0.4692114293575287,
        -0.3312118947505951,
        0.3196346163749695,
        0.06501481682062149,
        0.3051186501979828,
        0.2606099843978882,
        -0.47364798188209534,
        0.06963061541318893,
        -0.014366788789629936,
        0.43451839685440063,
        0.10934406518936157,
        -0.13643373548984528,
        -0.3488744795322418,
        0.31600669026374817,
        -0.1300484538078308,
        -0.46926528215408325,
        -0.06575190275907516,
        -0.42137274146080017,
        0.45269960165023804,
        -0.2509380877017975,
        0.33235618472099304,
        0.12655046582221985,
        0.10720647126436234,
        0.17112386226654053,
        -0.10445574671030045,
        0.2424980252981186,
        0.34444302320480347,
        0.2833244800567627,
        0.3161282241344452,
        0.48045456409454346,
        -0.497154176235199,
        0.1025279238820076,
        -0.4775954782962799,
        -0.046991016715765,
        0.40126004815101624,
        -0.3478146195411682,
        -0.24174043536186218,
        0.14562125504016876,
        0.3569825291633606,
        0.2634713351726532,
        0.09883172065019608,
        -0.3959929645061493,
        -0.08685842156410217,
        0.28756484389305115,
        -0.3484489619731903,
        -0.4653802514076233,
        -0.17384110391139984,
        -0.4121782183647156,
        -0.47970420122146606,
        0.1677597165107727,
        -0.048011261969804764,
        -0.020565873011946678,
        -0.2250542789697647,
        -0.2247280776500702,
        -0.383301705121994,
        -0.3184644877910614,
        -0.01050002221018076,
        0.19324645400047302,
        0.231467142701149,
        -0.2553802728652954,
        -0.1872674822807312,
        -0.2855691611766815,
        -0.3435564339160919,
        0.026852961629629135,
        0.41615182161331177,
        -0.05915128067135811,
        -0.29811376333236694,
        0.3671150803565979,
        -0.12559299170970917,
        -0.4013669192790985,
        0.22988726198673248,
        -0.20159940421581268,
        0.2912033498287201,
        0.1647706925868988,
        -0.18756705522537231,
        0.29672664403915405,
        -0.19489090144634247,
        0.44613513350486755,
        0.036260493099689484,
        -0.42394524812698364,
        -0.35534241795539856,
        -0.13752569258213043,
        -0.4277348518371582,
        -0.07432270050048828,
        -0.10788031667470932,
        0.09559673815965652,
        -0.26427391171455383,
        0.318135142326355,
        -0.14033247530460358,
        0.35795044898986816,
        -0.1074969470500946,
        0.1069878563284874,
        0.1047399491071701,
        0.1862819492816925,
        -0.026011794805526733,
        0.15686219930648804,
        -0.42468881607055664,
        -0.2860890030860901,
        0.09928303211927414,
        0.3214508295059204,
        0.0691007599234581,
        0.2548181414604187,
        0.09479077160358429,
        -0.15472741425037384,
        -0.44931167364120483,
        0.0697367712855339,
        0.10286544263362885,
        0.20477481186389923,
        0.1476576030254364,
        0.3669722378253937,
        -0.013585228472948074,
        0.3990427553653717,
        0.4589911997318268,
        -0.39278870820999146,
        0.3914875388145447,
        -0.08801437169313431,
        -0.2003515213727951,
        -0.379678338766098,
        -0.297803670167923,
        -0.04392409324645996,
        -0.04502233862876892,
        0.2184782773256302,
        -0.34394046664237976,
        -0.476203054189682,
        -0.30112239718437195,
        -0.31088942289352417,
        0.1375456601381302,
        -0.32731083035469055,
        -0.433235764503479,
        -0.12509028613567352,
        -0.12095765769481659,
        0.15693891048431396,
        0.28633493185043335,
        0.2435644567012787,
        -0.45013293623924255,
        0.33762550354003906,
        -0.06933091580867767,
        0.4166805148124695,
        -0.3215847611427307,
        -0.24895121157169342,
        0.18485072255134583,
        -0.24383632838726044,
        -0.07189967483282089,
        -0.02184615284204483,
        0.4403848648071289,
        -0.16481688618659973,
        -0.26702389121055603,
        0.1307143121957779,
        -0.43677544593811035,
        0.42073243856430054,
        0.15238632261753082,
        0.45795053243637085,
        0.40388184785842896,
        0.18710274994373322,
        0.21546028554439545,
        0.04188419505953789,
        0.40922975540161133,
        0.13653041422367096,
        -0.3862164318561554,
        -0.09798756241798401,
        0.3327012062072754
      ]
    },
    {
      "name": "dense_Dense13/bias",
      "shape": [
        32
      ],
      "dtype": "float32",
      "values": [
        0,
        0,
        0,
        0,
        0,
        0,
        0,
        0,
        0,
        0,
        0,
        0,
        0,
        0,
        0,
        0,
        0,
        0,
        0,
        0,
        0,
        0,
        0,
        0,
        0,
        0,
        0,
        0,
        0,
        0,
        0,
        0
      ]
    },
    {
      "name": "dense_Dense14/kernel",
      "shape": [
        32,
        16
      ],
      "dtype": "float32",
      "values": [
        0.0112898675724864,
        -0.08023146539926529,
        -0.1076931357383728,
        0.3280232846736908,
        -0.2564502954483032,
        -0.16302524507045746,
        0.3177245259284973,
        -0.41282007098197937,
        0.03808368742465973,
        0.03615053370594978,
        0.431670606136322,
        0.3283586800098419,
        -0.13015879690647125,
        0.048424601554870605,
        -0.19452010095119476,
        -0.20517230033874512,
        -0.21075227856636047,
        0.18203456699848175,
        -0.3742455244064331,
        0.3139813244342804,
        -0.39092403650283813,
        0.48295313119888306,
        -0.4228113293647766,
        0.023051727563142776,
        -0.41942206025123596,
        0.32508453726768494,
        -0.1090349555015564,
        0.45183295011520386,
        0.4779793620109558,
        0.2297545224428177,
        0.3923775553703308,
        0.29910364747047424,
        -0.48531293869018555,
        0.1813347190618515,
        -0.12161103636026382,
        -0.4469779431819916,
        -0.24464596807956696,
        -0.38127976655960083,
        0.4933190643787384,
        -0.036801211535930634,
        0.3821653425693512,
        0.4252367615699768,
        0.15459692478179932,
        -0.06286001950502396,
        -0.23210878670215607,
        -0.041908737272024155,
        -0.4641227126121521,
        0.19947701692581177,
        0.05275953188538551,
        -0.140938401222229,
        -0.07619291543960571,
        -0.10173715651035309,
        -0.2577858567237854,
        -0.07230832427740097,
        -0.40507376194000244,
        0.036934126168489456,
        0.08952169865369797,
        -0.07570715248584747,
        -0.1383068561553955,
        0.07212883234024048,
        -0.0309702567756176,
        -0.005816425662487745,
        0.4716184735298157,
        0.4028797447681427,
        0.13747215270996094,
        -0.37915804982185364,
        -0.04081859812140465,
        0.12327978014945984,
        0.2570800185203552,
        0.2302507907152176,
        -0.20954830944538116,
        -0.41560453176498413,
        -0.48108744621276855,
        -0.42921334505081177,
        0.3675349950790405,
        -0.2604849636554718,
        -0.3484436273574829,
        -0.46162745356559753,
        -0.4797400236129761,
        -0.30061963200569153,
        0.0429711788892746,
        0.06796981394290924,
        0.24428816139698029,
        0.1932508796453476,
        0.3090601861476898,
        -0.36043813824653625,
        0.0848049446940422,
        0.32977843284606934,
        -0.49392169713974,
        0.32880887389183044,
        0.4127916097640991,
        0.09867551177740097,
        0.4617462158203125,
        0.029772000387310982,
        -0.44736790657043457,
        0.37294983863830566,
        0.2780734896659851,
        -0.18433596193790436,
        0.41928625106811523,
        0.33679670095443726,
        -0.29255688190460205,
        0.4906355142593384,
        0.09137244522571564,
        -0.39713847637176514,
        0.37602391839027405,
        0.16605892777442932,
        -0.3252917528152466,
        0.28538304567337036,
        0.3320057988166809,
        0.056972768157720566,
        0.3025103211402893,
        0.26231667399406433,
        0.4647088348865509,
        0.3693128824234009,
        -0.21003693342208862,
        0.11040257662534714,
        0.2183220535516739,
        -0.4287877380847931,
        0.3375462591648102,
        -0.06478502601385117,
        -0.1792130023241043,
        -0.06976514309644699,
        0.10656332969665527,
        0.09475676715373993,
        -0.4973938763141632,
        0.01754690147936344,
        -0.05731688812375069,
        -0.4175952970981598,
        -0.21750932931900024,
        -0.23928022384643555,
        0.3978934586048126,
        -0.0013843078631907701,
        0.14957664906978607,
        0.4633277356624603,
        -0.47187739610671997,
        0.35341349244117737,
        0.3761325776576996,
        -0.14058324694633484,
        0.460974782705307,
        -0.45338690280914307,
        -0.38799697160720825,
        -0.16094504296779633,
        0.2598012387752533,
        0.3930742144584656,
        0.0669434443116188,
        0.4063577353954315,
        0.3591737151145935,
        -0.47383061051368713,
        -0.3094971477985382,
        -0.2760348916053772,
        0.44237205386161804,
        -0.30714643001556396,
        -0.36987367272377014,
        -0.36585482954978943,
        -0.4527333974838257,
        -0.22076325118541718,
        -0.2477802336215973,
        0.1970445215702057,
        -0.021540217101573944,
        0.19908994436264038,
        0.009097399190068245,
        -0.3583056628704071,
        0.3001616895198822,
        0.4762589633464813,
        -0.08741872012615204,
        -0.08191042393445969,
        -0.17339226603507996,
        -0.39948752522468567,
        -0.0370069220662117,
        -0.041317664086818695,
        0.30264565348625183,
        -0.12384968996047974,
        0.3606846034526825,
        0.4819425642490387,
        0.16262762248516083,
        -0.031145580112934113,
        -0.1364375501871109,
        0.27230146527290344,
        -0.30971914529800415,
        -0.10811245441436768,
        0.3768739402294159,
        0.36919906735420227,
        -0.2215631753206253,
        0.24334630370140076,
        0.19087059795856476,
        -0.16391822695732117,
        -0.3732317388057709,
        0.39918041229248047,
        0.24256066977977753,
        -0.06952624768018723,
        0.3004298508167267,
        0.3679293394088745,
        0.1828591227531433,
        -0.20023994147777557,
        0.38029152154922485,
        0.2599300146102905,
        0.3201269507408142,
        -0.40642839670181274,
        -0.26468273997306824,
        0.03935353457927704,
        -0.47851860523223877,
        0.2463161051273346,
        0.3888024687767029,
        -0.1941986083984375,
        0.3596479594707489,
        0.38592520356178284,
        -0.37874308228492737,
        -0.31518757343292236,
        0.18146052956581116,
        0.21656298637390137,
        0.38207337260246277,
        -0.06859554350376129,
        -0.39680206775665283,
        -0.43119320273399353,
        -0.11651108413934708,
        0.29419875144958496,
        0.4865208864212036,
        -0.12310165166854858,
        -0.4004850685596466,
        0.09190778434276581,
        -0.21657490730285645,
        -0.18180251121520996,
        -0.0972255989909172,
        0.4699602425098419,
        -0.22553962469100952,
        0.1396632194519043,
        0.19963805377483368,
        -0.4843166768550873,
        0.05141475424170494,
        -0.2483540028333664,
        0.3789260983467102,
        0.10223301500082016,
        0.07775317877531052,
        -0.4158855378627777,
        -0.43392568826675415,
        -0.41811931133270264,
        -0.3966124653816223,
        0.11271735280752182,
        0.3559184968471527,
        -0.09702949225902557,
        0.01018532644957304,
        -0.011328628286719322,
        0.3307446539402008,
        0.025738906115293503,
        -0.4000055491924286,
        0.41307783126831055,
        -0.4992603361606598,
        -0.20567727088928223,
        -0.2994960844516754,
        -0.4093019962310791,
        0.3939248025417328,
        0.32270586490631104,
        0.003917761147022247,
        0.46695882081985474,
        0.14816522598266602,
        -0.45759153366088867,
        0.28029224276542664,
        0.17434601485729218,
        -0.327266126871109,
        0.1630104035139084,
        -0.060839977115392685,
        0.4001418650150299,
        -0.09079941362142563,
        -0.271005779504776,
        0.34814396500587463,
        0.4101136326789856,
        -0.23065343499183655,
        0.4793485105037689,
        -0.31448599696159363,
        0.2705903947353363,
        0.053415697067976,
        -0.1718258261680603,
        0.39206331968307495,
        0.3526528477668762,
        0.394718199968338,
        -0.07625256478786469,
        0.4629466235637665,
        -0.003911255858838558,
        0.16694538295269012,
        0.23245055973529816,
        0.06468863040208817,
        0.4628944396972656,
        -0.3365430533885956,
        0.26110130548477173,
        0.042288050055503845,
        0.425796240568161,
        -0.3337225019931793,
        0.3385096788406372,
        0.05084870755672455,
        0.005461323074996471,
        0.05303949490189552,
        0.13877259194850922,
        0.11660352349281311,
        0.47729724645614624,
        0.1803298443555832,
        0.4795340597629547,
        -0.4371475577354431,
        -0.060310009866952896,
        0.13230688869953156,
        0.11557984352111816,
        0.2317894995212555,
        0.251995712518692,
        0.31642255187034607,
        -0.03540610894560814,
        0.057084280997514725,
        -0.2277473509311676,
        0.1996537297964096,
        -0.2923263907432556,
        -0.23231706023216248,
        -0.4828437268733978,
        -0.25394323468208313,
        -0.4229587912559509,
        0.2242526412010193,
        0.4475020468235016,
        -0.13374483585357666,
        -0.4278254210948944,
        -0.24596452713012695,
        0.09937742352485657,
        -0.3581770360469818,
        0.007343193516135216,
        -0.2992682158946991,
        -0.0460074320435524,
        0.3104989528656006,
        -0.05112479627132416,
        0.06191960722208023,
        -0.26443514227867126,
        0.3826465606689453,
        0.4655489921569824,
        0.164653941988945,
        0.457450807094574,
        0.4152001440525055,
        -0.40805888175964355,
        -0.044644858688116074,
        -0.17130495607852936,
        0.1066589504480362,
        0.07392421364784241,
        -0.12096141278743744,
        0.017694268375635147,
        -0.22749841213226318,
        0.3966681659221649,
        0.020534543320536613,
        0.4368232488632202,
        -0.3783820867538452,
        -0.14888089895248413,
        -0.4339155852794647,
        0.250446617603302,
        -0.08870087563991547,
        0.22565670311450958,
        -0.11736451834440231,
        -0.21045713126659393,
        0.36591601371765137,
        -0.20440596342086792,
        -0.34388598799705505,
        0.19298243522644043,
        -0.4976508915424347,
        -0.3322162628173828,
        -0.40234941244125366,
        -0.02740737609565258,
        0.4829341769218445,
        0.2549906075000763,
        -0.3352207839488983,
        -0.038452230393886566,
        0.2978115379810333,
        0.13017961382865906,
        -0.18464858829975128,
        0.24865677952766418,
        -0.24573148787021637,
        -0.1950937807559967,
        0.223672017455101,
        0.4348592460155487,
        0.25229907035827637,
        0.1019173189997673,
        -0.4708777070045471,
        -0.415066659450531,
        0.24540568888187408,
        -0.19100508093833923,
        0.39578670263290405,
        0.12044250220060349,
        0.3277702033519745,
        -0.11642104387283325,
        0.24065358936786652,
        -0.055919941514730453,
        0.20900097489356995,
        0.4307636320590973,
        -0.331163227558136,
        -0.4159892797470093,
        0.005636774934828281,
        0.07686581462621689,
        -0.4263423979282379,
        0.09881582111120224,
        -0.464114785194397,
        -0.4114161729812622,
        0.022854097187519073,
        0.40390145778656006,
        -0.10580290853977203,
        -0.4799436628818512,
        0.030316906049847603,
        -0.49521899223327637,
        0.14389030635356903,
        0.021601971238851547,
        -0.3618205189704895,
        -0.41230565309524536,
        -0.4736793637275696,
        0.06060725450515747,
        0.41661980748176575,
        -0.24182601273059845,
        0.4947837293148041,
        0.23193039000034332,
        0.2883095443248749,
        -0.026828117668628693,
        -0.339304655790329,
        0.47857263684272766,
        0.26122361421585083,
        0.12251293659210205,
        0.17215143144130707,
        -0.4856986701488495,
        -0.16783170402050018,
        -0.3381524384021759,
        -0.3008580207824707,
        -0.3229488432407379,
        0.1701066792011261,
        -0.3988724648952484,
        -0.3900732696056366,
        -0.22190028429031372,
        -0.20619668066501617,
        -0.43916553258895874,
        -0.27553024888038635,
        -0.013457085937261581,
        0.24472424387931824,
        0.21111558377742767,
        -0.36517640948295593,
        -0.22604556381702423,
        -0.41548365354537964,
        -0.22934816777706146,
        0.27813899517059326,
        0.16265252232551575,
        0.4399150609970093,
        0.39127933979034424,
        0.36634135246276855,
        0.48690348863601685,
        0.10262059420347214,
        -0.16914893686771393,
        0.3289240300655365,
        0.23216280341148376,
        0.49443739652633667,
        0.35870322585105896,
        -0.22952750325202942,
        -0.4692114293575287,
        -0.3312118947505951,
        0.3196346163749695,
        0.06501481682062149,
        0.3051186501979828,
        0.2606099843978882,
        -0.47364798188209534,
        0.06963061541318893,
        -0.014366788789629936,
        0.43451839685440063,
        0.10934406518936157,
        -0.13643373548984528,
        -0.3488744795322418,
        0.31600669026374817,
        -0.1300484538078308,
        -0.46926528215408325,
        -0.06575190275907516,
        -0.42137274146080017,
        0.45269960165023804,
        -0.2509380877017975,
        0.33235618472099304,
        0.12655046582221985,
        0.10720647126436234,
        0.17112386226654053,
        -0.10445574671030045,
        0.2424980252981186,
        0.34444302320480347,
        0.2833244800567627,
        0.3161282241344452,
        0.48045456409454346,
        -0.497154176235199,
        0.1025279238820076,
        -0.4775954782962799,
        -0.046991016715765,
        0.40126004815101624,
        -0.3478146195411682,
        -0.24174043536186218,
        0.14562125504016876,
        0.3569825291633606,
        0.2634713351726532,
        0.09883172065019608,
        -0.3959929645061493,
        -0.08685842156410217,
        0.28756484389305115,
        -0.3484489619731903,
        -0.4653802514076233,
        -0.17384110391139984,
        -0.4121782183647156,
        -0.47970420122146606,
        0.1677597165107727,
        -0.048011261969804764,
        -0.020565873011946678,
        -0.2250542789697647,
        -0.2247280776500702,
        -0.383301705121994,
        -0.3184644877910614,
        -0.01050002221018076,
        0.19324645400047302,
        0.231467142701149,
        -0.2553802728652954,
        -0.1872674822807312,
        -0.2855691611766815,
        -0.3435564339160919,
        0.026852961629629135,
        0.41615182161331177
      ]
    },
    {
      "name": "dense_Dense14/bias",
      "shape": [
        16
      ],
      "dtype": "float32",
      "values": [
        0,
        0,
        0,
        0,
        0,
        0,
        0,
        0,
        0,
        0,
        0,
        0,
        0,
        0,
        0,
        0
      ]
    }
  ]
}
