{
  "version": 1,
  "createdAt": 1762644877167,
  "backend": "webgl",
  "config": {
    "inputSize": 19,
    "outputSize": 16,
    "hiddenLayers": [
      28
    ],
    "activation": "relu",
    "outputActivation": "tanh",
    "backend": "webgl",
    "seed": 1762644577377
  },
  "metadata": {
    "label": "29",
    "notes": "",
    "correlations": [
      {
        "id": "zerocrossrate-rotationspeed",
        "featureKey": "particlePosZ",
        "targetId": "colorB",
        "targetIndex": 6,
        "axis": "b",
        "group": "color",
        "featureIndex": null,
        "baseIndex": 2,
        "strength": 0.65,
        "polarity": "direct",
        "source": "particle"
      },
      {
        "id": "tempoproxy-wobblestrength",
        "featureKey": "particlePosX",
        "targetId": "colorR",
        "targetIndex": 4,
        "axis": "r",
        "group": "color",
        "featureIndex": null,
        "baseIndex": 0,
        "strength": 0.65,
        "polarity": "direct",
        "source": "particle"
      },
      {
        "id": "rms-wobblefrequency",
        "featureKey": "particlePosY",
        "targetId": "colorG",
        "targetIndex": 5,
        "axis": "g",
        "group": "color",
        "featureIndex": null,
        "baseIndex": 1,
        "strength": 0.65,
        "polarity": "direct",
        "source": "particle"
      },
      {
        "id": "bandsub-sizedelta",
        "featureKey": "bandSub",
        "targetId": "sizeDelta",
        "targetIndex": 3,
        "axis": null,
        "group": "size",
        "featureIndex": 3,
        "baseIndex": null,
        "strength": 0.65,
        "polarity": "direct",
        "source": "audio"
      },
      {
        "id": "bandbass-colorr",
        "featureKey": "bandBass",
        "targetId": "colorR",
        "targetIndex": 4,
        "axis": "r",
        "group": "color",
        "featureIndex": 4,
        "baseIndex": null,
        "strength": 0.65,
        "polarity": "direct",
        "source": "audio"
      },
      {
        "id": "bandlowmid-colorg",
        "featureKey": "bandLowMid",
        "targetId": "colorG",
        "targetIndex": 5,
        "axis": "g",
        "group": "color",
        "featureIndex": 5,
        "baseIndex": null,
        "strength": 0.65,
        "polarity": "direct",
        "source": "audio"
      },
      {
        "id": "bandmid-colorb",
        "featureKey": "bandMid",
        "targetId": "colorB",
        "targetIndex": 6,
        "axis": "b",
        "group": "color",
        "featureIndex": 6,
        "baseIndex": null,
        "strength": 0.65,
        "polarity": "direct",
        "source": "audio"
      },
      {
        "id": "bandhigh-flickerrate",
        "featureKey": "bandBass",
        "targetId": "rotationSpeed",
        "targetIndex": 9,
        "axis": null,
        "group": "rotationSpeed",
        "featureIndex": 4,
        "baseIndex": null,
        "strength": 0.65,
        "polarity": "direct",
        "source": "audio"
      },
      {
        "id": "peak-flickerdepth",
        "featureKey": "peak",
        "targetId": "flickerDepth",
        "targetIndex": 8,
        "axis": null,
        "group": "flickerDepth",
        "featureIndex": 8,
        "baseIndex": null,
        "strength": 0.65,
        "polarity": "direct",
        "source": "audio"
      }
    ],
    "training": {
      "status": "completed",
      "epoch": 93,
      "epochs": 93,
      "loss": 0.0007554281619377434,
      "best": null,
      "metadata": {
        "status": "completed",
        "epochs": 93,
        "loss": 0.0007554281619377434,
        "sampleCount": 512,
        "batchSize": 8,
        "learningRate": 0.0015,
        "noise": 0.04,
        "seed": 1762644763102,
        "createdAt": 1762644839571,
        "correlations": [
          {
            "id": "zerocrossrate-rotationspeed",
            "featureKey": "particlePosZ",
            "targetId": "colorB",
            "strength": 0.65,
            "polarity": "direct",
            "achieved": 0.6984014196529361
          },
          {
            "id": "tempoproxy-wobblestrength",
            "featureKey": "particlePosX",
            "targetId": "colorR",
            "strength": 0.65,
            "polarity": "direct",
            "achieved": 0.6660878885194901
          },
          {
            "id": "rms-wobblefrequency",
            "featureKey": "particlePosY",
            "targetId": "colorG",
            "strength": 0.65,
            "polarity": "direct",
            "achieved": 0.7275334324273246
          },
          {
            "id": "bandsub-sizedelta",
            "featureKey": "bandSub",
            "targetId": "sizeDelta",
            "strength": 0.65,
            "polarity": "direct",
            "achieved": 0.9987389018477588
          },
          {
            "id": "bandbass-colorr",
            "featureKey": "bandBass",
            "targetId": "colorR",
            "strength": 0.65,
            "polarity": "direct",
            "achieved": 0.6811023657580301
          },
          {
            "id": "bandlowmid-colorg",
            "featureKey": "bandLowMid",
            "targetId": "colorG",
            "strength": 0.65,
            "polarity": "direct",
            "achieved": 0.6941673860962579
          },
          {
            "id": "bandmid-colorb",
            "featureKey": "bandMid",
            "targetId": "colorB",
            "strength": 0.65,
            "polarity": "direct",
            "achieved": 0.713064034368749
          },
          {
            "id": "bandhigh-flickerrate",
            "featureKey": "bandBass",
            "targetId": "rotationSpeed",
            "strength": 0.65,
            "polarity": "direct",
            "achieved": 0.9985006299766528
          },
          {
            "id": "peak-flickerdepth",
            "featureKey": "peak",
            "targetId": "flickerDepth",
            "strength": 0.65,
            "polarity": "direct",
            "achieved": 0.9990147979910383
          }
        ]
      }
    }
  },
  "weights": [
    {
      "name": "dense_Dense57/kernel",
      "shape": [
        19,
        28
      ],
      "dtype": "float32",
      "values": [
        -0.054945264011621475,
        0.09192108362913132,
        -0.014694689773023129,
        -0.07333386689424515,
        0.0014303299831226468,
        0.040163714438676834,
        0.21298249065876007,
        0.07080069929361343,
        0.13915982842445374,
        0.10350523889064789,
        -0.03706229850649834,
        0.031011912971735,
        0.10535535961389542,
        -0.04112548381090164,
        -0.09787081182003021,
        0.11743562668561935,
        0.049922384321689606,
        0.005947460886090994,
        -0.13632085919380188,
        0.11810718476772308,
        -0.032499317079782486,
        -0.01936369575560093,
        0.23576177656650543,
        -0.008832703344523907,
        -0.034530460834503174,
        0.1318429708480835,
        -0.250602126121521,
        0.09703732281923294,
        -0.027174420654773712,
        0.04086809605360031,
        -0.07182741165161133,
        -0.025484878569841385,
        0.09761335700750351,
        -0.026771575212478638,
        -0.014461006037890911,
        0.04610638692975044,
        -0.1905614137649536,
        -0.07624228298664093,
        0.02191316708922386,
        -0.015264193527400494,
        -0.007069370709359646,
        0.2133118063211441,
        0.10455019772052765,
        -0.29183337092399597,
        0.02893327735364437,
        0.045606937259435654,
        0.22207008302211761,
        0.06410752981901169,
        -0.1774732917547226,
        0.05387978255748749,
        -0.027224041521549225,
        -0.02971923165023327,
        0.0021235430613160133,
        0.004657088778913021,
        0.02363296039402485,
        0.1327405422925949,
        0.027391040697693825,
        0.11467040330171585,
        -0.04403415694832802,
        0.0712072104215622,
        -0.19949853420257568,
        0.1586121767759323,
        0.05508217215538025,
        0.18501973152160645,
        8.579227142035961e-05,
        0.06779489666223526,
        0.07268264889717102,
        0.19592633843421936,
        -0.04306872934103012,
        0.09018996357917786,
        -0.024435563012957573,
        0.08962942659854889,
        -0.03678332641720772,
        -0.03704884275794029,
        -0.0745883360505104,
        0.2777969241142273,
        -0.07114184647798538,
        0.10710777342319489,
        0.05784010887145996,
        0.05241422727704048,
        -0.018936200067400932,
        -0.054236967116594315,
        0.11207034438848495,
        -0.021184276789426804,
        0.03440311923623085,
        0.13198433816432953,
        -0.031181292608380318,
        0.13539566099643707,
        -0.04674472287297249,
        0.15314652025699615,
        0.08905376493930817,
        0.2483702450990677,
        0.3365584909915924,
        0.18972645699977875,
        0.17129111289978027,
        0.20323562622070312,
        0.22946205735206604,
        0.23737728595733643,
        0.19130678474903107,
        0.12658344209194183,
        0.044748228043317795,
        0.1490357369184494,
        -0.17781004309654236,
        -0.30398306250572205,
        -0.22436915338039398,
        0.2699590027332306,
        0.19943413138389587,
        -0.03874634578824043,
        0.1180354505777359,
        0.019967371597886086,
        0.006669251713901758,
        -0.020860541611909866,
        0.0043823374435305595,
        0.036327604204416275,
        0.025712711736559868,
        0.1896195262670517,
        -0.1535336822271347,
        -0.01551434863358736,
        0.22020292282104492,
        -0.09342996776103973,
        0.13143399357795715,
        0.15683449804782867,
        0.03162526339292526,
        0.003692943137139082,
        -0.08846878260374069,
        0.022748608142137527,
        0.1639360785484314,
        -0.006462192162871361,
        0.09164354205131531,
        0.07561088353395462,
        0.08094232529401779,
        0.05411053076386452,
        0.1580914855003357,
        -0.20325452089309692,
        0.03795333206653595,
        -0.4315917193889618,
        0.20690006017684937,
        -0.003910847008228302,
        -0.10447188466787338,
        -0.12009885907173157,
        -0.08880221098661423,
        0.0002615824923850596,
        0.002111672190949321,
        0.04425535351037979,
        0.09943965822458267,
        0.06946499645709991,
        0.027627309784293175,
        -0.16509376466274261,
        0.06705743819475174,
        -0.06796838343143463,
        0.04034150391817093,
        -0.08000608533620834,
        -0.053140584379434586,
        0.022222625091671944,
        0.0013660318218171597,
        -0.03597212955355644,
        0.11320517957210541,
        -0.04345354065299034,
        0.02571936883032322,
        -0.02909238450229168,
        -0.004471713677048683,
        -0.22358252108097076,
        -0.07663004845380783,
        0.01860846020281315,
        0.11646011471748352,
        -0.046971820294857025,
        0.05655995011329651,
        -0.19081762433052063,
        -0.051605865359306335,
        -0.05468428134918213,
        -0.01807238720357418,
        -0.024116598069667816,
        0.020199785009026527,
        -0.12269467115402222,
        0.005715668201446533,
        -0.07023461908102036,
        -0.1080562025308609,
        0.0204069335013628,
        0.032602906227111816,
        -0.09089935570955276,
        -0.05159737542271614,
        -0.05453123152256012,
        0.13152402639389038,
        -0.07636242359876633,
        -0.047330647706985474,
        0.10905500501394272,
        0.05453331395983696,
        0.149185910820961,
        0.15333624184131622,
        -0.10022584348917007,
        -0.006461106240749359,
        0.011729109100997448,
        0.008123758248984814,
        0.01088835671544075,
        0.0391785129904747,
        0.07663814723491669,
        -0.021619699895381927,
        -0.06117125600576401,
        0.08412475883960724,
        -0.22697214782238007,
        -0.21181036531925201,
        0.0057151829823851585,
        -0.042813532054424286,
        0.04069657251238823,
        -0.1983175277709961,
        -0.00791595783084631,
        0.21530243754386902,
        0.33418554067611694,
        0.15949706733226776,
        0.07989396154880524,
        0.12180878221988678,
        0.10887506604194641,
        0.29959943890571594,
        0.14521700143814087,
        -0.36397165060043335,
        0.018337121233344078,
        -0.20780810713768005,
        0.23309965431690216,
        -0.1963157057762146,
        0.008569210767745972,
        -0.21259188652038574,
        0.303748220205307,
        -0.1438363641500473,
        -0.09148430079221725,
        -0.05547209829092026,
        0.008309047669172287,
        -0.002142280340194702,
        0.1191151812672615,
        -0.04654786363244057,
        -0.1471349447965622,
        0.16581259667873383,
        0.04647368565201759,
        0.07804765552282333,
        0.18350397050380707,
        0.053569354116916656,
        0.04755953699350357,
        0.020145928487181664,
        0.03312993422150612,
        0.2710191011428833,
        0.17291274666786194,
        -0.05254880338907242,
        0.2332882583141327,
        -0.07035133242607117,
        -0.08860210329294205,
        -0.12873367965221405,
        -0.009898217394948006,
        0.13071605563163757,
        -0.0780901238322258,
        0.09132171422243118,
        -0.021041730418801308,
        0.08576583862304688,
        -0.09209727495908737,
        -0.16822217404842377,
        0.12495192140340805,
        0.05517655611038208,
        0.1987495869398117,
        -0.029430849477648735,
        -0.04737570509314537,
        0.17631369829177856,
        0.24029932916164398,
        0.015594610944390297,
        0.02046249806880951,
        0.04824942350387573,
        0.07770037651062012,
        0.007872682996094227,
        0.111814945936203,
        -0.09298059344291687,
        0.00040933614945970476,
        0.07368049770593643,
        0.06672029942274094,
        0.06657899171113968,
        -0.033279892057180405,
        0.30971747636795044,
        -0.008987976238131523,
        -0.06962768733501434,
        -0.21782183647155762,
        -0.07042467594146729,
        0.03169650211930275,
        -0.08446867018938065,
        -0.3896443843841553,
        0.05934316664934158,
        0.12216129899024963,
        0.056002210825681686,
        -0.02345849573612213,
        0.11702939122915268,
        0.19335149228572845,
        -0.11128172278404236,
        0.26964524388313293,
        0.09859100729227066,
        -0.035994186997413635,
        0.11362810432910919,
        0.057393696159124374,
        0.22115960717201233,
        0.13986991345882416,
        -0.029797445982694626,
        -0.15415501594543457,
        0.04113684967160225,
        0.034921299666166306,
        0.08424492925405502,
        0.05031358450651169,
        0.3073919117450714,
        0.2738419771194458,
        0.013986692763864994,
        0.04376863315701485,
        -0.07306131720542908,
        -0.015262991189956665,
        -0.015799248591065407,
        -0.36102500557899475,
        0.07827506959438324,
        0.14097654819488525,
        0.08660531044006348,
        -0.10925570130348206,
        -0.16556866466999054,
        0.24895323812961578,
        0.7576053142547607,
        -0.10639593005180359,
        0.31126925349235535,
        -0.463843435049057,
        0.016550514847040176,
        0.07209648936986923,
        -0.11535319685935974,
        -0.3634334206581116,
        0.21975816786289215,
        0.004932582378387451,
        -0.43830302357673645,
        -0.0423281192779541,
        0.07546871155500412,
        -0.1480814814567566,
        0.027221200987696648,
        0.6443068385124207,
        -0.30291736125946045,
        0.08439432829618454,
        0.2088485211133957,
        0.09515126049518585,
        -0.2246190756559372,
        0.024407440796494484,
        -0.040010932832956314,
        -0.058537524193525314,
        0.03168114647269249,
        -0.28902924060821533,
        -0.14601482450962067,
        0.5273155570030212,
        0.3800854980945587,
        -0.5330523252487183,
        -0.035777557641267776,
        -0.016231520101428032,
        -0.2747870087623596,
        0.4941263794898987,
        0.14547671377658844,
        -0.2177962213754654,
        0.16465884447097778,
        0.076991006731987,
        0.6707613468170166,
        0.4758504331111908,
        0.0008631207165308297,
        -0.16597899794578552,
        -0.18351615965366364,
        -0.06017301604151726,
        0.07527752965688705,
        -0.18966393172740936,
        -0.8458788394927979,
        -0.03306061029434204,
        0.067848339676857,
        0.053881119936704636,
        0.019748473539948463,
        0.34898754954338074,
        0.1472775936126709,
        0.015114105306565762,
        0.09513983875513077,
        0.09327524155378342,
        -0.09366416931152344,
        0.15511825680732727,
        -0.27706167101860046,
        -0.1816580444574356,
        -1.0156303644180298,
        0.1294890195131302,
        -0.00740772532299161,
        0.7180649042129517,
        0.23298801481723785,
        -0.19488680362701416,
        -0.2368497997522354,
        0.002180197276175022,
        0.30584070086479187,
        -0.28753185272216797,
        -0.21789442002773285,
        0.009070729836821556,
        0.05003386735916138,
        -0.12672674655914307,
        0.18796421587467194,
        0.14952352643013,
        -0.11615359783172607,
        -0.06641363352537155,
        0.2723166346549988,
        0.32533255219459534,
        -0.12277067452669144,
        -0.20678499341011047,
        -0.36298316717147827,
        0.8179000616073608,
        -0.09495144337415695,
        0.11970018595457077,
        -0.576706051826477,
        0.013371456414461136,
        0.6510440111160278,
        0.2576298117637634,
        -0.40957111120224,
        -0.029625367373228073,
        0.25193944573402405,
        0.21650999784469604,
        -0.36916160583496094,
        0.00040827071643434465,
        -0.036097925156354904,
        0.001693767961114645,
        -0.0660269558429718,
        -0.3484397828578949,
        0.3218398988246918,
        0.13685525953769684,
        0.0338980108499527,
        0.09189141541719437,
        -0.1312471479177475,
        0.050664979964494705,
        0.17340528964996338,
        0.08070898056030273,
        0.05988210439682007,
        0.07417109608650208,
        -0.0009158242028206587,
        -0.01965622417628765,
        0.22021602094173431,
        -0.003802813123911619,
        -0.06213907524943352,
        -0.04668489843606949,
        0.0062996940687298775,
        0.06364144384860992,
        -0.012333079241216183,
        0.06969890743494034,
        -0.11792201548814774,
        0.17917484045028687,
        0.14023439586162567,
        -0.07781686633825302,
        -0.03415177762508392,
        0.2604537904262543,
        0.2501627504825592,
        0.010797109454870224,
        0.08818750828504562,
        -0.3796587288379669,
        0.021926216781139374,
        0.10379597544670105,
        -0.09405740350484848,
        -0.03130992129445076,
        -0.4005897641181946,
        0.7649118900299072,
        0.18844068050384521,
        -0.26057955622673035,
        -0.04853341728448868,
        0.015574074350297451,
        -0.045915454626083374,
        0.0869617611169815,
        -0.30153125524520874,
        0.28393495082855225,
        0.15824750065803528,
        0.2335132658481598,
        -0.15298709273338318,
        -0.2586156129837036,
        -0.047261618077754974,
        0.23742832243442535,
        0.8963228464126587,
        -0.07354043424129486,
        -0.12200277298688889,
        -0.43766966462135315,
        -0.19964323937892914,
        0.46602657437324524,
        -0.01532044168561697,
        0.08769216388463974,
        0.36342668533325195,
        0.08850562572479248,
        -0.10181818157434464,
        -0.13751192390918732,
        -0.10155612975358963,
        0.005104768555611372,
        -0.013019456528127193,
        0.053119637072086334,
        -0.04139748215675354,
        0.036237798631191254,
        0.079057477414608,
        -0.08475694060325623,
        0.05113250017166138,
        -0.035531800240278244,
        0.056994225829839706,
        0.060388777405023575,
        -0.05750521644949913,
        0.10547149181365967,
        -0.062014419585466385,
        0.07854020595550537,
        0.09914802014827728,
        -0.08868305385112762,
        0.02502068318426609,
        0.21522752940654755,
        0.09459687769412994,
        -0.06700635701417923,
        -0.01913456991314888,
        0.10601449757814407,
        0.0588877871632576,
        -0.011157273314893246,
        0.07756631821393967,
        -0.20208679139614105,
        0.08506613969802856,
        0.09136424958705902,
        -0.003146825823932886,
        0.13590924441814423,
        -0.07346964627504349,
        0.18186788260936737,
        0.12500739097595215,
        -0.11793669313192368,
        0.25084468722343445,
        0.023605095222592354,
        -0.024897146970033646,
        0.05171191692352295,
        0.014031845144927502,
        0.055565014481544495,
        -0.018344877287745476,
        0.19493477046489716,
        0.15839886665344238,
        -0.08704756945371628,
        -0.12173209339380264,
        0.08765256404876709,
        -0.16521869599819183,
        -0.11999651044607162,
        0.044384315609931946,
        0.2587084174156189,
        0.19973523914813995,
        -0.04640167951583862,
        -0.018098080530762672,
        -0.1312364935874939
      ]
    },
    {
      "name": "dense_Dense57/bias",
      "shape": [
        28
      ],
      "dtype": "float32",
      "values": [
        0.3403010368347168,
        -0.4142303466796875,
        -0.19470657408237457,
        0.3213637173175812,
        0.0629529058933258,
        -0.34598153829574585,
        -0.043690916150808334,
        0.15940538048744202,
        0.21674074232578278,
        0.2093108743429184,
        0.427689790725708,
        -0.3466778099536896,
        0.3424535393714905,
        0.21316194534301758,
        -0.27682173252105713,
        -0.03529275581240654,
        0.15371747314929962,
        -0.14289231598377228,
        -0.23957857489585876,
        0.024625979363918304,
        0.11561613529920578,
        0.0070017552934587,
        0.14726796746253967,
        -0.07268834859132767,
        0.2477414906024933,
        -0.16344837844371796,
        0.1334703415632248,
        -0.08766856789588928
      ]
    },
    {
      "name": "dense_Dense58/kernel",
      "shape": [
        28,
        16
      ],
      "dtype": "float32",
      "values": [
        0.007711457088589668,
        0.04317778721451759,
        0.0029927846044301987,
        -0.1221306249499321,
        -0.08288045227527618,
        -0.1285177320241928,
        0.015893539413809776,
        -0.017851736396551132,
        -0.2504265010356903,
        -0.03575791418552399,
        -0.05542433634400368,
        -0.09101970493793488,
        0.05110672488808632,
        -0.025579839944839478,
        0.07520867884159088,
        -0.047904931008815765,
        0.18671579658985138,
        -0.03249954804778099,
        0.1118643656373024,
        0.17751377820968628,
        0.22733138501644135,
        0.38657453656196594,
        0.2405235320329666,
        0.032880134880542755,
        0.4586183726787567,
        -0.1665622740983963,
        -0.11213256418704987,
        0.015990784391760826,
        0.07798371464014053,
        -0.0025865493807941675,
        0.13038097321987152,
        0.057480428367853165,
        0.008147007785737514,
        0.010223904624581337,
        0.005659026093780994,
        0.0706663653254509,
        -0.156963512301445,
        0.16128231585025787,
        -0.014077975414693356,
        -0.0015707409474998713,
        0.0769844800233841,
        0.09313797205686569,
        0.005603792145848274,
        0.011409414000809193,
        -0.0004841457703150809,
        0.0013616476207971573,
        -0.012270504608750343,
        0.0038441733922809362,
        0.07446841895580292,
        -0.08607238531112671,
        0.021266410127282143,
        -0.15178358554840088,
        -0.42545005679130554,
        -0.1530037820339203,
        -0.06344027072191238,
        0.07709198445081711,
        -0.22903397679328918,
        0.10409997403621674,
        0.06741005927324295,
        0.2716788649559021,
        -0.11150825768709183,
        0.05239807814359665,
        -0.11245062947273254,
        0.17848585546016693,
        0.01570821739733219,
        0.005265147425234318,
        -0.00616038404405117,
        0.03660471364855766,
        -0.022120041772723198,
        0.027155501767992973,
        -0.32608625292778015,
        0.00535051804035902,
        -0.01419888436794281,
        0.020066898316144943,
        0.0093497633934021,
        0.012361722066998482,
        -0.008950400166213512,
        0.010884073562920094,
        0.008204358629882336,
        -0.002689891029149294,
        -0.11045613884925842,
        -0.004293752834200859,
        -0.03463437408208847,
        0.09025035053491592,
        0.23958705365657806,
        0.09851863980293274,
        0.5234380960464478,
        0.047118108719587326,
        -0.12862151861190796,
        0.3135250210762024,
        0.02884899266064167,
        -0.0005695294821634889,
        -0.029948266223073006,
        -0.015088720247149467,
        -0.1393689662218094,
        0.06547854840755463,
        -0.08273623138666153,
        -0.013135766610503197,
        0.0093448581174016,
        0.4633506238460541,
        0.3356729745864868,
        0.02311030589044094,
        -0.08003516495227814,
        -0.0337817445397377,
        -0.22281715273857117,
        0.00975465215742588,
        0.016209978610277176,
        -0.13816390931606293,
        0.04387488216161728,
        -0.009253463707864285,
        -0.025066344067454338,
        -0.07314664125442505,
        -0.10481057316064835,
        0.04407339170575142,
        -0.014358120039105415,
        -0.06763575971126556,
        -0.3521413207054138,
        -0.04178426042199135,
        0.18389490246772766,
        -0.11646638810634613,
        0.03026009351015091,
        -0.28896859288215637,
        0.03018413670361042,
        0.00900025013834238,
        -0.011240355670452118,
        -0.041359975934028625,
        -0.03089875541627407,
        -0.07134247571229935,
        0.09949938952922821,
        0.07419873028993607,
        0.03274482861161232,
        0.28378167748451233,
        0.21238721907138824,
        -0.28449589014053345,
        -0.3210824131965637,
        -0.003292450215667486,
        -0.2060372680425644,
        -0.0014467199798673391,
        -0.11727504432201385,
        0.08529312163591385,
        0.032477136701345444,
        -0.05563919618725777,
        0.0787239596247673,
        0.06669329851865768,
        -0.07745744287967682,
        -0.01821719855070114,
        0.05381396412849426,
        -0.4960078001022339,
        0.20780088007450104,
        -0.12431265413761139,
        -0.027304740622639656,
        0.015245085582137108,
        0.14161963760852814,
        -0.08986397832632065,
        -0.040251150727272034,
        -0.25408869981765747,
        0.12207846343517303,
        -0.030945176258683205,
        -0.055179938673973083,
        -0.04625941440463066,
        0.03909534588456154,
        -0.008535520173609257,
        0.019014937803149223,
        0.021471314132213593,
        -0.223801851272583,
        -0.7336703538894653,
        0.33836397528648376,
        0.0011982090072706342,
        -0.04436579346656799,
        -0.2021452933549881,
        -0.01874985732138157,
        -0.033129848539829254,
        0.02655816078186035,
        0.006328510586172342,
        0.04380708560347557,
        -0.019187437370419502,
        0.06059392914175987,
        -0.012610143981873989,
        -0.09051968157291412,
        -0.040541261434555054,
        0.09142079949378967,
        0.040520597249269485,
        0.3338713049888611,
        -0.06548283249139786,
        0.1301761269569397,
        0.3727669417858124,
        0.1429186910390854,
        -0.0795566663146019,
        -0.05396462231874466,
        0.1222851350903511,
        0.17851074039936066,
        -0.24749645590782166,
        -0.05703561007976532,
        -0.1519230306148529,
        0.026887141168117523,
        -0.26546743512153625,
        -0.0005387727869674563,
        0.11187107115983963,
        -0.37712711095809937,
        -0.09014050662517548,
        -0.07224808633327484,
        -0.04347073286771774,
        0.18517273664474487,
        -0.22697116434574127,
        0.0216448325663805,
        0.11735406517982483,
        0.02820235677063465,
        -0.251496285200119,
        -0.024194536730647087,
        0.042325109243392944,
        0.018946703523397446,
        -0.25534725189208984,
        0.03728548064827919,
        0.556512176990509,
        -0.0642641931772232,
        0.0339558981359005,
        -0.3406623303890228,
        -0.12015069276094437,
        -0.10927334427833557,
        -0.12331307679414749,
        0.08603682368993759,
        -0.0627056360244751,
        0.004160536453127861,
        0.026443347334861755,
        0.02578256092965603,
        -0.07374654710292816,
        0.17962901294231415,
        0.29778093099594116,
        0.007575832307338715,
        0.2815122604370117,
        0.01842162199318409,
        -0.1704268902540207,
        0.16206975281238556,
        0.1687673032283783,
        0.02012125588953495,
        0.11533309519290924,
        0.049921803176403046,
        -0.03571010380983353,
        -0.06775601208209991,
        -0.006846706848591566,
        -0.05382516607642174,
        -0.0022627650760114193,
        0.02845514379441738,
        -0.06289620697498322,
        -0.14949862658977509,
        -0.10009694844484329,
        0.09292345494031906,
        -0.016055038198828697,
        0.11035022884607315,
        -0.028695804998278618,
        -0.03484092280268669,
        -0.05015672743320465,
        0.04056941717863083,
        -0.04060959443449974,
        -0.03805378079414368,
        0.009977146983146667,
        -0.04773101210594177,
        0.02989881858229637,
        2.473039785400033e-05,
        -0.31340524554252625,
        0.1694132685661316,
        -0.2066596895456314,
        -0.3943788707256317,
        -0.04916223883628845,
        0.4424804747104645,
        0.3309136629104614,
        0.0025896646548062563,
        0.08665231615304947,
        -0.025311535224318504,
        -0.037407536059617996,
        -0.05378580093383789,
        0.028154617175459862,
        -0.03644484281539917,
        0.1295364946126938,
        -0.22237560153007507,
        -0.07572486996650696,
        0.293373703956604,
        -0.006287525873631239,
        0.0535593219101429,
        0.18526753783226013,
        -0.07806232571601868,
        0.39618581533432007,
        -0.060023557394742966,
        -0.053441256284713745,
        -0.0772838220000267,
        0.00489342026412487,
        0.07893920689821243,
        0.05387718230485916,
        0.08297406136989594,
        0.01388483215123415,
        -0.03478284180164337,
        0.16807204484939575,
        0.16114722192287445,
        0.3126201331615448,
        -0.017924724146723747,
        0.02018827386200428,
        -0.09919513016939163,
        0.0923069640994072,
        0.05407876521348953,
        0.08256466686725616,
        -0.05855492129921913,
        0.05820450186729431,
        0.0462614968419075,
        -0.010241285897791386,
        0.08203572034835815,
        0.08493044227361679,
        0.021221596747636795,
        -0.29213204979896545,
        -0.1908169686794281,
        -0.22931404411792755,
        -0.1057315394282341,
        -0.001622845302335918,
        -0.12255483865737915,
        -0.3793845772743225,
        0.0127417566254735,
        -0.04592634364962578,
        0.042120497673749924,
        -0.003814235795289278,
        0.09988560527563095,
        -0.029388781636953354,
        0.000714569294359535,
        -0.0021632297430187464,
        0.0026309192180633545,
        0.005257982760667801,
        0.025281235575675964,
        -0.16342441737651825,
        0.037734825164079666,
        -0.005020939279347658,
        -0.02031487412750721,
        -0.0417058989405632,
        0.00010014961299020797,
        0.004670978989452124,
        0.00040182258817367256,
        -0.0006133581046015024,
        -0.0014059455133974552,
        -0.0010070233838632703,
        -0.0038824959192425013,
        0.006350063718855381,
        -0.011940107680857182,
        0.383294016122818,
        -0.10499108582735062,
        -0.0807228833436966,
        -0.3678714334964752,
        0.0966152623295784,
        0.22762572765350342,
        0.03363979980349541,
        -0.037842296063899994,
        0.10741294920444489,
        -0.034632883965969086,
        -0.024396220222115517,
        -0.0986141562461853,
        0.16265049576759338,
        0.10087864100933075,
        0.002426800550892949,
        -0.03648222237825394,
        -0.24175408482551575,
        0.1903172731399536,
        0.025241974741220474,
        0.1962650716304779,
        0.07201403379440308,
        -0.15402700006961823,
        -0.018604114651679993,
        0.02014285884797573,
        0.35307011008262634,
        -0.14563189446926117,
        0.02440347522497177,
        -0.041934091597795486,
        0.1946069896221161,
        -0.02794339880347252,
        -0.017880229279398918,
        0.05464140698313713,
        -0.28391146659851074,
        0.12701039016246796,
        0.03258782625198364,
        0.006375220604240894,
        -0.37692224979400635,
        0.045016102492809296,
        0.01709687151014805,
        -0.37022483348846436,
        -0.2575049102306366,
        -0.2481415867805481,
        -0.01601206511259079,
        -0.17988631129264832,
        0.3370271921157837,
        -0.11210958659648895,
        0.030178513377904892,
        -0.17636030912399292,
        0.050456274300813675,
        -0.740032434463501,
        0.16379672288894653,
        0.012300641275942326,
        0.027776315808296204,
        0.34877708554267883,
        -0.5034990310668945,
        0.12014781683683395,
        -0.11977089941501617,
        -0.08489351719617844,
        0.07033759355545044,
        0.02874295599758625,
        -0.1404372602701187,
        0.004427630454301834,
        -0.0022034929133951664,
        0.01585228741168976,
        0.17355547845363617,
        -0.16795319318771362,
        0.2035851925611496,
        0.02330063283443451,
        -0.009248809888958931,
        0.128697469830513,
        0.08695250749588013,
        0.01301489770412445,
        0.0341067910194397,
        0.0010553020983934402,
        -0.0038219226989895105,
        -0.050329722464084625,
        0.015301000326871872,
        -0.0038619067054241896,
        0.003816938493400812,
        -0.005198969040066004,
        -0.09175761044025421,
        0.04302588850259781,
        -0.06357546150684357,
        -0.022403987124562263,
        0.002779175527393818,
        -0.049663566052913666,
        -0.03129984438419342,
        -0.007303609047085047,
        -0.018016904592514038,
        0.0018524432089179754,
        -0.0003598266339395195,
        0.02066654898226261,
        -0.006551465019583702,
        -0.06933046877384186,
        0.02064169943332672,
        -0.039789829403162,
        -0.2175777703523636,
        0.3496421277523041,
        -0.0007969235302880406,
        -0.022911127656698227,
        0.03249713405966759,
        -0.03477642685174942,
        0.09767044335603714,
        0.003352269995957613,
        -0.11223744601011276,
        -0.01586136408150196,
        0.02387901209294796,
        0.07881356030702591,
        -0.04760550707578659
      ]
    },
    {
      "name": "dense_Dense58/bias",
      "shape": [
        16
      ],
      "dtype": "float32",
      "values": [
        0.07426091283559799,
        0.007700724061578512,
        0.028371799737215042,
        -0.14552178978919983,
        -0.18571433424949646,
        -0.1375385820865631,
        -0.284368634223938,
        -0.0077643608674407005,
        -0.32100316882133484,
        -0.17027674615383148,
        -0.024491235613822937,
        0.06455991417169571,
        0.004693941678851843,
        -0.0017596582183614373,
        0.03769293427467346,
        0.02110324427485466
      ]
    }
  ]
}
