{
  "version": 1,
  "createdAt": 1762594147481,
  "backend": "webgl",
  "config": {
    "inputSize": 17,
    "outputSize": 16,
    "hiddenLayers": [
      32
    ],
    "activation": "relu",
    "outputActivation": "tanh",
    "backend": "webgl",
    "seed": 1337
  },
  "metadata": {
    "label": "Custom Model",
    "notes": "",
    "correlations": [
      {
        "id": "rms-deltaposx",
        "featureKey": "rms",
        "targetId": "deltaPosX",
        "targetIndex": 0,
        "axis": "x",
        "group": "deltaPos",
        "featureIndex": 0,
        "strength": 0.65,
        "polarity": "direct"
      },
      {
        "id": "speccentroid-deltaposy",
        "featureKey": "rms",
        "targetId": "deltaPosY",
        "targetIndex": 1,
        "axis": "y",
        "group": "deltaPos",
        "featureIndex": 0,
        "strength": 0.65,
        "polarity": "direct"
      },
      {
        "id": "specrolloff-deltaposz",
        "featureKey": "specRolloff",
        "targetId": "deltaPosZ",
        "targetIndex": 2,
        "axis": "z",
        "group": "deltaPos",
        "featureIndex": 2,
        "strength": 0.65,
        "polarity": "direct"
      },
      {
        "id": "bandbass-sizedelta",
        "featureKey": "bandBass",
        "targetId": "sizeDelta",
        "targetIndex": 3,
        "axis": null,
        "group": "size",
        "featureIndex": 4,
        "strength": 0.65,
        "polarity": "direct"
      },
      {
        "id": "bandmid-colorr",
        "featureKey": "bandMid",
        "targetId": "colorR",
        "targetIndex": 4,
        "axis": "r",
        "group": "color",
        "featureIndex": 6,
        "strength": 0.65,
        "polarity": "direct"
      },
      {
        "id": "bandhigh-colorg",
        "featureKey": "bandHigh",
        "targetId": "colorG",
        "targetIndex": 5,
        "axis": "g",
        "group": "color",
        "featureIndex": 7,
        "strength": 0.65,
        "polarity": "direct"
      },
      {
        "id": "peak-colorb",
        "featureKey": "peak",
        "targetId": "colorB",
        "targetIndex": 6,
        "axis": "b",
        "group": "color",
        "featureIndex": 6,
        "strength": 0.65,
        "polarity": "direct"
      },
      {
        "id": "zerocrossrate-flickerrate",
        "featureKey": "zeroCrossRate",
        "targetId": "flickerRate",
        "targetIndex": 7,
        "axis": null,
        "group": "flickerRate",
        "featureIndex": 7,
        "strength": 0.65,
        "polarity": "direct"
      },
      {
        "id": "tempoproxy-flickerdepth",
        "featureKey": "tempoProxy",
        "targetId": "flickerDepth",
        "targetIndex": 8,
        "axis": null,
        "group": "flickerDepth",
        "featureIndex": 8,
        "strength": 0.65,
        "polarity": "direct"
      },
      {
        "id": "rms-rotationspeed",
        "featureKey": "rms",
        "targetId": "rotationSpeed",
        "targetIndex": 9,
        "axis": null,
        "group": "rotationSpeed",
        "featureIndex": 0,
        "strength": 0.65,
        "polarity": "direct"
      },
      {
        "id": "speccentroid-wobblestrength",
        "featureKey": "specCentroid",
        "targetId": "wobbleStrength",
        "targetIndex": 10,
        "axis": null,
        "group": "wobbleStrength",
        "featureIndex": 1,
        "strength": 0.65,
        "polarity": "direct"
      },
      {
        "id": "specrolloff-wobblefrequency",
        "featureKey": "specRolloff",
        "targetId": "wobbleFrequency",
        "targetIndex": 11,
        "axis": null,
        "group": "wobbleFrequency",
        "featureIndex": 2,
        "strength": 0.65,
        "polarity": "direct"
      },
      {
        "id": "bandbass-colormix",
        "featureKey": "bandBass",
        "targetId": "colorMix",
        "targetIndex": 12,
        "axis": null,
        "group": "colorMix",
        "featureIndex": 4,
        "strength": 0.65,
        "polarity": "direct"
      },
      {
        "id": "bandmid-alphascale",
        "featureKey": "bandMid",
        "targetId": "alphaScale",
        "targetIndex": 13,
        "axis": null,
        "group": "alphaScale",
        "featureIndex": 6,
        "strength": 0.65,
        "polarity": "direct"
      },
      {
        "id": "bandhigh-pointscale",
        "featureKey": "bandHigh",
        "targetId": "pointScale",
        "targetIndex": 14,
        "axis": null,
        "group": "pointScale",
        "featureIndex": 7,
        "strength": 0.65,
        "polarity": "direct"
      },
      {
        "id": "bandlowmid-camerazoom",
        "featureKey": "bandLowMid",
        "targetId": "cameraZoom",
        "targetIndex": 15,
        "axis": null,
        "group": "cameraZoom",
        "featureIndex": 5,
        "strength": 0.65,
        "polarity": "direct"
      }
    ],
    "training": {
      "status": "completed",
      "epoch": 100,
      "epochs": 100,
      "loss": 0.00036987429484725,
      "best": null,
      "metadata": {
        "status": "completed",
        "epochs": 100,
        "loss": 0.00036987429484725,
        "sampleCount": 4096,
        "batchSize": 128,
        "learningRate": 0.0015,
        "noise": 0.04,
        "seed": 1762563234828,
        "createdAt": 1762594119376,
        "correlations": [
          {
            "id": "rms-deltaposx",
            "featureKey": "rms",
            "targetId": "deltaPosX",
            "strength": 0.65,
            "polarity": "direct",
            "achieved": 0.9991840245698687
          },
          {
            "id": "speccentroid-deltaposy",
            "featureKey": "rms",
            "targetId": "deltaPosY",
            "strength": 0.65,
            "polarity": "direct",
            "achieved": 0.999181643774759
          },
          {
            "id": "specrolloff-deltaposz",
            "featureKey": "specRolloff",
            "targetId": "deltaPosZ",
            "strength": 0.65,
            "polarity": "direct",
            "achieved": 0.9991841004868479
          },
          {
            "id": "bandbass-sizedelta",
            "featureKey": "bandBass",
            "targetId": "sizeDelta",
            "strength": 0.65,
            "polarity": "direct",
            "achieved": 0.9991778761214078
          },
          {
            "id": "bandmid-colorr",
            "featureKey": "bandMid",
            "targetId": "colorR",
            "strength": 0.65,
            "polarity": "direct",
            "achieved": 0.9992270948115819
          },
          {
            "id": "bandhigh-colorg",
            "featureKey": "bandHigh",
            "targetId": "colorG",
            "strength": 0.65,
            "polarity": "direct",
            "achieved": 0.9991543435151382
          },
          {
            "id": "peak-colorb",
            "featureKey": "peak",
            "targetId": "colorB",
            "strength": 0.65,
            "polarity": "direct",
            "achieved": 0.9991875716258295
          },
          {
            "id": "zerocrossrate-flickerrate",
            "featureKey": "zeroCrossRate",
            "targetId": "flickerRate",
            "strength": 0.65,
            "polarity": "direct",
            "achieved": 0.9991921776026196
          },
          {
            "id": "tempoproxy-flickerdepth",
            "featureKey": "tempoProxy",
            "targetId": "flickerDepth",
            "strength": 0.65,
            "polarity": "direct",
            "achieved": 0.9991668108358612
          },
          {
            "id": "rms-rotationspeed",
            "featureKey": "rms",
            "targetId": "rotationSpeed",
            "strength": 0.65,
            "polarity": "direct",
            "achieved": 0.9991725061887713
          },
          {
            "id": "speccentroid-wobblestrength",
            "featureKey": "specCentroid",
            "targetId": "wobbleStrength",
            "strength": 0.65,
            "polarity": "direct",
            "achieved": 0.9991800350168887
          },
          {
            "id": "specrolloff-wobblefrequency",
            "featureKey": "specRolloff",
            "targetId": "wobbleFrequency",
            "strength": 0.65,
            "polarity": "direct",
            "achieved": 0.9991858482863198
          },
          {
            "id": "bandbass-colormix",
            "featureKey": "bandBass",
            "targetId": "colorMix",
            "strength": 0.65,
            "polarity": "direct",
            "achieved": 0.999194815497436
          },
          {
            "id": "bandmid-alphascale",
            "featureKey": "bandMid",
            "targetId": "alphaScale",
            "strength": 0.65,
            "polarity": "direct",
            "achieved": 0.999206385274835
          },
          {
            "id": "bandhigh-pointscale",
            "featureKey": "bandHigh",
            "targetId": "pointScale",
            "strength": 0.65,
            "polarity": "direct",
            "achieved": 0.9991697387924616
          },
          {
            "id": "bandlowmid-camerazoom",
            "featureKey": "bandLowMid",
            "targetId": "cameraZoom",
            "strength": 0.65,
            "polarity": "direct",
            "achieved": 0.9991898747075579
          }
        ]
      }
    }
  },
  "weights": [
    {
      "name": "dense_Dense1/kernel",
      "shape": [
        17,
        32
      ],
      "dtype": "float32",
      "values": [
        -0.0003472891403362155,
        0.09072554856538773,
        -0.004445304628461599,
        -0.07998495548963547,
        -0.05035959184169769,
        0.019655488431453705,
        0.0156868826597929,
        0.24077816307544708,
        0.1036502942442894,
        0.006738969590514898,
        -0.01118733361363411,
        -0.07044000923633575,
        -0.12011833488941193,
        0.037271831184625626,
        0.07226376980543137,
        0.02639647200703621,
        -0.0033277703914791346,
        -0.017283499240875244,
        -0.10368574410676956,
        0.1018957644701004,
        0.08371950685977936,
        0.08647400885820389,
        -0.006582948379218578,
        0.016535455361008644,
        0.025554124265909195,
        0.057421837002038956,
        -0.12141303718090057,
        -0.0707986131310463,
        -0.020160693675279617,
        0.03285512700676918,
        -0.006983375176787376,
        0.024918988347053528,
        -0.021031804382801056,
        -0.010110692121088505,
        -0.009440839290618896,
        -0.029925797134637833,
        -0.04710273817181587,
        -0.0830705463886261,
        -0.10330764204263687,
        0.009325685910880566,
        -0.08119025081396103,
        -0.015670418739318848,
        -0.014086994342505932,
        -0.09129445999860764,
        -0.018399301916360855,
        -0.11446690559387207,
        -0.004511627368628979,
        -0.030453911051154137,
        -0.10585588961839676,
        -0.04615982621908188,
        -0.11975636333227158,
        0.04155292734503746,
        0.010229541920125484,
        0.0063236430287361145,
        -0.010477442294359207,
        0.0023480381350964308,
        -0.008992399089038372,
        -0.015942806378006935,
        -0.08779716491699219,
        -0.0198967307806015,
        -0.05215512216091156,
        -0.016116352751851082,
        -0.09025146812200546,
        -0.10187175869941711,
        0.018260030075907707,
        0.13561740517616272,
        0.006458902265876532,
        0.0070716761983931065,
        0.012346931733191013,
        0.024420298635959625,
        -0.007761330809444189,
        -0.031757716089487076,
        0.015188387595117092,
        0.02186785638332367,
        0.13074961304664612,
        0.09442740678787231,
        0.11748557537794113,
        -0.0803828164935112,
        -0.004768241196870804,
        0.015125378966331482,
        -0.0068498291075229645,
        -0.0018382183043286204,
        0.06577169895172119,
        -0.03676621615886688,
        -0.0270970668643713,
        -0.09842235594987869,
        0.08844833821058273,
        -0.0016422965563833714,
        -0.02981768734753132,
        -0.023846283555030823,
        0.13618287444114685,
        0.04355843365192413,
        -0.006525635253638029,
        0.0966985672712326,
        0.0976250097155571,
        -0.14411689341068268,
        0.17761875689029694,
        -0.26792532205581665,
        0.11234872043132782,
        0.09903188049793243,
        0.19479045271873474,
        0.07756290584802628,
        0.030965246260166168,
        -0.35028186440467834,
        0.16460023820400238,
        0.037108905613422394,
        0.17729435861110687,
        0.21137061715126038,
        0.20136213302612305,
        0.32350796461105347,
        -0.16354110836982727,
        0.12399720400571823,
        0.1472741961479187,
        0.1603647619485855,
        0.18199363350868225,
        0.05364496260881424,
        0.12623152136802673,
        -0.08130647987127304,
        0.06779184192419052,
        -0.11593378335237503,
        0.18401874601840973,
        -0.18650567531585693,
        0.321936696767807,
        0.10644236952066422,
        0.10957615822553635,
        -0.16326698660850525,
        0.1830473244190216,
        0.33920425176620483,
        -0.03436562418937683,
        -0.012671283446252346,
        -0.011752976104617119,
        0.14421510696411133,
        0.040926244109869,
        0.021400118246674538,
        0.29726120829582214,
        0.027789855375885963,
        0.24363026022911072,
        0.14063094556331635,
        0.13835245370864868,
        -0.04970606788992882,
        -0.11292896419763565,
        -0.035119712352752686,
        -0.10164912790060043,
        0.08696679770946503,
        0.06679551303386688,
        -0.06357617676258087,
        0.1465865820646286,
        0.2009809911251068,
        0.16006740927696228,
        -0.0654049813747406,
        0.19257983565330505,
        -0.06283982843160629,
        -0.03239653259515762,
        -0.17513473331928253,
        -0.004732157103717327,
        -0.1516662836074829,
        0.12634031474590302,
        -0.10074099898338318,
        -0.09079242497682571,
        0.012852433137595654,
        0.04055144265294075,
        -0.06045088171958923,
        0.07259207963943481,
        0.014765480533242226,
        0.0858970582485199,
        0.06447603553533554,
        -0.03422919288277626,
        -0.10264299064874649,
        0.06658997386693954,
        0.02724858932197094,
        0.03751163184642792,
        0.01748497784137726,
        0.026458511129021645,
        0.09905468672513962,
        0.15942096710205078,
        0.05924149602651596,
        0.0494244247674942,
        -0.0005516601377166808,
        0.11907908320426941,
        0.07327356934547424,
        0.01796097494661808,
        0.06971226632595062,
        0.0469534695148468,
        0.11626214534044266,
        0.037268511950969696,
        0.05217548832297325,
        0.06749826669692993,
        0.08380904048681259,
        0.020867997780442238,
        -0.04046868532896042,
        0.09279008954763412,
        0.05946318432688713,
        0.0018296223133802414,
        -0.007810741662979126,
        -0.0018252148292958736,
        -0.024655811488628387,
        -0.05509056895971298,
        -0.01637939177453518,
        0.038576848804950714,
        -0.09433826804161072,
        0.06803428381681442,
        0.03269742801785469,
        0.016820596531033516,
        0.00805747602134943,
        -0.00671344855800271,
        0.026432227343320847,
        -0.07688769698143005,
        0.00568575831130147,
        0.009841189719736576,
        0.046000804752111435,
        -0.09396585822105408,
        0.10198992490768433,
        0.05780981481075287,
        -0.09285707026720047,
        0.0424918457865715,
        0.025601793080568314,
        0.041519645601511,
        -0.2648988962173462,
        -0.07253821194171906,
        -0.08970963209867477,
        0.027653388679027557,
        0.06781448423862457,
        -0.024697190150618553,
        0.0511215478181839,
        -0.1855846792459488,
        0.11166537553071976,
        -0.15919996798038483,
        0.09957743436098099,
        -0.01649710349738598,
        0.12074801325798035,
        -0.1535795032978058,
        0.15075843036174774,
        -0.31854483485221863,
        -0.21822325885295868,
        -0.10006463527679443,
        -0.26560986042022705,
        0.22667288780212402,
        -0.20481188595294952,
        0.16609099507331848,
        -0.315558522939682,
        0.07477594912052155,
        0.12462117522954941,
        0.15209636092185974,
        -0.16107745468616486,
        -0.005022516008466482,
        0.055710915476083755,
        -0.11745729297399521,
        -0.08688808977603912,
        0.1747054010629654,
        -0.04898570105433464,
        0.12695933878421783,
        -0.18724460899829865,
        -0.22458313405513763,
        0.03757113218307495,
        -0.27658188343048096,
        0.10228919982910156,
        0.39881449937820435,
        0.05440922826528549,
        -0.12230975180864334,
        -0.15284670889377594,
        -0.047223616391420364,
        -0.17882516980171204,
        0.3002925515174866,
        -0.3108596205711365,
        -0.25953829288482666,
        0.4004173278808594,
        0.3584561049938202,
        0.06782200187444687,
        -0.21547044813632965,
        0.3551936447620392,
        -0.3525218069553375,
        -0.1523464024066925,
        0.4078080654144287,
        0.31195908784866333,
        0.1727556586265564,
        0.1442190408706665,
        -0.4260992407798767,
        -0.3059728741645813,
        0.5225042104721069,
        -0.006034056190401316,
        0.6481507420539856,
        -0.023066755384206772,
        0.25740519165992737,
        0.018904346972703934,
        -0.6512822508811951,
        -0.22758464515209198,
        -0.1616223305463791,
        0.1985735297203064,
        0.3234429359436035,
        0.19926942884922028,
        0.05769500881433487,
        0.5919216871261597,
        0.14028845727443695,
        0.19744659960269928,
        -0.10052037984132767,
        -0.05190103128552437,
        0.4041621685028076,
        0.36413565278053284,
        -0.09106345474720001,
        0.667883038520813,
        -0.041967086493968964,
        -0.10434070974588394,
        -0.08120585978031158,
        0.016757667064666748,
        0.30514076352119446,
        -0.02076002024114132,
        -0.07823102176189423,
        0.4521847367286682,
        -0.05506949499249458,
        -0.09439453482627869,
        -0.26282715797424316,
        0.3496745824813843,
        0.19310516119003296,
        0.187515988945961,
        0.16117222607135773,
        0.10147380083799362,
        -0.14972209930419922,
        -0.2884165048599243,
        0.2911195755004883,
        0.09387744218111038,
        0.3854932188987732,
        0.015239080414175987,
        -0.5062105655670166,
        -0.13115940988063812,
        0.12446587532758713,
        0.2286766916513443,
        0.15877985954284668,
        -0.06387805938720703,
        -0.4215506911277771,
        0.4350651502609253,
        -0.4855320453643799,
        0.1285964548587799,
        0.13592837750911713,
        -0.1919998675584793,
        -0.24230694770812988,
        0.3351171016693115,
        -0.04771062359213829,
        0.3411547839641571,
        0.07310847193002701,
        0.4643498957157135,
        0.4980909526348114,
        -0.4424309730529785,
        0.47394460439682007,
        0.38004055619239807,
        -0.31954625248908997,
        -0.1402927041053772,
        0.1752685010433197,
        0.206584632396698,
        0.3322651982307434,
        -0.020186567679047585,
        0.12084545940160751,
        -0.04136774316430092,
        0.21624921262264252,
        -0.27013689279556274,
        0.047995250672101974,
        0.05879102647304535,
        0.36688950657844543,
        0.1385209709405899,
        0.36461395025253296,
        -0.31334519386291504,
        0.4241051971912384,
        -0.5923351645469666,
        -0.3591957986354828,
        -0.10875630378723145,
        0.31814154982566833,
        -0.35112839937210083,
        0.046936679631471634,
        0.1995445042848587,
        0.41495370864868164,
        -0.09084022045135498,
        -0.08442342281341553,
        -0.03709707781672478,
        -0.276956170797348,
        0.14647841453552246,
        0.6120365858078003,
        0.06497617065906525,
        0.6884658932685852,
        -0.21604840457439423,
        -0.005373635794967413,
        0.2351265549659729,
        0.41886547207832336,
        -0.045804671943187714,
        0.3580506443977356,
        -0.15642353892326355,
        0.26549792289733887,
        0.01882968097925186,
        0.5813553333282471,
        0.31239181756973267,
        -0.10103834420442581,
        0.44385892152786255,
        0.527040421962738,
        0.021152248606085777,
        -0.358567476272583,
        0.018004879355430603,
        0.4449026882648468,
        0.029828591272234917,
        0.07914485037326813,
        0.017843857407569885,
        0.18304485082626343,
        0.2496350109577179,
        0.33856701850891113,
        0.7009820938110352,
        0.1283954679965973,
        0.6288330554962158,
        0.10658250004053116,
        0.009722040966153145,
        -0.011616908013820648,
        -0.03522835671901703,
        0.10566908866167068,
        -0.00127025053370744,
        -0.22427479922771454,
        -0.05610651522874832,
        0.22244372963905334,
        0.030326757580041885,
        0.10651255398988724,
        -0.0692947655916214,
        0.3467828333377838,
        -0.387864887714386,
        0.18537560105323792,
        0.019412890076637268,
        -0.3409949541091919,
        0.1436365842819214,
        0.5666882395744324,
        -0.09488418698310852,
        0.1343284249305725,
        0.1523287147283554,
        0.12203605473041534,
        -0.0008113803341984749,
        0.10270915180444717,
        0.1581275314092636,
        -0.3982155919075012,
        -0.17227479815483093,
        -0.845309853553772,
        -0.3874269425868988,
        -0.07918801158666611,
        0.2723256051540375,
        -0.31693804264068604,
        -0.2432776689529419,
        0.08680839091539383,
        0.07194998115301132,
        -0.11655820161104202,
        -0.20675338804721832,
        0.02573058009147644,
        0.22763507068157196,
        0.1203046515583992,
        -0.2563699185848236,
        0.25923049449920654,
        0.24540913105010986,
        -0.5842328667640686,
        -0.41545021533966064,
        0.1438562422990799,
        -0.2713336944580078,
        0.05889503285288811,
        -0.28819501399993896,
        0.32955941557884216,
        -0.17632624506950378,
        0.1275247484445572,
        0.336594820022583,
        0.0680757462978363,
        -0.10774461925029755,
        0.16969181597232819,
        -0.20400172472000122,
        0.1417885273694992,
        0.1532910168170929,
        0.4833613336086273,
        -0.21873047947883606,
        -0.15860995650291443,
        0.5401123762130737,
        -0.05649881437420845,
        -0.31330952048301697,
        -0.18777146935462952,
        -0.14216449856758118,
        -0.1856151670217514,
        -0.10392871499061584,
        0.0038641374558210373,
        0.30732467770576477,
        0.3069556653499603,
        0.2881168723106384,
        0.13246586918830872,
        0.2814967632293701,
        -0.21718619763851166,
        -0.01321608666330576,
        0.127919539809227,
        0.36821046471595764,
        -0.2571678161621094,
        0.1698349416255951,
        -0.3985663652420044,
        0.14159822463989258,
        0.32223302125930786,
        0.50812828540802,
        0.019905762746930122,
        -0.0875440388917923,
        -0.4470798969268799,
        0.16485734283924103,
        0.21074829995632172,
        0.011128077283501625,
        -0.025451205670833588,
        0.3085918724536896,
        0.07231473922729492,
        0.08343146741390228,
        -0.05050421506166458,
        0.10942798852920532,
        0.36909720301628113,
        -0.0578150637447834,
        0.33750924468040466,
        0.00004151798930251971,
        -0.12796026468276978,
        0.1404155045747757,
        0.569800853729248,
        -0.029036778956651688,
        -0.06590425223112106,
        0.07882694900035858,
        0.1441611349582672,
        0.14085045456886292,
        0.4172833561897278,
        0.022910354658961296,
        -0.06103992089629173,
        -0.05147473141551018,
        -0.21536442637443542,
        0.11513000726699829,
        0.356804758310318,
        0.31612473726272583,
        -0.3553928732872009,
        -0.33158084750175476,
        0.4608355760574341,
        -0.13576501607894897,
        0.10460732877254486,
        -0.06804870814085007,
        0.24109888076782227,
        0.2970616817474365,
        0.24514685571193695,
        -0.12436962127685547,
        0.01819613389670849,
        0.0822073444724083,
        0.13917243480682373,
        0.13447809219360352,
        -0.3090260326862335,
        -0.020766517147421837,
        0.1388312131166458,
        -0.13530440628528595,
        -0.22806639969348907,
        0.05270868167281151,
        0.27487751841545105,
        -0.155624121427536
      ]
    },
    {
      "name": "dense_Dense1/bias",
      "shape": [
        32
      ],
      "dtype": "float32",
      "values": [
        -0.18119089305400848,
        -0.07747846096754074,
        0.07029439508914948,
        0.05383474752306938,
        0.18994499742984772,
        0.035263776779174805,
        0.10234199464321136,
        0,
        0.3151503801345825,
        0.009040005505084991,
        0.6257894039154053,
        0.1493285447359085,
        0.2515600025653839,
        0.19127342104911804,
        -0.09454251080751419,
        -0.1299864798784256,
        0.08869748562574387,
        -0.144523486495018,
        0.022730493918061256,
        -0.34738150238990784,
        0.6662299036979675,
        -0.09301174432039261,
        -0.11734810471534729,
        0.655842125415802,
        0.005153595469892025,
        -0.05432770773768425,
        0.0005918496754020452,
        -0.12371666729450226,
        0.16684728860855103,
        0.012762658298015594,
        -0.24807575345039368,
        -0.013892482034862041
      ]
    },
    {
      "name": "dense_Dense2/kernel",
      "shape": [
        32,
        16
      ],
      "dtype": "float32",
      "values": [
        0.2542869448661804,
        0.3292752504348755,
        0.36942893266677856,
        0.1425294280052185,
        0.06475663185119629,
        0.4186262786388397,
        -0.4859282076358795,
        -0.3228395879268646,
        0.33665013313293457,
        -0.03336239233613014,
        0.3209937810897827,
        0.28782907128334045,
        0.14717638492584229,
        0.2403583526611328,
        0.27937769889831543,
        0.123691126704216,
        -0.018864355981349945,
        0.31056585907936096,
        0.20303206145763397,
        0.03562653809785843,
        0.0945267602801323,
        -0.003708335105329752,
        0.3628506660461426,
        0.1694466918706894,
        -0.12656186521053314,
        0.2246476113796234,
        -0.14412961900234222,
        -0.24079284071922302,
        -0.23952914774417877,
        -0.2839767336845398,
        0.16593733429908752,
        0.255513459444046,
        -0.24857890605926514,
        -0.17894349992275238,
        -0.685034990310669,
        0.05138551443815231,
        0.5265204310417175,
        0.14540033042430878,
        0.14742127060890198,
        0.009883039630949497,
        0.5016047954559326,
        -0.2576010227203369,
        -0.12423263490200043,
        -0.2723703384399414,
        -0.04465119540691376,
        0.35708799958229065,
        0.10241392999887466,
        -0.24338166415691376,
        -0.04903065785765648,
        -0.16951000690460205,
        -0.08788122236728668,
        -0.008324877358973026,
        0.02756129764020443,
        0.09062441438436508,
        -0.34531790018081665,
        0.1588158756494522,
        -0.005565624684095383,
        -0.12288329005241394,
        0.5794097185134888,
        -0.2555120885372162,
        0.12587158381938934,
        0.19785934686660767,
        0.07185965776443481,
        0.1864503175020218,
        -0.21549439430236816,
        -0.07522893697023392,
        0.08695979416370392,
        0.4129287600517273,
        -0.0335586853325367,
        -0.5443676710128784,
        0.025037569925189018,
        -0.2879551947116852,
        -0.07932152599096298,
        0.012709819711744785,
        0.15073634684085846,
        -0.050789475440979004,
        -0.1906195431947708,
        -0.30754950642585754,
        -0.30188214778900146,
        0.06645418703556061,
        -0.09380367398262024,
        -0.399288147687912,
        0.2669728994369507,
        0.1528853178024292,
        0.47831758856773376,
        -0.0869445875287056,
        -0.42348501086235046,
        0.17743892967700958,
        -0.18886074423789978,
        -0.02246580645442009,
        0.08785466104745865,
        -0.14949926733970642,
        -0.012163730338215828,
        0.42811861634254456,
        0.01961522176861763,
        -0.09239814430475235,
        0.05281974747776985,
        0.10198061168193817,
        -0.08383365720510483,
        0.04782290384173393,
        0.13419348001480103,
        0.2687518000602722,
        0.11463270336389542,
        -0.40464210510253906,
        -0.14512452483177185,
        0.19170355796813965,
        -0.20082741975784302,
        0.06637965142726898,
        0.08008962124586105,
        0.07037173211574554,
        0.31249985098838806,
        0.07708905637264252,
        -0.10216675698757172,
        0.21739256381988525,
        -0.02955756150186062,
        -0.1841951161623001,
        0.0049366820603609085,
        -0.16007065773010254,
        0.3146272897720337,
        0.2670622169971466,
        -0.12722893059253693,
        -0.0794265940785408,
        0.11545867472887039,
        0.1745322048664093,
        0.38537517189979553,
        0.05220864340662956,
        -0.07372156530618668,
        0.2744446098804474,
        -0.23222388327121735,
        -0.15929915010929108,
        -0.23102423548698425,
        0.07667741924524307,
        -0.4174250662326813,
        0.027089430019259453,
        -0.0912293940782547,
        0.07894150167703629,
        0.3314536511898041,
        -0.10755890607833862,
        0.1695663034915924,
        -0.3706102967262268,
        0.18849818408489227,
        -0.26389533281326294,
        0.10359065234661102,
        0.1755770444869995,
        0.3153958320617676,
        0.2692244350910187,
        0.29774725437164307,
        -0.3247547149658203,
        -0.19124798476696014,
        0.08952242881059647,
        0.33346548676490784,
        0.4902206063270569,
        0.3068060278892517,
        0.3022020161151886,
        0.25895994901657104,
        0.2950146198272705,
        -0.579880952835083,
        -0.2922944128513336,
        -0.01990511827170849,
        -0.5581653714179993,
        0.14183038473129272,
        0.10101170092821121,
        -0.29644861817359924,
        -0.26965758204460144,
        -0.015524831600487232,
        -0.07948395609855652,
        -0.10433494299650192,
        -0.1755271553993225,
        -0.4155808687210083,
        -0.05211907625198364,
        -0.24018557369709015,
        -0.5142438411712646,
        -0.3930381238460541,
        0.33638861775398254,
        -0.04653157666325569,
        -0.2854868769645691,
        -0.23364916443824768,
        -0.10094650834798813,
        -0.10730176419019699,
        -0.09738487005233765,
        -0.04636582359671593,
        -0.04208730161190033,
        -0.021396787837147713,
        -0.04542353004217148,
        -0.4417538642883301,
        -0.1863180547952652,
        0.5045456290245056,
        0.20521493256092072,
        -0.16104166209697723,
        -0.09449098259210587,
        -0.19361600279808044,
        -0.2839459180831909,
        -0.11072292178869247,
        -0.2686396837234497,
        0.13528209924697876,
        0.04354406148195267,
        -0.03858347237110138,
        0.10777585953474045,
        0.005785725545138121,
        -0.3005780577659607,
        0.19551296532154083,
        -0.056854892522096634,
        -0.12215179949998856,
        -0.16756044328212738,
        0.0885305181145668,
        -0.0020376048050820827,
        -0.03594792261719704,
        0.07775207608938217,
        0.08717051148414612,
        0.08688227087259293,
        0.05109162628650665,
        -0.35814499855041504,
        0.07400661706924438,
        0.036439210176467896,
        -0.08707107603549957,
        0.1578957587480545,
        -0.32267308235168457,
        0.2553942799568176,
        -0.26071542501449585,
        -0.15907171368598938,
        -0.18445196747779846,
        -0.32432475686073303,
        -0.04442134499549866,
        -0.1727582961320877,
        -0.07182082533836365,
        0.09122354537248611,
        0.026247965171933174,
        -0.09939124435186386,
        0.14724741876125336,
        -0.1659712791442871,
        0.032885558903217316,
        0.027218900620937347,
        -0.21877408027648926,
        0.2651594281196594,
        -0.11852247267961502,
        -0.0006423600134439766,
        0.26159846782684326,
        -0.03381536155939102,
        0.2475879192352295,
        -0.09796545654535294,
        0.1716565638780594,
        0.018098197877407074,
        0.38163870573043823,
        -0.04501387104392052,
        0.1031980812549591,
        0.08655428886413574,
        0.30413341522216797,
        -0.015228820964694023,
        -0.1709194928407669,
        -0.0959039255976677,
        -0.030183739960193634,
        0.4108096957206726,
        0.35564741492271423,
        0.5208715796470642,
        -0.2214268445968628,
        0.04167811945080757,
        0.34974029660224915,
        0.2561070919036865,
        0.02380046620965004,
        0.09723826497793198,
        0.0827421024441719,
        -0.5185264348983765,
        0.27174094319343567,
        -0.17335838079452515,
        0.11115922033786774,
        0.12744365632534027,
        0.2028798758983612,
        -0.1366022825241089,
        0.19128166139125824,
        0.17381244897842407,
        -0.6320677995681763,
        0.13321079313755035,
        -0.09820638597011566,
        0.07351461797952652,
        0.12001276761293411,
        -0.08862831443548203,
        0.3359645903110504,
        -0.35267186164855957,
        -0.12065047025680542,
        0.25110724568367004,
        0.3287692070007324,
        0.142465278506279,
        -0.2561725676059723,
        0.11805705726146698,
        -0.10359422117471695,
        0.437088280916214,
        -0.08217012137174606,
        0.029965363442897797,
        -0.006256733555346727,
        0.1279890388250351,
        -0.11573445051908493,
        -0.1941322237253189,
        0.05614059418439865,
        0.06318237632513046,
        -0.16657686233520508,
        0.0523071214556694,
        0.14968693256378174,
        0.03799215331673622,
        -0.2050415277481079,
        0.1355571746826172,
        -0.1218658834695816,
        0.0533381886780262,
        -0.07845272123813629,
        -0.09203515201807022,
        0.0379318930208683,
        0.09351299703121185,
        0.20872251689434052,
        0.020029308274388313,
        0.49776044487953186,
        0.09149335324764252,
        0.4080815315246582,
        -0.02318444661796093,
        -0.13427212834358215,
        0.2447255700826645,
        0.3630688786506653,
        0.09431605041027069,
        0.13528186082839966,
        0.1715914011001587,
        0.2146652191877365,
        0.2032027244567871,
        -0.4457312822341919,
        -0.4328816533088684,
        -0.0007215552614070475,
        -0.31882283091545105,
        -0.21215952932834625,
        -0.33749786019325256,
        -0.352242648601532,
        -0.2548254132270813,
        -0.06556407362222672,
        -0.4040994346141815,
        -0.24595853686332703,
        0.322251558303833,
        -0.32091471552848816,
        -0.20157209038734436,
        -0.4041687250137329,
        -0.33060356974601746,
        0.03682616353034973,
        0.07035838812589645,
        -0.09846021980047226,
        0.07851055264472961,
        -0.1759462207555771,
        -0.251282662153244,
        -0.08299944549798965,
        -0.25435248017311096,
        0.10276588797569275,
        0.06427771598100662,
        0.267372190952301,
        0.07324466854333878,
        0.27270448207855225,
        -0.037126824259757996,
        0.11752630770206451,
        0.20618729293346405,
        0.32170557975769043,
        0.26495370268821716,
        0.20391589403152466,
        0.43103793263435364,
        -0.2402784675359726,
        0.09624787420034409,
        -0.19441869854927063,
        0.19855734705924988,
        0.17938938736915588,
        0.2263352870941162,
        -0.31718364357948303,
        0.18691545724868774,
        0.3089594542980194,
        -0.10785044729709625,
        0.054913781583309174,
        0.2694743871688843,
        -0.07449503988027573,
        -0.08905775845050812,
        -0.13718834519386292,
        -0.2042110115289688,
        -0.3063558042049408,
        -0.1458648145198822,
        -0.28604796528816223,
        -0.3695511221885681,
        -0.20692431926727295,
        -0.13480907678604126,
        -0.11227748543024063,
        -0.06259944289922714,
        -0.1124596819281578,
        -0.16901373863220215,
        -0.061435818672180176,
        -0.13721340894699097,
        0.2118821144104004,
        0.19988837838172913,
        -0.35798895359039307,
        0.29177126288414,
        0.011614000424742699,
        -0.13327112793922424,
        -0.09059656411409378,
        0.3388206362724304,
        -0.41742849349975586,
        0.3596906363964081,
        0.00271023390814662,
        -0.07073293626308441,
        0.3170001208782196,
        -0.23028089106082916,
        -0.18655258417129517,
        0.3096010982990265,
        0.04602355509996414,
        -0.10628501325845718,
        0.18551090359687805,
        -0.12326561659574509,
        -0.2957616150379181,
        0.18336664140224457,
        0.06522314250469208,
        -0.08763927966356277,
        0.1517295092344284,
        -0.04659969359636307,
        -0.2588418424129486,
        0.026553956791758537,
        0.13621854782104492,
        -0.12419018894433975,
        0.1288396120071411,
        0.005555845331400633,
        0.07400930672883987,
        0.005677187815308571,
        -0.03318340703845024,
        -0.18910208344459534,
        -0.010247549042105675,
        -0.13335305452346802,
        0.17441342771053314,
        -0.046237312257289886,
        0.00016878757742233574,
        0.17994026839733124,
        -0.11178291589021683,
        0.04763977229595184,
        0.12939946353435516,
        -0.36126917600631714,
        0.17911319434642792,
        -0.013047561049461365,
        0.03983502835035324,
        0.08167412877082825,
        0.17990994453430176,
        -0.02756580337882042,
        -0.20971810817718506,
        0.21798478066921234,
        0.2558451294898987,
        0.20850636065006256,
        -0.26099714636802673,
        0.11720120161771774,
        -0.06635569781064987,
        0.11019908636808395,
        0.13210836052894592,
        0.16746456921100616,
        0.17069131135940552,
        0.07930688560009003,
        -0.49154233932495117,
        -0.38864415884017944,
        0.133156880736351,
        0.1505519151687622,
        0.10822196304798126,
        0.03697730973362923,
        0.15842656791210175,
        0.48164063692092896,
        -0.32270240783691406,
        -0.5860782265663147,
        -0.2812581956386566,
        0.15958572924137115,
        0.11387225985527039,
        -0.11184515804052353,
        0.049103084951639175,
        0.15942788124084473,
        -0.006696327123790979,
        -0.04891367629170418,
        -0.4104215204715729,
        -0.10994476079940796,
        -0.0049575394950807095,
        0.07164750248193741,
        0.10381271690130234,
        -0.11125679314136505,
        0.14721599221229553,
        0.11650935560464859,
        0.060766689479351044,
        0.020239103585481644,
        -0.0913953110575676,
        -0.2316836416721344,
        -0.04630734771490097,
        0.06889410316944122,
        -0.060625020414590836,
        0.014691072516143322,
        0.007827728055417538,
        0.22970587015151978,
        -0.019163845106959343,
        0.28045645356178284,
        0.26701274514198303,
        0.12233121693134308,
        0.3023126423358917,
        -0.14822626113891602,
        0.17013703286647797,
        0.2256396859884262,
        0.006311151664704084,
        -0.09536644071340561,
        0.2967279255390167,
        0.2967131733894348,
        0.13257050514221191,
        0.014326255768537521,
        -0.015799080953001976,
        0.08522862195968628,
        -0.37844833731651306,
        0.2951110005378723,
        0.06807537376880646,
        -0.22278888523578644,
        0.21688485145568848,
        -0.1486062854528427,
        -0.02709735371172428,
        -0.016863932833075523,
        -0.07258221507072449,
        0.14103956520557404,
        0.32231605052948,
        -0.08267278224229813
      ]
    },
    {
      "name": "dense_Dense2/bias",
      "shape": [
        16
      ],
      "dtype": "float32",
      "values": [
        -0.12946094572544098,
        -0.08251532167196274,
        -0.12149398773908615,
        -0.14623987674713135,
        -0.13305185735225677,
        -0.0892762765288353,
        -0.06661844253540039,
        -0.11180315911769867,
        -0.15089821815490723,
        -0.11527090519666672,
        -0.23287756741046906,
        -0.13604839146137238,
        -0.045168016105890274,
        -0.2889465391635895,
        -0.10198068618774414,
        -0.048187196254730225
      ]
    }
  ]
}
