{
  "version": 1,
  "createdAt": 1762571631797,
  "backend": "webgl",
  "config": {
    "inputSize": 17,
    "outputSize": 9,
    "hiddenLayers": [
      32
    ],
    "activation": "relu",
    "outputActivation": "tanh",
    "backend": "webgl",
    "seed": 1337
  },
  "metadata": {
    "label": "Custom Model",
    "notes": "",
    "correlations": [
      {
        "id": "rms-deltaposx",
        "featureKey": "rms",
        "targetId": "deltaPosX",
        "targetIndex": 0,
        "axis": "x",
        "group": "deltaPos",
        "featureIndex": 0,
        "strength": 0.65,
        "polarity": "direct"
      },
      {
        "id": "speccentroid-deltaposy",
        "featureKey": "specCentroid",
        "targetId": "deltaPosY",
        "targetIndex": 1,
        "axis": "y",
        "group": "deltaPos",
        "featureIndex": 1,
        "strength": 0.65,
        "polarity": "direct"
      },
      {
        "id": "specrolloff-deltaposz",
        "featureKey": "specRolloff",
        "targetId": "deltaPosZ",
        "targetIndex": 2,
        "axis": "z",
        "group": "deltaPos",
        "featureIndex": 2,
        "strength": 0.65,
        "polarity": "direct"
      },
      {
        "id": "bandlow-sizedelta",
        "featureKey": "bandLow",
        "targetId": "sizeDelta",
        "targetIndex": 3,
        "axis": null,
        "group": "size",
        "featureIndex": 3,
        "strength": 0.65,
        "polarity": "direct"
      },
      {
        "id": "bandmid-colorr",
        "featureKey": "bandMid",
        "targetId": "colorR",
        "targetIndex": 4,
        "axis": "r",
        "group": "color",
        "featureIndex": 4,
        "strength": 0.65,
        "polarity": "direct"
      },
      {
        "id": "bandhigh-colorg",
        "featureKey": "bandHigh",
        "targetId": "colorG",
        "targetIndex": 5,
        "axis": "g",
        "group": "color",
        "featureIndex": 5,
        "strength": 0.65,
        "polarity": "direct"
      },
      {
        "id": "peak-colorb",
        "featureKey": "peak",
        "targetId": "colorB",
        "targetIndex": 6,
        "axis": "b",
        "group": "color",
        "featureIndex": 6,
        "strength": 0.65,
        "polarity": "direct"
      },
      {
        "id": "zerocrossrate-flickerrate",
        "featureKey": "zeroCrossRate",
        "targetId": "flickerRate",
        "targetIndex": 7,
        "axis": null,
        "group": "flickerRate",
        "featureIndex": 7,
        "strength": 0.65,
        "polarity": "direct"
      },
      {
        "id": "tempoproxy-flickerdepth",
        "featureKey": "tempoProxy",
        "targetId": "flickerDepth",
        "targetIndex": 8,
        "axis": null,
        "group": "flickerDepth",
        "featureIndex": 8,
        "strength": 0.65,
        "polarity": "direct"
      }
    ],
    "training": {
      "status": "completed",
      "epoch": 24,
      "epochs": 24,
      "loss": 0.0007789598312228918,
      "best": null,
      "metadata": {
        "status": "completed",
        "epochs": 24,
        "loss": 0.0007789598312228918,
        "sampleCount": 4096,
        "batchSize": 128,
        "learningRate": 0.0015,
        "noise": 0.04,
        "seed": 1762563234828,
        "createdAt": 1762563266064,
        "correlations": [
          {
            "id": "rms-deltaposx",
            "featureKey": "rms",
            "targetId": "deltaPosX",
            "strength": 0.65,
            "polarity": "direct",
            "achieved": 0.9974706546639032
          },
          {
            "id": "speccentroid-deltaposy",
            "featureKey": "specCentroid",
            "targetId": "deltaPosY",
            "strength": 0.65,
            "polarity": "direct",
            "achieved": 0.9985539858727526
          },
          {
            "id": "specrolloff-deltaposz",
            "featureKey": "specRolloff",
            "targetId": "deltaPosZ",
            "strength": 0.65,
            "polarity": "direct",
            "achieved": 0.9985044366199648
          },
          {
            "id": "bandlow-sizedelta",
            "featureKey": "bandLow",
            "targetId": "sizeDelta",
            "strength": 0.65,
            "polarity": "direct",
            "achieved": 0.9988135052434332
          },
          {
            "id": "bandmid-colorr",
            "featureKey": "bandMid",
            "targetId": "colorR",
            "strength": 0.65,
            "polarity": "direct",
            "achieved": 0.9982815064249394
          },
          {
            "id": "bandhigh-colorg",
            "featureKey": "bandHigh",
            "targetId": "colorG",
            "strength": 0.65,
            "polarity": "direct",
            "achieved": 0.9971431630782969
          },
          {
            "id": "peak-colorb",
            "featureKey": "peak",
            "targetId": "colorB",
            "strength": 0.65,
            "polarity": "direct",
            "achieved": 0.9982306988686497
          },
          {
            "id": "zerocrossrate-flickerrate",
            "featureKey": "zeroCrossRate",
            "targetId": "flickerRate",
            "strength": 0.65,
            "polarity": "direct",
            "achieved": 0.9979830206118834
          },
          {
            "id": "tempoproxy-flickerdepth",
            "featureKey": "tempoProxy",
            "targetId": "flickerDepth",
            "strength": 0.65,
            "polarity": "direct",
            "achieved": 0.9982084409567011
          }
        ]
      }
    }
  },
  "weights": [
    {
      "name": "dense_Dense1/kernel",
      "shape": [
        17,
        32
      ],
      "dtype": "float32",
      "values": [
        0.004878523293882608,
        0.020933566614985466,
        0.0034321830607950687,
        0.019294893369078636,
        0.06179632246494293,
        0.0062819113954901695,
        -0.00838382076472044,
        -0.07501320540904999,
        -0.16134974360466003,
        -0.020840618759393692,
        -0.03393053263425827,
        0.02105197310447693,
        0.10316053032875061,
        0.17783834040164948,
        -0.05836286395788193,
        -0.0816265195608139,
        0.008121350780129433,
        -0.08052116632461548,
        -0.008545695804059505,
        -0.1996365189552307,
        0.00392278004437685,
        -0.10723527520895004,
        -0.05470997467637062,
        0.1463695764541626,
        0.15009649097919464,
        -0.14508013427257538,
        -0.12482572346925735,
        0.014530870132148266,
        0.007131753955036402,
        -0.020108286291360855,
        -0.0003508195804897696,
        0.1030714362859726,
        -0.05083669349551201,
        0.09678871929645538,
        -0.023502789437770844,
        0.09085248410701752,
        -0.01679087243974209,
        0.09767530113458633,
        0.024652212858200073,
        -0.014828832820057869,
        -0.022473059594631195,
        0.017369646579027176,
        -0.05122227594256401,
        -0.0942755937576294,
        -0.009763366542756557,
        -0.02742747589945793,
        0.16084274649620056,
        0.01884600706398487,
        -0.055456988513469696,
        0.2605701684951782,
        0.07133575528860092,
        0.16597865521907806,
        0.03585473820567131,
        -0.03726948797702789,
        0.22592931985855103,
        -0.035215891897678375,
        -0.01669268123805523,
        0.05017959699034691,
        0.027024636045098305,
        -0.00012247882841620594,
        0.09147033095359802,
        0.03402930498123169,
        0.04176941141486168,
        0.12525393068790436,
        0.04832182824611664,
        -0.14304323494434357,
        0.1561121940612793,
        -0.04266227409243584,
        -0.03355346992611885,
        -0.14314569532871246,
        0.05655539780855179,
        -0.08087124675512314,
        -0.17304950952529907,
        0.12407293915748596,
        0.07152320444583893,
        0.019771791994571686,
        0.060844168066978455,
        -0.0353316068649292,
        0.12351644039154053,
        0.018790867179632187,
        -0.005642034579068422,
        -0.017733486369252205,
        0.001316213863901794,
        -0.018144788220524788,
        0.00023517286172136664,
        -0.13536350429058075,
        0.04291490465402603,
        -0.06552214175462723,
        -0.009427984245121479,
        -0.049761150032281876,
        0.05847889557480812,
        0.023551510646939278,
        -0.06359412521123886,
        0.09214406460523605,
        0.059693772345781326,
        0.0071303085424005985,
        0.13733048737049103,
        -0.1794700175523758,
        0.13740351796150208,
        0.23106437921524048,
        0.19190625846385956,
        0.28574851155281067,
        0.07983890175819397,
        0.07544748485088348,
        -0.14154735207557678,
        0.35040661692619324,
        0.19679290056228638,
        0.04095456376671791,
        0.17118532955646515,
        0.22517110407352448,
        0.34990429878234863,
        0.09195274114608765,
        0.083195261657238,
        -0.3181845247745514,
        0.028722820803523064,
        -0.1954166293144226,
        0.12753377854824066,
        -0.16053740680217743,
        -0.1434382051229477,
        0.1405012607574463,
        0.07497263699769974,
        0.24134427309036255,
        -0.12672024965286255,
        0.1892634630203247,
        0.22158582508563995,
        0.19709278643131256,
        0.18503108620643616,
        0.18058806657791138,
        0.13169673085212708,
        -0.23837485909461975,
        0.08997689187526703,
        -0.1408601552248001,
        0.06505105644464493,
        -0.1681455671787262,
        0.14034953713417053,
        -0.09540506452322006,
        -0.1407586932182312,
        0.10447236150503159,
        0.023446621373295784,
        -0.16446419060230255,
        0.1379178911447525,
        0.1820797622203827,
        0.06006470322608948,
        -0.04013892635703087,
        0.036709461361169815,
        0.040982313454151154,
        -0.09675734490156174,
        -0.10562928020954132,
        -0.12720246613025665,
        -0.005115040112286806,
        -0.21762032806873322,
        0.056451741605997086,
        0.15266825258731842,
        -0.07749443501234055,
        -0.1512102484703064,
        0.08804182708263397,
        -0.09571299701929092,
        0.04459024593234062,
        0.027707012370228767,
        0.08211541920900345,
        0.058259908109903336,
        0.1749056577682495,
        0.05959624424576759,
        0.0032613896764814854,
        0.10607937723398209,
        0.10671160370111465,
        0.04894629493355751,
        0.06016102060675621,
        -0.0038323772605508566,
        0.009811745956540108,
        0.021615197882056236,
        0.09990335255861282,
        0.08014092594385147,
        0.046797629445791245,
        -0.008409488014876842,
        -0.006241452880203724,
        -0.04110436886548996,
        0.06722989678382874,
        -0.03867171332240105,
        0.08165847510099411,
        0.04324755445122719,
        -0.04671862721443176,
        -0.06280599534511566,
        0.01688583567738533,
        0.004427262116223574,
        0.03409139811992645,
        -0.007814629003405571,
        0.04309863969683647,
        0.0542556457221508,
        0.023403286933898926,
        -0.03107374906539917,
        0.04567314311861992,
        -0.00856380071491003,
        -0.038763627409935,
        -0.20374788343906403,
        -0.15462177991867065,
        -0.03801237791776657,
        0.02758595161139965,
        -0.046207260340452194,
        -0.09824590384960175,
        0.08215714991092682,
        -0.027996178716421127,
        0.040698323398828506,
        -0.04523344337940216,
        -0.003778353100642562,
        0.032387904822826385,
        -0.20626412332057953,
        -0.10761708766222,
        -0.2118658721446991,
        0.23679803311824799,
        -0.07142366468906403,
        0.0049607884138822556,
        -0.06820216029882431,
        0.03287629783153534,
        0.2666447162628174,
        -0.08488347381353378,
        -0.0568622462451458,
        -0.05637967959046364,
        0.04430340975522995,
        -0.03981879726052284,
        0.029263915494084358,
        -0.09172466397285461,
        -0.16010653972625732,
        -0.036227036267519,
        -0.04206100106239319,
        -0.09213567525148392,
        -0.17516258358955383,
        -0.06483572721481323,
        0.13219822943210602,
        -0.07202230393886566,
        0.09238914400339127,
        0.2164672464132309,
        0.2553359866142273,
        -0.3256833255290985,
        -0.16251079738140106,
        -0.12300876528024673,
        0.1238422617316246,
        0.14950183033943176,
        0.09381237626075745,
        0.08372116833925247,
        -0.0877767875790596,
        -0.13204321265220642,
        0.01542667020112276,
        0.2134992927312851,
        0.07600538432598114,
        -0.0010449924739077687,
        0.29114919900894165,
        0.3385988473892212,
        0.09763943403959274,
        0.06486890465021133,
        -0.10561273247003555,
        -0.017957301810383797,
        0.11724616587162018,
        -0.14592735469341278,
        -0.12369667738676071,
        -0.23344667255878448,
        0.043806202709674835,
        0.05383613333106041,
        -0.10399455577135086,
        0.20243646204471588,
        0.1073775514960289,
        0.18506160378456116,
        -0.06835128366947174,
        0.4338276982307434,
        0.19000254571437836,
        -0.08370108902454376,
        0.06594060361385345,
        0.2646530270576477,
        0.5697270035743713,
        -0.3925098180770874,
        0.4654710590839386,
        0.1385229527950287,
        -0.35751742124557495,
        -0.38592439889907837,
        0.3809692859649658,
        -0.1335626244544983,
        0.1077786311507225,
        0.06423953920602798,
        -0.1298094391822815,
        0.27174800634384155,
        0.1318243443965912,
        -0.18409767746925354,
        -0.10780438035726547,
        0.4373296797275543,
        0.19304704666137695,
        -0.39288052916526794,
        0.17703789472579956,
        -0.5401127934455872,
        0.39886078238487244,
        0.02639618329703808,
        -0.08854177594184875,
        0.525327205657959,
        -0.06324184685945511,
        0.020906446501612663,
        -0.020688792690634727,
        -0.07391644269227982,
        -0.08524265140295029,
        0.038913849741220474,
        -0.36300182342529297,
        0.6425570845603943,
        -0.2503727674484253,
        0.36311304569244385,
        0.31950250267982483,
        0.04944191873073578,
        0.21177887916564941,
        -0.13967017829418182,
        -0.05373771861195564,
        -0.25817379355430603,
        -0.16321879625320435,
        -0.05316861718893051,
        0.2257830798625946,
        -0.055601488798856735,
        -0.06077517196536064,
        -0.02571091614663601,
        0.09558205306529999,
        0.27668434381484985,
        -0.09551464021205902,
        -0.1191997304558754,
        -0.3023108243942261,
        0.31326529383659363,
        -0.38604626059532166,
        0.14768944680690765,
        0.16181810200214386,
        0.004182486329227686,
        0.2545187771320343,
        -0.3098752796649933,
        -0.3056483566761017,
        -0.4346778690814972,
        -0.2615317106246948,
        -0.08058267831802368,
        -0.48632481694221497,
        0.19848358631134033,
        0.48662009835243225,
        0.04033327102661133,
        -0.21572861075401306,
        0.18789121508598328,
        0.03464623913168907,
        0.15254069864749908,
        -0.12006528675556183,
        -0.0005641313036903739,
        0.1124645546078682,
        -0.10092461109161377,
        -0.2565489709377289,
        0.2567642331123352,
        -0.1061398833990097,
        0.5728556513786316,
        0.06837401539087296,
        0.283331960439682,
        -0.04781677573919296,
        0.21460570394992828,
        0.03011859767138958,
        -0.15233393013477325,
        -0.28836551308631897,
        -0.18181124329566956,
        -0.321990042924881,
        -0.18629632890224457,
        0.6184624433517456,
        -0.13712488114833832,
        -0.034712716937065125,
        0.02306712046265602,
        -0.01209952775388956,
        0.10231544822454453,
        0.1629854440689087,
        0.21415768563747406,
        -0.14243574440479279,
        -0.44799932837486267,
        0.1294115036725998,
        0.23506441712379456,
        0.4487117826938629,
        -0.14539401233196259,
        0.21078957617282867,
        -0.20479924976825714,
        -0.010296864435076714,
        0.08560825139284134,
        0.03482828661799431,
        0.031710125505924225,
        -0.09759287536144257,
        -0.20674651861190796,
        0.06987622380256653,
        -0.22020366787910461,
        -0.26462849974632263,
        -0.2632479965686798,
        -0.23757697641849518,
        0.5818003416061401,
        0.0675012394785881,
        0.16264835000038147,
        0.07676888257265091,
        0.16917359828948975,
        0.23897545039653778,
        -0.12940658628940582,
        0.22217367589473724,
        -0.15975742042064667,
        -0.09369934350252151,
        -0.4498818516731262,
        0.038666658103466034,
        0.2081468552350998,
        -0.08840709924697876,
        -0.08390853554010391,
        0.16111475229263306,
        -0.15078844130039215,
        0.2659221887588501,
        -0.25284621119499207,
        0.3417643904685974,
        -0.05203483998775482,
        -0.15554644167423248,
        0.11634627729654312,
        -0.37816643714904785,
        -0.26751911640167236,
        0.11965959519147873,
        -0.08933749049901962,
        0.1723644882440567,
        -0.4752509593963623,
        0.03162538260221481,
        0.5472903847694397,
        -0.20740075409412384,
        -0.5418466925621033,
        0.42576372623443604,
        -0.11648160219192505,
        0.055861394852399826,
        -0.27859005331993103,
        0.024729063734412193,
        0.30360785126686096,
        -0.2773812711238861,
        -0.0008522688876837492,
        -0.02874096669256687,
        -0.24464775621891022,
        0.38241881132125854,
        -0.19598963856697083,
        -0.04384402558207512,
        -0.0889577716588974,
        0.02301856130361557,
        0.4905848205089569,
        0.12219278514385223,
        0.024830004200339317,
        0.6220167875289917,
        0.16931913793087006,
        -0.12774501740932465,
        0.04166921228170395,
        -0.013447855599224567,
        -0.17927201092243195,
        0.21766744554042816,
        0.2366807907819748,
        0.13044682145118713,
        0.49740904569625854,
        0.08772842586040497,
        0.2924013137817383,
        -0.13794691860675812,
        0.181636244058609,
        0.5890925526618958,
        -0.23563747107982635,
        -0.1804259717464447,
        -0.18945962190628052,
        0.11747759580612183,
        -0.06603322923183441,
        0.5517485737800598,
        -0.13950350880622864,
        -0.002774263732135296,
        -0.18665991723537445,
        0.1098865494132042,
        0.44216248393058777,
        -0.014421765692532063,
        -0.15836650133132935,
        -0.30162307620048523,
        0.17944324016571045,
        0.06561292707920074,
        0.22969505190849304,
        0.16411758959293365,
        0.026586243882775307,
        0.018131665885448456,
        -0.2465886026620865,
        -0.019804423674941063,
        0.18779265880584717,
        -0.07018641382455826,
        0.28688910603523254,
        -0.09104204177856445,
        -0.042369868606328964,
        0.3398539423942566,
        -0.16222618520259857,
        0.673703670501709,
        0.1954396665096283,
        -0.3757988214492798,
        -0.2949375808238983,
        0.1120930090546608,
        -0.24482399225234985,
        -0.06132969260215759,
        -0.11795149743556976,
        0.46913468837738037,
        0.3023979961872101,
        0.09252274036407471,
        -0.08592662960290909,
        0.08465756475925446,
        0.18618462979793549,
        0.05335669964551926,
        0.3034042418003082,
        0.0037921443581581116,
        -0.45697760581970215,
        0.29455432295799255,
        0.2007904350757599,
        0.2233317643404007,
        -0.026917295530438423,
        0.1892070472240448,
        0.16032768785953522,
        -0.015137295238673687,
        0.17217575013637543,
        0.02058461494743824,
        -0.10587337613105774,
        0.0889333114027977,
        0.5511823892593384,
        0.22923120856285095,
        0.33743661642074585,
        -0.20729824900627136,
        0.3032805025577545,
        0.11888043582439423,
        0.023238733410835266,
        0.2675307095050812,
        -0.09575892984867096,
        -0.6997095346450806,
        -0.062355365604162216,
        -0.0514799989759922,
        0.5045047402381897,
        -0.24511823058128357,
        -0.17147168517112732,
        0.17433679103851318,
        0.3989720642566681,
        0.5040608048439026,
        0.08436061441898346,
        0.1125827506184578,
        -0.05055404454469681,
        0.3065144121646881,
        -0.08147457987070084,
        0.010214458219707012,
        -0.14868134260177612,
        -0.1135563924908638,
        -0.11360230296850204,
        -0.3894803524017334,
        0.15498073399066925,
        0.05740002170205116,
        0.11024285107851028,
        -0.3000023066997528,
        -0.4608111083507538,
        0.03811696171760559,
        -0.08410211652517319,
        -0.005100232549011707,
        0.4322085380554199
      ]
    },
    {
      "name": "dense_Dense1/bias",
      "shape": [
        32
      ],
      "dtype": "float32",
      "values": [
        0.0011807580012828112,
        -0.0536840446293354,
        0.17819760739803314,
        0.22830462455749512,
        0.14499728381633759,
        0.1260375827550888,
        0.1600847840309143,
        0.43372806906700134,
        -0.10136764496564865,
        0.17649796605110168,
        -0.02588559128344059,
        -0.3015342652797699,
        -0.15152157843112946,
        0.37607693672180176,
        -0.20716775953769684,
        0.1276463121175766,
        -0.25697460770606995,
        -0.06862648576498032,
        -0.21598611772060394,
        -0.049480002373456955,
        0.07493097335100174,
        -0.04572895169258118,
        -0.07698831707239151,
        -0.039329856634140015,
        0.09965994209051132,
        -0.04260639101266861,
        -0.15559862554073334,
        -0.10497859865427017,
        -0.2614124119281769,
        0.10115913301706314,
        0.307445228099823,
        0.10866937041282654
      ]
    },
    {
      "name": "dense_Dense2/kernel",
      "shape": [
        32,
        9
      ],
      "dtype": "float32",
      "values": [
        0.08306990563869476,
        0.38598141074180603,
        -0.34287354350090027,
        -0.307163268327713,
        -0.029488522559404373,
        0.2896800637245178,
        0.37053051590919495,
        -0.3142640292644501,
        0.0157729871571064,
        -0.20036545395851135,
        0.172079399228096,
        -0.28710874915122986,
        0.014069764874875546,
        0.28248754143714905,
        -0.21172432601451874,
        0.007911012507975101,
        -0.1057174801826477,
        -0.1559223085641861,
        -0.1687018722295761,
        -0.19884653389453888,
        -0.07280893623828888,
        -0.2023581713438034,
        -0.21744494140148163,
        0.22793543338775635,
        -0.16663318872451782,
        -0.2445451021194458,
        0.01747305504977703,
        0.05875815823674202,
        0.38898569345474243,
        -0.12547211349010468,
        -0.3254980444908142,
        0.0683988705277443,
        -0.1890847533941269,
        -0.13699428737163544,
        -0.21473556756973267,
        -0.24116145074367523,
        0.12011553347110748,
        -0.19107310473918915,
        0.008461842313408852,
        0.5293720960617065,
        0.1979561150074005,
        -0.14638979732990265,
        -0.032049473375082016,
        -0.2671506106853485,
        -0.5959916710853577,
        -0.2594764232635498,
        -0.05578069016337395,
        -0.05070944130420685,
        -0.11717653274536133,
        0.1701192557811737,
        0.29690423607826233,
        -0.24915961921215057,
        -0.18513023853302002,
        0.0979619100689888,
        -0.16596725583076477,
        -0.029540028423070908,
        -0.15983426570892334,
        -0.06794200837612152,
        0.27094826102256775,
        -0.4800136387348175,
        0.36721399426460266,
        0.3459002673625946,
        -0.16789650917053223,
        0.2512989938259125,
        -0.2069505900144577,
        -0.5695292353630066,
        -0.1164473444223404,
        -0.3814255893230438,
        -0.20739863812923431,
        -0.3488295376300812,
        0.19220371544361115,
        0.08458951115608215,
        0.20200848579406738,
        0.010348783805966377,
        -0.11678733676671982,
        -0.0020037773065268993,
        -0.13728781044483185,
        -0.08196917176246643,
        0.20086614787578583,
        0.2113633155822754,
        -0.0619269460439682,
        -0.10025740414857864,
        0.00584269966930151,
        -0.2144969254732132,
        0.15542873740196228,
        -0.3700938820838928,
        -0.34977027773857117,
        -0.18697082996368408,
        -0.03706585243344307,
        -0.2208615094423294,
        -0.0013791584642603993,
        -0.3286595046520233,
        -0.26131558418273926,
        0.25617533922195435,
        0.1429748684167862,
        0.22084610164165497,
        0.020410291850566864,
        0.037701718509197235,
        0.18756157159805298,
        0.04374783858656883,
        0.4543133080005646,
        0.1741279661655426,
        0.21973249316215515,
        0.19088609516620636,
        -0.1252124309539795,
        0.23915939033031464,
        0.10905139893293381,
        0.19969463348388672,
        0.3940281271934509,
        -0.15579774975776672,
        0.5165245532989502,
        -0.08223022520542145,
        0.18995223939418793,
        -0.036775536835193634,
        -0.19863365590572357,
        -0.09388161450624466,
        0.49995240569114685,
        -0.21851931512355804,
        0.21362720429897308,
        -0.011706048622727394,
        -0.29686906933784485,
        0.02525024302303791,
        -0.1355925053358078,
        -0.23275616765022278,
        -0.04659295082092285,
        -0.012880627065896988,
        0.3935297429561615,
        0.2631165087223053,
        0.052274513989686966,
        0.33219656348228455,
        0.35008686780929565,
        -0.22456760704517365,
        -0.16931916773319244,
        -0.05355627462267876,
        0.28219330310821533,
        -0.02466605417430401,
        -0.030204609036445618,
        0.1233849823474884,
        0.1400020867586136,
        -0.2636488974094391,
        0.31498983502388,
        0.018409987911581993,
        -0.47571972012519836,
        -0.08544103056192398,
        -0.1728953868150711,
        0.15353284776210785,
        0.06918890029191971,
        0.21849550306797028,
        0.29022538661956787,
        0.14320752024650574,
        0.02154950052499771,
        0.3183770775794983,
        0.2198149710893631,
        0.229726642370224,
        0.08703099191188812,
        0.04662320017814636,
        0.12470898777246475,
        -0.15408679842948914,
        -0.018889019265770912,
        -0.1693723201751709,
        -0.04393499344587326,
        -0.26356256008148193,
        0.19143137335777283,
        -0.023603476583957672,
        -0.03430929780006409,
        0.06713243573904037,
        0.1484779566526413,
        0.37022465467453003,
        0.037591539323329926,
        0.11262962222099304,
        -0.09691403061151505,
        -0.24363932013511658,
        -0.015984563156962395,
        0.382977157831192,
        -0.19297011196613312,
        -0.23000793159008026,
        -0.07369845360517502,
        -0.14455851912498474,
        -0.0726974606513977,
        -0.17949707806110382,
        -0.1632247418165207,
        -0.3770434856414795,
        -0.013181827031075954,
        -0.10236835479736328,
        -0.22954826056957245,
        0.012580613605678082,
        0.1397690623998642,
        0.3663923740386963,
        -0.150717094540596,
        -0.03718710318207741,
        -0.003275826806202531,
        -0.04946574196219444,
        0.13070052862167358,
        0.20936930179595947,
        0.19983266294002533,
        -0.256926953792572,
        -0.16564540565013885,
        -0.19301198422908783,
        -0.12122002989053726,
        0.05486345663666725,
        -0.3233468532562256,
        -0.17329737544059753,
        -0.09470231831073761,
        0.37512245774269104,
        -0.133199542760849,
        0.10380721837282181,
        -0.20255480706691742,
        0.18262317776679993,
        -0.15007959306240082,
        0.27597904205322266,
        0.22487717866897583,
        -0.18243293464183807,
        -0.227226123213768,
        0.19270211458206177,
        0.05453311279416084,
        0.17965923249721527,
        -0.1272919774055481,
        -0.33525118231773376,
        -0.29648804664611816,
        -0.017048535868525505,
        0.215627983212471,
        0.20685791969299316,
        -0.013634107075631618,
        -0.1644294261932373,
        -0.0018716278718784451,
        -0.32500940561294556,
        -0.06913886219263077,
        0.5735724568367004,
        0.0032574243377894163,
        0.10023753345012665,
        -0.08444012701511383,
        0.13825662434101105,
        -0.12410508096218109,
        0.2933517396450043,
        0.1971336305141449,
        0.2902451753616333,
        -0.2439088076353073,
        -0.18752190470695496,
        0.07521910220384598,
        0.18331024050712585,
        -0.16471515595912933,
        0.25188255310058594,
        -0.35695379972457886,
        0.3040969967842102,
        0.41700148582458496,
        0.1516485959291458,
        -0.2586997151374817,
        -0.479194700717926,
        0.4480346441268921,
        -0.02797328121960163,
        0.6261640787124634,
        -0.4751516282558441,
        0.36987441778182983,
        -0.11101072281599045,
        -0.18808217346668243,
        -0.040404435247182846,
        0.07548530399799347,
        -0.006881765555590391,
        0.5226695537567139,
        0.24672538042068481,
        0.007105539552867413,
        -0.3635564148426056,
        -0.18358580768108368,
        0.15734100341796875,
        -0.2894824147224426,
        0.38112348318099976,
        0.18104243278503418,
        -0.18574973940849304,
        0.34529146552085876,
        -0.09344473481178284,
        0.003410888137295842,
        -0.3122131824493408,
        -0.08410301804542542,
        -0.3190760910511017,
        -0.22253191471099854,
        -0.10264948010444641,
        0.46354347467422485,
        -0.1523568034172058,
        -0.18490912020206451,
        -0.38610732555389404,
        0.10223184525966644,
        -0.06359289586544037,
        0.32788151502609253,
        -0.4891578257083893,
        0.20568571984767914,
        0.12139921635389328,
        0.062436774373054504,
        0.21994270384311676
      ]
    },
    {
      "name": "dense_Dense2/bias",
      "shape": [
        9
      ],
      "dtype": "float32",
      "values": [
        -0.1069461777806282,
        -0.26275813579559326,
        -0.06243284419178963,
        -0.20212262868881226,
        -0.11377788335084915,
        -0.2769573926925659,
        -0.26750943064689636,
        -0.24281840026378632,
        -0.15231455862522125
      ]
    }
  ]
}