{
  "version": 1,
  "createdAt": 1762592534711,
  "backend": "webgl",
  "config": {
    "inputSize": 17,
    "outputSize": 15,
    "hiddenLayers": [
      32
    ],
    "activation": "relu",
    "outputActivation": "tanh",
    "backend": "webgl",
    "seed": 1337
  },
  "metadata": {
    "label": "Custom Model",
    "notes": "",
    "correlations": [
      {
        "id": "rms-deltaposx",
        "featureKey": "rms",
        "targetId": "deltaPosX",
        "targetIndex": 0,
        "axis": "x",
        "group": "deltaPos",
        "featureIndex": 0,
        "strength": 0.65,
        "polarity": "direct"
      },
      {
        "id": "speccentroid-deltaposy",
        "featureKey": "specCentroid",
        "targetId": "deltaPosY",
        "targetIndex": 1,
        "axis": "y",
        "group": "deltaPos",
        "featureIndex": 1,
        "strength": 0.65,
        "polarity": "direct"
      },
      {
        "id": "specrolloff-deltaposz",
        "featureKey": "specRolloff",
        "targetId": "deltaPosZ",
        "targetIndex": 2,
        "axis": "z",
        "group": "deltaPos",
        "featureIndex": 2,
        "strength": 0.65,
        "polarity": "direct"
      },
      {
        "id": "bandlow-sizedelta",
        "featureKey": "bandLow",
        "targetId": "sizeDelta",
        "targetIndex": 3,
        "axis": null,
        "group": "size",
        "featureIndex": 3,
        "strength": 0.65,
        "polarity": "direct"
      },
      {
        "id": "bandmid-colorr",
        "featureKey": "bandMid",
        "targetId": "colorR",
        "targetIndex": 4,
        "axis": "r",
        "group": "color",
        "featureIndex": 4,
        "strength": 0.65,
        "polarity": "direct"
      },
      {
        "id": "bandhigh-colorg",
        "featureKey": "bandHigh",
        "targetId": "colorG",
        "targetIndex": 5,
        "axis": "g",
        "group": "color",
        "featureIndex": 5,
        "strength": 0.65,
        "polarity": "direct"
      },
      {
        "id": "peak-colorb",
        "featureKey": "peak",
        "targetId": "colorB",
        "targetIndex": 6,
        "axis": "b",
        "group": "color",
        "featureIndex": 6,
        "strength": 0.65,
        "polarity": "direct"
      },
      {
        "id": "zerocrossrate-flickerrate",
        "featureKey": "zeroCrossRate",
        "targetId": "flickerRate",
        "targetIndex": 7,
        "axis": null,
        "group": "flickerRate",
        "featureIndex": 7,
        "strength": 0.65,
        "polarity": "direct"
      },
      {
        "id": "tempoproxy-flickerdepth",
        "featureKey": "tempoProxy",
        "targetId": "flickerDepth",
        "targetIndex": 8,
        "axis": null,
        "group": "flickerDepth",
        "featureIndex": 8,
        "strength": 0.65,
        "polarity": "direct"
      },
      {
        "id": "tempoproxy-rotationspeed",
        "featureKey": "tempoProxy",
        "targetId": "rotationSpeed",
        "targetIndex": 9,
        "axis": null,
        "group": "rotationSpeed",
        "featureIndex": 8,
        "strength": 0.65,
        "polarity": "direct"
      },
      {
        "id": "bandlow-wobblestrength",
        "featureKey": "bandLow",
        "targetId": "wobbleStrength",
        "targetIndex": 10,
        "axis": null,
        "group": "wobbleStrength",
        "featureIndex": 3,
        "strength": 0.6,
        "polarity": "direct"
      },
      {
        "id": "bandhigh-wobblefrequency",
        "featureKey": "bandHigh",
        "targetId": "wobbleFrequency",
        "targetIndex": 11,
        "axis": null,
        "group": "wobbleFrequency",
        "featureIndex": 5,
        "strength": 0.6,
        "polarity": "direct"
      },
      {
        "id": "speccentroid-colormix",
        "featureKey": "specCentroid",
        "targetId": "colorMix",
        "targetIndex": 12,
        "axis": null,
        "group": "colorMix",
        "featureIndex": 1,
        "strength": 0.55,
        "polarity": "direct"
      },
      {
        "id": "rms-alphascale",
        "featureKey": "rms",
        "targetId": "alphaScale",
        "targetIndex": 13,
        "axis": null,
        "group": "alphaScale",
        "featureIndex": 0,
        "strength": 0.5,
        "polarity": "direct"
      },
      {
        "id": "peak-pointscale",
        "featureKey": "peak",
        "targetId": "pointScale",
        "targetIndex": 14,
        "axis": null,
        "group": "pointScale",
        "featureIndex": 6,
        "strength": 0.55,
        "polarity": "direct"
      }
    ],
    "training": {
      "status": "completed",
      "epoch": 100,
      "epochs": 100,
      "loss": 0.0003285193524789065,
      "best": null,
      "metadata": {
        "status": "completed",
        "epochs": 100,
        "loss": 0.0003285193524789065,
        "sampleCount": 4096,
        "batchSize": 128,
        "learningRate": 0.0015,
        "noise": 0.04,
        "seed": 1762563234828,
        "createdAt": 1762592410000,
        "correlations": [
          {
            "id": "rms-deltaposx",
            "featureKey": "rms",
            "targetId": "deltaPosX",
            "strength": 0.65,
            "polarity": "direct",
            "achieved": 0.999190578663786
          },
          {
            "id": "speccentroid-deltaposy",
            "featureKey": "specCentroid",
            "targetId": "deltaPosY",
            "strength": 0.65,
            "polarity": "direct",
            "achieved": 0.9991851733888553
          },
          {
            "id": "specrolloff-deltaposz",
            "featureKey": "specRolloff",
            "targetId": "deltaPosZ",
            "strength": 0.65,
            "polarity": "direct",
            "achieved": 0.9991494485959159
          },
          {
            "id": "bandlow-sizedelta",
            "featureKey": "bandLow",
            "targetId": "sizeDelta",
            "strength": 0.65,
            "polarity": "direct",
            "achieved": 0.9991805156378518
          },
          {
            "id": "bandmid-colorr",
            "featureKey": "bandMid",
            "targetId": "colorR",
            "strength": 0.65,
            "polarity": "direct",
            "achieved": 0.9991958082922786
          },
          {
            "id": "bandhigh-colorg",
            "featureKey": "bandHigh",
            "targetId": "colorG",
            "strength": 0.65,
            "polarity": "direct",
            "achieved": 0.9991941187924938
          },
          {
            "id": "peak-colorb",
            "featureKey": "peak",
            "targetId": "colorB",
            "strength": 0.65,
            "polarity": "direct",
            "achieved": 0.9992114053116294
          },
          {
            "id": "zerocrossrate-flickerrate",
            "featureKey": "zeroCrossRate",
            "targetId": "flickerRate",
            "strength": 0.65,
            "polarity": "direct",
            "achieved": 0.9992260230170531
          },
          {
            "id": "tempoproxy-flickerdepth",
            "featureKey": "tempoProxy",
            "targetId": "flickerDepth",
            "strength": 0.65,
            "polarity": "direct",
            "achieved": 0.999227327058277
          },
          {
            "id": "tempoproxy-rotationspeed",
            "featureKey": "tempoProxy",
            "targetId": "rotationSpeed",
            "strength": 0.65,
            "polarity": "direct",
            "achieved": 0.9992223010076465
          },
          {
            "id": "bandlow-wobblestrength",
            "featureKey": "bandLow",
            "targetId": "wobbleStrength",
            "strength": 0.6,
            "polarity": "direct",
            "achieved": 0.9993969795454608
          },
          {
            "id": "bandhigh-wobblefrequency",
            "featureKey": "bandHigh",
            "targetId": "wobbleFrequency",
            "strength": 0.6,
            "polarity": "direct",
            "achieved": 0.9993924337149201
          },
          {
            "id": "speccentroid-colormix",
            "featureKey": "specCentroid",
            "targetId": "colorMix",
            "strength": 0.55,
            "polarity": "direct",
            "achieved": 0.9995444171799263
          },
          {
            "id": "rms-alphascale",
            "featureKey": "rms",
            "targetId": "alphaScale",
            "strength": 0.5,
            "polarity": "direct",
            "achieved": 0.9996958520058261
          },
          {
            "id": "peak-pointscale",
            "featureKey": "peak",
            "targetId": "pointScale",
            "strength": 0.55,
            "polarity": "direct",
            "achieved": 0.9995781238340434
          }
        ]
      }
    }
  },
  "weights": [
    {
      "name": "dense_Dense1/kernel",
      "shape": [
        17,
        32
      ],
      "dtype": "float32",
      "values": [
        -0.01860017701983452,
        -0.0550907626748085,
        -0.03729184716939926,
        -0.005341136362403631,
        -0.003705905517563224,
        -0.014353010803461075,
        -0.08634813129901886,
        -0.006857167463749647,
        0.12166623026132584,
        -0.027763498947024345,
        -0.0157150961458683,
        -0.03619838133454323,
        0.015296179801225662,
        -0.02360435761511326,
        0.06734432280063629,
        0.03478202968835831,
        0.23296594619750977,
        0.02264128252863884,
        -0.10356030613183975,
        -0.010633191093802452,
        0.02880573458969593,
        -0.03257594630122185,
        0.00971084926277399,
        0.10865774005651474,
        -0.05785798653960228,
        0.09106189757585526,
        -0.031990475952625275,
        0.009609485976397991,
        0.006687014829367399,
        -0.11335457116365433,
        -0.028830070048570633,
        -0.058339979499578476,
        -0.14834962785243988,
        -0.10671143978834152,
        -0.05790232867002487,
        -0.1519816517829895,
        0.070595383644104,
        -0.019533369690179825,
        -0.11405307054519653,
        -0.03919010981917381,
        0.14170993864536285,
        -0.08639368414878845,
        -0.10693574696779251,
        -0.05986219272017479,
        -0.07985595613718033,
        -0.05770758166909218,
        0.01542320754379034,
        -0.16498351097106934,
        -0.010153915733098984,
        -0.035266827791929245,
        -0.08542247116565704,
        0.06583165377378464,
        -0.04069092869758606,
        -0.02860172651708126,
        0.01434151828289032,
        -0.07869737595319748,
        0.004191072657704353,
        0.05213196948170662,
        0.10748191177845001,
        -0.1369110345840454,
        -0.09938984364271164,
        0.10806706547737122,
        -0.07936359941959381,
        -0.10973826795816422,
        -0.2363150268793106,
        -0.1994737833738327,
        0.017931373789906502,
        0.019527917727828026,
        0.12337721884250641,
        -0.0025345932226628065,
        -0.07954439520835876,
        -0.07713878899812698,
        -0.019066352397203445,
        0.03303678706288338,
        0.04971522092819214,
        0.026541203260421753,
        0.011180509813129902,
        -0.018130473792552948,
        0.012891944497823715,
        0.014518341980874538,
        -0.1973983645439148,
        -0.021518446505069733,
        0.08850308507680893,
        -0.0927501767873764,
        0.02908530831336975,
        -0.02447795309126377,
        -0.0391957089304924,
        -0.09891491383314133,
        0.16682898998260498,
        -0.051526863127946854,
        -0.15071474015712738,
        -0.020720601081848145,
        -0.052106551826000214,
        0.01648157835006714,
        0.02767362631857395,
        0.014539547264575958,
        0.3619867265224457,
        0.242817685008049,
        -0.35179799795150757,
        0.2142491191625595,
        -0.08784807473421097,
        0.1580527424812317,
        0.26395028829574585,
        0.1557672768831253,
        0.2560555338859558,
        0.2009137123823166,
        -0.09104705601930618,
        0.15791621804237366,
        0.19057133793830872,
        0.11049468070268631,
        0.2134753316640854,
        0.222046360373497,
        -0.2682591676712036,
        0.20108838379383087,
        0.4011634886264801,
        -0.1449817419052124,
        0.1113070547580719,
        0.13921089470386505,
        0.21259255707263947,
        0.3638271391391754,
        -0.39637792110443115,
        0.1786332130432129,
        -0.24512864649295807,
        0.19700422883033752,
        0.1841544806957245,
        -0.32786980271339417,
        0.16587597131729126,
        0.1773175299167633,
        -0.11192812025547028,
        0.2792994976043701,
        0.18425434827804565,
        0.005663794931024313,
        -0.35160988569259644,
        0.22625793516635895,
        0.19950996339321136,
        0.031024420633912086,
        -0.28308433294296265,
        0.1567411869764328,
        -0.12299239635467529,
        0.008977877907454967,
        -0.002977765630930662,
        0.1460195630788803,
        0.1967254877090454,
        0.2748042047023773,
        0.04326103627681732,
        -0.044222258031368256,
        0.10698150098323822,
        0.04365771636366844,
        -0.05535489693284035,
        -0.024319717660546303,
        0.04785094037652016,
        0.05196644738316536,
        0.23826000094413757,
        0.07981226593255997,
        0.02248166874051094,
        -0.058441098779439926,
        0.150443896651268,
        -0.24361900985240936,
        -0.037072326987981796,
        0.31447237730026245,
        0.010781748220324516,
        0.047193337231874466,
        0.07009304314851761,
        -0.12507279217243195,
        -0.08178004622459412,
        -0.020078614354133606,
        0.003637386951595545,
        0.003190432908013463,
        0.09612620621919632,
        -0.04945303127169609,
        0.04871673509478569,
        -0.0299567598849535,
        -0.07754111289978027,
        -0.05418994277715683,
        0.08457905054092407,
        -0.13236013054847717,
        -0.12092503160238266,
        0.004735125694423914,
        0.008701669983565807,
        -0.17582587897777557,
        -0.04690860956907272,
        -0.015098460018634796,
        0.014077152125537395,
        0.022712500765919685,
        -0.17113368213176727,
        0.006585163529962301,
        -0.1116085797548294,
        -0.05696188658475876,
        -0.043278906494379044,
        0.2750656008720398,
        -0.058008525520563126,
        -0.009525254368782043,
        -0.15828454494476318,
        -0.12346754223108292,
        0.27771010994911194,
        0.006716767325997353,
        0.02041599713265896,
        0.06293229758739471,
        0.029731273651123047,
        0.006356686353683472,
        -0.006370013114064932,
        0.1282282918691635,
        0.03695238009095192,
        0.09684637188911438,
        0.04966435208916664,
        0.0027487482875585556,
        -0.048565760254859924,
        0.006676688324660063,
        -0.014277017675340176,
        0.06699489057064056,
        0.25265198945999146,
        -0.337821900844574,
        0.03927011042833328,
        0.03004981018602848,
        0.13079571723937988,
        -0.16766804456710815,
        0.11578373610973358,
        -0.10590105503797531,
        -0.004866188857704401,
        0.00672660768032074,
        -0.015328352339565754,
        -0.13187597692012787,
        0.18253880739212036,
        0.020692581310868263,
        -0.17745761573314667,
        -0.10936938226222992,
        -0.04062230512499809,
        -0.03344251587986946,
        0.11438892036676407,
        -0.05858859047293663,
        -0.13484659790992737,
        0.10479160398244858,
        0.16887050867080688,
        -0.0926285833120346,
        0.009218931198120117,
        0.04687181115150452,
        -0.11757863312959671,
        -0.29222652316093445,
        -0.04036402702331543,
        -0.057771243155002594,
        -0.10394871234893799,
        0.004129727836698294,
        0.17835181951522827,
        -0.0926753506064415,
        -0.024844564497470856,
        -0.017961060628294945,
        0.038792598992586136,
        -0.03359653055667877,
        -0.20341604948043823,
        0.06381083279848099,
        -0.07291421294212341,
        0.06913325935602188,
        -0.23665183782577515,
        0.003642295952886343,
        0.08436200767755508,
        0.2733526825904846,
        0.1826069951057434,
        0.12030861526727676,
        -0.3768628239631653,
        0.19768396019935608,
        0.09424712508916855,
        -0.40082699060440063,
        -0.6617954969406128,
        0.1317128986120224,
        0.223068505525589,
        0.25047972798347473,
        -0.09303339570760727,
        0.1393749713897705,
        -0.47685521841049194,
        0.2669898271560669,
        0.16094337403774261,
        0.2506029009819031,
        -0.054452087730169296,
        -0.4143854081630707,
        0.4379798173904419,
        0.01890021190047264,
        0.25874844193458557,
        -0.37795647978782654,
        -0.06138793006539345,
        -0.37956979870796204,
        -0.05955290421843529,
        0.10327917337417603,
        -0.22252942621707916,
        0.07574144750833511,
        0.23991166055202484,
        0.017613034695386887,
        0.18054601550102234,
        -0.34675338864326477,
        0.03985953703522682,
        0.20069515705108643,
        -0.08627042174339294,
        0.07509838789701462,
        0.05289120972156525,
        0.3855009973049164,
        -0.3174048960208893,
        0.4032917320728302,
        0.054887570440769196,
        -0.10209072381258011,
        -0.1526940017938614,
        0.39181238412857056,
        0.2808513939380646,
        -0.3141918480396271,
        -0.23943158984184265,
        0.23654770851135254,
        0.13957981765270233,
        0.18302303552627563,
        0.17470279335975647,
        -0.2670261263847351,
        0.531005859375,
        0.18884426355361938,
        0.3291914463043213,
        -0.25974544882774353,
        0.14866429567337036,
        0.5835636258125305,
        -0.10421906411647797,
        0.5288263559341431,
        -0.5663530826568604,
        -0.15843172371387482,
        -0.06042435020208359,
        0.052191752940416336,
        0.01566697284579277,
        0.14111560583114624,
        -0.1556212604045868,
        0.2694542109966278,
        -0.10714677721261978,
        0.3068818747997284,
        0.5643374919891357,
        0.21273009479045868,
        0.3123960494995117,
        0.40529295802116394,
        -0.2664150297641754,
        0.2604377865791321,
        -0.2839966118335724,
        -0.3792250156402588,
        -0.017845453694462776,
        -0.3355748951435089,
        0.047556616365909576,
        -0.02135033905506134,
        -0.09126106649637222,
        -0.08359880745410919,
        0.3668752908706665,
        0.09136797487735748,
        -0.2940744161605835,
        0.25271302461624146,
        -0.031903643161058426,
        0.22933761775493622,
        0.11077649891376495,
        -0.2604779601097107,
        0.0760103315114975,
        0.07801944017410278,
        0.4129546582698822,
        0.08237375319004059,
        0.15501774847507477,
        0.016225922852754593,
        0.16788266599178314,
        -0.05091242119669914,
        -0.19594360888004303,
        0.35439205169677734,
        0.1369350552558899,
        0.3007015585899353,
        -0.3199183940887451,
        0.27343666553497314,
        -0.1259899139404297,
        -0.10387223213911057,
        -0.29136648774147034,
        0.42032715678215027,
        0.1488741934299469,
        -0.43573638796806335,
        -0.4107046127319336,
        0.28645336627960205,
        0.11229753494262695,
        -0.477764368057251,
        0.6092999577522278,
        0.25894641876220703,
        0.5042541027069092,
        0.29989686608314514,
        -0.23134374618530273,
        -0.016080183908343315,
        0.20009534060955048,
        0.562593936920166,
        0.7732300758361816,
        0.2973266541957855,
        -0.018480822443962097,
        0.08705358952283859,
        0.25499147176742554,
        -0.18441873788833618,
        0.14265070855617523,
        0.3480326235294342,
        0.009454089216887951,
        -0.21486572921276093,
        0.5965631604194641,
        -0.11612812429666519,
        0.1282178908586502,
        0.020590340718626976,
        -0.2460527867078781,
        0.3287448585033417,
        -0.2425353080034256,
        -0.13692410290241241,
        0.19253602623939514,
        0.3997119069099426,
        -0.1188734844326973,
        -0.3088529706001282,
        -0.028551867231726646,
        -0.12403225898742676,
        -0.17913852632045746,
        0.36378049850463867,
        0.6455683708190918,
        0.037667907774448395,
        -0.13488388061523438,
        -0.1289398968219757,
        -0.04571204632520676,
        0.2561141550540924,
        0.15144503116607666,
        -0.1161847710609436,
        -0.30127832293510437,
        0.027496449649333954,
        0.07729575783014297,
        0.009389469400048256,
        -0.00038231341750361025,
        -0.11735890805721283,
        -0.2067987620830536,
        0.48208087682724,
        0.3056482672691345,
        0.3496420383453369,
        0.25716838240623474,
        -0.12224681675434113,
        -0.25047457218170166,
        -0.8359655737876892,
        0.042415715754032135,
        -0.0680612102150917,
        -0.16959376633167267,
        0.5245991945266724,
        -0.161044180393219,
        -0.4332641363143921,
        0.27480971813201904,
        -0.08934984356164932,
        0.058501020073890686,
        0.014123285189270973,
        -0.20274992287158966,
        0.180169478058815,
        -0.08252079039812088,
        -0.568945586681366,
        -0.41921719908714294,
        0.04387044906616211,
        -0.17474156618118286,
        -0.21889404952526093,
        0.06213102489709854,
        -0.25054436922073364,
        -0.3086538016796112,
        -0.2118355631828308,
        -0.18860328197479248,
        -0.3305724561214447,
        0.09517352283000946,
        0.234820157289505,
        -0.041956689208745956,
        0.20537219941616058,
        0.2386869192123413,
        0.20478986203670502,
        0.2583933174610138,
        0.4405767023563385,
        0.5595671534538269,
        0.1858169138431549,
        0.047702256590127945,
        -0.28477874398231506,
        -0.21182683110237122,
        -0.35532835125923157,
        0.09524494409561157,
        -0.15624253451824188,
        -0.5050801038742065,
        -0.22001443803310394,
        -0.1162654459476471,
        0.025070173665881157,
        0.11497204005718231,
        0.2596528232097626,
        0.15730781853199005,
        0.5244347453117371,
        0.19206668436527252,
        -0.28404945135116577,
        0.2771409749984741,
        0.27969399094581604,
        -0.2688419818878174,
        0.2880443036556244,
        0.25649312138557434,
        -0.2829350531101227,
        0.021979205310344696,
        -0.13604314625263214,
        0.19629208743572235,
        -0.18352296948432922,
        0.06845064461231232,
        -0.16283608973026276,
        0.10494710505008698,
        -0.08661172538995743,
        0.31184884905815125,
        -0.2837776839733124,
        -0.22108995914459229,
        0.13955476880073547,
        -0.17396180331707,
        0.10473058372735977,
        0.49493908882141113,
        0.037254832684993744,
        0.23527033627033234,
        0.005018020514398813,
        -0.006640580948442221,
        0.05634881556034088,
        0.1203785315155983,
        0.3092404305934906,
        0.06388160586357117,
        -0.015442256815731525,
        0.6834306120872498,
        -0.051026009023189545,
        -0.08982981741428375,
        0.16803279519081116,
        0.11361946910619736,
        -0.27890440821647644,
        -0.031948529183864594,
        -0.23956559598445892,
        -0.308251291513443,
        -0.5463815927505493,
        0.32501888275146484,
        0.8700530529022217,
        -0.31978416442871094,
        0.43265047669410706,
        -0.08450020104646683,
        0.1482125073671341,
        0.3152481019496918,
        0.23305775225162506,
        -0.03872411698102951,
        0.3154827952384949,
        -0.15839877724647522,
        0.25832459330558777,
        0.198808491230011,
        -0.22245457768440247,
        0.10777527838945389,
        0.35985347628593445,
        -0.18018560111522675,
        0.0959319919347763,
        -0.15341100096702576,
        0.2455584853887558,
        -0.13871823251247406,
        -0.27739033102989197,
        -0.1252835988998413,
        -0.055299654603004456,
        0.11014766991138458,
        0.07899530231952667
      ]
    },
    {
      "name": "dense_Dense1/bias",
      "shape": [
        32
      ],
      "dtype": "float32",
      "values": [
        0.10850049555301666,
        0.16241872310638428,
        -0.07468249648809433,
        0.41694867610931396,
        -0.09259399771690369,
        0.27501213550567627,
        0.051116496324539185,
        -0.4258909821510315,
        0.13705620169639587,
        -0.115987129509449,
        -0.00715775229036808,
        0.24046370387077332,
        0.3625001311302185,
        0.44349944591522217,
        0.17968551814556122,
        0.20498330891132355,
        -0.023930251598358154,
        0.7097077965736389,
        -0.16065901517868042,
        0.0821070522069931,
        -0.05390244722366333,
        -0.005593970883637667,
        0.03262440860271454,
        -0.11183089017868042,
        -0.09853853285312653,
        -0.10132530331611633,
        -0.04618755355477333,
        -0.17169879376888275,
        -0.02923867106437683,
        -0.07299146801233292,
        0.11001239717006683,
        -0.013683879747986794
      ]
    },
    {
      "name": "dense_Dense2/kernel",
      "shape": [
        32,
        15
      ],
      "dtype": "float32",
      "values": [
        -0.015601101331412792,
        -0.025095105171203613,
        -0.13694483041763306,
        -0.12245684117078781,
        -0.07683132588863373,
        0.10080783069133759,
        -0.0945805013179779,
        -0.1374686062335968,
        0.00016553906607441604,
        -0.01723259687423706,
        0.011892841197550297,
        -0.16792529821395874,
        -0.17900480329990387,
        0.2372525930404663,
        0.01376503799110651,
        0.29389292001724243,
        0.19723674654960632,
        -0.0029329711105674505,
        -0.23078346252441406,
        -0.16118007898330688,
        -0.2439979761838913,
        -0.08133655786514282,
        0.07508622854948044,
        -0.2924990952014923,
        -0.25517913699150085,
        -0.21849147975444794,
        0.025734325870871544,
        0.23229169845581055,
        -0.0031657053623348475,
        -0.20588050782680511,
        0.13476260006427765,
        0.25863099098205566,
        -0.21358273923397064,
        -0.013460547663271427,
        0.07744067907333374,
        -0.22236835956573486,
        -0.23299776017665863,
        -0.18447935581207275,
        0.012774835340678692,
        0.0034187801647931337,
        -0.14461614191532135,
        -0.1343754529953003,
        -0.0618012361228466,
        -0.28708767890930176,
        0.06810829043388367,
        0.22086207568645477,
        0.02094484493136406,
        0.34456026554107666,
        -0.07766421139240265,
        0.02918068692088127,
        -0.2338021844625473,
        -0.27569323778152466,
        -0.30765706300735474,
        -0.2886047959327698,
        -0.3525891602039337,
        -0.12836262583732605,
        -0.045519374310970306,
        -0.29765215516090393,
        -0.04670548439025879,
        -0.25251293182373047,
        -0.2495259940624237,
        -0.0758071094751358,
        -0.18752962350845337,
        0.1937027871608734,
        0.12147212028503418,
        0.10211531817913055,
        0.2660064995288849,
        -0.23096700012683868,
        -0.0459134466946125,
        -0.1512404829263687,
        -0.0019658126402646303,
        -0.2568085491657257,
        -0.01945170760154724,
        0.2943993806838989,
        -0.2419736236333847,
        -0.26343685388565063,
        0.14872372150421143,
        0.16770027577877045,
        0.13341401517391205,
        -0.360549658536911,
        0.3421461582183838,
        0.027781162410974503,
        -0.3166029751300812,
        -0.48754361271858215,
        -0.5184448957443237,
        0.2296624779701233,
        0.31252914667129517,
        0.09250172227621078,
        -0.253439724445343,
        0.1422317624092102,
        -0.3848334848880768,
        -0.27406561374664307,
        0.23030881583690643,
        -0.24726101756095886,
        0.3754398226737976,
        0.14904211461544037,
        0.09016773849725723,
        0.19687744975090027,
        0.015751641243696213,
        0.21404464542865753,
        -0.1932523250579834,
        -0.04609489068388939,
        0.048986777663230896,
        -0.2822323143482208,
        -0.0495021790266037,
        0.2942945957183838,
        0.4152252674102783,
        0.31571176648139954,
        0.2678983509540558,
        -0.018207915127277374,
        0.3194980025291443,
        0.09885121136903763,
        -0.21283482015132904,
        0.6652970910072327,
        0.4666500687599182,
        0.15136313438415527,
        0.4022212326526642,
        -0.05430489405989647,
        0.1197960376739502,
        0.24791765213012695,
        -0.026960719376802444,
        -0.0406591072678566,
        0.1397654265165329,
        -0.17123667895793915,
        0.18057207763195038,
        0.18959231674671173,
        0.19951458275318146,
        0.005746012553572655,
        -0.16915100812911987,
        -0.23282437026500702,
        -0.36210140585899353,
        0.0036703068763017654,
        -0.20056317746639252,
        0.0496319904923439,
        0.03399960696697235,
        0.2618500590324402,
        -0.1175806000828743,
        0.2474527806043625,
        0.0164790078997612,
        0.135104700922966,
        -0.13156093657016754,
        0.41905543208122253,
        -0.2434960901737213,
        -0.048193641006946564,
        0.3999671936035156,
        -0.09415174275636673,
        -0.16076847910881042,
        -0.02787853218615055,
        -0.029955457895994186,
        0.010650747455656528,
        -0.010191569104790688,
        -0.08026761561632156,
        -0.10153242945671082,
        0.003814622526988387,
        0.03957423195242882,
        -0.16689352691173553,
        -0.07023869454860687,
        0.11182480305433273,
        0.048530299216508865,
        -0.1275569647550583,
        -0.17714746296405792,
        -0.002397282514721155,
        0.014258651062846184,
        -0.04236932843923569,
        0.16172869503498077,
        0.054766882210969925,
        0.12433704733848572,
        0.1405491828918457,
        -0.15970757603645325,
        0.24538642168045044,
        -0.4748730957508087,
        -0.027635488659143448,
        -0.16177873313426971,
        -0.024699555709958076,
        0.016245605424046516,
        -0.12126561999320984,
        -0.37243396043777466,
        0.24017392098903656,
        0.03769209608435631,
        0.34257060289382935,
        -0.3248627483844757,
        0.09597727656364441,
        -0.39633908867836,
        -0.386089563369751,
        -0.16366387903690338,
        -0.13497868180274963,
        0.20867840945720673,
        0.18109571933746338,
        0.0005472740158438683,
        0.08383346349000931,
        -0.10729159414768219,
        -0.07176803052425385,
        -0.26429861783981323,
        -0.272944837808609,
        0.22854211926460266,
        -0.0388956293463707,
        -0.47820720076560974,
        -0.6290387511253357,
        0.2813967168331146,
        -0.27556297183036804,
        -0.061787474900484085,
        0.023103361949324608,
        -0.5237385630607605,
        0.04925820603966713,
        0.1296561062335968,
        0.12782837450504303,
        -0.19617868959903717,
        -0.1287604123353958,
        0.09534163028001785,
        0.01546702440828085,
        0.12954893708229065,
        -0.02959463745355606,
        -0.15776211023330688,
        -0.19741563498973846,
        0.0008521937998011708,
        -0.2317122370004654,
        -0.07388249039649963,
        -0.39038771390914917,
        0.11455737799406052,
        -0.12487930059432983,
        0.25782904028892517,
        -0.07183034718036652,
        -0.23278027772903442,
        0.012693616561591625,
        -0.17119047045707703,
        0.059776969254016876,
        0.03994422033429146,
        -0.20766542851924896,
        -0.3890608549118042,
        0.22540144622325897,
        0.300287127494812,
        -0.20610018074512482,
        0.13003501296043396,
        0.16845902800559998,
        0.10010924935340881,
        -0.38835224509239197,
        0.19920656085014343,
        0.16742675006389618,
        0.09508951753377914,
        -0.18448927998542786,
        0.048443615436553955,
        0.027161218225955963,
        -0.15583638846874237,
        -0.042489007115364075,
        -0.28190046548843384,
        0.10091231763362885,
        0.05384523794054985,
        0.05351768434047699,
        0.06838224083185196,
        -0.09821123629808426,
        0.04368261620402336,
        0.0538029707968235,
        0.1641467809677124,
        0.22305841743946075,
        0.15346454083919525,
        -0.45005184412002563,
        -0.13870033621788025,
        -0.24510830640792847,
        -0.10222159326076508,
        -0.5987169146537781,
        -0.3934459686279297,
        -0.39602234959602356,
        -0.06049458310008049,
        -0.011554849334061146,
        -0.016300801187753677,
        -0.2109086662530899,
        -0.4183206558227539,
        -0.03863769769668579,
        -0.5394951105117798,
        -0.5269128084182739,
        0.33900102972984314,
        -0.022280264645814896,
        -0.2526510953903198,
        0.03593448922038078,
        -0.19896653294563293,
        0.19797593355178833,
        -0.10917188972234726,
        0.33882179856300354,
        0.002292496617883444,
        0.11405970901250839,
        0.022809134796261787,
        0.2643476128578186,
        0.1511005163192749,
        0.15858927369117737,
        -0.0040365420281887054,
        -0.11045441776514053,
        -0.16135431826114655,
        -0.17155976593494415,
        -0.149724543094635,
        -0.26237985491752625,
        -0.011579611338675022,
        0.08920469880104065,
        -0.19838055968284607,
        -0.17998658120632172,
        -0.26067885756492615,
        -0.3257085978984833,
        0.013551346957683563,
        -0.16987758874893188,
        0.21206536889076233,
        -0.2276635468006134,
        -0.04481707140803337,
        0.4108946621417999,
        0.19203205406665802,
        0.3381369113922119,
        -0.004701074678450823,
        0.10012747347354889,
        -0.5488225817680359,
        0.19983357191085815,
        0.026940615847706795,
        0.11097916960716248,
        0.3767114579677582,
        -0.13796141743659973,
        0.27096399664878845,
        0.2815673053264618,
        -0.296480268239975,
        -0.21971569955348969,
        0.06516896188259125,
        -0.0383102148771286,
        0.3058166801929474,
        0.2713984251022339,
        -0.11411961913108826,
        -0.05075124278664589,
        -0.059266187250614166,
        0.45904454588890076,
        0.028260761871933937,
        0.497004896402359,
        0.3022553324699402,
        0.04418819770216942,
        -0.32805776596069336,
        -0.2953748404979706,
        -0.027342040091753006,
        0.16750814020633698,
        -0.2587023079395294,
        0.24201293289661407,
        0.5351037383079529,
        -0.0858927071094513,
        -0.22227132320404053,
        -0.05238839611411095,
        -0.13240262866020203,
        -0.038337111473083496,
        0.12421737611293793,
        -0.11136095970869064,
        0.01737215369939804,
        0.14238861203193665,
        0.008012608624994755,
        -0.13541018962860107,
        -0.24642236530780792,
        0.09231390804052353,
        0.3583090305328369,
        -0.0415673553943634,
        0.13702620565891266,
        -0.13188403844833374,
        -0.05507242679595947,
        0.045546505600214005,
        0.26157981157302856,
        0.14642333984375,
        0.29860395193099976,
        0.1379144787788391,
        -0.08964702486991882,
        0.2208370417356491,
        -0.24807819724082947,
        -0.031061606481671333,
        -0.13238565623760223,
        0.11473329365253448,
        -0.15922735631465912,
        -0.06894008815288544,
        -0.04392479732632637,
        0.041545771062374115,
        0.1583574116230011,
        -0.40767282247543335,
        0.015162823721766472,
        -0.20258334279060364,
        0.12470307946205139,
        -0.13418935239315033,
        0.12599997222423553,
        0.15997196733951569,
        0.12901102006435394,
        0.15845084190368652,
        -0.09974762797355652,
        -0.12899483740329742,
        -0.22620955109596252,
        0.27550339698791504,
        0.36585190892219543,
        0.16133654117584229,
        0.19145946204662323,
        -0.036268461495637894,
        -0.24844494462013245,
        0.3732024133205414,
        0.11644488573074341,
        0.03998576104640961,
        -0.23146095871925354,
        -0.11023665964603424,
        0.2552095949649811,
        0.23537474870681763,
        -0.12594445049762726,
        -0.05606899783015251,
        0.18899215757846832,
        -0.06879101693630219,
        0.023071497678756714,
        -0.07055072486400604,
        0.1521064043045044,
        -0.353963702917099,
        -0.05876702442765236,
        -0.09044346958398819,
        -0.04101050645112991,
        0.02797827683389187,
        0.31518012285232544,
        -0.2343902736902237,
        0.2526285946369171,
        0.20466218888759613,
        0.1040738970041275,
        0.7138030529022217,
        -0.003899390809237957,
        -0.2266581952571869,
        -0.16849996149539948,
        0.1912628710269928,
        0.1057373434305191,
        0.5634697675704956,
        -0.13523823022842407,
        0.2286006659269333,
        0.22911196947097778,
        -0.38614803552627563,
        0.18492534756660461,
        0.3089723289012909,
        0.06353800743818283,
        -0.08712136000394821,
        0.11548350006341934,
        0.6663734316825867,
        -0.008216957561671734,
        -0.242277130484581,
        0.37323105335235596,
        -0.007449802942574024,
        -0.6299867033958435,
        0.09655901789665222,
        0.15150871872901917,
        0.04740161821246147,
        0.12273012101650238,
        -0.05910441651940346,
        0.23251470923423767,
        -0.21681760251522064,
        -0.19767366349697113,
        -0.02075553871691227,
        0.028422420844435692,
        -0.091219462454319,
        -0.3346371352672577,
        -0.30092453956604004,
        0.08831014484167099,
        -0.2364693135023117,
        0.3709868788719177,
        -0.0612763911485672,
        0.030979003757238388,
        -0.28983497619628906,
        0.36813127994537354,
        -0.18196985125541687,
        -0.3519783616065979,
        -0.00267556170001626,
        0.09771954268217087,
        -0.10148023068904877,
        0.1583593785762787,
        -0.21348093450069427,
        0.0019844770431518555,
        0.08215174078941345,
        -0.11335289478302002,
        0.26361027359962463,
        0.06538740545511246,
        -0.45704948902130127,
        0.3306909501552582,
        0.19195543229579926,
        0.2331029623746872,
        0.08273116499185562,
        0.041972845792770386,
        0.09696311503648758,
        0.01879209466278553,
        0.15996776521205902,
        -0.10918928682804108,
        -0.12330327183008194,
        -0.3450329005718231,
        -0.2047671675682068,
        0.17792358994483948,
        0.15343832969665527
      ]
    },
    {
      "name": "dense_Dense2/bias",
      "shape": [
        15
      ],
      "dtype": "float32",
      "values": [
        -0.13381311297416687,
        -0.28746041655540466,
        -0.1851474493741989,
        -0.14671923220157623,
        -0.11000892519950867,
        -0.09501415491104126,
        -0.17252589762210846,
        -0.20209600031375885,
        -0.19685965776443481,
        -0.13131926953792572,
        -0.2388177514076233,
        -0.02227581851184368,
        -0.19967372715473175,
        -0.008682873100042343,
        -0.06206056848168373
      ]
    }
  ]
}